\data\
ngram 1=6991
ngram 2=27593
ngram 3=43988

\1-grams:
-4.4637175	<unk>	0
0	<s>	-0.79242647
-2.0458496	</s>	0
-4.3265185	CARTA	-0.10400517
-3.1336367	DE	-0.16549413
-4.3265185	TARAPOTO	-0.10400517
-1.8757964	la	-0.30139005
-4.3265185	Panamazonía	-0.10400517
-2.4900234	está	-0.18029433
-4.3265185	formada	-0.10400517
-2.120062	por	-0.4599043
-3.717803	territorios	-0.14707464
-4.1881948	históricamente	-0.10400517
-4.3265185	construidos	-0.10400517
-4.1881948	Naturaleza	-0.15277153
-1.7398492	y	-0.31327417
-2.2173436	los	-0.28707328
-3.8089087	pueblos	-0.17180201
-4.3265185	originarios	-0.10400517
-1.1947229	,	-0.5704127
-3.717803	comunidades	-0.18420668
-3.717803	locales	-0.16469422
-4.3265185	ribereñas	-0.10400517
-4.1881948	campesinas	-0.17032477
-3.351445	otras	-0.18999878
-3.9243426	quienes	-0.10400517
-3.317457	hemos	-0.15277153
-4.3265185	fecundado	-0.10400517
-3.2031446	nuestros	-0.26463214
-4.3265185	sentidos	-0.10400517
-1.4981539	de	-0.45141965
-3.642535	vida	-0.2193111
-1.6756637	en	-0.69485617
-3.3883204	estas	-0.10400521
-4.3265185	realidades	-0.10400517
-3.1127374	e	-0.11247414
-4.3265185	imaginarios	-0.10400517
-1.2057039	.	-0.9418519
-2.3394492	un	-0.2675344
-4.1881948	sentido	-0.10400517
-4.3265185	territorialidad	-0.10400517
-4.0820265	basado	-0.17032477
-4.1881948	relaciones	-0.10400517
-3.8089087	respeto	-0.28141767
-4.1881948	integración	-0.10400517
-2.1921284	con	-0.476427
-1.8902228	el	-0.31829023
-3.9243426	tejido	-0.14257035
-4.3265185	amazónico	-0.10400517
-3.4730449	todas	-0.5018079
-2.7141988	sus	-0.18494658
-4.3265185	dimensiones	-0.10400517
-2.4102623	no	-0.32664144
-3.9243426	sólo	-0.10400517
-4.1881948	material	-0.10400517
-4.0820265	sino	-0.198547
-4.3265185	espiritual	-0.10400517
-4.0820265	cultural	-0.10400517
-3.178718	uso	-0.27208817
-2.1435103	;	-0.61309534
-3.4730449	ellas	-0.12111156
-4.1881948	disputa	-0.10400517
-4.3265185	histórica	-0.10400517
-3.229027	desde	-0.23981975
-4.3265185	violenta	-0.10400517
-4.1881948	llegada	-0.2077147
-4.1881948	sociedades	-0.2077147
-4.3265185	visiones	-0.10400517
-4.3265185	colonialistas	-0.10400517
-4.3265185	expoliadoras	-0.10400517
-4.3265185	mercantilistas	-0.10400517
-2.881079	esta	-0.14798671
-2.1659846	se	-0.2538883
-4.3265185	enmarca	-0.10400517
-3.2859368	dentro	-0.48514083
-2.0270226	del	-0.38154867
-4.3265185	despliegue	-0.10400517
-3.8089087	sistema	-0.13119791
-4.1881948	capitalista	-0.10400517
-4.1881948	modelo	-0.10400517
-3.8089087	desarrollo	-0.16484785
-4.3265185	depredador	-0.10400517
-4.3265185	patriarcal	-0.10400517
-4.3265185	racista	-0.10400517
-4.3265185	instaurado	-0.10400517
-4.1881948	imposición	-0.10400517
-4.3265185	colonialismo	-0.10400517
-4.3265185	generador	-0.10400517
-4.3265185	desigualdades	-0.10400517
-4.0820265	formas	-0.17032477
-2.8692718	este	-0.19681016
-3.8089087	acompañado	-0.3517653
-4.3265185	diversos	-0.10400517
-4.3265185	fundamentalismos	-0.10400517
-4.3265185	incidiendo	-0.10400517
-4.3265185	retroceso	-0.10400517
-4.1881948	vigencia	-0.2077147
-3.2565506	derechos	-0.3043572
-4.3265185	especialmente	-0.10400517
-4.3265185	alcanzados	-0.10400517
-2.332625	las	-0.29168206
-3.9243426	mujeres	-0.12627375
-2.931806	muy	-0.20229574
-1.7179312	a	-0.47822392
-4.3265185	pesar	-0.10400517
-3.9243426	ello	-0.13590024
-4.0820265	amazónicos	-0.31956726
-4.3265185	andinos	-0.10400517
-4.3265185	resistimos	-0.10400517
-4.3265185	pervivimos	-0.10400517
-4.3265185	indeclinable	-0.10400517
-4.1881948	compromiso	-0.10400517
-4.3265185	defender	-0.10400517
-3.4730449	eso	-0.1581553
-4.1881948	nueve	-0.10400517
-4.0820265	países	-0.17032477
-4.0820265	cuenca	-0.15294659
-4.1881948	amazónica	-0.17032477
-4.1881948	tomando	-0.10400517
-4.3265185	posta	-0.10400517
-4.3265185	Macapá	-0.10400517
-4.1881948	reunidos	-0.2077147
-4.3265185	Tarapoto-Perú	-0.10400517
-4.3265185	junto	-0.10400517
-4.0820265	hermanas	-0.10400517
-3.9243426	hermanos	-0.1277042
-4.3265185	latitudes	-0.10400517
-4.3265185	acudimos	-0.10400517
-2.2468832	al	-0.23799808
-3.351445	llamado	-0.11437874
-4.3265185	Amazonía	-0.10400517
-4.3265185	convocados	-0.10400517
-4.1881948	VIII	-0.10400517
-4.0820265	Foro	-0.17032477
-4.3265185	Social	-0.10400517
-4.3265185	Panamazónico	-0.10400517
-4.3265185	civilizatorio	-0.10400517
-4.1881948	expresa	-0.10400517
-4.1881948	actualmente	-0.10400517
-4.1881948	extractivista	-0.2077147
-3.317457	“	-0.14749938
-4.3265185	economía	-0.10400517
-3.717803	verde	-0.13590024
-2.6752467	”	-0.4606862
-2.2876415	es	-0.3805584
-4.3265185	implementado	-0.10400517
-4.3265185	través	-0.10400517
-3.9243426	empresas	-0.10400517
-4.3265185	transnacionales	-0.10400517
-4.0820265	nacionales	-0.10400517
-4.3265185	amparados	-0.10400517
-4.3265185	Estados	-0.10400517
-1.8664384	que	-0.33211905
-4.0820265	dejan	-0.10400517
-3.642535	lado	-0.18420668
-2.1568549	su	-0.30497944
-4.3265185	papel	-0.10400517
-4.3265185	garante	-0.10400517
-4.3265185	poniendo	-0.10400517
-4.3265185	serio	-0.10400517
-4.0820265	peligro	-0.10400517
-3.9243426	sostenibilidad	-0.13590024
-4.1881948	soberanía	-0.17032477
-4.3265185	alimentaria	-0.10400517
-4.3265185	aumentando	-0.10400517
-3.229027	nuestra	-0.14486201
-4.1881948	vulnerabilidad	-0.10400517
-3.8089087	frente	-0.198547
-4.0820265	impactos	-0.15277153
-3.8089087	cambio	-0.14870852
-4.3265185	climático	-0.10400517
-4.3265185	provocando	-0.10400517
-3.9243426	graves	-0.10400517
-4.3265185	cambios	-0.10400517
-4.1881948	socioculturales	-0.10400517
-4.3265185	escenario	-0.10400517
-4.3265185	limita	-0.10400517
-3.5225377	cada	-0.19228911
-3.4730449	vez	-0.14800757
-2.8356621	más	-0.20031248
-4.3265185	autodeterminación	-0.10400517
-2.8146188	son	-0.17695485
-4.0820265	menos	-0.10400517
-4.1881948	reconocidos	-0.10400517
-4.3265185	violentados	-0.10400517
-4.0820265	tal	-0.10400517
-2.5416112	como	-0.22450668
-3.4730449	viene	-0.21325785
-4.3265185	sucediendo	-0.10400517
-4.3265185	consulta	-0.10400517
-3.9243426	previa	-0.10400517
-3.9243426	libre	-0.14257035
-4.3265185	informada	-0.10400517
-4.1881948	cuya	-0.10400517
-4.1881948	aplicación	-0.10400517
-4.3265185	convirtiendo	-0.10400517
-3.8089087	procedimiento	-0.13119791
-4.0820265	administrativo	-0.10400517
-2.3678713	cuando	-0.2568061
-3.9243426	sabemos	-0.122859806
-3.178718	debe	-0.15505192
-4.3265185	basarse	-0.10400517
-4.0820265	estándares	-0.15277153
-3.8089087	ambientales	-0.14257035
-4.3265185	diálogo	-0.10400517
-4.0820265	intercultural	-0.17032477
-4.1881948	además	-0.10400517
-4.3265185	poderes	-0.10400517
-4.3265185	legislativos	-0.10400517
-4.3265185	aprueban	-0.10400517
-3.8089087	leyes	-0.14257035
-4.3265185	atentan	-0.10400517
-3.578405	contra	-0.2021909
-4.3265185	espiritualidad	-0.10400517
-3.717803	especial	-0.10400517
-3.4286199	derecho	-0.23588395
-4.1881948	autonomía	-0.10400517
-3.8089087	cuerpos	-0.22020236
-4.3265185	continuamos	-0.10400517
-4.3265185	resistiendo	-0.10400517
-4.3265185	movilizándonos	-0.10400517
-1.8746156	para	-0.36904907
-4.1881948	transformar	-0.10400517
-4.3265185	cuestionando	-0.10400517
-4.3265185	afirmando	-0.10400517
-4.0820265	nuevos	-0.17032477
-4.3265185	paradigmas	-0.10400517
-4.3265185	basados	-0.10400517
-4.0820265	propuestas	-0.10400517
-4.1881948	Vida	-0.2077147
-4.3265185	Plena	-0.10400517
-4.1881948	Buen	-0.2077147
-4.1881948	Vivir	-0.10400517
-4.1881948	Bien	-0.17032477
-4.3265185	autogobierno	-0.10400517
-3.8089087	territorial	-0.14257035
-4.3265185	respuesta	-0.10400517
-4.3265185	criminalización	-0.10400517
-4.3265185	protesta	-0.10400517
-3.8089087	social	-0.10400517
-4.3265185	debilitar	-0.10400517
-3.8089087	organizaciones	-0.14870852
-4.0820265	indígenas	-0.10400517
-4.1881948	movimientos	-0.2077147
-4.0820265	sociales	-0.15277153
-4.0820265	instituciones	-0.10400517
-4.3265185	sociedad	-0.10400517
-4.0820265	civil	-0.15277153
-4.3265185	profundizar	-0.10400517
-4.0820265	alianza	-0.10400517
-4.3265185	petroleras	-0.10400517
-4.3265185	mineras	-0.10400517
-4.3265185	madereras	-0.10400517
-4.3265185	agroindustriales	-0.10400517
-4.1881948	megaproyectos	-0.10400517
-4.3265185	hidroeléctricos	-0.10400517
-3.717803	ante	-0.17032477
-4.3265185	contexto	-0.10400517
-4.3265185	plantea	-0.10400517
-4.0820265	fortalecer	-0.15277153
-4.1881948	articulación	-0.2077147
-4.3265185	movilización	-0.10400517
-4.1881948	basada	-0.2077147
-4.1881948	territorio	-0.10400517
-2.3063529	lo	-0.25709882
-3.4730449	tanto	-0.10400521
-4.3265185	recogidas	-0.10400517
-4.3265185	presentan	-0.10400517
-4.3265185	continuación	-0.10400517
-2.3292527	:	-1.0363004
-3.0737338	–	-0.15498322
-4.3265185	Construir	-0.10400517
-4.1881948	partir	-0.10400517
-4.3265185	Autogobiernos	-0.10400517
-4.1881948	territoriales	-0.10400517
-4.3265185	etc.	-0.10400517
-4.1881948	levantan	-0.10400517
-3.2565506	entre	-0.2349625
-3.2031446	otros	-0.19078471
-4.3265185	Exigir	-0.10400517
-3.9243426	políticas	-0.17032477
-3.642535	normas	-0.15748887
-4.3265185	adecuen	-0.10400517
-4.1881948	internacionales	-0.10400517
-2.931806	sobre	-0.27938852
-4.3265185	Denunciar	-0.10400517
-3.8089087	luchar	-0.21659763
-4.3265185	corrupción	-0.10400517
-4.0820265	relacionada	-0.31956726
-3.8089087	infraestructura	-0.19962186
-4.1881948	explotación	-0.10400517
-4.3265185	Ande	-0.10400517
-4.3265185	Fortalecer	-0.10400517
-4.3265185	unidad	-0.10400517
-3.9243426	amazónicas	-0.22020236
-4.3265185	andinas	-0.10400517
-4.3265185	afroamazónicos	-0.10400517
-4.3265185	LGTBIQ	-0.10400517
-4.3265185	académicos	-0.10400517
-3.642535	jóvenes	-0.17291327
-4.1881948	adolescentes	-0.10400517
-4.1881948	niñas	-0.10400517
-3.4730449	niños	-0.18370037
-4.1881948	reconocimiento	-0.17032477
-4.3265185	colectivos	-0.10400517
-4.3265185	comunales	-0.10400517
-4.1881948	integrales	-0.10400517
-4.1881948	diversidad	-0.10400517
-4.3265185	escenarios	-0.10400517
-4.0820265	existen	-0.10400517
-4.1881948	valorando	-0.10400517
-4.1881948	saberes	-0.10400517
-4.1881948	conocimientos	-0.10400517
-4.0820265	prácticas	-0.17032477
-4.3265185	Reconocer	-0.10400517
-4.3265185	identidades	-0.10400517
-4.3265185	Amazónicas	-0.10400517
-4.3265185	Andinas	-0.10400517
-4.3265185	producto	-0.10400517
-4.0820265	rico	-0.10400517
-4.3265185	complejo	-0.10400517
-4.1881948	intercambio	-0.10400517
-3.178718	ha	-0.17227991
-4.1881948	dado	-0.10400517
-3.3883204	lugar	-0.17520992
-4.1881948	fortalecimiento	-0.10400517
-4.3265185	culturas	-0.10400517
-4.3265185	detenga	-0.10400517
-3.8089087	implementación	-0.13119791
-4.3265185	falsas	-0.10400517
-4.3265185	soluciones	-0.10400517
-4.3265185	crisis	-0.10400517
-4.3265185	climática	-0.10400517
-3.642535	llamada	-0.10400517
-4.3265185	financiarización	-0.10400517
-4.1881948	cuales	-0.1277042
-4.3265185	conllevan	-0.10400517
-4.3265185	desterritorialización	-0.10400517
-4.1881948	negativos	-0.10400517
-4.1881948	Exigimos	-0.10400517
-4.3265185	ordenamiento	-0.10400517
-4.1881948	base	-0.10400517
-4.3265185	cosmovisión	-0.10400517
-3.642535	fuentes	-0.23526336
-2.9892519	agua	-0.2856837
-4.3265185	entender	-0.10400517
-3.3883204	nuestro	-0.1333619
-4.1881948	garanticen	-0.10400517
-4.3265185	comunicación	-0.10400517
-4.3265185	democratizando	-0.10400517
-4.3265185	manera	-0.10400517
-4.0820265	efectiva	-0.10400517
-4.1881948	medios	-0.10400517
-4.0820265	tecnologías	-0.10400517
-3.717803	fin	-0.14707464
-2.95958	todo	-0.372897
-4.0820265	tipo	-0.17032477
-4.3265185	violencia	-0.10400517
-4.0820265	fuera	-0.10400517
-4.3265185	defensoras	-0.10400517
-4.3265185	Las	-0.10400517
-4.0820265	exigimos	-0.17032477
-4.3265185	aparten	-0.10400517
-4.3265185	preceptos	-0.10400517
-4.1881948	religiosos	-0.10400517
-4.0820265	hora	-0.17032477
-4.0820265	aprobar	-0.16020766
-4.3265185	decidir	-0.10400517
-3.8089087	públicas	-0.15277153
-4.3265185	afectan	-0.10400517
-4.3265185	rijan	-0.10400517
-4.3265185	humanos	-0.10400517
-4.3265185	laicidad	-0.10400517
-3.717803	El	-0.10400517
-4.3265185	adopta	-0.10400517
-4.3265185	suyo	-0.10400517
-3.9243426	Tribunal	-0.22020236
-4.3265185	Justicia	-0.10400517
-4.1881948	Derechos	-0.2077147
-4.3265185	Mujeres	-0.10400517
-4.3265185	Panamazónicas-Andinas	-0.10400517
-4.3265185	reconozca	-0.10400517
-4.3265185	valore	-0.10400517
-3.5225377	trabajo	-0.23469187
-3.8089087	hacemos	-0.122859806
-4.1881948	hogares	-0.10400517
-4.3265185	aportando	-0.10400517
-4.3265185	Producto	-0.10400517
-4.3265185	Bruto	-0.10400517
-4.3265185	Interno	-0.10400517
-2.660594	(	-0.1584368
-4.3265185	PBI	-0.10400517
-2.6064773	)	-0.38990286
-4.3265185	Nos	-0.10400517
-4.3265185	solidarizamos	-0.10400517
-3.578405	pueblo	-0.24733898
-4.3265185	Guyana	-0.10400517
-4.3265185	Francesa	-0.10400517
-4.3265185	rechazamos	-0.10400517
-4.3265185	existencia	-0.10400517
-4.3265185	condición	-0.10400517
-4.3265185	colonia	-0.10400517
-4.3265185	Defender	-0.10400517
-4.3265185	aislamiento	-0.10400517
-4.3265185	voluntario	-0.10400517
-4.1881948	contacto	-0.2077147
-4.3265185	inicial	-0.10400517
-4.3265185	respetar	-0.10400517
-4.3265185	determinación	-0.10400517
-4.3265185	reconocerlos	-0.10400517
-4.3265185	demarcar	-0.10400517
-4.0820265	proteger	-0.10400517
-4.1881948	garantizar	-0.10400517
-4.1881948	naturaleza	-0.10400517
-4.3265185	transfronteriza	-0.10400517
-4.0820265	Los	-0.10400517
-3.9243426	/	-0.15277153
-4.0820265	as	-0.10400517
-3.9243426	ecológicos	-0.15277153
-4.3265185	Asimismo	-0.10400517
-4.0820265	crecer	-0.10400517
-4.1881948	entorno	-0.10400517
-4.3265185	seguro	-0.10400517
-4.1881948	sano	-0.10400517
-3.578405	vivir	-0.18664293
-4.3265185	plena	-0.10400517
-4.1881948	educación	-0.10400517
-4.3265185	comunitaria	-0.10400517
-4.3265185	expresión	-0.10400517
-4.3265185	construcción	-0.10400517
-2.4483142	una	-0.25091827
-4.3265185	ciudadanía	-0.10400517
-4.3265185	Impulsar	-0.10400517
-4.3265185	aborden	-0.10400517
-3.642535	gestión	-0.23030482
-4.3265185	reconociendo	-0.10400517
-4.3265185	aprovechando	-0.10400517
-4.3265185	ciudades	-0.10400517
-4.3265185	integrando	-0.10400517
-4.3265185	juventud	-0.10400517
-4.3265185	niñez	-0.10400517
-4.3265185	Promover	-0.10400517
-4.3265185	nuevas	-0.10400517
-4.1881948	urbano	-0.10400517
-4.3265185	rural	-0.10400517
-4.3265185	campo-ciudad	-0.10400517
-4.3265185	generando	-0.10400517
-4.1881948	promoviendo	-0.10400517
-4.1881948	consumo	-0.10400517
-4.1881948	responsable	-0.10400517
-4.3265185	agricultura	-0.10400517
-4.1881948	ecológica	-0.10400517
-4.3265185	agroforestería	-0.10400517
-3.578405	sostenible	-0.33954665
-4.3265185	bosques	-0.10400517
-4.3265185	Amazónico-Andinos	-0.10400517
-3.8089087	seguridad	-0.2435836
-4.3265185	Recuperar	-0.10400517
-4.3265185	productos	-0.10400517
-4.3265185	especies	-0.10400517
-4.1881948	nativas	-0.10400517
-3.8089087	semillas	-0.198547
-4.3265185	cultivos	-0.10400517
-4.3265185	población	-0.10400517
-3.9243426	general	-0.15277153
-3.9243426	participación	-0.21460791
-4.3265185	activa	-0.10400517
-4.3265185	Reivindicar	-0.10400517
-4.3265185	recuperando	-0.10400517
-4.3265185	lenguas	-0.10400517
-4.3265185	originarias	-0.10400517
-4.3265185	Incorporar	-0.10400517
-4.3265185	sabios	-0.10400517
-4.3265185	ancianos	-0.10400517
-3.9243426	fuente	-0.2240658
-4.1881948	acumulados	-0.10400517
-4.1881948	orientan	-0.10400517
-4.3265185	defienden	-0.10400517
-4.3265185	identidad	-0.10400517
-3.9243426	vigilancia	-0.22020236
-4.0820265	monitoreo	-0.15277153
-3.351445	ambiental	-0.1639167
-4.3265185	participativo	-0.10400517
-4.1881948	prevenir	-0.10400517
-4.1881948	afectación	-0.10400517
-4.1881948	incremento	-0.10400517
-4.3265185	conflictos	-0.10400517
-4.3265185	genera	-0.10400517
-4.3265185	extractivismo	-0.10400517
-4.3265185	Acudir	-0.10400517
-4.3265185	justicia	-0.10400517
-4.0820265	internacional	-0.10400517
-3.8089087	buscar	-0.14399925
-3.8089087	sanciones	-0.15277153
-4.1881948	multinacionales	-0.10400517
-4.3265185	violadoras	-0.10400517
-4.3265185	Proponer	-0.10400517
-4.3265185	impulsar	-0.10400517
-3.9243426	instrumentos	-0.22020236
-4.3265185	políticos	-0.10400517
-4.1881948	FOSPA	-0.10400517
-4.3265185	solidariza	-0.10400517
-4.1881948	afectados	-0.10400517
-4.1881948	guerras	-0.2077147
-4.1881948	intervención	-0.2077147
-4.3265185	defensores	-0.10400517
-3.2565506	les	-0.20841536
-4.0820265	obliga	-0.17032477
-4.3265185	abandonar	-0.10400517
-4.3265185	reafirmamos	-0.10400517
-4.3265185	convocando	-0.10400517
-3.9243426	construir	-0.10400517
-4.1881948	gran	-0.10400517
-4.0820265	4	-0.10400517
-4.3265185	convicciones	-0.10400517
-3.4730449	pero	-0.13549978
-2.931806	también	-0.23093075
-4.3265185	disensos	-0.10400517
-4.3265185	Siguiendo	-0.10400517
-3.717803	camino	-0.13709396
-4.3265185	trazado	-0.10400517
-4.3265185	Foros	-0.10400517
-4.3265185	Sociales	-0.10400517
-4.3265185	Panamazónicos	-0.10400517
-4.3265185	lucha	-0.10400517
-4.3265185	resistencia	-0.10400517
-4.3265185	continúa	-0.10400517
-4.3265185	Cuídense	-0.10400517
-3.3883204	vienen	-0.17154098
-3.717803	guerreros	-0.20817327
-4.3265185	hables	-0.10400517
-3.9243426	esposa	-0.11648353
-3.8089087	Yompiri	-0.10400517
-2.7753644	porque	-0.16733481
-4.3265185	celoso	-0.10400517
-2.443918	mi	-0.35686922
-3.642535	nieta	-0.26982325
-3.317457	trajo	-0.15294659
-4.3265185	camotes	-0.10400517
-3.5225377	chacra	-0.2554778
-3.578405	niño	-0.18566968
-4.1881948	huérfano	-0.10400517
-4.1881948	sufriendo	-0.10400517
-2.7480896	tiene	-0.21020877
-3.9243426	padres	-0.14257035
-3.5225377	vi	-0.13119791
-3.9243426	tía	-0.1333619
-4.0820265	llevar	-0.10400517
-4.0820265	canasta	-0.10400517
-3.642535	hija	-0.17136909
-2.6678586	me	-0.2288687
-2.7848504	dijo	-0.35999194
-4.3265185	Mi	-0.10400517
-3.5225377	abuelo	-0.19901365
-4.1881948	callampa	-0.10400517
-3.351445	hermana	-0.2000528
-4.3265185	Hermano	-0.10400517
-4.1881948	tráeme	-0.13119791
-3.5225377	leña	-0.2864016
-4.3265185	desnudó	-0.10400517
-4.3265185	bañarla	-0.10400517
-3.578405	trae	-0.14707464
-4.0820265	llorón	-0.10400517
-4.1881948	bañarlo	-0.10400517
-4.0820265	caliente	-0.15277153
-4.0820265	grita	-0.17032477
-3.8089087	demasiado	-0.22020236
-4.1881948	noches	-0.10400517
-4.3265185	Pasé	-0.10400517
-4.3265185	ciudad	-0.10400517
-3.4730449	llegar	-0.23205617
-2.7393656	hasta	-0.36082312
-2.6752467	aquí	-0.34724772
-4.3265185	tatatao	-0.10400517
-4.1881948	avisa	-0.10400517
-3.3883204	ve	-0.17180201
-4.3265185	acercarse	-0.10400517
-3.8089087	alguien	-0.10400517
-3.8089087	sigue	-0.3517653
-2.9892519	va	-0.50629544
-3.8089087	comunidad	-0.119659975
-4.3265185	Kempityari	-0.10400517
-4.0820265	pregunta	-0.2077147
-3.4286199	abuela	-0.17743249
-3.5225377	¿	-0.1718858
-4.1881948	Hay	-0.10400517
-3.229027	masato	-0.34999335
-3.5225377	tomar	-0.12933111
-2.4804022	?	-0.86015844
-4.3265185	Koriari	-0.10400517
-4.3265185	cuelga	-0.10400517
-4.3265185	vainilla	-0.10400517
-4.1881948	espalda	-0.15277153
-3.5225377	estar	-0.14689417
-4.1881948	perfumado	-0.10400517
-4.0820265	responde	-0.17032477
-2.8692718	tu	-0.18383509
-3.578405	tío	-0.13919207
-2.9741626	te	-0.16716368
-4.1881948	llamando	-0.10400517
-4.1881948	primo	-0.10400517
-3.092798	dice	-0.29908887
-4.3265185	Come	-0.10400517
-4.0820265	sábalo	-0.10400517
-4.3265185	anzueleado	-0.10400517
-4.1881948	compré	-0.10400517
-4.0820265	anzuelo	-0.10400517
-4.1881948	pescar	-0.10400517
-4.0820265	sábalos	-0.31956726
-3.9243426	amigo	-0.10400517
-3.9243426	pesca	-0.10400517
-3.0737338	come	-0.15769395
-3.2031446	pescado	-0.28275284
-3.0554714	todos	-0.36808974
-3.351445	días	-0.29541633
-4.3265185	Shewankori	-0.10400517
-4.3265185	anzuelea	-0.10400517
-4.1881948	paco	-0.2077147
-4.3265185	poza	-0.10400517
-3.4286199	río	-0.19400641
-4.1881948	siento	-0.10400517
-4.1881948	hambre	-0.10400517
-4.0820265	dame	-0.15277153
-4.0820265	asado	-0.17032477
-3.2031446	mamá	-0.23189883
-4.3265185	asa	-0.10400517
-3.0048845	yuca	-0.47382212
-3.3883204	papá	-0.21166192
-3.351445	hermano	-0.19484475
-4.0820265	calienta	-0.10400517
-3.642535	fuego	-0.29773086
-4.1881948	mano	-0.1333619
-4.1881948	derecha	-0.2077147
-4.3265185	alza	-0.10400517
-3.9243426	agarrar	-0.10400517
-3.642535	padre	-0.18662606
-4.3265185	creciente	-0.10400517
-3.3883204	llevó	-0.22632188
-3.9243426	canoa	-0.198547
-3.4286199	venado	-0.17250353
-4.0820265	nadar	-0.10400517
-3.717803	cruzar	-0.10400517
-4.1881948	Unini	-0.10400517
-3.642535	abajo	-0.29938364
-3.8089087	balsa	-0.19228911
-4.1881948	Shawashi	-0.10400517
-4.3265185	ora	-0.10400517
-3.5225377	casa	-0.22201194
-4.3265185	lee	-0.10400517
-4.3265185	Palabra	-0.10400517
-3.351445	Dios	-0.24754687
-4.3265185	Koriobiri	-0.10400517
-3.717803	compró	-0.13590024
-3.9243426	pantalón	-0.10400517
-3.642535	negro	-0.27608457
-4.1881948	Kocheri	-0.10400517
-3.9243426	engañó	-0.25485528
-3.4286199	mujer	-0.20924538
-3.3883204	diciendo	-0.31387308
-3.1336367	había	-0.21761842
-4.3265185	cazado	-0.10400517
-2.931806	era	-0.26632518
-4.0820265	cierto	-0.17032477
-4.0820265	jefe	-0.17220575
-3.5225377	puso	-0.16693766
-4.1881948	corona	-0.10400517
-3.717803	nueva	-0.10400517
-2.7848504	antes	-0.34322172
-3.178718	ir	-0.27926728
-4.0820265	reunión	-0.31956726
-3.9243426	niña	-0.10400517
-4.3265185	Fuí	-0.10400517
-4.1881948	visitar	-0.2077147
-3.9243426	monte	-0.21809597
-4.3265185	buitre	-0.10400517
-3.4730449	comiendo	-0.122859806
-3.317457	carne	-0.27815077
-4.3265185	podrida	-0.10400517
-3.5225377	mira	-0.16609503
-4.1881948	foto	-0.10400517
-3.9243426	fija	-0.10400517
-2.660594	donde	-0.26936778
-3.0211008	vas	-0.8338976
-4.3265185	ubicar	-0.10400517
-3.229027	hace	-0.111160435
-4.3265185	Ishako	-0.10400517
-4.1881948	izquierda	-0.2077147
-4.0820265	cosecha	-0.10400517
-3.717803	algodón	-0.18893439
-3.578405	blanco	-0.14881958
-4.3265185	doctor	-0.10400517
-3.642535	cortó	-0.15277153
-4.3265185	intestino	-0.10400517
-4.3265185	huito	-0.10400517
-4.3265185	teñirse	-0.10400517
-3.9243426	cabello	-0.17032477
-3.717803	caminar	-0.10400517
-3.578405	mono	-0.1333619
-4.1881948	bajó	-0.10400517
-4.1881948	suelo	-0.13590024
-4.3265185	bañarse	-0.10400517
-4.3265185	colpa	-0.10400517
-4.3265185	Kaaroshi	-0.10400517
-2.485186	le	-0.3034815
-3.5225377	hijo	-0.2146548
-4.3265185	Dile	-0.10400517
-4.1881948	nuera	-0.10400517
-4.3265185	sirva	-0.10400517
-4.3265185	cosho	-0.10400517
-4.3265185	rebalsó	-0.10400517
-4.0820265	Shoshokiri	-0.10400517
-3.9243426	pegó	-0.25485528
-4.0820265	borracho	-0.17032477
-4.3265185	curuhuinsi	-0.10400517
-4.3265185	trabajadora	-0.10400517
-3.642535	lleva	-0.13119791
-3.2565506	hojas	-0.326704
-3.9243426	nido	-0.15277153
-3.5225377	tenemos	-0.19962186
-3.717803	trabajar	-0.15277153
-3.8089087	poder	-0.12500626
-3.1127374	comer	-0.29982826
-4.3265185	gallos	-0.10400517
-4.3265185	pelean	-0.10400517
-4.3265185	gallinas	-0.10400517
-4.3265185	támishi	-0.10400517
-4.0820265	suegro	-0.11738872
-4.0820265	broma	-0.10400517
-4.3265185	Cuñado	-0.10400517
-3.578405	aún	-0.10400517
-3.642535	vivo	-0.12500626
-4.1881948	gallina	-0.10400517
-3.5225377	madre	-0.18926562
-4.3265185	respiraba	-0.10400517
-4.3265185	remató	-0.10400517
-3.717803	perro	-0.17518611
-3.092798	vive	-0.33423927
-3.4730449	tigre	-0.21950991
-3.3883204	mordió	-0.24035798
-3.717803	cocinó	-0.13590024
-4.3265185	cruda	-0.10400517
-4.3265185	Tienes	-0.10400517
-4.1881948	tranquilo	-0.10400517
-4.1881948	pelear	-0.10400517
-3.717803	joven	-0.118435554
-3.9243426	duerme	-0.15277153
-3.3883204	solo	-0.119659975
-3.8089087	cama	-0.4174467
-2.7753644	ya	-0.26062506
-4.3265185	haré	-0.10400517
-4.3265185	dijiste	-0.10400517
-4.1881948	ayer	-0.10400517
-4.3265185	basta	-0.10400517
-4.1881948	mentira	-0.10400517
-4.3265185	mojó	-0.10400517
-3.5225377	ropa	-0.26159504
-4.3265185	anciano	-0.10400517
-4.3265185	resbaló	-0.10400517
-4.3265185	queriendo	-0.10400517
-3.3883204	subir	-0.18664293
-4.0820265	roca	-0.13119791
-4.1881948	Cierra	-0.10400517
-4.3265185	puerta	-0.10400517
-4.1881948	gallinero	-0.15277153
-4.3265185	chamán	-0.10400517
-4.0820265	encerró	-0.10400517
-4.1881948	cueva	-0.10400517
-3.8089087	cerro	-0.19924219
-4.0820265	chupó	-0.10400517
-4.1881948	caña	-0.10400517
-3.717803	dulce	-0.21659763
-3.0048845	fue	-0.26327953
-4.1881948	sube	-0.10400517
-3.5225377	árbol	-0.24070099
-3.717803	chimicua	-0.198547
-4.1881948	chupar	-0.10400517
-3.8089087	frutos	-0.18371442
-3.351445	persona	-0.19576558
-4.3265185	extraña	-0.10400517
-3.3883204	llegó	-0.24733898
-3.8089087	empezó	-0.541416
-4.3265185	toser	-0.10400517
-3.1555927	comió	-0.3880458
-3.642535	caracol	-0.1277042
-4.1881948	cocha	-0.14257035
-4.1881948	pollito	-0.17032477
-3.642535	llorando	-0.15277153
-4.0820265	tarima	-0.17032477
-4.1881948	pierna	-0.10400517
-3.8089087	palo	-0.12387523
-4.3265185	apretó	-0.10400517
-4.3265185	tortuga	-0.10400517
-4.1881948	estornudó	-0.10400517
-3.578405	entró	-0.12500626
-4.0820265	mosca	-0.10400517
-4.1881948	nariz	-0.14257035
-4.3265185	Cuñada	-0.10400517
-4.3265185	abanico	-0.10400517
-4.3265185	Suegra	-0.10400517
-3.642535	dónde	-0.14707464
-3.3883204	quien	-0.12500626
-3.9243426	nombre	-0.1277042
-4.0820265	gallo	-0.15277153
-4.1881948	gordo	-0.10400517
-3.3883204	bastante	-0.11738872
-3.9243426	grasa	-0.14257035
-3.717803	gente	-0.14918739
-4.3265185	alegró	-0.10400517
-3.1127374	vio	-0.27614543
-4.3265185	regalo	-0.10400517
-4.3265185	Despluma	-0.10400517
-3.717803	perdiz	-0.2255609
-3.717803	saca	-0.10400517
-4.1881948	cerdas	-0.10400517
-3.9243426	majás	-0.16020766
-3.642535	mató	-0.1277042
-3.2859368	muchas	-0.14918739
-3.9243426	plumas	-0.15277153
-4.3265185	huangana	-0.10400517
-3.9243426	cuñado	-0.144877
-4.3265185	vello	-0.10400517
-3.717803	cuerpo	-0.15666285
-4.1881948	colorado	-0.10400517
-4.3265185	trompetero	-0.10400517
-4.3265185	perdió	-0.10400517
-3.717803	flecha	-0.16693766
-4.0820265	pájaro	-0.10400517
-4.3265185	carpintero	-0.10400517
-3.8089087	hueco	-0.16693766
-3.8089087	poner	-0.12500626
-3.642535	huevos	-0.39056215
-4.3265185	garza	-0.10400517
-4.0820265	color	-0.15277153
-4.1881948	cenizo	-0.10400517
-3.8089087	camina	-0.18489678
-4.1881948	orilla	-0.14257035
-3.578405	buscando	-0.12500626
-3.717803	comida	-0.1277042
-3.9243426	gusano	-0.10400517
-4.0820265	cetico	-0.17032477
-4.1881948	compañero	-0.10400517
-3.717803	jaló	-0.15277153
-4.0820265	súngaro	-0.10400517
-2.95958	grande	-0.4038667
-4.3265185	loma	-0.10400517
-4.1881948	traer	-0.10400517
-3.717803	pijuayo	-0.16020766
-4.0820265	asustó	-0.15277153
-4.3265185	macana	-0.10400517
-3.9243426	parece	-0.22020236
-4.1881948	víbora	-0.10400517
-4.3265185	camisa	-0.10400517
-3.9243426	negra	-0.15277153
-4.3265185	jergón	-0.10400517
-4.3265185	púas	-0.10400517
-4.1881948	boca	-0.10400517
-4.1881948	carachama	-0.10400517
-4.3265185	picaron	-0.10400517
-4.3265185	erizo	-0.10400517
-4.3265185	espinoso	-0.10400517
-3.8089087	pie	-0.16469422
-3.3883204	mientras	-0.14005706
-4.1881948	trabajaba	-0.10400517
-4.1881948	ranas	-0.10400517
-4.3265185	saltan	-0.10400517
-4.3265185	charca	-0.10400517
-3.351445	dejó	-0.21325785
-4.1881948	lluvia	-0.15277153
-4.1881948	cortar	-0.10400517
-4.3265185	sachaponilla	-0.10400517
-4.3265185	emponar	-0.10400517
-4.3265185	huasacos	-0.10400517
-3.4286199	viven	-0.33493307
-4.0820265	sacaron	-0.10400517
-4.3265185	fastidíar	-0.10400517
-4.3265185	Ponte	-0.10400517
-3.8089087	nuevo	-0.10400517
-4.3265185	ajusta	-0.10400517
-4.0820265	curandero	-0.10400517
-3.1336367	hizo	-0.15331827
-4.1881948	entrar	-0.10400517
-3.8089087	raíces	-0.17032477
-4.1881948	salen	-0.10400517
-4.3265185	ponilla	-0.10400517
-3.642535	gritó	-0.14257035
-3.642535	noche	-0.20817327
-4.3265185	labios	-0.10400517
-4.1881948	gruesos	-0.10400517
-4.0820265	gusta	-0.16321816
-4.3265185	frito	-0.10400517
-4.3265185	martín	-0.10400517
-4.1881948	pescador	-0.10400517
-4.3265185	mojarra	-0.10400517
-4.0820265	pescó	-0.14257035
-4.1881948	legañoso	-0.10400517
-4.0820265	arena	-0.10400517
-4.1881948	jugaba	-0.17032477
-4.3265185	afila	-0.10400517
-4.0820265	cuchillo	-0.10400517
-3.717803	enseñó	-0.23856652
-3.642535	hablar	-0.12933111
-4.3265185	perico	-0.10400517
-4.0820265	palometa	-0.10400517
-4.0820265	remo	-0.10400517
-4.3265185	cocina	-0.10400517
-4.1881948	moquichi	-0.10400517
-4.1881948	preparar	-0.10400517
-4.3265185	chapo	-0.10400517
-4.1881948	abuelita	-0.10400517
-4.3265185	tinaja	-0.10400517
-4.3265185	guardar	-0.10400517
-4.1881948	pecho	-0.10400517
-3.717803	rojo	-0.15277153
-3.578405	plátano	-0.17965405
-3.9243426	maduro	-0.25485528
-4.3265185	hormiga	-0.10400517
-4.3265185	atraída	-0.10400517
-3.9243426	dulces	-0.15277153
-4.3265185	serrano	-0.10400517
-3.229027	vino	-0.16524692
-4.3265185	chorina	-0.10400517
-4.3265185	techar	-0.10400517
-4.3265185	chorito	-0.10400517
-4.1881948	guaba	-0.10400517
-3.8089087	verdadero	-0.10400517
-3.578405	cazador	-0.26982325
-3.5225377	hombre	-0.21584362
-3.9243426	ocioso	-0.15277153
-4.3265185	casó	-0.10400517
-4.3265185	aconseja	-0.10400517
-4.1881948	No	-0.111449085
-4.3265185	estés	-0.10400517
-4.3265185	saliendo	-0.10400517
-4.0820265	rato	-0.17032477
-3.351445	eres	-0.2096679
-4.3265185	adolescente	-0.10400517
-4.3265185	adulto	-0.10400517
-3.8089087	dieron	-0.1277042
-4.3265185	poca	-0.10400517
-4.0820265	baleó	-0.31956726
-4.1881948	achuni	-0.10400517
-4.0820265	pequeño	-0.10400517
-2.8465788	yo	-0.28852475
-4.0820265	tambien	-0.15277153
-3.317457	quiero	-0.24858262
-4.1881948	cazar	-0.1277042
-3.9243426	animales	-0.16020766
-4.0820265	llora	-0.10400517
-3.9243426	piña	-0.10400517
-4.3265185	regresaré	-0.10400517
-4.3265185	esperar	-0.10400517
-4.1881948	mijano	-0.2077147
-4.3265185	despacio	-0.10400517
-4.0820265	cuidado	-0.10400517
-4.1881948	piquen	-0.10400517
-4.3265185	espinas	-0.10400517
-3.3883204	dijeron	-0.5210215
-4.0820265	Hermana	-0.17032477
-3.1336367	vamos	-0.36626178
-3.5225377	sacar	-0.14689417
-3.717803	loro	-0.1277042
-4.3265185	aurora	-0.10400517
-3.0737338	nos	-0.16850938
-4.3265185	imita	-0.10400517
-4.3265185	hablamos	-0.10400517
-4.3265185	cocinado	-0.10400517
-3.9243426	dura	-0.10400517
-4.3265185	caulla	-0.10400517
-4.3265185	avisar	-0.10400517
-4.0820265	empieza	-0.17032477
-4.3265185	convidar	-0.10400517
-4.3265185	fundador	-0.10400517
-4.3265185	Niibotya	-0.10400517
-4.1881948	enamorado	-0.10400517
-4.3265185	amarla	-0.10400517
-4.3265185	carachupa	-0.10400517
-4.3265185	escarba	-0.10400517
-3.642535	tierra	-0.15294659
-3.1127374	hacer	-0.13239363
-4.3265185	recoger	-0.10400517
-4.3265185	caimitillos	-0.10400517
-4.3265185	golondrina	-0.10400517
-3.9243426	volando	-0.10400517
-3.1127374	arriba	-0.4642271
-4.3265185	Ashoshi	-0.10400517
-3.578405	cura	-0.17220575
-4.3265185	piripiri	-0.10400517
-3.229027	ser	-0.16936603
-4.1881948	cuñada	-0.10400517
-3.5225377	largo	-0.2021909
-4.3265185	espina	-0.10400517
-3.2859368	picó	-0.2588165
-4.3265185	Chareto	-0.10400517
-4.0820265	duele	-0.10400517
-3.642535	cabeza	-0.2533272
-4.0820265	encontré	-0.10400517
-4.1881948	taricaya	-0.10400517
-4.3265185	suris	-0.10400517
-3.9243426	tela	-0.14257035
-4.1881948	araña	-0.10400517
-4.1881948	tapa	-0.10400517
-4.0820265	quemado	-0.10400517
-3.9243426	picaflor	-0.10400517
-2.9892519	están	-0.1395214
-3.351445	mucha	-0.115693055
-3.9243426	ojo	-0.2713187
-4.0820265	quebrada	-0.13119791
-4.3265185	Shiyawa	-0.10400517
-4.3265185	recolectar	-0.10400517
-4.3265185	arenal	-0.10400517
-3.0554714	hay	-0.20023571
-4.1881948	estrellas	-0.10400517
-4.1881948	cielo	-0.15277153
-3.9243426	verano	-0.21659763
-3.642535	da	-0.10400517
-3.8089087	consejos	-0.15277153
-3.8089087	hice	-0.13590024
-4.0820265	maspute	-0.10400517
-4.1881948	moena	-0.10400517
-3.9243426	pajaritos	-0.18893439
-4.3265185	astilla	-0.10400517
-3.9243426	saqué	-0.14257035
-4.0820265	corteza	-0.17032477
-4.3265185	mango	-0.10400517
-4.1881948	vomitó	-0.10400517
-3.5225377	ese	-0.25878394
-3.717803	ves	-0.12500626
-3.642535	tronco	-0.22681162
-4.1881948	centro	-0.17032477
-3.1555927	ahí	-0.22343668
-4.3265185	chocó	-0.10400517
-4.3265185	Tyominkio	-0.10400517
-4.3265185	arbustos	-0.10400517
-4.1881948	vió	-0.10400517
-4.3265185	boa	-0.10400517
-4.3265185	Inkaare	-0.10400517
-3.9243426	cayó	-0.10400517
-4.1881948	semana	-0.10400517
-4.3265185	pasada	-0.10400517
-4.3265185	plantas	-0.10400517
-4.3265185	firmamento	-0.10400517
-3.2031446	si	-0.16028036
-4.3265185	creemos	-0.10400517
-4.3265185	iremos	-0.10400517
-3.4730449	nieto	-0.20469902
-4.3265185	Vete	-0.10400517
-4.3265185	jugar	-0.10400517
-3.642535	afuera	-0.14707464
-4.3265185	maestros	-0.10400517
-3.8089087	salieron	-0.13119791
-4.3265185	ampollas	-0.10400517
-4.0820265	pies	-0.10400517
-4.3265185	caminaron	-0.10400517
-3.317457	lejos	-0.3070029
-4.1881948	Gran	-0.2077147
-4.3265185	Pajonal	-0.10400517
-4.1881948	corre	-0.10400517
-3.4286199	rápido	-0.18371442
-4.3265185	traerme	-0.10400517
-3.9243426	entraron	-0.10400517
-4.3265185	tunel	-0.10400517
-4.3265185	rocoso	-0.10400517
-3.0554714	allí	-0.19204128
-4.3265185	Kamaañari	-0.10400517
-4.3265185	tropezó	-0.10400517
-3.351445	salió	-0.12500626
-3.3883204	sangre	-0.2096679
-4.3265185	grado	-0.10400517
-4.0820265	curar	-0.10400517
-4.0820265	herida	-0.10400517
-4.1881948	travieso	-0.2077147
-4.3265185	Pishiyawa	-0.10400517
-4.0820265	papaya	-0.10400517
-4.0820265	madura	-0.17032477
-4.1881948	asar	-0.17032477
-3.642535	olla	-0.18664293
-3.8089087	pequeña	-0.22020236
-3.8089087	La	-0.10400517
-4.1881948	cosechando	-0.10400517
-4.3265185	suegra	-0.10400517
-4.1881948	manda	-0.10400517
-3.717803	llamar	-0.16469422
-3.717803	solamente	-0.117892444
-4.3265185	quedaron	-0.10400517
-4.3265185	desplumar	-0.10400517
-3.717803	lleno	-0.13590024
-4.1881948	botó	-0.2077147
-4.1881948	machete	-0.10400517
-4.1881948	profundo	-0.10400517
-4.3265185	Traeme	-0.10400517
-4.3265185	plato	-0.10400517
-4.3265185	hondo	-0.10400517
-4.3265185	servirte	-0.10400517
-4.1881948	caldo	-0.10400517
-3.717803	paujil	-0.18893439
-3.5225377	sacó	-0.14510165
-4.0820265	guacamayo	-0.10400517
-4.3265185	ponerlas	-0.10400517
-4.3265185	porotal	-0.10400517
-4.3265185	Kishokiyo	-0.10400517
-4.3265185	quizo	-0.10400517
-4.3265185	sentarse	-0.10400517
-3.9243426	asiento	-0.2713187
-4.0820265	pensó	-0.10400517
-3.9243426	duro	-0.15277153
-4.0820265	piso	-0.15277153
-4.1881948	podrido	-0.10400517
-4.3265185	Chowirio	-0.10400517
-3.642535	echó	-0.10400517
-4.1881948	ceniza	-0.10400517
-4.3265185	ladró	-0.10400517
-4.3265185	torcaza	-0.10400517
-3.717803	canta	-0.13590024
-4.1881948	tristemente	-0.10400517
-4.1881948	rama	-0.2077147
-3.4286199	A	-0.14203367
-3.5225377	barro	-0.20376197
-3.8089087	alimento	-0.13590024
-4.3265185	pez	-0.10400517
-4.1881948	boquichico	-0.10400517
-4.1881948	avispa	-0.10400517
-4.1881948	oreja	-0.10400517
-4.3265185	regaló	-0.10400517
-4.3265185	lapicero	-0.10400517
-4.1881948	escrito	-0.10400517
-4.3265185	adivinanza	-0.10400517
-3.8089087	dije	-0.14257035
-4.3265185	hjo	-0.10400517
-4.3265185	Escribe	-0.10400517
-3.9243426	profesor	-0.118435554
-4.0820265	enseñar	-0.17032477
-3.8089087	escribir	-0.14257035
-3.717803	sean	-0.14257033
-4.3265185	escritores	-0.10400517
-4.0820265	árboles	-0.15277153
-4.3265185	llueve	-0.10400517
-4.3265185	azúcar	-0.10400517
-4.1881948	miel	-0.10400517
-4.0820265	acarrea	-0.10400517
-3.0554714	allá	-0.456483
-4.1881948	oso	-0.10400517
-4.1881948	abundan	-0.10400517
-4.3265185	maderables	-0.10400517
-4.1881948	tumba	-0.10400517
-4.3265185	cedro	-0.10400517
-4.1881948	nietos	-0.10400517
-4.3265185	Cállense	-0.10400517
-4.3265185	brinca	-0.10400517
-3.717803	maíz	-0.18893439
-4.3265185	emponado	-0.10400517
-4.3265185	toé	-0.10400517
-3.642535	ver	-0.21809597
-3.578405	quién	-0.21045169
-4.0820265	robó	-0.10400517
-3.0554714	muchos	-0.16688745
-4.3265185	shitaracos	-0.10400517
-3.2859368	uno	-0.20084333
-4.3265185	abanica	-0.10400517
-4.1881948	candela	-0.10400517
-4.3265185	arda	-0.10400517
-4.1881948	—	-0.10400517
-4.3265185	Niotya	-0.10400517
-4.1881948	escuchaste	-0.10400517
-3.9243426	Sí	-0.198547
-4.1881948	escuché	-0.10400517
-4.0820265	preguntó	-0.17032477
-4.3265185	Dónde	-0.10400517
-4.1881948	coto	-0.10400517
-3.4286199	parte	-0.26127654
-4.1881948	Cultiva	-0.2077147
-2.8356621	bien	-0.32612482
-4.3265185	patio	-0.10400517
-4.3265185	alumno	-0.10400517
-4.3265185	ortiga	-0.10400517
-4.1881948	castigar	-0.10400517
-4.3265185	desobedientes	-0.10400517
-3.642535	debajo	-0.2654938
-3.717803	piedras	-0.16020766
-3.642535	esposo	-0.20029052
-4.3265185	Tyempoña	-0.10400517
-4.1881948	regresa	-0.10400517
-4.0820265	madera	-0.18489678
-4.3265185	Chamiri	-0.10400517
-4.3265185	ácido	-0.10400517
-4.3265185	limón	-0.10400517
-4.3265185	atragantar	-0.10400517
-4.3265185	tiró	-0.10400517
-4.3265185	madrugador	-0.10400517
-4.0820265	cantaba	-0.10400517
-4.3265185	tumor	-0.10400517
-4.3265185	confeccionando	-0.10400517
-4.1881948	antara	-0.10400517
-4.3265185	entonar	-0.10400517
-4.0820265	bota	-0.15277153
-4.3265185	basura	-0.10400517
-4.3265185	barranco	-0.10400517
-4.1881948	bañar	-0.14257035
-2.9892519	voy	-0.6502532
-4.3265185	bañarme	-0.10400517
-3.9243426	momento	-0.10400517
-4.3265185	quemando	-0.10400517
-3.9243426	levanta	-0.14257035
-4.3265185	humo	-0.10400517
-4.3265185	Shariwa	-0.10400517
-4.1881948	escucha	-0.10400517
-3.9243426	llama	-0.10999832
-4.1881948	comezón	-0.10400517
-4.3265185	lombriz	-0.10400517
-4.1881948	perfume	-0.10400517
-4.3265185	echarme	-0.10400517
-4.3265185	cuello	-0.10400517
-3.642535	dio	-0.18664293
-4.3265185	gripe	-0.10400517
-4.1881948	limpia	-0.10400517
-3.8089087	moco	-0.14257035
-4.3265185	cascabel	-0.10400517
-3.9243426	casi	-0.15277153
-4.1881948	familia	-0.10400517
-4.0820265	mañana	-0.10400517
-4.3265185	vómito	-0.10400517
-4.1881948	atacó	-0.10400517
-4.3265185	Jesús	-0.10400517
-4.3265185	Satanás	-0.10400517
-4.0820265	hagas	-0.10400517
-3.578405	cosas	-0.14870852
-4.3265185	malas	-0.10400517
-4.1881948	hermosa	-0.10400517
-4.1881948	cantó	-0.10400517
-3.717803	canción	-0.10400521
-3.8089087	bonita	-0.22020236
-4.1881948	corazón	-0.10400517
-3.642535	bueno	-0.18893439
-4.0820265	feliz	-0.10400517
-4.0820265	yucal	-0.18371442
-4.3265185	pona	-0.10400517
-4.0820265	sajino	-0.10400517
-4.1881948	Ashisho	-0.2077147
-4.3265185	pared	-0.10400517
-4.0820265	mal	-0.10400517
-4.3265185	hecha	-0.10400517
-3.4730449	personas	-0.2684907
-3.351445	tienen	-0.14689417
-3.642535	diferentes	-0.13891943
-4.3265185	ideas	-0.10400517
-4.3265185	sardina	-0.10400517
-4.3265185	caen	-0.10400517
-4.3265185	iguana	-0.10400517
-4.1881948	huevo	-0.10400517
-4.3265185	lisa	-0.10400517
-4.1881948	rayas	-0.17032477
-4.3265185	Regálame	-0.10400517
-3.578405	poco	-0.13891943
-3.8089087	sal	-0.12500626
-3.8089087	corta	-0.10400517
-4.3265185	paca	-0.10400517
-4.0820265	cocinar	-0.13119791
-4.1881948	abuelito	-0.10400517
-4.3265185	conversó	-0.10400517
-4.3265185	encontraba	-0.10400517
-4.3265185	quebró	-0.10400517
-4.3265185	pises	-0.10400517
-3.2859368	esa	-0.30158392
-3.5225377	piedra	-0.23227803
-4.3265185	resbalosa	-0.10400517
-3.642535	caer	-0.18371442
-4.3265185	pedazo	-0.10400517
-4.0820265	luna	-0.10400517
-4.0820265	cargó	-0.17032477
-4.0820265	Aroshi	-0.10400517
-4.1881948	alumbra	-0.10400517
-3.3883204	vemos	-0.15579511
-4.3265185	media	-0.10400517
-4.3265185	lamparilla	-0.10400517
-4.1881948	alumbrar	-0.10400517
-4.0820265	rio	-0.1277042
-4.1881948	hormigas	-0.10400517
-4.3265185	comestibles	-0.10400517
-4.3265185	comerlas	-0.10400517
-3.9243426	malo	-0.22020236
-3.9243426	sentí	-0.10400517
-2.7141988	mucho	-0.28066546
-4.3265185	frío	-0.10400517
-4.3265185	goteras	-0.10400517
-4.3265185	construye	-0.10400517
-3.1555927	otra	-0.17410597
-4.3265185	preñó	-0.10400517
-4.0820265	afasi	-0.10400517
-3.317457	nada	-0.2670191
-3.8089087	darle	-0.2713187
-4.3265185	Lávate	-0.10400517
-4.1881948	manos	-0.10400517
-3.8089087	lava	-0.10400517
-3.717803	bebé	-0.14257035
-4.1881948	hamaca	-0.10400517
-4.3265185	duerma	-0.10400517
-4.3265185	Sharishi	-0.10400517
-4.3265185	oyó	-0.10400517
-3.642535	contestó	-0.3257421
-3.8089087	sachavaca	-0.23856652
-4.1881948	baña	-0.10400517
-4.1881948	zapallo	-0.10400517
-4.3265185	adventistas	-0.10400517
-3.578405	comen	-0.10400517
-4.0820265	bagre	-0.17032477
-4.3265185	kempiro	-0.10400517
-4.3265185	rocas	-0.10400517
-4.3265185	pata	-0.10400517
-4.3265185	piques	-0.10400517
-3.8089087	buen	-0.10400517
-4.3265185	pensamiento	-0.10400517
-4.3265185	haremos	-0.10400517
-3.9243426	venir	-0.14257035
-4.3265185	repente	-0.10400517
-4.1881948	sintió	-0.10400517
-3.2565506	algo	-0.15579511
-4.3265185	shushupi	-0.10400517
-4.0820265	salía	-0.10400517
-4.3265185	kentabo	-0.10400517
-4.3265185	larga	-0.10400517
-4.3265185	plantó	-0.10400517
-4.3265185	horcón	-0.10400517
-4.3265185	Curandero	-0.10400517
-4.0820265	tabaco	-0.10400517
-4.3265185	amargo	-0.10400517
-4.3265185	Pishaba	-0.10400517
-4.3265185	bombonaje	-0.10400517
-4.3265185	tapar	-0.10400517
-4.1881948	techo	-0.10400517
-3.8089087	ríos	-0.16469422
-4.1881948	crecen	-0.2077147
-4.3265185	invierno	-0.10400517
-4.3265185	colérico	-0.10400517
-3.4730449	vivía	-0.17664519
-3.9243426	palito	-0.10400517
-3.178718	puede	-0.20173568
-4.3265185	quebrar	-0.10400517
-4.0820265	alegría	-0.10400517
-4.1881948	recibió	-0.10400517
-4.3265185	contento	-0.10400517
-3.642535	haber	-0.10400517
-3.9243426	peces	-0.22020236
-4.3265185	Tierra	-0.10400517
-4.1881948	seres	-0.10400517
-3.9243426	vivos	-0.22020236
-3.717803	estás	-0.10400517
-4.3265185	sucio	-0.10400517
-4.3265185	vete	-0.10400517
-4.1881948	coger	-0.10400517
-4.3265185	purma	-0.10400517
-4.3265185	leemos	-0.10400517
-4.1881948	libro	-0.10400517
-4.3265185	dará	-0.10400517
-4.3265185	doler	-0.10400517
-4.3265185	Sharewa	-0.10400517
-4.1881948	enroscó	-0.10400517
-4.1881948	asó	-0.10400517
-4.3265185	llevará	-0.10400517
-4.3265185	peine	-0.10400517
-4.3265185	peinar	-0.10400517
-3.9243426	terminó	-0.1277042
-4.3265185	Compra	-0.10400517
-4.3265185	cuadernos	-0.10400517
-4.1881948	pueda	-0.10400517
-3.717803	flor	-0.21991995
-4.3265185	amarilla	-0.10400517
-4.0820265	subía	-0.10400517
-4.3265185	limonero	-0.10400517
-4.3265185	camarón	-0.10400517
-4.3265185	pinza	-0.10400517
-4.3265185	alacrán	-0.10400517
-4.3265185	palmeras	-0.10400517
-4.0820265	teje	-0.10400517
-3.717803	cushma	-0.17965405
-4.1881948	aguja	-0.10400517
-4.1881948	vestido	-0.10400517
-4.3265185	soleado	-0.10400517
-4.3265185	quirquincho	-0.10400517
-4.1881948	cava	-0.10400517
-3.717803	dormir	-0.2240658
-4.3265185	Quiero	-0.10400517
-4.3265185	Deseo	-0.10400517
-4.3265185	algún	-0.10400517
-3.4286199	día	-0.15769395
-4.3265185	animal	-0.10400517
-4.3265185	feo	-0.10400517
-4.1881948	abunda	-0.2077147
-4.0820265	dientes	-0.10400517
-4.3265185	lagarto	-0.10400517
-4.3265185	filudos	-0.10400517
-4.3265185	Nawireri	-0.10400517
-4.3265185	rema	-0.10400517
-4.0820265	temprano	-0.10400517
-4.1881948	aleta	-0.10400517
-3.9243426	querido	-0.14257035
-4.3265185	yarinas	-0.10400517
-4.1881948	palabra	-0.10400517
-4.3265185	difícil	-0.10400517
-3.9243426	tumbar	-0.18489678
-4.0820265	capirona	-0.10400517
-4.1881948	motelo	-0.10400517
-4.1881948	callampas	-0.2077147
-4.3265185	mediana	-0.10400517
-4.1881948	di	-0.10400517
-3.9243426	gusanos	-0.15277153
-4.3265185	patrón	-0.10400517
-3.5225377	dinero	-0.26159504
-4.3265185	elefante	-0.10400517
-4.3265185	montaña	-0.10400517
-4.3265185	teniente	-0.10400517
-4.3265185	gobernador	-0.10400517
-4.0820265	metió	-0.10400517
-4.3265185	calabozo	-0.10400517
-4.3265185	pegaba	-0.10400517
-4.3265185	ratero	-0.10400517
-4.3265185	roba	-0.10400517
-4.3265185	huayos	-0.10400517
-4.0820265	altura	-0.14707464
-4.3265185	shicapa	-0.10400517
-4.3265185	bufeo	-0.10400517
-4.1881948	brea	-0.10400517
-3.8089087	quemó	-0.13590024
-4.1881948	cocinaba	-0.17032477
-4.1881948	viajar	-0.10400517
-4.3265185	Satipo	-0.10400517
-4.1881948	llevando	-0.10400517
-3.8089087	hijas	-0.13119791
-4.1881948	panguana	-0.10400517
-4.1881948	comedero	-0.10400517
-4.3265185	canela	-0.10400517
-3.9243426	remedio	-0.15277153
-4.3265185	vomitando	-0.10400517
-4.1881948	culebra	-0.14257035
-4.3265185	enroscando	-0.10400517
-4.1881948	ratón	-0.10400517
-4.1881948	Kamañari	-0.10400517
-4.1881948	amarró	-0.10400517
-4.3265185	mosquitero	-0.10400517
-4.3265185	zancudos	-0.10400517
-4.1881948	zancudo	-0.10400517
-4.1881948	verdad	-0.14257035
-4.3265185	manacaraco	-0.10400517
-4.1881948	Koriowiri	-0.10400517
-3.351445	tres	-0.14972076
-4.3265185	venados	-0.10400517
-4.3265185	sachapapa	-0.10400517
-4.0820265	siembra	-0.10400517
-4.1881948	llena	-0.10400517
-3.9243426	tenga	-0.10400517
-4.3265185	buenos	-0.10400517
-4.3265185	tubérculos	-0.10400517
-4.3265185	frejol	-0.10400517
-4.3265185	cogollos	-0.10400517
-4.3265185	palmera	-0.10400517
-4.3265185	borrachos	-0.10400517
-4.3265185	duermen	-0.10400517
-4.3265185	amanecieron	-0.10400517
-4.1881948	bujurqui	-0.10400517
-4.3265185	suda	-0.10400517
-4.3265185	trabaja	-0.10400517
-4.3265185	renacuajo	-0.10400517
-4.1881948	sapo	-0.10400517
-4.3265185	mudo	-0.10400517
-4.3265185	makota	-0.10400517
-3.717803	luz	-0.17291327
-4.0820265	esperando	-0.17032477
-4.1881948	moscas	-0.10400517
-3.8089087	búho	-0.16469422
-4.3265185	escribieron	-0.10400517
-4.3265185	cantaron	-0.10400517
-4.3265185	aniversario	-0.10400517
-4.1881948	escuela	-0.10400517
-4.3265185	pide	-0.10400517
-4.3265185	puchkay	-0.10400517
-4.3265185	amarrar	-0.10400517
-3.717803	flechas	-0.21045169
-4.3265185	isangos	-0.10400517
-4.3265185	isula	-0.10400517
-4.3265185	cuernos	-0.10400517
-4.0820265	toma	-0.10400517
-4.0820265	pintado	-0.10400517
-4.0820265	añuje	-0.15277153
-4.1881948	ramas	-0.10400517
-4.3265185	gallinazo	-0.10400517
-4.3265185	bañado	-0.10400517
-4.3265185	agüero	-0.10400517
-4.3265185	Shantyoma	-0.10400517
-4.1881948	caído	-0.17032477
-4.3265185	enfermó	-0.10400517
-4.3265185	paludismo	-0.10400517
-3.8089087	enfermedad	-0.13590024
-4.0820265	grave	-0.10400517
-4.1881948	mejorar	-0.10400517
-4.3265185	Napo	-0.10400517
-4.3265185	sacarse	-0.10400517
-4.1881948	uña	-0.10400517
-4.3265185	Toropetzi	-0.10400517
-4.3265185	cascajal	-0.10400517
-4.1881948	echar	-0.10400517
-4.1881948	red	-0.10400517
-4.3265185	anunciando	-0.10400517
-3.8089087	amanecer	-0.18489678
-4.3265185	maduró	-0.10400517
-4.3265185	monitor	-0.10400517
-4.0820265	sorprendió	-0.17032477
-4.3265185	congompes	-0.10400517
-4.3265185	produjo	-0.10400517
-4.1881948	náuseas	-0.2077147
-3.4286199	después	-0.19351804
-4.3265185	juntar	-0.10400517
-4.3265185	pegados	-0.10400517
-4.3265185	topa	-0.10400517
-4.1881948	Ya	-0.10400517
-4.3265185	nacanaca	-0.10400517
-4.3265185	pescaba	-0.10400517
-4.1881948	flaco	-0.10400517
-3.717803	corrió	-0.13119791
-4.3265185	platanal	-0.10400517
-4.1881948	brujo	-0.10400517
-4.3265185	tigrillo	-0.10400517
-3.9243426	mujeriego	-0.10400517
-4.3265185	destruyó	-0.10400517
-4.1881948	Ahora	-0.10400517
-4.3265185	limpiaremos	-0.10400517
-4.3265185	ahumó	-0.10400517
-4.1881948	tarrafa	-0.10400517
-4.3265185	viajamos	-0.10400517
-4.1881948	avión	-0.10400517
-4.3265185	nubes	-0.10400517
-3.351445	cerca	-0.30334598
-3.8089087	amaneció	-0.14257035
-4.3265185	nublado	-0.10400517
-4.3265185	mojarras	-0.10400517
-4.1881948	seca	-0.10400517
-4.0820265	buena	-0.10400517
-4.3265185	suave	-0.10400517
-4.3265185	ardilla	-0.10400517
-4.0820265	sentada	-0.17032477
-4.1881948	shapaja	-0.2077147
-4.3265185	brincan	-0.10400517
-3.9243426	sed	-0.15277153
-4.3265185	tumbando	-0.10400517
-4.1881948	líquido	-0.10400517
-4.1881948	bosque	-0.10400517
-4.3265185	soñó	-0.10400517
-4.3265185	besó	-0.10400517
-4.1881948	gato	-0.10400517
-4.3265185	ratones	-0.10400517
-3.8089087	grillo	-0.18893439
-4.0820265	saltó	-0.10400517
-4.3265185	sumergió	-0.10400517
-4.3265185	ombligo	-0.10400517
-4.3265185	Kamaiteri	-0.10400517
-4.3265185	mide	-0.10400517
-4.3265185	contruir	-0.10400517
-4.0820265	llenó	-0.10400517
-4.3265185	lit.	-0.10400517
-4.3265185	igualó	-0.10400517
-4.3265185	Mídeme	-0.10400517
-4.3265185	Mete	-0.10400517
-4.3265185	ladrón	-0.10400517
-4.3265185	vadeó	-0.10400517
-4.1881948	arde	-0.10400517
-4.1881948	barrigón	-0.10400517
-4.1881948	parásitos	-0.10400517
-4.3265185	embarazada	-0.10400517
-4.3265185	collares	-0.10400517
-4.1881948	hierve	-0.10400517
-2.356994	ahora	-0.35915667
-4.3265185	nailon	-0.10400517
-4.3265185	jalaré	-0.10400517
-4.3265185	pacos	-0.10400517
-4.3265185	mullos	-0.10400517
-4.3265185	brazaletes	-0.10400517
-4.0820265	piojo	-0.10400517
-4.3265185	produce	-0.10400517
-4.1881948	heridas	-0.2077147
-4.3265185	sacamos	-0.10400517
-3.578405	tengo	-0.13590029
-4.3265185	Te	-0.10400517
-4.3265185	amo	-0.10400517
-4.1881948	cásate	-0.10400517
-3.642535	conmigo	-0.16020766
-4.3265185	ronsapa	-0.10400517
-3.9243426	golpeó	-0.13590024
-4.0820265	hueso	-0.10400517
-4.3265185	atoró	-0.10400517
-4.1881948	garganta	-0.10400517
-4.3265185	Shapopo	-0.10400517
-3.9243426	medio	-0.15277153
-4.3265185	cazó	-0.10400517
-3.9243426	guerrero	-0.10400517
-4.3265185	raptó	-0.10400517
-4.3265185	Arrastra	-0.10400517
-3.9243426	quiere	-0.10400517
-4.0820265	tardes	-0.10400517
-4.1881948	emiten	-0.10400517
-4.3265185	música	-0.10400517
-4.1881948	radio	-0.10400517
-3.351445	hacen	-0.12500626
-4.3265185	radiofonía	-0.10400517
-4.3265185	leen	-0.10400517
-4.1881948	palabras	-0.10400517
-3.8089087	rompió	-0.19129477
-4.1881948	espejo	-0.10400517
-3.578405	hoja	-0.3060078
-4.3265185	valiente	-0.10400517
-4.1881948	defiende	-0.10400517
-4.3265185	jugadores	-0.10400517
-4.1881948	fueron	-0.11648353
-4.3265185	Korintoni	-0.10400517
-3.717803	comieron	-0.3663304
-3.642535	carachamas	-0.21659763
-4.3265185	Pieza	-0.10400517
-4.1881948	llegue	-0.10400517
-4.3265185	fruto	-0.10400517
-3.3883204	hijos	-0.28856292
-4.3265185	ociosos	-0.10400517
-4.1881948	enseña	-0.10400517
-4.3265185	alzó	-0.10400517
-4.3265185	racimo	-0.10400517
-4.3265185	siembro	-0.10400517
-3.9243426	maní	-0.25485528
-4.1881948	daledale	-0.10400517
-3.717803	picar	-0.13119791
-4.3265185	perdices	-0.10400517
-4.3265185	Kaminirio	-0.10400517
-4.3265185	pulgas	-0.10400517
-4.3265185	piel	-0.10400517
-4.3265185	cosechó	-0.10400517
-4.1881948	frijoles	-0.17032477
-4.0820265	revisar	-0.10400517
-4.1881948	trampa	-0.10400517
-3.9243426	monos	-0.10400517
-4.0820265	Qué	-0.1277042
-3.9243426	pasa	-0.10400517
-4.3265185	Por	-0.10400517
-3.317457	qué	-0.15666285
-4.3265185	tortugas	-0.10400517
-4.0820265	quebradas	-0.10400517
-4.3265185	secan	-0.10400517
-4.1881948	huella	-0.10400517
-4.3265185	Maaniri	-0.10400517
-4.1881948	junta	-0.10400517
-4.1881948	sembrar	-0.10400517
-4.3265185	nades	-0.10400517
-4.3265185	arrastre	-0.10400517
-3.9243426	pongo	-0.10400517
-4.1881948	barriga	-0.13590024
-4.3265185	Shakiñi	-0.10400517
-3.717803	dar	-0.14257035
-4.3265185	escuchan	-0.10400517
-3.642535	cantar	-0.14881958
-4.3265185	soga	-0.10400517
-4.3265185	costado	-0.10400517
-3.717803	hilo	-0.13590024
-4.3265185	atizó	-0.10400517
-4.3265185	mostró	-0.10400517
-4.0820265	planta	-0.10400517
-4.3265185	mordedura	-0.10400517
-4.3265185	puqueó	-0.10400517
-4.0820265	creció	-0.10400517
-4.3265185	represó	-0.10400517
-4.3265185	hinchó	-0.10400517
-4.1881948	insectos	-0.10400517
-4.1881948	mechero	-0.2077147
-4.1881948	arroz	-0.10400517
-4.3265185	polvo	-0.10400517
-4.3265185	pila	-0.10400517
-4.0820265	barbasco	-0.10400517
-4.3265185	tucán	-0.10400517
-3.9243426	triste	-0.18893439
-4.3265185	entres	-0.10400517
-4.1881948	remolino	-0.13590024
-4.3265185	puedes	-0.10400517
-3.9243426	hundir	-0.444506
-3.9243426	sol	-0.13590024
-4.1881948	cara	-0.1277042
-4.3265185	frejoles	-0.10400517
-4.3265185	demasiada	-0.10400517
-4.3265185	cangrejo	-0.10400517
-4.1881948	maquisapa	-0.10400517
-4.3265185	cámara	-0.10400517
-4.1881948	fotos	-0.10400517
-4.1881948	alumnos	-0.10400517
-4.3265185	cáscaras	-0.10400517
-4.1881948	coman	-0.10400517
-4.3265185	cucaracha	-0.10400517
-2.8692718	estaba	-0.1962811
-4.1881948	entrando	-0.10400517
-4.3265185	Shariba	-0.10400517
-3.642535	crece	-0.15277153
-4.3265185	barba	-0.10400517
-4.3265185	quijada	-0.10400517
-4.0820265	empujó	-0.15277153
-4.0820265	causa	-0.10400517
-4.3265185	borrachera	-0.10400517
-4.0820265	juegan	-0.10400517
-4.3265185	zanja	-0.10400517
-4.3265185	frijol	-0.10400517
-4.3265185	atravesó	-0.10400517
-4.3265185	palizada	-0.10400517
-4.0820265	gritando	-0.17032477
-4.3265185	canto	-0.10400517
-2.8932161	otro	-0.21103793
-4.3265185	fiel	-0.10400517
-4.1881948	mandó	-0.10400517
-4.0820265	baja	-0.10400517
-4.1881948	cocinada	-0.10400517
-4.3265185	avioneta	-0.10400517
-4.3265185	asaba	-0.10400517
-4.0820265	escalera	-0.10400517
-4.3265185	Tyonkishori	-0.10400517
-4.3265185	porongo	-0.10400517
-4.3265185	Chabari	-0.10400517
-4.3265185	pate	-0.10400517
-4.1881948	Gracias	-0.10400517
-4.3265185	almendras	-0.10400517
-4.1881948	gavilán	-0.10400517
-3.178718	tenía	-0.18749024
-4.3265185	maduros	-0.10400517
-3.642535	puente	-0.14707464
-4.3265185	Kemariari	-0.10400517
-4.1881948	caerse	-0.2077147
-4.3265185	sembradora	-0.10400517
-4.3265185	cansa	-0.10400517
-4.1881948	diarrea	-0.10400517
-4.1881948	comuneros	-0.10400517
-4.1881948	construyen	-0.10400517
-4.3265185	alojar	-0.10400517
-4.3265185	visitantes	-0.10400517
-3.8089087	pato	-0.3517653
-4.1881948	lobo	-0.2077147
-4.3265185	marino	-0.10400517
-4.3265185	pareto	-0.10400517
-4.1881948	alto	-0.10400517
-4.3265185	tuya	-0.10400517
-4.1881948	tuvo	-0.10400517
-4.0820265	vergüenza	-0.17032477
-3.9243426	varias	-0.10400517
-4.3265185	topas	-0.10400517
-4.3265185	tarrafear	-0.10400517
-4.3265185	colcha	-0.10400517
-4.3265185	garrapata	-0.10400517
-4.3265185	alimenta	-0.10400517
-4.3265185	zapote	-0.10400517
-4.3265185	Comí	-0.10400517
-3.351445	estoy	-0.1258346
-4.1881948	sacando	-0.10400517
-4.3265185	machiki	-0.10400517
-4.3265185	sembrarlo	-0.10400517
-4.3265185	roza	-0.10400517
-4.3265185	chacras	-0.10400517
-4.3265185	chupasangre	-0.10400517
-4.3265185	escamas	-0.10400517
-4.1881948	pequeñas	-0.10400517
-4.0820265	culpa	-0.10400517
-4.0820265	ociosidad	-0.10400517
-4.3265185	polilla	-0.10400517
-4.1881948	guardaba	-0.10400517
-4.3265185	retoños	-0.10400517
-4.3265185	siembran	-0.10400517
-4.1881948	díablo	-0.10400517
-4.1881948	tallo	-0.10400517
-4.3265185	balista	-0.10400517
-4.1881948	Tyobiri	-0.10400517
-4.3265185	pegar	-0.10400517
-3.9243426	aviso	-0.10400517
-3.642535	ven	-0.14510165
-4.3265185	digital	-0.10400517
-4.3265185	acta	-0.10400517
-4.3265185	parcha	-0.10400517
-4.3265185	costosas	-0.10400517
-3.9243426	autoridad	-0.122859806
-3.642535	permiso	-0.4174467
-4.0820265	pasar	-0.15277153
-4.3265185	fallecido	-0.10400517
-3.2859368	sin	-0.21596923
-4.3265185	embargo	-0.10400517
-4.3265185	resucitó	-0.10400517
-3.3883204	luego	-0.1741745
-4.3265185	hualo	-0.10400517
-4.3265185	Joo	-0.10400517
-4.3265185	joo.	-0.10400517
-4.1881948	joo	-0.10400517
-4.3265185	...	-0.10400517
-4.3265185	escoba	-0.10400517
-4.3265185	barre	-0.10400517
-4.3265185	pinsha	-0.10400517
-4.3265185	bijao	-0.10400517
-3.8089087	fui	-0.25197336
-4.3265185	sucia	-0.10400517
-4.0820265	jugando	-0.13119791
-4.3265185	tiñe	-0.10400517
-4.3265185	remedios	-0.10400517
-4.0820265	dan	-0.10400517
-4.3265185	mediodía	-0.10400517
-4.1881948	sueño	-0.10400517
-4.3265185	anoche	-0.10400517
-4.3265185	sonó	-0.10400517
-4.3265185	Kepityoki	-0.10400517
-4.3265185	caparazón	-0.10400517
-4.1881948	bocina	-0.10400517
-4.1881948	piernas	-0.10400517
-4.3265185	renegridas	-0.10400517
-4.3265185	patearon	-0.10400517
-4.3265185	juego	-0.10400517
-4.3265185	Cuál	-0.10400517
-4.0820265	origen	-0.10400517
-4.3265185	ishanga	-0.10400517
-4.3265185	disciplinar	-0.10400517
-4.3265185	desobediente	-0.10400517
-4.3265185	luciérnaga	-0.10400517
-4.3265185	pus	-0.10400517
-4.3265185	Shamoco	-0.10400517
-4.3265185	sabrosa	-0.10400517
-4.0820265	pinta	-0.13119791
-4.3265185	queme	-0.10400517
-3.642535	achiote	-0.2210467
-4.3265185	pintarse	-0.10400517
-4.3265185	Irishiria	-0.10400517
-4.3265185	paseo	-0.10400517
-2.9185581	él	-0.27364346
-4.3265185	quitó	-0.10400517
-2.8146188	ella	-0.2915475
-4.3265185	ebria	-0.10400517
-4.3265185	piampía	-0.10400517
-4.0820265	acerca	-0.10400517
-4.3265185	peló	-0.10400517
-4.3265185	Koñori	-0.10400517
-3.8089087	miedo	-0.13119791
-4.3265185	Vamos	-0.10400517
-4.3265185	bailar	-0.10400517
-4.3265185	uvillas	-0.10400517
-4.3265185	Mishaco	-0.10400517
-4.1881948	tripa	-0.10400517
-4.3265185	cebo	-0.10400517
-4.1881948	abrazó	-0.10400517
-3.8089087	fuerte	-0.14257035
-4.1881948	hombros	-0.10400517
-4.3265185	charapa	-0.10400517
-3.578405	subió	-0.19317539
-4.3265185	playa	-0.10400517
-3.9243426	anda	-0.10400517
-4.3265185	hembras	-0.10400517
-4.1881948	enfermos	-0.2077147
-4.3265185	shansho	-0.10400517
-4.3265185	cañabravas	-0.10400517
-3.9243426	Shimashiri	-0.22020236
-4.1881948	uñas	-0.10400517
-4.3265185	garra	-0.10400517
-4.3265185	permite	-0.10400517
-4.3265185	pezuña	-0.10400517
-4.3265185	cocinarla	-0.10400517
-4.3265185	tuerto	-0.10400517
-4.1881948	tumbó	-0.10400517
-4.3265185	ungurahui	-0.10400517
-4.3265185	crecieron	-0.10400517
-4.3265185	pihuicho	-0.10400517
-4.3265185	listo	-0.10400517
-4.0820265	volar	-0.14257035
-4.3265185	pene	-0.10400517
-4.3265185	echaro	-0.10400517
-4.3265185	defluente	-0.10400517
-4.3265185	huelen	-0.10400517
-4.1881948	seco	-0.10400517
-3.9243426	florea	-0.10400517
-4.3265185	mayo	-0.10400517
-4.3265185	engordan	-0.10400517
-4.3265185	zapallos	-0.10400517
-4.3265185	espuma	-0.10400517
-4.3265185	preparó	-0.10400517
-4.3265185	naza	-0.10400517
-4.3265185	atrapar	-0.10400517
-4.1881948	tábanos	-0.10400517
-4.3265185	Kompiyoshi	-0.10400517
-4.0820265	lopuna	-0.15277153
-4.1881948	vender	-0.10400517
-4.0820265	muere	-0.18371442
-4.3265185	Haz	-0.10400517
-4.0820265	correr	-0.17032477
-4.3265185	agarre	-0.10400517
-4.0820265	amigos	-0.10400517
-4.1881948	bajan	-0.10400517
-3.4730449	visto	-0.2575045
-4.3265185	bañándose	-0.10400517
-4.3265185	fila	-0.10400517
-4.3265185	dueño	-0.10400517
-4.3265185	hombrecito	-0.10400517
-4.3265185	bebida	-0.10400517
-4.0820265	tener	-0.10400517
-4.0820265	fuerza	-0.10400517
-4.3265185	débil	-0.10400517
-4.3265185	debilidad	-0.10400517
-4.3265185	causar	-0.10400517
-4.0820265	muerte	-0.10400517
-4.3265185	escapar	-0.10400517
-4.1881948	volver	-0.10400517
-4.0820265	espíritu	-0.18489678
-3.642535	enfermo	-0.20082085
-4.1881948	veremos	-0.10400517
-4.3265185	futuro	-0.10400517
-4.1881948	próximo	-0.10400517
-4.3265185	cose	-0.10400517
-4.3265185	Obityo	-0.10400517
-4.0820265	bravo	-0.17032477
-4.3265185	merma	-0.10400517
-4.3265185	varó	-0.10400517
-4.1881948	rió	-0.10400517
-4.3265185	emborrachó	-0.10400517
-4.3265185	descansar	-0.10400517
-4.3265185	enfermero	-0.10400517
-4.3265185	letrinas	-0.10400517
-4.3265185	enfermendades	-0.10400517
-3.642535	sentado	-0.27032122
-4.3265185	estera	-0.10400517
-4.3265185	dormía	-0.10400517
-3.642535	cargo	-0.18893439
-4.3265185	lombrices	-0.10400517
-4.3265185	sostienen	-0.10400517
-4.1881948	soldados	-0.17032477
-4.3265185	corren	-0.10400517
-4.3265185	enamorada	-0.10400517
-4.3265185	carros	-0.10400517
-3.2859368	grandes	-0.17604971
-4.1881948	pastor	-0.13119791
-4.1881948	bote	-0.10400517
-4.3265185	motor	-0.10400517
-4.3265185	Tambo	-0.10400517
-4.3265185	experto	-0.10400517
-4.3265185	quenas	-0.10400517
-4.3265185	persiguen	-0.10400517
-4.3265185	lagartijas	-0.10400517
-4.3265185	picarlas	-0.10400517
-3.9243426	sembró	-0.10400517
-4.1881948	creciendo	-0.10400517
-4.3265185	sopló	-0.10400517
-4.3265185	comadre	-0.10400517
-4.3265185	cuarto	-0.10400517
-4.3265185	pelando	-0.10400517
-4.1881948	viento	-0.10400517
-4.3265185	llover	-0.10400517
-4.0820265	tocó	-0.10400517
-4.3265185	tambor	-0.10400517
-4.3265185	fiesta	-0.10400517
-4.3265185	desarmó	-0.10400517
-4.3265185	cerco	-0.10400517
-4.3265185	batió	-0.10400517
-4.3265185	cercar	-0.10400517
-4.3265185	invitar	-0.10400517
-4.3265185	visitante	-0.10400517
-4.0820265	todavía	-0.25485528
-4.1881948	termino	-0.10400517
-4.3265185	teta	-0.10400517
-4.3265185	Koshantzi	-0.10400517
-3.9243426	piñas	-0.22020236
-4.1881948	toca	-0.10400517
-3.4730449	tienes	-0.26159504
-4.3265185	golondrinas	-0.10400517
-4.0820265	haciendo	-0.10400517
-4.3265185	circulos	-0.10400517
-4.3265185	Shebankori	-0.10400517
-4.3265185	extraviado	-0.10400517
-4.3265185	meterlo	-0.10400517
-4.3265185	almohada	-0.10400517
-4.1881948	vieja	-0.10400517
-4.3265185	traigas	-0.10400517
-4.3265185	torcido	-0.10400517
-4.3265185	doblando	-0.10400517
-4.3265185	yarina	-0.10400517
-4.3265185	Kowashito	-0.10400517
-4.3265185	embrear	-0.10400517
-4.3265185	renaco	-0.10400517
-4.3265185	fractura	-0.10400517
-4.3265185	hunagana	-0.10400517
-4.3265185	huicungo	-0.10400517
-4.3265185	profesores	-0.10400517
-4.3265185	surcan	-0.10400517
-4.3265185	Bota	-0.10400517
-4.3265185	excemento	-0.10400517
-4.3265185	aguaje	-0.10400517
-4.1881948	cochas	-0.17032477
-3.9243426	comía	-0.13590024
-4.3265185	cansé	-0.10400517
-4.1881948	subiendo	-0.10400517
-4.0820265	palos	-0.17032477
-4.3265185	armar	-0.10400517
-4.3265185	dirparó	-0.10400517
-4.3265185	escopeta	-0.10400517
-4.3265185	moler	-0.10400517
-4.1881948	chicha	-0.10400517
-4.1881948	tarrafeó	-0.10400517
-4.3265185	turushuqui	-0.10400517
-4.3265185	correntada	-0.10400517
-4.3265185	caracoles	-0.10400517
-4.1881948	unchala	-0.2077147
-4.0820265	mariposa	-0.10400517
-4.3265185	tendrás	-0.10400517
-3.9243426	visita	-0.10400517
-3.717803	coca	-0.26791137
-4.3265185	morral	-0.10400517
-4.3265185	Mishari	-0.10400517
-4.3265185	cultiva	-0.10400517
-4.3265185	maleza	-0.10400517
-4.3265185	reconocí	-0.10400517
-4.3265185	cresta	-0.10400517
-4.3265185	pituca	-0.10400517
-4.3265185	collar	-0.10400517
-4.3265185	brilla	-0.10400517
-4.3265185	ladra	-0.10400517
-4.3265185	mentiroso	-0.10400517
-4.3265185	Camaiteri	-0.10400517
-4.3265185	mintió	-0.10400517
-4.3265185	Mañana	-0.10400517
-4.1881948	regreso	-0.10400517
-4.3265185	apagó	-0.10400517
-4.1881948	raya	-0.10400517
-4.3265185	bañaba	-0.10400517
-4.3265185	mosquitos	-0.10400517
-4.1881948	chuparon	-0.10400517
-4.3265185	colador	-0.10400517
-4.3265185	colar	-0.10400517
-4.3265185	curarse	-0.10400517
-4.3265185	riñones	-0.10400517
-4.3265185	coge	-0.10400517
-4.3265185	descansa	-0.10400517
-4.3265185	sombra	-0.10400517
-4.3265185	Tyoviri	-0.10400517
-4.0820265	quema	-0.10400517
-4.3265185	carbón	-0.10400517
-4.3265185	Kishokiri	-0.10400517
-4.3265185	vencieron	-0.10400517
-4.3265185	derribándolo	-0.10400517
-4.3265185	bromeó	-0.10400517
-4.3265185	hermanito	-0.10400517
-4.1881948	orina	-0.10400517
-3.8089087	sacan	-0.1277042
-4.3265185	patarashacas	-0.10400517
-4.3265185	huasaí	-0.10400517
-4.3265185	suavizar	-0.10400517
-4.3265185	fideos	-0.10400517
-4.1881948	ají	-0.10400517
-3.351445	sea	-0.111449085
-4.1881948	agarré	-0.10400517
-4.1881948	grillos	-0.10400517
-4.3265185	anzuelear	-0.10400517
-4.3265185	chicua	-0.10400517
-4.3265185	huasa	-0.10400517
-4.0820265	grupos	-0.10400517
-4.3265185	lechuza	-0.10400517
-4.3265185	garras	-0.10400517
-4.1881948	largas	-0.10400517
-4.3265185	cucarachas	-0.10400517
-4.3265185	Aventyari	-0.10400517
-4.3265185	resina	-0.10400517
-4.3265185	cumala	-0.10400517
-4.3265185	terminaron	-0.10400517
-4.3265185	pelar	-0.10400517
-4.3265185	encanta	-0.10400517
-4.3265185	néctar	-0.10400517
-4.0820265	flores	-0.10400517
-3.642535	llevan	-0.14257035
-4.3265185	aparina	-0.10400517
-4.1881948	cargar	-0.10400517
-4.3265185	paucar	-0.10400517
-4.3265185	Apeti	-0.10400517
-4.3265185	muela	-0.10400517
-4.3265185	soportó	-0.10400517
-3.578405	dolor	-0.28102085
-4.3265185	Marinkama	-0.10400517
-4.1881948	laja	-0.10400517
-4.0820265	chupa	-0.10400517
-4.1881948	grueso	-0.2077147
-4.1881948	reventaron	-0.10400517
-4.3265185	pollitos	-0.10400517
-4.3265185	tyonkiro	-0.10400517
-4.3265185	teléfono	-0.10400517
-4.3265185	orejas	-0.10400517
-4.3265185	oye	-0.10400517
-4.3265185	rodillas	-0.10400517
-4.3265185	Ayúdame	-0.10400517
-4.3265185	termirar	-0.10400517
-4.3265185	regla	-0.10400517
-4.3265185	medir	-0.10400517
-4.3265185	mantablanca	-0.10400517
-3.8089087	tiempo	-0.16693766
-4.3265185	instruir	-0.10400517
-3.9243426	vayas	-0.2654938
-3.717803	saber	-0.10400517
-4.1881948	conocer	-0.10400517
-4.3265185	curativas	-0.10400517
-4.0820265	ayudar	-0.17032477
-3.351445	van	-0.54273635
-4.0820265	aprender	-0.17032477
-4.3265185	voz	-0.10400517
-4.3265185	incas	-0.10400517
-3.9243426	llegan	-0.10400517
-4.1881948	selva	-0.2077147
-4.3265185	jaguar	-0.10400517
-4.3265185	serpiente	-0.10400517
-4.3265185	En	-0.10400517
-3.8089087	puedo	-0.10400517
-4.0820265	servir	-0.17032477
-4.1881948	Con	-0.10400517
-4.3265185	curado	-0.10400517
-3.3883204	¡	-0.11382656
-4.3265185	Feliz	-0.10400517
-4.3265185	Día	-0.10400517
-4.1881948	Papá	-0.10400517
-2.7753644	!	-0.5250958
-3.717803	Ley	-0.21599977
-4.1881948	Recursos	-0.2077147
-4.3265185	Hídricos	-0.10400521
-4.1881948	Nº	-0.10400517
-4.3265185	29338	-0.10400517
-2.3360238	&#91;	-0.30824357
-4.0820265	…	-0.10400517
-2.2726421	&#93;	-0.53246844
-3.9243426	gobierno	-0.10400517
-4.3265185	eco	-0.10400517
-4.3265185	alerta	-0.10400517
-4.3265185	mundial	-0.10400517
-4.3265185	compromete	-0.10400517
-4.0820265	regulación	-0.10400517
-4.3265185	dedicarse	-0.10400517
-4.3265185	seriedad	-0.10400517
-4.3265185	labores	-0.10400517
-4.1881948	preservación	-0.15277153
-4.1881948	biodiversidad	-0.17032477
-3.8089087	recurso	-0.19448753
-4.0820265	hídrico	-0.1277042
-4.1881948	glaciares	-0.17032477
-4.3265185	Ollanta	-0.10400517
-4.3265185	Humala	-0.10400517
-4.3265185	Tasso	-0.10400517
-4.0820265	Presidente	-0.17032477
-4.3265185	Constitucional	-0.10400517
-4.3265185	Perú	-0.10400517
-4.3265185	28	-0.10400517
-4.3265185	julio	-0.10400517
-4.3265185	2013	-0.10400517
-4.0820265	Título	-0.11738872
-4.3265185	PRELIMINAR	-0.10400517
-3.8089087	artículo	-0.11821327
-4.1881948	I.	-0.10400517
-4.3265185	Contenido	-0.10400517
-3.9243426	presente	-0.10400517
-4.3265185	regula	-0.10400517
-3.5225377	recursos	-0.18420668
-4.3265185	hídricos	-0.10400517
-3.9243426	comprende	-0.15277153
-4.0820265	superficial	-0.10400517
-3.8089087	subterránea	-0.15294659
-4.1881948	continental	-0.10400517
-3.578405	bienes	-0.25677484
-3.9243426	asociados	-0.18893439
-4.3265185	extiende	-0.10400517
-4.3265185	marítima	-0.10400517
-4.1881948	atmosférica	-0.10400517
-4.1881948	resulte	-0.10400517
-4.1881948	aplicable	-0.10400517
-3.9243426	II	-0.15277153
-3.8089087	finalidad	-0.10400517
-4.1881948	regular	-0.10400517
-4.0820265	integrada	-0.1277042
-4.3265185	actuación	-0.10400517
-4.0820265	Estado	-0.13027145
-4.1881948	particulares	-0.10400517
-4.0820265	dicha	-0.10400517
-2.95958	así	-0.21835896
-4.0820265	III	-0.17032477
-3.8089087	principios	-0.13119791
-4.1881948	rigen	-0.10400517
-3.9243426	1	-0.15277153
-4.1881948	principio	-0.17032477
-4.1881948	valoración	-0.10400517
-3.8089087	valor	-0.10400517
-4.3265185	sociocultural	-0.10400517
-4.0820265	económico	-0.17032477
-4.3265185	equilibrio	-0.10400517
-3.3883204	estos	-0.14217483
-4.1881948	integrante	-0.10400517
-4.1881948	ecosistemas	-0.10400517
-4.0820265	renovable	-0.17032477
-4.3265185	ciclo	-0.10400517
-4.1881948	hidrológico	-0.10400517
-3.9243426	2	-0.2077147
-3.9243426	prioridad	-0.14257035
-3.9243426	acceso	-0.17032477
-4.3265185	satisfacción	-0.10400517
-4.1881948	necesidades	-0.14257035
-4.1881948	primarias	-0.10400517
-3.8089087	humana	-0.18371442
-4.3265185	prioritario	-0.10400517
-4.3265185	fundamental	-0.10400517
-3.317457	cualquier	-0.28802344
-4.1881948	inclusive	-0.10400517
-4.1881948	épocas	-0.2077147
-4.0820265	escasez	-0.10400517
-3.9243426	3	-0.2077147
-3.9243426	cultura	-0.15277153
-4.3265185	crea	-0.10400517
-4.0820265	mecanismos	-0.2077147
-3.9243426	usuarios	-0.13416189
-4.1881948	organizada	-0.10400517
-4.1881948	decisiones	-0.10400517
-4.3265185	cuanto	-0.10400517
-3.717803	calidad	-0.1890546
-3.5225377	cantidad	-0.35895225
-3.9243426	oportunidad	-0.10400517
-3.642535	u	-0.10400517
-4.3265185	atributo	-0.10400517
-4.0820265	fomenta	-0.17032477
-4.1881948	institucional	-0.10400517
-4.1881948	técnico	-0.10400517
-3.9243426	promueve	-0.20082085
-3.8089087	programas	-0.29938364
-4.1881948	difusión	-0.10400517
-4.3265185	sensibilización	-0.10400517
-3.317457	mediante	-0.32467887
-4.3265185	autoridades	-0.10400517
-4.3265185	educativo	-0.10400517
-4.3265185	importancia	-0.10400517
-4.3265185	humanidad	-0.10400517
-4.1881948	sistemas	-0.15277153
-4.3265185	conciencia	-0.10400517
-4.3265185	actitudes	-0.10400517
-4.3265185	propicien	-0.10400517
-4.1881948	jurídica	-0.17032477
-4.3265185	consagra	-0.10400517
-4.0820265	régimen	-0.15277153
-4.0820265	vela	-0.15277153
-3.717803	condiciones	-0.14546059
-4.1881948	otorgan	-0.10400517
-4.1881948	inversión	-0.10400517
-3.351445	pública	-0.20301099
-2.3752775	o	-0.14693724
-4.0820265	privada	-0.10400517
-4.3265185	coparticipación	-0.10400517
-4.0820265	5	-0.17032477
-3.717803	usos	-0.2021909
-4.1881948	respeta	-0.10400517
-3.8089087	costumbres	-0.12500626
-4.1881948	utilizar	-0.10400517
-3.717803	aguas	-0.1607165
-4.3265185	discurren	-0.10400517
-4.0820265	tierras	-0.17032477
-4.3265185	oponga	-0.10400517
-4.3265185	conocimiento	-0.10400517
-4.1881948	tecnología	-0.10400517
-4.3265185	ancestral	-0.10400517
-4.1881948	6	-0.10400517
-4.1881948	controla	-0.10400517
-3.8089087	aprovechamiento	-0.23064572
-3.9243426	conservación	-0.2021909
-4.3265185	previniendo	-0.10400517
-3.317457	naturales	-0.38042498
-4.1881948	ecosistema	-0.10400517
-4.1881948	encuentran	-0.10400517
-4.3265185	implica	-0.10400517
-4.1881948	equilibrada	-0.2077147
-4.1881948	aspectos	-0.10400517
-3.9243426	económicos	-0.10400517
-3.3883204	nacional	-0.18440956
-4.3265185	actuales	-0.10400517
-4.3265185	futuras	-0.10400517
-4.3265185	generaciones	-0.10400517
-4.3265185	7	-0.10400517
-4.3265185	descentralización	-0.10400517
-4.0820265	única	-0.10400517
-4.1881948	conducción	-0.10400517
-4.0820265	Sistema	-0.31956726
-3.4286199	Nacional	-0.17125146
-4.3265185	Gestión	-0.10400517
-3.8089087	responsabilidad	-0.19129477
-4.3265185	desconcentrada	-0.10400517
-3.8089087	artificiales	-0.14257035
-4.3265185	8	-0.10400517
-4.3265185	precautorio	-0.10400517
-4.3265185	ausencia	-0.10400517
-4.3265185	certeza	-0.10400517
-4.3265185	absoluta	-0.10400517
-4.1881948	daño	-0.10400517
-4.3265185	irreversible	-0.10400517
-4.3265185	amenace	-0.10400517
-3.9243426	constituye	-0.10400517
-4.3265185	impedimento	-0.10400517
-4.3265185	adoptar	-0.10400517
-3.717803	medidas	-0.12500626
-4.3265185	impidan	-0.10400517
-4.3265185	degradación	-0.10400517
-3.717803	extinción	-0.41465777
-4.1881948	9	-0.10400517
-3.9243426	eficiencia	-0.11738872
-4.3265185	sustenta	-0.10400517
-3.717803	eficiente	-0.2210467
-4.3265185	incentivando	-0.10400517
-4.0820265	operadores	-0.22020236
-3.9243426	10	-0.10400517
-4.1881948	participativa	-0.10400517
-4.3265185	hidrográfica	-0.10400517
-4.3265185	óptimo	-0.10400517
-4.3265185	equitativo	-0.10400517
-4.0820265	procesos	-0.16020766
-4.1881948	11	-0.10400517
-4.3265185	tutela	-0.10400517
-4.3265185	protege	-0.10400517
-4.1881948	supervisa	-0.10400517
-4.3265185	fiscaliza	-0.10400517
-3.8089087	estado	-0.13119791
-4.3265185	encuentre	-0.10400517
-4.3265185	sólido	-0.10400517
-4.3265185	gaseoso	-0.10400517
-4.3265185	etapa	-0.10400517
-4.3265185	Disposiciones	-0.10400517
-4.0820265	generales	-0.17032477
-4.3265185	1º	-0.10400517
-3.717803	natural	-0.22020236
-4.3265185	indispensable	-0.10400517
-4.3265185	vulnerable	-0.10400517
-4.3265185	estratégico	-0.10400517
-3.9243426	mantenimiento	-0.16020766
-4.3265185	ciclos	-0.10400517
-4.3265185	sustentan	-0.10400517
-4.3265185	Nación	-0.10400517
-4.3265185	2º	-0.10400517
-3.8089087	dominio	-0.198547
-3.642535	público	-0.13590024
-4.3265185	patrimonio	-0.10400517
-4.3265185	inalienable	-0.10400517
-4.1881948	imprescriptible	-0.10400517
-3.8089087	administración	-0.10400517
-4.1881948	otorgada	-0.10400517
-4.3265185	ejercida	-0.10400517
-4.3265185	armonía	-0.10400517
-4.0820265	común	-0.15277153
-3.717803	protección	-0.25783682
-3.8089087	interés	-0.17032477
-4.0820265	propiedad	-0.10400517
-4.3265185	3º	-0.10400517
-4.0820265	declaratoria	-0.15277153
-4.0820265	necesidad	-0.17032477
-4.3265185	Declárase	-0.10400517
-4.3265185	propósito	-0.10400517
-4.0820265	lograr	-0.10400517
-4.1881948	manejo	-0.10400517
-3.9243426	cuencas	-0.15301023
-4.1881948	hidrográficas	-0.10400517
-4.1881948	acuíferos	-0.10400517
-3.9243426	asegurar	-0.15277153
-4.3265185	fomentando	-0.10400517
-4.1881948	demanda	-0.17032477
-4.3265185	4º	-0.10400517
-4.3265185	Denominaciones	-0.10400517
-4.1881948	haga	-0.10400517
-4.3265185	referencia	-0.10400517
-3.8089087	Reglamento	-0.19317539
-4.3265185	entiende	-0.10400517
-4.3265185	trata	-0.10400517
-4.0820265	Autoridad	-0.1277042
-4.3265185	entenderse	-0.10400517
-4.1881948	Agua	-0.12500626
-4.3265185	ANA	-0.10400517
-3.717803	Consejo	-0.43631962
-4.3265185	Cuenca	-0.10400517
-4.3265185	5º	-0.10400517
-4.1881948	comprendida	-0.10400517
-4.0820265	materia	-0.25485528
-4.1881948	siguiente	-0.10400517
-4.3265185	afluentes	-0.10400517
-4.3265185	discurre	-0.10400517
-3.8089087	cauces	-0.16321816
-4.3265185	acumulada	-0.10400517
-4.1881948	forma	-0.13119791
-4.1881948	artificial	-0.10400517
-4.1881948	encuentra	-0.14257035
-4.3265185	ensenadas	-0.10400517
-4.1881948	esteros	-0.10400517
-4.1881948	humedales	-0.2077147
-4.3265185	manglares	-0.10400517
-4.1881948	manantiales	-0.10400517
-4.3265185	nevados	-0.10400517
-4.1881948	residual	-0.12500626
-4.1881948	minero	-0.10400517
-4.1881948	medicinal	-0.10400517
-4.3265185	geotermal	-0.10400517
-4.1881948	12	-0.10400517
-4.3265185	13	-0.10400517
-3.9243426	proveniente	-0.444506
-4.1881948	desalación	-0.10400517
-4.3265185	6º	-0.10400517
-4.1881948	extensión	-0.10400517
-4.1881948	alta	-0.10400517
-4.3265185	marea	-0.10400517
-4.3265185	franja	-0.10400517
-4.3265185	paralela	-0.10400517
-4.1881948	línea	-0.10400517
-4.3265185	determine	-0.10400517
-3.8089087	competente	-0.20082085
-4.3265185	b	-0.10400517
-4.3265185	álveos	-0.10400517
-4.3265185	lechos	-0.10400517
-4.3265185	riberas	-0.10400517
-4.3265185	incluyendo	-0.10400517
-4.3265185	playas	-0.10400517
-4.3265185	barriales	-0.10400517
-4.1881948	restingas	-0.10400517
-4.3265185	bajiales	-0.10400517
-3.4730449	caso	-0.19634934
-4.3265185	vegetación	-0.10400517
-4.3265185	c.	-0.10400517
-4.3265185	materiales	-0.10400517
-4.3265185	deposita	-0.10400517
-4.1881948	D	-0.10400517
-4.3265185	áreas	-0.10400517
-4.3265185	ocupadas	-0.10400517
-4.3265185	estratos	-0.10400517
-4.3265185	depósitos	-0.10400517
-4.3265185	f	-0.10400517
-4.1881948	islas	-0.10400517
-4.0820265	existentes	-0.10400517
-4.3265185	formen	-0.10400517
-4.3265185	mares	-0.10400517
-4.1881948	lagos	-0.10400517
-4.3265185	lagunas	-0.10400517
-3.578405	siempre	-0.14974625
-4.3265185	procedan	-0.10400517
-4.3265185	bifurcación	-0.10400517
-4.1881948	curso	-0.10400517
-4.3265185	g	-0.10400517
-4.1881948	terrenos	-0.10400517
-4.3265185	ganados	-0.10400517
-4.3265185	causas	-0.10400517
-3.642535	obras	-0.16099072
-3.9243426	mar	-0.3517653
-4.3265185	cursos	-0.10400517
-4.3265185	embalses	-0.10400517
-4.3265185	h	-0.10400517
-4.3265185	ribereña	-0.10400517
-4.3265185	cabeceras	-0.10400517
-4.1881948	I	-0.10400517
-4.3265185	fajas	-0.10400517
-4.3265185	marginales	-0.10400517
-4.3265185	refiere	-0.10400517
-4.3265185	j	-0.10400517
-4.3265185	señale	-0.10400517
-4.1881948	captación	-0.15277153
-4.0820265	extracción	-0.10400517
-4.1881948	almacenamiento	-0.10400517
-4.1881948	medición	-0.10400517
-3.9243426	control	-0.18489678
-4.1881948	saneamiento	-0.10400517
-4.3265185	depuración	-0.10400517
-4.1881948	tratamiento	-0.10400517
-4.1881948	reutilización	-0.10400517
-4.1881948	recarga	-0.2077147
-4.3265185	encauzamiento	-0.10400517
-4.0820265	defensa	-0.10400517
-4.0820265	inundaciones	-0.10400517
-3.9243426	integran	-0.14257035
-3.8089087	hidráulico	-0.15277153
-4.1881948	caminos	-0.2077147
-4.3265185	sirven	-0.10400517
-4.1881948	arreglo	-0.10400517
-4.1881948	ley	-0.10400517
-4.3265185	7º	-0.10400517
-4.0820265	constituyen	-0.14257035
-4.1881948	sujetos	-0.2077147
-3.9243426	disposiciones	-0.122859806
-4.3265185	enunciada	-0.10400517
-3.8089087	señalados	-0.3517653
-4.3265185	numeral	-0.10400517
-3.5225377	toda	-0.21045169
-3.8089087	afecte	-0.13590024
-4.1881948	altere	-0.2077147
-3.8089087	características	-0.2654938
-4.0820265	previamente	-0.10400517
-4.3265185	autorizada	-0.10400517
-4.3265185	Administrativa	-0.10400517
-4.1881948	excepción	-0.2077147
-4.3265185	primario	-0.10400517
-4.3265185	referentes	-0.10400517
-4.1881948	navegación	-0.10400517
-4.3265185	8º	-0.10400517
-4.3265185	ejecutados	-0.10400517
-4.1881948	fondos	-0.10400517
-3.9243426	públicos	-0.14257035
-4.3265185	E	-0.10400517
-4.3265185	INTEGRANTES	-0.10400517
-4.3265185	9º	-0.10400517
-4.3265185	Creación	-0.10400517
-4.3265185	Créase	-0.10400517
-3.9243426	objeto	-0.14257035
-4.1881948	articular	-0.10400517
-4.3265185	accionar	-0.10400517
-4.1881948	conducir	-0.10400517
-4.1881948	ámbitos	-0.10400517
-4.3265185	conforman	-0.10400517
-4.0820265	establecer	-0.10400517
-4.3265185	espacios	-0.10400517
-3.9243426	coordinación	-0.15277153
-4.3265185	concertación	-0.10400517
-3.642535	entidades	-0.15748887
-4.3265185	actores	-0.10400517
-4.3265185	involucrados	-0.10400517
-4.3265185	10º	-0.10400517
-3.578405	Ambiental	-0.122859806
-3.8089087	cumplimiento	-0.541416
-4.0820265	política	-0.25485528
-4.3265185	estrategia	-0.10400517
-3.8089087	plan	-0.24170637
-4.1881948	niveles	-0.15277153
-4.3265185	distintos	-0.10400517
-4.3265185	11º	-0.10400517
-4.1881948	conformación	-0.10400517
-3.9243426	integrantes	-0.14257035
-4.3265185	conformado	-0.10400517
-4.1881948	conjunto	-0.17032477
-3.8089087	procedimientos	-0.1277042
-4.1881948	técnicas	-0.10400517
-4.1881948	desarrolla	-0.10400517
-4.3265185	asegura	-0.10400517
-4.1881948	multisectorial	-0.10400517
-4.3265185	ministerios	-0.10400517
-4.3265185	Ambiente	-0.10400517
-4.3265185	Agricultura	-0.10400517
-4.3265185	Vivienda	-0.10400517
-4.3265185	Construcción	-0.10400517
-4.3265185	Saneamiento	-0.10400517
-4.3265185	Salud	-0.10400517
-4.3265185	Producción	-0.10400517
-4.3265185	Energía	-0.10400517
-4.3265185	Minas	-0.10400517
-4.0820265	gobiernos	-0.2077147
-3.9243426	regionales	-0.14707464
-3.9243426	órganos	-0.17032477
-4.0820265	competentes	-0.10400517
-4.1881948	agrarios	-0.10400517
-4.3265185	operadoras	-0.10400517
-4.3265185	sectores	-0.10400517
-4.0820265	hidráulicos	-0.10400517
-4.3265185	carácter	-0.10400517
-3.9243426	sectorial	-0.15277153
-4.3265185	vinculadas	-0.10400517
-4.3265185	12º	-0.10400517
-4.0820265	objetivos	-0.31956726
-4.0820265	siguientes	-0.14870852
-4.1881948	coordinar	-0.15277153
-4.3265185	función	-0.10400517
-4.0820265	respectivo	-0.10400517
-3.9243426	promover	-0.15277153
-4.1881948	elaboración	-0.15277153
-3.717803	estudios	-0.1277042
-3.717803	ejecución	-0.1768879
-3.9243426	proyectos	-0.13119791
-4.3265185	investigación	-0.10400517
-4.3265185	capacitación	-0.10400517
-4.3265185	13º	-0.10400517
-4.3265185	Alcances	-0.10400517
-3.9243426	Ministerio	-0.23856652
-4.1881948	marco	-0.17032477
-4.1881948	NACIONAL	-0.2077147
-3.8089087	DEL	-0.10400517
-4.1881948	AGUA	-0.2077147
-4.3265185	14º	-0.10400517
-4.1881948	ente	-0.2077147
-4.3265185	rector	-0.10400517
-4.3265185	máxima	-0.10400517
-4.3265185	técnico-normativa	-0.10400517
-4.1881948	funcionamiento	-0.2077147
-3.8089087	dicho	-0.10400517
-3.8089087	establecido	-0.3517653
-4.3265185	15º	-0.10400517
-3.5225377	funciones	-0.2096679
-4.1881948	elaborar	-0.10400517
-4.3265185	conduciendo	-0.10400517
-4.3265185	supervisando	-0.10400517
-4.3265185	evaluando	-0.10400517
-4.3265185	deberán	-0.10400517
-4.1881948	aprobados	-0.2077147
-4.1881948	decreto	-0.2077147
-4.3265185	supremo	-0.10400517
-4.3265185	refrendado	-0.10400517
-4.3265185	Ministros	-0.10400517
-4.1881948	lineamientos	-0.10400517
-4.3265185	formulación	-0.10400517
-4.3265185	actualización	-0.10400517
-4.0820265	planes	-0.10400517
-4.3265185	aprobarlos	-0.10400517
-4.1881948	supervisar	-0.10400517
-4.0820265	legales	-0.15277153
-3.9243426	competencia	-0.10400517
-4.0820265	dictar	-0.10400517
-4.3265185	integral	-0.10400517
-4.3265185	método	-0.10400517
-4.3265185	determinar	-0.10400517
-4.0820265	retribuciones	-0.31956726
-4.3265185	económicas	-0.10400517
-3.717803	vertimiento	-0.2721725
-4.3265185	residuales	-0.10400517
-4.1881948	valores	-0.10400517
-3.3883204	deben	-0.15294659
-4.0820265	tarifas	-0.13590024
-4.0820265	hidráulica	-0.122859806
-4.3265185	previo	-0.10400517
-4.3265185	estudio	-0.10400517
-4.1881948	reservas	-0.10400517
-3.8089087	determinado	-0.10400517
-4.3265185	requiera	-0.10400517
-4.1881948	último	-0.10400517
-4.1881948	trasvase	-0.10400517
-4.1881948	declarar	-0.10400517
-4.0820265	agotamiento	-0.17032477
-3.717803	zonas	-0.3663304
-4.3265185	veda	-0.10400517
-4.1881948	estados	-0.17032477
-4.3265185	emergencia	-0.10400517
-4.1881948	superávit	-0.2077147
-4.0820265	contaminación	-0.10400517
-4.3265185	conflicto	-0.10400517
-4.3265185	relacionado	-0.10400517
-4.3265185	dictando	-0.10400517
-4.3265185	pertinentes	-0.10400517
-4.0820265	otorgar	-0.10400517
-4.3265185	modificar	-0.10400517
-4.3265185	extinguir	-0.10400517
-3.9243426	modificación	-0.2077147
-4.0820265	servidumbres	-0.13590024
-4.3265185	desconcentrados	-0.10400517
-4.1881948	organizar	-0.10400517
-4.1881948	administrar	-0.10400517
-4.3265185	Información	-0.10400517
-4.3265185	Registro	-0.10400517
-4.1881948	Administrativo	-0.10400517
-4.3265185	Organizaciones	-0.10400517
-4.0820265	demás	-0.1277042
-4.1881948	correspondan	-0.10400517
-4.3265185	Emitir	-0.10400517
-3.9243426	opinión	-0.17032477
-3.8089087	técnica	-0.18371442
-4.1881948	vinculante	-0.10400517
-3.717803	otorgamiento	-0.28163168
-4.1881948	autorizaciones	-0.10400517
-4.3265185	acarreo	-0.10400517
-4.3265185	evaluar	-0.10400517
-3.5225377	actividades	-0.13891943
-4.0820265	impacto	-0.17032477
-3.9243426	respecto	-0.25485528
-4.1881948	disponibilidad	-0.10400517
-4.3265185	viabilidad	-0.10400517
-4.3265185	involucren	-0.10400517
-3.9243426	utilización	-0.1277042
-4.0820265	ejercer	-0.22020236
-4.3265185	jurisdicción	-0.10400517
-3.9243426	administrativa	-0.10400517
-4.3265185	exclusiva	-0.10400517
-4.3265185	desarrollando	-0.10400517
-3.642535	acciones	-0.21045169
-4.1881948	fiscalización	-0.10400517
-4.3265185	ejerciendo	-0.10400517
-4.0820265	efecto	-0.10400517
-4.1881948	facultad	-0.10400517
-4.3265185	sancionadora	-0.10400517
-4.1881948	coactiva	-0.10400517
-4.3265185	parámetros	-0.10400517
-4.0820265	aplicables	-0.15277153
-4.3265185	dichos	-0.10400517
-4.3265185	concordancia	-0.10400517
-4.0820265	ambiente	-0.17032477
-4.3265185	14	-0.10400517
-4.3265185	Reforzar	-0.10400517
-4.3265185	favorecidas	-0.10400517
-4.3265185	15	-0.10400517
-4.1881948	demarcación	-0.10400517
-4.3265185	16	-0.10400517
-4.3265185	16º	-0.10400517
-4.3265185	asignados	-0.10400517
-4.3265185	Presupuesto	-0.10400517
-4.3265185	República	-0.10400517
-4.1881948	transferencias	-0.10400517
-4.1881948	sector	-0.10400517
-4.3265185	pagos	-0.10400517
-4.3265185	efectúan	-0.10400517
-4.3265185	concepto	-0.10400517
-4.3265185	recaude	-0.10400517
-4.3265185	intereses	-0.10400517
-4.3265185	compensatorios	-0.10400517
-4.3265185	moratorios	-0.10400517
-4.3265185	aportes	-0.10400517
-4.3265185	asignaciones	-0.10400517
-4.3265185	donaciones	-0.10400517
-4.3265185	legados	-0.10400517
-4.1881948	título	-0.10400517
-4.3265185	jurídicas	-0.10400517
-4.3265185	extranjeras	-0.10400517
-4.3265185	provengan	-0.10400517
-4.1881948	cooperación	-0.10400517
-4.3265185	ingresos	-0.10400517
-4.1881948	financieros	-0.10400517
-4.1881948	generen	-0.10400517
-4.0820265	retribución	-0.23856652
-4.3265185	107º	-0.10400517
-4.3265185	Decreto	-0.10400517
-4.3265185	25844	-0.10400517
-4.3265185	Concesiones	-0.10400517
-4.3265185	Eléctricas	-0.10400517
-4.3265185	recauden	-0.10400517
-4.3265185	multas	-0.10400517
-4.3265185	tramitación	-0.10400517
-4.1881948	administrativos	-0.10400517
-3.9243426	corresponda	-0.23469187
-4.3265185	resolver	-0.10400517
-3.4286199	conforme	-0.56262505
-4.3265185	competencias	-0.10400517
-4.3265185	asigne	-0.10400517
-4.1881948	estructura	-0.10400517
-4.3265185	ORGÁNICA	-0.10400517
-3.717803	LA	-0.10400517
-4.3265185	AUTORIDAD	-0.10400517
-3.9243426	organización	-0.22020236
-4.3265185	rige	-0.10400517
-4.3265185	básica	-0.10400517
-4.3265185	compuesta	-0.10400517
-4.3265185	Directivo	-0.10400517
-4.1881948	Jefatura	-0.10400517
-4.3265185	Resolución	-0.10400517
-4.3265185	Controversias	-0.10400517
-4.3265185	Hídricas	-0.10400517
-4.1881948	apoyo	-0.10400517
-4.3265185	asesoramiento	-0.10400517
-4.3265185	denominados	-0.10400517
-4.1881948	Autoridades	-0.2077147
-4.3265185	Administrativas	-0.10400517
-4.1881948	administraciones	-0.10400517
-4.3265185	Locales	-0.10400517
-4.3265185	dependen	-0.10400517
-4.3265185	18º	-0.10400517
-3.8089087	información	-0.16020766
-4.3265185	proporcionan	-0.10400517
-4.0820265	solicitada	-0.10400517
-4.0820265	ámbito	-0.17032477
-4.3265185	amparo	-0.10400517
-4.3265185	norma	-0.10400517
-4.1881948	dispone	-0.10400517
-4.0820265	inclusión	-0.17032477
-4.3265185	directivo	-0.10400517
-4.3265185	19º	-0.10400517
-3.9243426	instancia	-0.15277153
-4.3265185	miembros	-0.10400517
-4.3265185	representante	-0.10400517
-4.3265185	asume	-0.10400517
-4.3265185	Presidencia	-0.10400517
-4.0820265	productivos	-0.10400517
-4.1881948	salud	-0.10400517
-4.3265185	elegido	-0.10400517
-4.3265185	presidentes	-0.10400517
-4.3265185	municipalidades	-0.10400517
-4.3265185	rurales	-0.10400517
-4.3265185	Marítima	-0.10400517
-4.0820265	designación	-0.17032477
-4.1881948	representantes	-0.10400517
-4.1881948	enunciados	-0.10400517
-4.3265185	numerales	-0.10400517
-4.1881948	efectúa	-0.10400517
-3.642535	resolución	-0.35107467
-4.3265185	suprema	-0.10400517
-4.3265185	expedida	-0.10400517
-4.3265185	funcionarios	-0.10400517
-3.8089087	nivel	-0.10400517
-4.3265185	rango	-0.10400517
-4.3265185	director	-0.10400517
-3.8089087	similar	-0.10400517
-4.3265185	representativas	-0.10400517
-4.3265185	señaladas	-0.10400517
-4.3265185	acreditan	-0.10400517
-4.3265185	nombramiento	-0.10400517
-4.3265185	20º	-0.10400517
-4.3265185	Planificar	-0.10400517
-4.3265185	dirigir	-0.10400517
-4.3265185	marcha	-0.10400517
-4.3265185	liderando	-0.10400517
-4.0820265	acuerdo	-0.14257035
-4.3265185	dispuesto	-0.10400517
-4.0820265	estrategias	-0.10400517
-4.0820265	institucionales	-0.10400517
-4.3265185	presupuesto	-0.10400517
-4.3265185	operativo	-0.10400517
-4.0820265	anual	-0.17032477
-4.3265185	memoria	-0.10400517
-4.3265185	balance	-0.10400517
-4.3265185	Pashine	-0.10400517
-4.3265185	otsokero	-0.10400517
-4.3265185	okobakari	-0.10400517
-4.3265185	subcapítulO	-0.10400517
-4.3265185	jefatura	-0.10400517
-4.3265185	21º	-0.10400517
-4.0820265	Jefe	-0.17032477
-4.3265185	funcionario	-0.10400517
-4.3265185	designado	-0.10400517
-4.3265185	refrendada	-0.10400517
-4.1881948	Ministro	-0.2077147
-4.3265185	representación	-0.10400517
-4.3265185	legal	-0.10400517
-4.3265185	asumiendo	-0.10400517
-4.3265185	titularidad	-0.10400517
-4.3265185	pliego	-0.10400517
-4.3265185	presupuestal	-0.10400517
-4.3265185	Celebrar	-0.10400517
-4.3265185	contratos	-0.10400517
-4.3265185	convenios	-0.10400517
-4.3265185	crédito	-0.10400517
-4.3265185	financiera	-0.10400517
-4.3265185	conformidad	-0.10400517
-4.0820265	vigentes	-0.15277153
-3.717803	cumplir	-0.10400517
-4.0820265	acuerdos	-0.17032477
-3.642535	necesarias	-0.36350527
-4.0820265	desarrollan	-0.10400517
-4.0820265	respectivos	-0.10400517
-4.1881948	someter	-0.10400517
-4.3265185	resultados	-0.10400517
-4.3265185	auditados	-0.10400517
-3.8089087	ejercicio	-0.17032477
-4.3265185	Expedir	-0.10400517
-4.1881948	resoluciones	-0.10400517
-4.3265185	Convocar	-0.10400517
-4.3265185	sesiones	-0.10400517
-4.3265185	actúa	-0.10400517
-4.3265185	secretario	-0.10400517
-4.3265185	naciOnal	-0.10400517
-4.3265185	resOlución	-0.10400517
-4.3265185	cOntrOversias	-0.10400517
-4.3265185	hídricas	-0.10400517
-4.3265185	22º	-0.10400517
-4.1881948	órgano	-0.10400517
-4.3265185	funcional	-0.10400517
-4.3265185	conoce	-0.10400517
-4.3265185	resuelve	-0.10400517
-4.3265185	última	-0.10400517
-4.3265185	reclamaciones	-0.10400517
-4.3265185	emitidas	-0.10400517
-3.642535	según	-0.18420668
-3.578405	pueden	-0.2240658
-4.3265185	impugnadas	-0.10400517
-4.3265185	vía	-0.10400517
-4.1881948	judicial	-0.10400517
-4.3265185	composición	-0.10400517
-4.3265185	definidas	-0.10400517
-4.1881948	Organización	-0.10400517
-4.3265185	Funciones	-0.10400517
-4.3265185	integrado	-0.10400517
-3.642535	cinco	-0.2654938
-4.3265185	profesionales	-0.10400517
-4.1881948	reconocida	-0.10400517
-4.3265185	experiencia	-0.10400517
-4.1881948	período	-0.17032477
-3.4730449	años	-0.26127654
-4.3265185	concurso	-0.10400517
-4.3265185	méritos	-0.10400517
-4.0820265	aprueba	-0.198547
-4.3265185	nombrados	-0.10400517
-4.3265185	23º	-0.10400517
-4.1881948	instancias	-0.10400517
-4.1881948	administrativas	-0.10400517
-4.1881948	resuelven	-0.10400517
-3.717803	primera	-0.13590024
-4.3265185	asuntos	-0.10400517
-4.3265185	presencia	-0.10400517
-4.1881948	determinados	-0.10400517
-4.3265185	24º	-0.10400517
-4.3265185	Consejos	-0.10400517
-3.9243426	permanente	-0.10400517
-4.3265185	creados	-0.10400517
-4.3265185	iniciativa	-0.10400517
-4.1881948	participar	-0.2077147
-4.0820265	planificación	-0.14257035
-3.0554714	dos	-0.20768628
-4.0820265	clases	-0.17032477
-4.3265185	Regional	-0.10400517
-4.3265185	localiza	-0.10400517
-4.3265185	íntegramente	-0.10400517
-4.0820265	regional	-0.17032477
-4.1881948	Interregional	-0.15277153
-4.3265185	decretos	-0.10400517
-4.3265185	supremos	-0.10400517
-4.3265185	crean	-0.10400517
-4.1881948	establecen	-0.10400517
-4.3265185	orgánica	-0.10400517
-4.1881948	considera	-0.10400517
-4.3265185	atribuciones	-0.10400517
-4.3265185	determinadas	-0.10400517
-3.9243426	LOS	-0.10400517
-4.1881948	GOBIERNOS	-0.10400517
-4.3265185	REGIONALES	-0.10400517
-3.717803	Y	-0.10400517
-4.3265185	LOCALES	-0.10400517
-4.3265185	25º	-0.10400517
-3.8089087	correspondientes	-0.14257035
-4.3265185	intervienen	-0.10400517
-4.3265185	Participan	-0.10400517
-3.5225377	mayor	-0.1949664
-4.1881948	transfiera	-0.10400517
-4.3265185	operada	-0.10400517
-3.8089087	bajo	-0.13590024
-4.1881948	directivas	-0.10400517
-4.3265185	emita	-0.10400517
-4.3265185	USUARIOS	-0.10400517
-4.3265185	26º	-0.10400517
-4.3265185	comparten	-0.10400517
-3.9243426	comités	-0.25485528
-4.1881948	comisiones	-0.10400517
-4.1881948	juntas	-0.2077147
-4.1881948	mínimo	-0.10400517
-4.1881948	cuentan	-0.10400517
-4.3265185	abastecimiento	-0.10400517
-4.1881948	propio	-0.10400517
-4.3265185	organizarse	-0.10400517
-4.0820265	asociaciones	-0.10400517
-4.3265185	Código	-0.10400517
-4.3265185	Civil	-0.10400517
-4.3265185	prestadoras	-0.10400517
-4.0820265	servicios	-0.15277153
-3.9243426	cual	-0.13119791
-4.1881948	sirve	-0.10400517
-4.3265185	27º	-0.10400517
-4.1881948	civiles	-0.10400517
-4.3265185	garantiza	-0.10400517
-4.3265185	elección	-0.10400517
-4.3265185	democrática	-0.10400517
-4.3265185	directivos	-0.10400517
-4.3265185	registro	-0.10400517
-3.8089087	establecidas	-0.22020236
-4.3265185	28º	-0.10400517
-4.3265185	organiza	-0.10400517
-3.642535	criterios	-0.16469422
-4.1881948	técnicos	-0.10400517
-4.0820265	operación	-0.25485528
-3.9243426	distribución	-0.15277153
-4.3265185	Cobro	-0.10400517
-4.3265185	asignadas	-0.10400517
-4.1881948	realizarse	-0.10400517
-4.3265185	evaluado	-0.10400517
-4.3265185	Control	-0.10400517
-4.3265185	29º	-0.10400517
-4.1881948	organizan	-0.10400517
-4.3265185	30º	-0.10400517
-4.3265185	superficiales	-0.10400517
-4.3265185	subterráneas	-0.10400517
-4.3265185	filtración	-0.10400517
-4.3265185	canales	-0.10400517
-4.1881948	menores	-0.10400517
-4.3265185	pozo	-0.10400517
-4.1881948	filtraciones	-0.10400517
-4.0820265	área	-0.15277153
-4.3265185	afloramiento	-0.10400517
-4.3265185	31º	-0.10400517
-4.0820265	reconoce	-0.10400517
-4.3265185	32º	-0.10400517
-4.3265185	torno	-0.10400517
-4.3265185	microcuencas	-0.10400517
-4.3265185	subcuencas	-0.10400517
-4.3265185	tradicionales	-0.10400517
-4.3265185	mismos	-0.10400517
-4.3265185	ENTIDADES	-0.10400517
-4.3265185	MULTINACIONALES	-0.10400517
-4.3265185	33º	-0.10400517
-4.1881948	coordina	-0.2077147
-4.3265185	Relaciones	-0.10400517
-4.3265185	Exteriores	-0.10400517
-4.3265185	suscripción	-0.10400517
-4.3265185	tengan	-0.10400517
-4.3265185	transfronterizas	-0.10400517
-4.3265185	34º	-0.10400517
-4.1881948	condicionado	-0.2077147
-4.1881948	terceros	-0.2077147
-4.3265185	mantengan	-0.10400517
-4.3265185	mejoren	-0.10400517
-4.3265185	físico-químicas	-0.10400517
-4.0820265	beneficio	-0.10400517
-4.1881948	35º	-0.10400517
-4.0820265	orden	-0.15277153
-4.3265185	poblacional	-0.10400517
-4.3265185	productivo	-0.10400517
-4.0820265	anteriormente	-0.17032477
-3.4286199	han	-0.13939218
-3.642535	sido	-0.10400517
-4.3265185	36º	-0.10400517
-4.0820265	consiste	-0.31956726
-4.3265185	directa	-0.10400517
-4.1881948	misma	-0.10400517
-4.1881948	satisfacer	-0.15277153
-4.3265185	humanas	-0.10400517
-4.1881948	preparación	-0.2077147
-4.3265185	alimentos	-0.10400517
-4.1881948	directo	-0.10400517
-4.1881948	aseo	-0.2077147
-4.1881948	personal	-0.10400517
-4.3265185	ceremonias	-0.10400517
-4.1881948	culturales	-0.2077147
-4.1881948	religiosas	-0.10400517
-4.3265185	rituales	-0.10400517
-4.3265185	37º	-0.10400517
-3.8089087	requiere	-0.21659763
-3.642535	autorización	-0.2189688
-4.1881948	ejerce	-0.10400517
-3.351445	sola	-0.2255609
-4.1881948	disposición	-0.10400517
-4.3265185	inocuo	-0.10400517
-4.3265185	lucrativo	-0.10400517
-4.3265185	gratuita	-0.10400517
-4.1881948	propia	-0.10400517
-4.3265185	restringido	-0.10400517
-4.3265185	manuales	-0.10400517
-4.3265185	38º	-0.10400517
-4.3265185	alterarlos	-0.10400517
-4.3265185	evitando	-0.10400517
-3.9243426	directamente	-0.15277153
-3.8089087	necesario	-0.10400517
-3.717803	lugares	-0.1277042
-4.1881948	debidamente	-0.10400517
-4.1881948	tratada	-0.15277153
-4.3265185	básicas	-0.10400517
-4.3265185	hábitos	-0.10400517
-4.1881948	otorgados	-0.10400517
-4.3265185	potable	-0.10400517
-4.0820265	suficiente	-0.10400517
-4.3265185	personales	-0.10400517
-4.3265185	domésticas	-0.10400517
-4.3265185	Abakojetiro	-0.10400517
-4.3265185	41	-0.10400517
-4.1881948	°	-0.2077147
-4.3265185	Okobityeya	-0.10400517
-4.3265185	ipashitero	-0.10400517
-3.717803	nija	-0.10400517
-4.3265185	saekayetatsire	-0.10400517
-4.1881948	hídrica	-0.10400517
-3.9243426	responsables	-0.25485528
-4.3265185	suministro	-0.10400517
-4.3265185	racionamiento	-0.10400517
-4.3265185	restringir	-0.10400517
-4.1881948	esté	-0.10400517
-4.3265185	destinado	-0.10400517
-4.3265185	42º	-0.10400517
-4.0820265	producción	-0.17032477
-4.1881948	previos	-0.10400517
-4.1881948	43º	-0.10400517
-4.1881948	tipos	-0.2077147
-4.3265185	Agrario	-0.10400517
-4.3265185	pecuario	-0.10400517
-4.3265185	agrícola	-0.10400517
-4.3265185	Acuícola	-0.10400517
-4.3265185	pesquero	-0.10400517
-4.3265185	Energético	-0.10400517
-4.3265185	Industrial	-0.10400517
-4.3265185	Turístico	-0.10400517
-4.3265185	transporte	-0.10400517
-4.1881948	IV	-0.10400517
-4.3265185	Capítulo	-0.10400517
-4.3265185	DISPOSICIONES	-0.10400517
-4.3265185	GENERALES	-0.10400517
-4.3265185	44º	-0.10400517
-3.9243426	usar	-0.13590024
-4.3265185	salvo	-0.10400517
-4.0820265	contar	-0.13119791
-3.717803	otorgado	-0.18893439
-4.3265185	suspenden	-0.10400517
-4.3265185	modifican	-0.10400517
-4.1881948	extinguen	-0.2077147
-3.642535	licencia	-0.31387308
-4.3265185	46º	-0.10400517
-4.3265185	Garantía	-0.10400517
-4.3265185	LICENCIA	-0.10400517
-4.3265185	USO	-0.10400517
-4.3265185	47º	-0.10400517
-4.3265185	Definición	-0.10400517
-3.9243426	otorga	-0.12500626
-3.9243426	titular	-0.1813946
-4.3265185	términos	-0.10400517
-3.9243426	previstos	-0.444506
-4.3265185	dispositivos	-0.10400517
-3.5225377	correspondiente	-0.18893439
-4.3265185	48º	-0.10400517
-4.1881948	consuntivo	-0.10400517
-4.3265185	49º	-0.10400517
-4.1881948	reversión	-0.17032477
-3.9243426	excedentes	-0.15277153
-4.3265185	obtengan	-0.10400517
-4.3265185	virtud	-0.10400517
-4.3265185	considerando	-0.10400517
-4.3265185	normativa	-0.10400517
-4.1881948	establecida	-0.2077147
-4.1881948	cuenten	-0.2077147
-4.0820265	certificado	-0.31956726
-4.1881948	preferencia	-0.10400517
-4.3265185	otorguen	-0.10400517
-3.717803	establece	-0.2021909
-4.3265185	50º	-0.10400517
-4.3265185	facultades	-0.10400517
-4.3265185	registrar	-0.10400517
-4.3265185	dotación	-0.10400517
-4.3265185	expresada	-0.10400517
-4.1881948	metros	-0.10400517
-4.3265185	cúbicos	-0.10400517
-4.3265185	extraída	-0.10400517
-4.1881948	pudiendo	-0.10400517
-4.3265185	extingue	-0.10400517
-4.0820265	causales	-0.25485528
-3.9243426	previstas	-0.444506
-3.642535	plazo	-0.12500626
-4.3265185	indeterminado	-0.10400517
-4.3265185	subsista	-0.10400517
-3.9243426	actividad	-0.10400517
-4.3265185	Atribuye	-0.10400517
-4.3265185	potestad	-0.10400517
-4.3265185	efectuar	-0.10400517
-4.0820265	inversiones	-0.10400517
-4.3265185	transformación	-0.10400517
-4.3265185	excedente	-0.10400517
-4.3265185	entrega	-0.10400517
-4.1881948	faculta	-0.10400517
-4.1881948	realice	-0.10400517
-4.3265185	inherente	-0.10400517
-3.9243426	licencias	-0.18489678
-4.3265185	transferibles	-0.10400517
-4.3265185	desea	-0.10400517
-4.3265185	continuar	-0.10400517
-4.3265185	usándola	-0.10400517
-4.3265185	revertirla	-0.10400517
-4.3265185	51º	-0.10400517
-4.3265185	bloque	-0.10400517
-4.3265185	pluralidad	-0.10400517
-4.3265185	usen	-0.10400517
-4.1881948	punto	-0.2077147
-4.1881948	titulares	-0.2077147
-4.0820265	certificados	-0.10400517
-4.3265185	nominativos	-0.10400517
-4.3265185	representen	-0.10400517
-4.0820265	corresponde	-0.17032477
-4.3265185	52º	-0.10400517
-4.3265185	provisionales	-0.10400517
-4.0820265	solicitud	-0.13119791
-4.0820265	existan	-0.10400517
-4.3265185	afecten	-0.10400517
-4.1881948	concesiones	-0.10400517
-4.1881948	otorgadas	-0.10400517
-4.3265185	realización	-0.10400517
-4.3265185	provisional	-0.10400517
-4.3265185	superar	-0.10400517
-4.1881948	originan	-0.10400517
-4.3265185	actos	-0.10400517
-3.8089087	requisitos	-0.12500626
-4.3265185	Cumplidas	-0.10400517
-4.3265185	otorgó	-0.10400517
-4.3265185	procede	-0.10400517
-4.3265185	faculte	-0.10400517
-4.1881948	efectivo	-0.10400517
-4.3265185	53º	-0.10400517
-4.0820265	suspensión	-0.17032477
-4.3265185	tramita	-0.10400517
-4.3265185	exista	-0.10400517
-4.3265185	apropiada	-0.10400517
-4.3265185	destine	-0.10400517
-4.3265185	contrae	-0.10400517
-3.8089087	volumen	-0.14257035
-4.3265185	disponible	-0.10400517
-4.3265185	asegure	-0.10400517
-4.3265185	caudales	-0.10400517
-4.3265185	mínimos	-0.10400517
-4.3265185	navegabilidad	-0.10400517
-4.3265185	ponga	-0.10400517
-3.9243426	riesgo	-0.14257035
-4.3265185	Okimpoyero	-0.10400517
-4.3265185	obakotero	-0.10400517
-4.3265185	yaminakoetiro	-0.10400517
-4.3265185	opoñara	-0.10400517
-4.3265185	interesado	-0.10400517
-4.1881948	instrumento	-0.10400517
-4.3265185	pertinente	-0.10400517
-4.1881948	aprobado	-0.2077147
-3.9243426	hayan	-0.14257035
-4.3265185	aprobadas	-0.10400517
-4.3265185	alumbramiento	-0.10400517
-4.3265185	regeneración	-0.10400517
-4.3265185	avenamiento	-0.10400517
-4.3265185	fuesen	-0.10400517
-4.3265185	54º	-0.10400517
-4.3265185	presentada	-0.10400517
-4.3265185	conteniendo	-0.10400517
-4.3265185	indicados	-0.10400517
-4.3265185	113º	-0.10400517
-4.3265185	27444	-0.10400517
-4.3265185	Procedimiento	-0.10400517
-4.3265185	General	-0.10400517
-4.3265185	señalando	-0.10400517
-4.3265185	pertenece	-0.10400517
-4.1881948	ubicación	-0.10400517
-4.3265185	geográfica	-0.10400517
-4.3265185	principales	-0.10400517
-4.3265185	devolución	-0.10400517
-4.3265185	delimitación	-0.10400517
-4.3265185	planos	-0.10400517
-4.3265185	anualizado	-0.10400517
-4.3265185	requerido	-0.10400517
-4.3265185	estimado	-0.10400517
-4.3265185	descarga	-0.10400517
-4.1881948	certificación	-0.17032477
-4.3265185	emitida	-0.10400517
-4.3265185	legislación	-0.10400517
-3.8089087	respectiva	-0.3517653
-4.3265185	especificación	-0.10400517
-4.1881948	requieran	-0.10400517
-4.3265185	Acreditación	-0.10400517
-4.3265185	posesión	-0.10400517
-4.1881948	legítima	-0.10400517
-4.0820265	predio	-0.10400517
-4.3265185	utilizará	-0.10400517
-4.0820265	solicitudes	-0.10400517
-4.3265185	aplica	-0.10400517
-4.1881948	silencio	-0.15277153
-4.3265185	negativo	-0.10400517
