\data\
ngram 1=8875
ngram 2=36491
ngram 3=56723

\1-grams:
-4.594179	<unk>	0
0	<s>	-0.74770945
-1.5322713	</s>	0
-1.6777822	a	-0.43773967
-2.9677012	algunos	-0.17568742
-2.7472172	les	-0.19690843
-4.4632893	acometieron	-0.09736944
-2.1130033	por	-0.37668204
-4.1988897	detrás	-0.14718786
-2.3794622	;	-0.31466872
-3.762272	inmediatamente	-0.1456551
-3.8372285	cayeron	-0.13236147
-3.5087876	tierra	-0.23461673
-4.4632893	dispersas	-0.09736944
-2.5397232	sus	-0.21374705
-4.2835135	entrañas	-0.09736944
-1.434981	.	-0.8466995
-3.8372285	aquéllos	-0.1646356
-4.2835135	hieren	-0.09736944
-1.7378592	en	-0.4724904
-1.9597912	los	-0.35657337
-4.4632893	muslos	-0.09736944
-1.1726106	,	-0.6064935
-3.5489979	éstos	-0.13130283
-2.3335075	las	-0.28181145
-4.4632893	pantorrillas	-0.09736944
-1.4200127	de	-0.43839335
-2.6161842	más	-0.26123554
-2.956791	allá	-0.29217067
-4.4632893	pleno	-0.09736944
-4.4632893	abdomen	-0.09736944
-2.2191548	al	-0.27365583
-3.5489979	igual	-0.27105567
-1.8492767	que	-0.35466838
-4.2835135	conocen	-0.09736944
-3.8372285	antiguos	-0.13236147
-4.2835135	relatos	-0.09736944
-2.3998954	como	-0.26232168
-4.2835135	integran	-0.09736947
-3.2336364	esta	-0.15929097
-4.1988897	visión	-0.22762123
-3.8372285	vencidos	-0.16355297
-2.0566175	con	-0.38930365
-1.991283	la	-0.29187217
-3.5933144	palabra	-0.19035779
-4.4632893	evocadora	-0.09736944
-2.6311944	o	-0.19966681
-4.4632893	xiuhamoxtli	-0.09736944
-2.1223664	se	-0.24611421
-4.042578	quemaron	-0.14718786
-3.8372285	pies	-0.1646356
-3.9278777	además	-0.13847774
-3.762272	sacerdotes	-0.20833677
-4.4632893	Cuauhcóhuatl	-0.09736944
-1.681196	y	-0.3165237
-4.4632893	Cohuayhuitl	-0.09736944
-4.4632893	Tecohuentzin	-0.09736944
-4.4632893	Tetlanmécatl	-0.09736944
-4.4632893	inquirió	-0.09736944
-3.2545118	acerca	-0.60922056
-2.192398	del	-0.24155775
-3.471987	oro	-0.26966155
-2.9157004	había	-0.16759902
-3.762272	perdido	-0.20833677
-1.9365561	el	-0.30731368
-4.1988897	Canal	-0.28145486
-4.4632893	Toltecas	-0.09736944
-2.6970325	allí	-0.2962585
-4.4632893	desbandan	-0.09736944
-3.8372285	pobres	-0.17042196
-4.4632893	trabó	-0.09736944
-3.8372285	combate	-0.15763043
-3.4380624	pero	-0.1811163
-3.0021796	nada	-0.27313295
-4.1988897	hallaron	-0.09736944
-4.1988897	resistencia	-0.09736947
-1.9924511	:	-0.4812414
-2.5195775	no	-0.30124137
-3.6426725	pudieron	-0.11143818
-4.4632893	abrir	-0.09736944
-4.2835135	columnas	-0.09736944
-3.6426725	tlatelolcas	-0.2501987
-3.5933144	aun	-0.14359231
-3.3497765	tiempo	-0.16355297
-2.8519979	Motecuhzoma	-0.34032378
-2.8872483	cuando	-0.23600145
-3.698368	hacía	-0.11586034
-3.8372285	conquista	-0.124338195
-3.5489979	alguna	-0.1456551
-4.1988897	región	-0.09736944
-4.042578	ponían	-0.09736944
-4.1988897	acción	-0.09736944
-4.042578	unidos	-0.09736944
-3.3772583	mexicanos	-0.2105472
-4.2835135	tepanecas	-0.18388793
-4.2835135	acolhuas	-0.09736947
-3.4065971	puede	-0.1910076
-4.2835135	verse	-0.09736944
-3.066526	Cortés	-0.29756525
-4.4632893	empeñó	-0.09736944
-4.4632893	consolidar	-0.09736944
-2.3465261	su	-0.1899647
-4.4632893	dominio	-0.09736944
-2.8605459	sobre	-0.43991715
-3.698368	mexicas	-0.18907018
-4.4632893	gastándose	-0.09736944
-2.280452	para	-0.278762
-2.9788926	esto	-0.23158398
-4.4632893	simpatías	-0.09736944
-3.1589224	otros	-0.21644081
-3.5489979	pueblos	-0.19873211
-2.8519979	hasta	-0.26505166
-2.5565407	entonces	-0.39698237
-3.0806239	habían	-0.17266244
-3.698368	estado	-0.20242415
-4.1988897	sometidos	-0.09736947
-4.2835135	recobraron	-0.09736944
-3.6426725	aliento	-0.21525064
-4.4632893	reconfortaron	-0.09736944
-3.5933144	alguno	-0.13517366
-4.4632893	flechado	-0.09736944
-3.213719	españoles	-0.1699847
-3.1764307	gente	-0.22208712
-4.4632893	replegaba	-0.09736944
-3.0021796	contra	-0.2844547
-4.1988897	desbandada	-0.18388793
-3.0528715	estaban	-0.20078295
-2.6574252	muy	-0.21842967
-4.4632893	atentos	-0.09736944
-4.2835135	fijaban	-0.09736944
-4.2835135	mirada	-0.09736947
-3.1258907	ver	-0.21179955
-3.9278777	cuál	-0.14718786
-3.8372285	rumbo	-0.15050676
-3.762272	venía	-0.16696464
-3.6426725	salir	-0.16058959
-3.5933144	tiro	-0.17469355
-3.3239307	Cuauhtémoc	-0.23031756
-4.2835135	sucedido	-0.09736944
-3.9278777	mando	-0.13236147
-4.2835135	supremo	-0.09736944
-3.9278777	Cuitláhuac	-0.19825813
-3.698368	muerto	-0.12156468
-4.042578	consecuencia	-0.14718786
-4.2835135	epidemia	-0.09736947
-4.4632893	bajaron	-0.09736944
-4.1988897	Xochimilco	-0.17042196
-3.4065971	murió	-0.19661295
-3.9278777	Tlatelolco	-0.1623825
-4.2835135	partieron	-0.23460668
-2.811613	fueron	-0.27545723
-4.4632893	situarse	-0.09736944
-4.4632893	Tepotzotlan	-0.09736944
-3.213719	este	-0.15366653
-3.471987	modo	-0.18677312
-4.4632893	fiscalizando	-0.09736944
-3.5087876	personas	-0.18055898
-3.698368	andaban	-0.124338195
-4.2835135	cuidadosos	-0.09736944
-2.8872483	todos	-0.3268243
-4.4632893	examinaban	-0.09736944
-4.1988897	cara	-0.13517366
-4.1988897	oficio	-0.09736944
-4.4632893	vigilando	-0.09736944
-3.5489979	cual	-0.14464207
-4.2835135	publica	-0.09736944
-4.4632893	íntegra	-0.09736944
-4.2835135	sección	-0.09736947
-4.4632893	referente	-0.09736944
-4.1988897	Conquista	-0.12993887
-2.3737965	un	-0.2186213
-3.698368	lado	-0.19661295
-3.2336364	otro	-0.1897028
-4.4632893	gren	-0.09736944
-3.698368	cantos	-0.18388793
-4.1988897	debajo	-0.18388793
-2.6796138	mi	-0.25063428
-4.4632893	estrado	-0.09736944
-3.2995372	os	-0.12419372
-3.5087876	tengo	-0.124689646
-4.2835135	enterrar	-0.09736944
-4.2835135	morirán	-0.09736944
-4.042578	vuestras	-0.09736944
-3.6426725	mujeres	-0.16401066
-3.1764307	e	-0.13288704
-3.471987	hijos	-0.24658456
-3.471987	decían	-0.20052557
-3.9278777	buscaban	-0.20347051
-4.1988897	varón	-0.09736947
-2.578522	&quot;	-0.34831816
-3.3497765	toda	-0.31331667
-4.2835135	cristiandad	-0.23460668
-4.4632893	bondad	-0.09736944
-4.4632893	recurranzos	-0.09736944
-3.3772583	cosas	-0.18885945
-2.7406178	nos	-0.16122906
-4.4632893	ofrecieren	-0.09736944
-2.9157004	porque	-0.21490544
-3.276441	muchas	-0.2077891
-3.698368	ellas	-0.20731047
-2.8273194	son	-0.21396875
-3.2336364	tal	-0.30734703
-4.4632893	calidad	-0.09736944
-4.2835135	requieren	-0.09736947
-3.6426725	sola	-0.14489073
-3.5933144	vuestra	-0.14931855
-3.762272	real	-0.17441808
-4.042578	presencia	-0.15763043
-4.2835135	bando	-0.09736944
-4.1988897	contrario	-0.18388793
-2.606458	es	-0.31007248
-3.5933144	decir	-0.18150751
-3.762272	aliados	-0.28972346
-3.9278777	Hernán	-0.50330365
-3.762272	habla	-0.0973694
-4.1988897	tetzcocano	-0.09736947
-3.762272	Ixtlilxóchitl	-0.28591606
-4.2835135	huexotzinca	-0.09736944
-4.2835135	Nepilotzin	-0.09736944
-3.9278777	tlaxcalteca	-0.09736944
-4.1988897	Xicohténcatl	-0.16058959
-4.4632893	génerico	-0.09736944
-3.5087876	capitanes	-0.19755556
-3.8372285	mismos	-0.14489073
-4.2835135	señoríos	-0.09736944
-4.042578	dichos	-0.09736944
-3.9278777	códices	-0.09736947
-4.4632893	designados	-0.09736944
-3.9278777	grupo	-0.32453126
-4.4632893	Techialoyan	-0.09736944
-3.8372285	razón	-0.15763043
-3.4065971	primero	-0.16572678
-4.4632893	descubrió	-0.09736944
-4.4632893	procedía	-0.09736944
-3.5087876	pueblo	-0.19501317
-3.471987	nombre	-0.15338334
-3.3772583	México	-0.24627173
-3.3239307	dijo	-0.29281735
-3.762272	Tlacochcálcatl	-0.15309316
-3.698368	Coyohuehuetzin	-0.1646356
-4.1988897	documento	-0.09736944
-3.3497765	indígena	-0.24208175
-4.042578	refiere	-0.15050676
-4.1988897	mostraron	-0.09736947
-3.5489979	espanto	-0.20499474
-4.4632893	contemplar	-0.09736944
-4.042578	figura	-0.13847774
-3.9278777	Tecolote	-0.50330365
-4.4632893	Quetzal	-0.09736947
-4.4632893	mencionado	-0.09736944
-3.9278777	XIII	-0.32453126
-3.5489979	relación	-0.210249
-4.2835135	indica	-0.09736944
-4.4632893	fecha	-0.09736947
-4.4632893	precisa	-0.09736944
-3.762272	tuvo	-0.15763043
-3.2995372	lugar	-0.22533625
-4.1988897	8	-0.18388793
-4.4632893	noviembre	-0.09736944
-4.2835135	1519	-0.09736944
-3.9278777	primer	-0.119308576
-3.9278777	testimonio	-0.17042196
-4.042578	informantes	-0.13236147
-3.2336364	indígenas	-0.25214723
-4.1988897	Sahagún	-0.14241524
-4.1988897	menciona	-0.09736947
-3.762272	último	-0.14241524
-3.5087876	presagio	-0.3423923
-4.042578	pareció	-0.09736944
-4.4632893	anunciar	-0.09736944
-4.2835135	ruina	-0.09736944
-4.4632893	inminente	-0.09736944
-3.276441	señor	-0.24648376
-3.6426725	Tenochtitlan	-0.25209555
-3.9278777	segundo	-0.13517366
-3.698368	Tlacotzin	-0.24396597
-3.8372285	Cihuacóatl	-0.17469355
-4.1988897	tercera	-0.09736944
-4.2835135	Oquiztzin	-0.23460668
-4.1988897	Azcapotzalco	-0.16058959
-4.4632893	Mexicapan	-0.09736944
-3.8372285	cuarto	-0.12156468
-4.1988897	Panitzin	-0.18388793
-4.2835135	seriar	-0.09736944
-4.4632893	Ecatepec	-0.09736944
-3.762272	texto	-0.19281344
-4.2835135	presentado	-0.09736944
-4.1988897	conserva	-0.09736947
-3.276441	sólo	-0.18960565
-4.2835135	castellano	-0.13236147
-3.3772583	viene	-0.3042205
-2.552275	una	-0.18058471
-4.1988897	embajada	-0.18388793
-4.4632893	rg	-0.09736944
-4.042578	Acolhuacan	-0.20878294
-4.2835135	Tecocoltzin	-0.09736944
-3.2545118	vienen	-0.36100787
-4.4632893	conferenciar	-0.09736944
-4.1988897	lanzaron	-0.09736944
-3.6426725	dardos	-0.17042196
-4.4632893	emboscados	-0.09736944
-4.2835135	entregaron	-0.09736944
-3.4380624	general	-0.25301075
-3.213719	va	-0.26320156
-4.1988897	guardar	-0.09736944
-4.4632893	molino	-0.09736944
-4.2835135	enviaron	-0.09736944
-3.1102717	uno	-0.29311007
-4.4632893	corcovados	-0.09736944
-4.4632893	rogar	-0.09736944
-3.4380624	rey	-0.2201138
-4.4632893	llegase	-0.09736944
-4.4632893	aposento	-0.09736944
-4.042578	oficiales	-0.09736944
-2.8965268	bien	-0.18403703
-4.2835135	conocido	-0.18388793
-3.1258907	cómo	-0.16954926
-4.1988897	arrebatan	-0.09736947
-2.7818086	también	-0.24017009
-4.4632893	estimadas	-0.09736944
-4.2835135	hijas	-0.09736947
-4.4632893	doncellas	-0.09736944
-4.2835135	interesante	-0.09736947
-4.4632893	notar	-0.09736944
-3.471987	palabras	-0.15822066
-4.4632893	textuales	-0.09736944
-4.4632893	afirma	-0.09736944
-3.5933144	durante	-0.25115395
-3.5489979	sitio	-0.17299435
-3.1102717	—	-0.111355886
-2.6161842	ya	-0.24307768
-3.1258907	te	-0.12343592
-3.2336364	he	-0.18024744
-3.4380624	visto	-0.13496138
-3.5933144	puesto	-0.09736944
-3.1946747	mis	-0.21211313
-3.698368	ojos	-0.17368382
-3.471987	tus	-0.20214917
-2.8273194	...	-0.5690814
-2.9256144	estaba	-0.20077254
-4.4632893	desmoralizado	-0.09736944
-3.1102717	tenía	-0.16391215
-4.4632893	abatido	-0.09736944
-3.5087876	estos	-0.10688641
-4.042578	manifiestos	-0.19825813
-4.2835135	constituyen	-0.09736944
-4.2835135	últimos	-0.09736947
-3.9278777	documentos	-0.09736944
-4.4632893	públicos	-0.09736944
-3.4065971	náhuatl	-0.21255335
-3.9278777	nuevo	-0.12156468
-3.9278777	imágenes	-0.09736947
-3.6426725	quienes	-0.12656978
-4.4632893	abusan	-0.09736944
-3.5087876	poder	-0.11586034
-4.042578	aparecen	-0.09736944
-4.4632893	vívidamente	-0.09736944
-4.1988897	pintadas	-0.09736947
-2.9788926	hacia	-0.27121562
-4.2835135	rincón	-0.23460668
-4.042578	enemigos	-0.18806535
-3.8372285	llevando	-0.16058959
-3.6426725	barcas	-0.19527549
-4.042578	Nonohualco	-0.24667749
-3.4065971	junto	-0.55498016
-3.8372285	Casa	-0.19688143
-4.4632893	Niebla	-0.09736944
-2.4642057	(	-0.25256172
-4.4632893	Ayauhcalco	-0.09736944
-2.5480504	)	-0.5559888
-4.4632893	Fuéronse	-0.09736944
-4.1988897	llegando	-0.09736944
-2.8872483	ellos	-0.26736096
-4.2835135	golpean	-0.09736944
-4.4632893	blanden	-0.09736944
-3.471987	escudos	-0.24540271
-2.9461482	están	-0.19453345
-4.2835135	afrontar	-0.09736944
-3.471987	guerra	-0.2163417
-4.2835135	persiguen	-0.09736944
-4.4632893	acosan	-0.09736944
-4.4632893	atemorizan	-0.09736944
-2.8605459	luego	-0.21920305
-4.2835135	atraparon	-0.23460668
-3.6426725	quince	-0.15309316
-3.4065971	llegó	-0.22668183
-3.698368	batalla	-0.16355297
-2.6161842	fue	-0.34136218
-4.2835135	dispersión	-0.09736944
-4.2835135	cuestas	-0.09736944
-4.4632893	colocadas	-0.09736944
-3.4065971	gentes	-0.21589907
-3.2995372	hemos	-0.16815038
-4.4632893	masticado	-0.09736944
-4.1988897	grama	-0.22762123
-4.4632893	salitrosa	-0.09736944
-3.3497765	piedras	-0.19108395
-4.4632893	adobe	-0.09736944
-4.2835135	lagartijas	-0.23460668
-4.2835135	ratones	-0.23460668
-3.9278777	polvo	-0.13847774
-4.2835135	gusanos	-0.09736944
-3.2545118	hubo	-0.15027975
-3.698368	lengua	-0.15522248
-4.042578	diversos	-0.09736944
-3.9278777	lugares	-0.13847774
-4.2835135	país	-0.09736944
-3.0528715	entre	-0.39460638
-4.4632893	yaquis	-0.09736944
-4.4632893	Sonora	-0.09736944
-4.1988897	mayas	-0.09736944
-4.4632893	Yucatán	-0.09736944
-4.4632893	participaran	-0.09736944
-4.4632893	Revolución	-0.09736944
-4.1988897	Mexicana	-0.18388793
-4.4632893	1910-1919	-0.09736944
-3.9278777	pone	-0.22495657
-3.9278777	pie	-0.2570474
-4.4632893	recibirlo	-0.09736944
-3.0806239	él	-0.19617732
-4.4632893	inclina	-0.09736944
-3.5933144	cuanto	-0.14359231
-4.4632893	dobla	-0.09736944
-3.8372285	cabeza	-0.16926645
-2.811613	así	-0.30161119
-2.385203	lo	-0.23033042
-4.1988897	arenga	-0.18388793
-2.7090454	le	-0.18507712
-4.042578	jades	-0.22762123
-3.9278777	plumas	-0.26826224
-4.2835135	quetzal	-0.09736944
-2.8692656	otra	-0.44823903
-4.1988897	clase	-0.09736947
-4.2835135	preciosas	-0.16058959
-4.042578	turquesas	-0.14718786
-4.042578	aves	-0.20347051
-4.042578	pluma	-0.17973071
-4.2835135	fina	-0.09736947
-4.4632893	azulejo	-0.09736944
-3.9278777	pájaro	-0.124338195
-4.1988897	cuello	-0.09736944
-3.9278777	rojo	-0.14718786
-3.471987	venían	-0.25301075
-4.4632893	darlo	-0.09736944
-3.762272	Tetzcoco	-0.19158171
-4.4632893	unió	-0.09736944
-4.4632893	facilidad	-0.09736944
-4.1988897	conquistadores	-0.11334892
-2.9788926	desde	-0.25620592
-3.471987	ese	-0.12783018
-3.762272	momento	-0.13431284
-4.4632893	suprema	-0.09736944
-4.2835135	tlauhquechol	-0.09736944
-4.2835135	tzinitzcan	-0.09736944
-4.2835135	zacuan	-0.09736944
-4.1988897	parecían	-0.09736947
-4.042578	irse	-0.09736944
-4.1988897	abriendo	-0.09736947
-3.2995372	dice	-0.28198618
-3.762272	sacerdote	-0.26826224
-4.2835135	sabedor	-0.09736944
-3.9278777	papeles	-0.09736947
-4.1988897	corta	-0.09736947
-3.276441	dieron	-0.16644755
-4.4632893	estocada	-0.09736944
-4.4632893	atravesaron	-0.09736944
-4.4632893	pecho	-0.09736944
-3.762272	corazón	-0.19011122
-3.9278777	entró	-0.13847774
-4.4632893	estoque	-0.09736944
-4.1988897	ambas	-0.09736947
-3.698368	partes	-0.11064451
-4.4632893	cogida	-0.09736944
-3.2995372	quedó	-0.106174245
-3.471987	dijeron	-0.2569621
-3.0143087	qué	-0.16537361
-3.5087876	forma	-0.20225215
-4.4632893	abían	-0.09736944
-3.5087876	ido	-0.31839454
-4.042578	admirar	-0.09736944
-3.5489979	estuvieron	-0.13847774
-3.5087876	viendo	-0.18180433
-3.698368	comida	-0.19036096
-3.9278777	diremos	-0.09736944
-4.042578	emos	-0.22762123
-3.1589224	cosa	-0.17358042
-4.4632893	digna	-0.09736944
-4.042578	asombro	-0.09736947
-3.4065971	pusieron	-0.16167544
-4.4632893	esmero	-0.09736944
-4.1988897	máscara	-0.18388793
-3.2995372	ella	-0.15530768
-4.4632893	fijada	-0.09736944
-4.1988897	banda	-0.09736947
-4.4632893	travesaña	-0.09736944
-4.2835135	llegados	-0.09736947
-3.698368	pronto	-0.1646356
-4.2835135	empezaron	-0.09736947
-3.3772583	tlaxcaltecas	-0.29032004
-4.4632893	intrigar	-0.09736944
-3.9278777	Cholula	-0.16196145
-3.2336364	llegaron	-0.25711197
-3.4065971	manera	-0.13697535
-4.2835135	Puerta	-0.23460668
-4.4632893	Aguila	-0.09736944
-3.471987	llevan	-0.22801739
-4.4632893	guarnecidas	-0.09736944
-4.1988897	lanzan	-0.09736944
-4.4632893	llueven	-0.09736944
-3.3772583	vosotros	-0.15512124
-4.1988897	guardaba	-0.09736944
-3.698368	vuestro	-0.16058959
-3.698368	insignias	-0.22556143
-4.4632893	rodelas	-0.09736944
-4.2835135	ligeras	-0.23460668
-4.4632893	colgajos	-0.09736944
-4.042578	orejeras	-0.19825813
-4.042578	finas	-0.13847774
-3.1946747	vinieron	-0.43081635
-4.4632893	depositar	-0.09736944
-4.4632893	Muchachos	-0.09736944
-4.4632893	Telpochcalli	-0.09736944
-2.8781638	está	-0.15469061
-4.1988897	Amáxac	-0.19825813
-4.1988897	cañones	-0.19825813
-4.1988897	colocados	-0.09736947
-4.4632893	proa	-0.09736944
-3.1764307	donde	-0.20237848
-4.4632893	aglomeradas	-0.09736944
-4.2835135	cerraban	-0.09736944
-3.5489979	unas	-0.09736944
-3.3497765	otras	-0.18127018
-3.762272	lanzaban	-0.13236147
-3.9278777	tiros	-0.17973071
-3.6426725	llevaron	-0.17928176
-4.042578	retrocedieron	-0.16058959
-4.4632893	colocarlas	-0.09736944
-3.5933144	medio	-0.18100338
-4.2835135	laguna	-0.09736944
-4.042578	presagios	-0.13847774
-4.2835135	funestos	-0.09736947
-3.8372285	haber	-0.119308576
-4.4632893	contemplado	-0.09736944
-4.4632893	parecieron	-0.09736944
-4.4632893	cumplirse	-0.09736944
-3.1764307	hicieron	-0.14413652
-2.9788926	eran	-0.18862139
-4.2835135	recibimos	-0.09736944
-4.1988897	alegría	-0.16058959
-4.4632893	abrazamos	-0.09736944
-4.1988897	lágrimas	-0.09736947
-4.4632893	saludamos	-0.09736944
-3.5489979	todavía	-0.28003776
-4.2835135	conocíamos	-0.09736944
-2.9461482	nuestros	-0.22810198
-4.042578	padres	-0.13847774
-4.042578	abuelos	-0.17973071
-3.6426725	tampoco	-0.117437355
-4.2835135	conocían	-0.09736944
-4.4632893	misericordia	-0.09736944
-3.039633	nuestro	-0.24916068
-3.3239307	Dios	-0.32627162
-3.6426725	verdad	-0.13585798
-4.4632893	conocimos	-0.09736944
-3.6426725	textos	-0.14247476
-2.8519979	aquí	-0.25718716
-4.4632893	transcriben	-0.09736944
-4.2835135	refieren	-0.09736947
-4.1988897	combates	-0.18388793
-3.3772583	cada	-0.30118248
-3.1946747	tenían	-0.15163755
-4.4632893	alrededores	-0.09736944
-4.1988897	interior	-0.14718786
-3.5489979	mismo	-0.16148381
-3.698368	ciudad	-0.21734712
-4.042578	ponen	-0.16058959
-4.2835135	Huitzilopochtli	-0.14241524
-2.7214005	todo	-0.38731137
-3.8372285	aquello	-0.17042196
-4.4632893	adorna	-0.09736944
-4.042578	ropas	-0.09736947
-3.9278777	papel	-0.19281344
-4.1988897	atavíos	-0.13847774
-4.1988897	propios	-0.14718786
-3.762272	dejó	-0.09736944
-2.760725	era	-0.27884862
-4.4632893	muda	-0.09736944
-4.2835135	marqués	-0.09736947
-3.8372285	Acachinanco	-0.24396597
-4.4632893	marcan	-0.09736944
-4.4632893	aproximadamente	-0.09736944
-2.7277122	”	-0.6674067
-4.2835135	Alfonso	-0.23460668
-4.4632893	Caso	-0.09736944
-4.2835135	op	-0.23460668
-4.4632893	cit	-0.09736944
-3.2545118	murieron	-0.26599252
-3.3497765	parte	-0.24541387
-3.6426725	Ixtlilxúchitl	-0.20273165
-3.9278777	reino	-0.20833677
-3.5933144	veinte	-0.19158171
-3.1764307	días	-0.21873142
-4.4632893	andado	-0.09736944
-3.9278777	trayendo	-0.09736944
-4.2835135	dejarlo	-0.09736944
-4.042578	mercado	-0.18055898
-3.698368	flechas	-0.119308576
-4.2835135	cazaron	-0.09736944
-3.2545118	nuestra	-0.1622334
-4.4632893	incumbencia	-0.09736944
-4.4632893	serio	-0.09736944
-3.6426725	quiere	-0.119308576
-3.066526	nosotros	-0.26855204
-4.4632893	sabemos	-0.09736944
-4.4632893	olvidar	-0.09736944
-3.6426725	antigua	-0.09736944
-4.4632893	separación	-0.09736944
-4.4632893	invitamos	-0.09736944
-3.5087876	quien	-0.11833129
-4.4632893	quisiera	-0.09736944
-4.4632893	contéis	-0.09736944
-3.9278777	bandera	-0.20347051
-4.1988897	pertenece	-0.18388793
-4.4632893	trabajéis	-0.09736944
-4.4632893	unidad	-0.09736944
-3.762272	lucha	-0.1646356
-4.4632893	Nótese	-0.09736944
-4.4632893	constante	-0.09736944
-3.8372285	empeño	-0.09736947
-4.4632893	mexica-tlatelolcas	-0.09736944
-4.4632893	mencionar	-0.09736944
-4.1988897	valentía	-0.09736947
-4.4632893	proezas	-0.09736944
-4.042578	defensa	-0.20833677
-4.4632893	reprochando	-0.09736944
-4.4632893	frecuencia	-0.09736947
-4.4632893	mexica-tenochcas	-0.09736944
-3.4380624	vez	-0.13923922
-3.5933144	salió	-0.16058959
-3.5489979	español	-0.22814953
-3.2545118	vino	-0.37022275
-4.4632893	pensaban	-0.09736944
-4.2835135	recién	-0.09736947
-3.471987	llegado	-0.26291162
-4.042578	Quetzalcóatl	-0.09736944
-3.9278777	Nuestro	-0.16696464
-4.2835135	Príncipe	-0.09736944
-3.9278777	siguiente	-0.12156468
-3.2336364	día	-0.19807723
-3.4380624	poco	-0.1471879
-3.9278777	sol	-0.15309316
-4.2835135	nuevamente	-0.09736944
-3.1420927	muchos	-0.15191422
-4.4632893	encaminaron	-0.09736944
-3.9278777	seguir	-0.14718786
-4.2835135	sacados	-0.09736944
-4.4632893	pos	-0.09736944
-4.4632893	sucumbido	-0.09736944
-4.042578	matanza	-0.119308576
-3.4065971	todas	-0.35042128
-4.2835135	envueltos	-0.09736944
-3.8372285	cuerpos	-0.20833677
-3.3239307	solamente	-0.15599158
-4.2835135	caras	-0.09736944
-3.762272	blancas	-0.30466944
-3.1764307	si	-0.20107555
-3.762272	fueran	-0.13847774
-4.1988897	cal	-0.09736944
-2.9060078	pues	-0.23432784
-4.4632893	ayen	-0.09736944
-3.698368	sesenta	-0.30466944
-2.99038	van	-0.2707273
-3.3772583	tiene	-0.13371322
-4.2835135	intención	-0.23460668
-4.1988897	haga	-0.09736947
-2.99038	ha	-0.21606277
-3.5087876	dicho	-0.1591075
-4.4632893	pérdida	-0.09736944
-4.2835135	bienes	-0.23460668
-3.6426725	muerte	-0.14241524
-3.762272	mujer	-0.1805928
-4.2835135	parientes	-0.09736947
-3.1420927	han	-0.21526629
-3.698368	morir	-0.15309316
-3.2336364	hacer	-0.20242418
-2.8965268	dos	-0.1870126
-4.1988897	obras	-0.09736947
-3.2545118	delante	-0.4223883
-4.1988897	mí	-0.09736947
-4.2835135	dejen	-0.09736944
-3.5087876	solo	-0.17866808
-4.1988897	tenochca	-0.16058959
-3.4380624	sí	-0.24160719
-4.1988897	vaya	-0.09736947
-4.4632893	pereciendo	-0.09736944
-3.471987	capitán	-0.23314112
-3.9278777	bergantines	-0.09736947
-3.1764307	agua	-0.2714957
-4.1988897	pequeña	-0.09736947
-3.8372285	aviso	-0.09736947
-3.4380624	mucha	-0.17446384
-2.8692656	mucho	-0.22853231
-4.2835135	efecto	-0.09736944
-3.4380624	estas	-0.15432934
-4.1988897	podían	-0.09736947
-4.042578	escapar	-0.09736944
-3.066526	ni	-0.15791702
-3.762272	tener	-0.09736944
-4.4632893	reparo	-0.09736944
-3.8372285	dioses	-0.1372254
-4.2835135	enojaban	-0.09736944
-4.042578	entregaban	-0.09736944
-4.1988897	paz	-0.16058959
-3.9278777	regreso	-0.15050676
-3.1258907	“	-0.12627706
-4.2835135	Noche	-0.23460668
-4.4632893	Triste	-0.09736944
-4.4632893	Rehechos	-0.09736944
-3.762272	gracias	-0.25979623
-4.2835135	principalmente	-0.09736944
-3.8372285	ayuda	-0.09736947
-4.4632893	prestada	-0.09736944
-4.4632893	reúne	-0.09736944
-4.1988897	última	-0.09736947
-4.4632893	veza	-0.09736944
-3.5489979	principales	-0.21844937
-4.042578	tratar	-0.14718786
-4.4632893	convenía	-0.09736944
-3.698368	recibir	-0.12156468
-4.4632893	pacíficamente	-0.09736944
-4.4632893	forasteros	-0.09736947
-4.4632893	enojó	-0.09736944
-3.762272	ello	-0.114513144
-3.698368	daban	-0.14718786
-3.6426725	sangre	-0.18388793
-4.4632893	cazoleta	-0.09736944
-4.4632893	Águila	-0.09736944
-4.4632893	puramente	-0.09736944
-2.9788926	unos	-0.32467917
-3.6426725	daba	-0.09736944
-4.4632893	introducen	-0.09736944
-2.99038	tan	-0.22284195
-4.4632893	subtítulos	-0.09736944
-4.2835135	ayudan	-0.09736944
-4.4632893	distinguir	-0.09736944
-4.042578	diversas	-0.09736944
-4.4632893	etapas	-0.09736944
-4.4632893	pliegan	-0.09736944
-4.4632893	esconden	-0.09736944
-3.5933144	hacen	-0.109935604
-4.1988897	pequeños	-0.09736944
-4.4632893	acecho	-0.09736947
-4.4632893	esperando	-0.09736944
-4.1988897	horas	-0.09736944
-4.4632893	alzarse	-0.09736944
-4.042578	deben	-0.09736944
-3.5489979	oír	-0.11586034
-4.1988897	grito	-0.13847774
-4.042578	pregón	-0.16058959
-4.042578	ponerse	-0.4063936
-4.042578	carrera	-0.16058959
-4.4632893	resguardan	-0.09736944
-3.698368	cautivos	-0.24667749
-3.762272	según	-0.12783018
-4.4632893	Orozco	-0.09736944
-4.4632893	Berra	-0.09736944
-4.042578	trata	-0.14718786
-4.042578	población	-0.16058959
-4.2835135	desaparecida	-0.23460668
-4.4632893	situada	-0.09736944
-4.2835135	costas	-0.09736947
-4.042578	Veracruz	-0.16058959
-4.2835135	señalaban	-0.23460668
-3.5933144	manos	-0.135034
-3.3772583	hacían	-0.1393718
-3.0021796	gran	-0.14471821
-4.042578	alboroto	-0.14718786
-3.762272	mexicano	-0.21106398
-4.2835135	fuga	-0.18388793
-4.4632893	ace	-0.09736944
-4.1988897	retroceder	-0.16058959
-4.4632893	vence	-0.09736944
-4.4632893	sobrepasa	-0.09736944
-3.5933144	aunque	-0.12993887
-4.4632893	veras	-0.09736944
-4.1988897	sean	-0.09736944
-3.5489979	diez	-0.2774394
-3.4380624	acaso	-0.1391867
-3.762272	guerreros	-0.135034
-4.4632893	dirigieron	-0.09736947
-3.1764307	acá	-0.346927
-4.4632893	situar	-0.09736944
-4.2835135	naves	-0.09736944
-3.8372285	tenéis	-0.2774394
-4.1988897	presentar	-0.09736944
-4.4632893	Busquen	-0.09736944
-3.762272	pocos	-0.13660058
-4.1988897	acabada	-0.09736947
-3.762272	obra	-0.14241524
-4.042578	Tepeyácac	-0.22762123
-3.698368	tortillas	-0.21525064
-3.8372285	gallinas	-0.20833677
-4.4632893	guisados	-0.09736944
-4.4632893	asados	-0.09736944
-4.4632893	gallina	-0.09736944
-4.2835135	huevos	-0.09736944
-3.5489979	algunas	-0.114513144
-4.4632893	vivas	-0.09736944
-4.4632893	tunas	-0.09736944
-4.042578	mayores	-0.09736947
-4.4632893	crueldades	-0.09736944
-4.4632893	desventurados	-0.09736944
-3.2545118	hecho	-0.14401071
-3.9278777	guiando	-0.22993724
-3.8372285	aquella	-0.09736944
-3.762272	Castañeda	-0.20833677
-4.4632893	Xicoténcatl	-0.09736944
-3.698368	relaciones	-0.20347051
-3.9278777	naturales	-0.117437355
-4.4632893	personalmente	-0.09736944
-4.042578	ocasiones	-0.09736944
-4.2835135	cuales	-0.09736944
-4.4632893	retiraron	-0.09736944
-3.5933144	amigos	-0.1456551
-4.1988897	cerro	-0.09736944
-4.042578	adelante	-0.09736944
-3.6426725	Tlacopan	-0.26469937
-3.5087876	señores	-0.18543644
-3.9278777	cargo	-0.13236147
-4.4632893	mandaban	-0.09736944
-4.4632893	Xalapan	-0.09736944
-4.4632893	Tlaxcalan	-0.09736944
-4.4632893	Tehuantepec	-0.09736944
-4.1988897	Oaxaca	-0.09736947
-4.4632893	acercaron	-0.09736944
-4.4632893	envidiosos	-0.09736944
-4.1988897	hambrientos	-0.16058959
-3.698368	llaman	-0.12156468
-4.2835135	cristianos	-0.09736944
-2.8872483	&#91;	-0.3936318
-3.2545118	&#93;	-0.32761163
-4.1988897	conservada	-0.18388793
-4.2835135	actualmente	-0.09736944
-4.042578	Biblioteca	-0.22762123
-4.1988897	Nacional	-0.09736947
-4.2835135	París	-0.18388793
-3.5933144	hubieron	-0.11832784
-3.3772583	salieron	-0.1784314
-3.5489979	entraron	-0.2181729
-4.4632893	estancia	-0.09736944
-4.2835135	tesoros	-0.09736944
-3.8372285	hubieran	-0.09736944
-4.2835135	extremo	-0.16058959
-4.2835135	hora	-0.09736944
-3.4380624	cuenta	-0.20862544
-3.5489979	éste	-0.15338334
-4.042578	sacado	-0.16058959
-3.8372285	atados	-0.09736947
-3.762272	príncipes	-0.16058959
-3.8372285	Coyoacan	-0.29821417
-3.5489979	vieron	-0.21891852
-4.1988897	regresaron	-0.09736947
-4.1988897	dispusieron	-0.09736947
-4.4632893	atacarlo	-0.09736944
-4.4632893	brunido	-0.09736944
-4.4632893	relumbre	-0.09736944
-3.4065971	lejos	-0.2013357
-4.4632893	brazaletes	-0.09736944
-4.042578	rica	-0.14718786
-4.2835135	plumería	-0.09736947
-4.4632893	decid	-0.09736944
-4.1988897	seriores	-0.09736944
-3.4065971	nadie	-0.12979774
-4.1988897	establecerse	-0.13847774
-3.3772583	casa	-0.29855305
-4.4632893	Marchaos	-0.09736944
-4.042578	describe	-0.09736944
-4.4632893	requirió	-0.09736944
-4.2835135	sometió	-0.23460668
-4.2835135	tormento	-0.09736944
-4.2835135	obtener	-0.09736944
-3.9278777	demás	-0.11064451
-4.4632893	poseían	-0.09736944
-4.042578	tiempos	-0.16696464
-3.1764307	eso	-0.25272912
-4.4632893	bastó	-0.09736944
-3.762272	bajo	-0.14489073
-3.8372285	ocasión	-0.14489073
-3.5087876	dejaron	-0.124338195
-3.5933144	venir	-0.12993887
-4.2835135	meterse	-0.09736944
-4.1988897	collar	-0.13847774
-4.1988897	petatillo	-0.09736944
-4.042578	chalchihuites	-0.17042196
-4.4632893	disco	-0.09736944
-4.4632893	llevad	-0.09736944
-3.6426725	consigo	-0.12156468
-4.1988897	compañía	-0.09736947
-4.1988897	Cuitlalpítoc	-0.18388793
-3.698368	Tlaxcala	-0.21509638
-4.1988897	Chalco	-0.124338195
-4.1988897	llenaron	-0.16058959
-4.1988897	canal	-0.13236147
-4.2835135	prepararon	-0.09736944
-3.471987	camino	-0.2370015
-4.1988897	canoa	-0.09736944
-4.2835135	torres	-0.18388793
-3.1589224	grandes	-0.14241524
-4.1988897	subían	-0.09736947
-3.471987	dentro	-0.4383255
-3.9278777	menos	-0.09736947
-4.4632893	fragmentariamente	-0.09736944
-4.1988897	libros	-0.09736944
-4.4632893	Chilam	-0.09736944
-4.4632893	Balam	-0.09736944
-4.4632893	acía	-0.09736944
-4.4632893	vana	-0.09736944
-4.2835135	fleco	-0.09736944
-3.762272	puro	-0.16058959
-4.4632893	amate	-0.09736944
-4.1988897	ancho	-0.09736944
-4.2835135	cuarta	-0.09736944
-4.042578	largo	-0.09736944
-4.4632893	vide	-0.09736944
-4.042578	andar	-0.14718786
-4.042578	mar	-0.14489073
-4.2835135	sierra	-0.09736947
-3.1764307	grande	-0.20538045
-4.4632893	caminaban	-0.09736944
-4.2835135	línea	-0.23460668
-4.2835135	recta	-0.09736947
-3.4065971	sino	-0.21800824
-3.1764307	iban	-0.18246941
-3.5087876	haciendo	-0.114513144
-4.4632893	zigzag	-0.09736944
-4.2835135	huían	-0.09736944
-3.4380624	frente	-0.37987134
-3.4380624	¡	-0.1540213
-4.1988897	Pues	-0.09736944
-3.6426725	fuimos	-0.25454047
-4.2835135	Con	-0.09736947
-3.2545118	dio	-0.17952655
-4.2835135	merecido	-0.09736944
-2.578522	!	-0.7376964
-3.8372285	ése	-0.16696464
-3.3497765	hizo	-0.13847777
-4.2835135	Cuetlaxtlan	-0.20347051
-4.4632893	penacho	-0.09736944
-4.2835135	Dejad	-0.09736944
-3.6426725	llegar	-0.14489073
-4.4632893	advenedizos	-0.09736944
-4.1988897	extranjeros	-0.09736947
-4.4632893	veamos	-0.09736944
-4.042578	suyo	-0.19825813
-3.698368	dios	-0.23491664
-4.1988897	Quetzalcohuatl	-0.13847774
-4.042578	Es	-0.119308576
-3.5087876	venido	-0.27686876
-4.4632893	Habladle	-0.09736944
-4.1988897	huasteco	-0.16058959
-4.2835135	Hemos	-0.09736944
-4.4632893	Mucho	-0.09736944
-4.4632893	ponga	-0.09736944
-4.2835135	Oiga	-0.23460668
-3.762272	favor	-0.11586034
-4.2835135	amo	-0.09736944
-4.1988897	Sí	-0.19825813
-4.4632893	tomamos	-0.09736944
-4.4632893	juntó	-0.09736944
-4.2835135	masa	-0.09736944
-4.4632893	marcó	-0.09736944
-4.4632893	sello	-0.09736944
-4.2835135	quitaron	-0.09736947
-3.4380624	estamos	-0.14875685
-4.042578	prisa	-0.11586034
-3.5087876	vamos	-0.46799463
-4.2835135	darle	-0.09736947
-3.8372285	Motecuzoma	-0.24667749
-3.2545118	¿	-0.23572452
-3.9278777	No	-0.11064451
-4.1988897	decís	-0.09736944
-2.3682036	?	-0.9477256
-4.042578	Qué	-0.11436962
-4.4632893	querrá	-0.09736944
-4.2835135	vayamos	-0.09736944
-4.2835135	oírlo	-0.09736944
-4.1988897	Ah	-0.19825813
-3.698368	prisioneros	-0.15050676
-3.9278777	reyes	-0.14489073
-3.5087876	casi	-0.12597798
-4.1988897	nobleza	-0.09736944
-3.9278777	mexicana	-0.20878294
-3.6426725	apenas	-0.124338195
-3.5087876	quedaron	-0.12597798
-3.9278777	caballeros	-0.17973071
-3.5933144	niños	-0.23684144
-4.1988897	poca	-0.09736947
-4.4632893	edad	-0.09736944
-4.042578	fiesta	-0.14718786
-3.6426725	principal	-0.14489073
-4.042578	fiestas	-0.09736947
-4.2835135	pascua	-0.09736944
-4.2835135	caía	-0.09736944
-3.762272	cerca	-0.47065926
-4.2835135	Resurrección	-0.23460668
-3.2995372	después	-0.26029322
-3.9278777	t	-0.24667749
-4.1988897	i	-0.124338195
-4.2835135	p	-0.23460668
-4.4632893	114	-0.09736944
-4.042578	envía	-0.09736944
-3.1258907	tu	-0.15049583
-4.1988897	lugarteniente	-0.18388793
-3.2995372	da	-0.09736944
-4.4632893	agasajo	-0.09736944
-4.4632893	morada	-0.09736944
-4.042578	Oh	-0.17441808
-4.2835135	sobrino	-0.09736947
-3.9278777	mío	-0.26210502
-3.762272	estás	-0.09736944
-3.9278777	preso	-0.20347051
-4.2835135	cargado	-0.23460668
-4.4632893	hierros	-0.09736944
-3.9278777	sobrinos	-0.14718786
-3.8372285	míos	-0.20878294
-4.4632893	tened	-0.09736944
-3.8372285	ánimo	-0.09736947
-4.2835135	Topantémoc	-0.23460668
-3.9278777	pueden	-0.09736944
-4.4632893	identificarse	-0.09736944
-3.3772583	esos	-0.0973694
-4.2835135	canales	-0.09736944
-4.2835135	señalando	-0.09736944
-4.4632893	probable	-0.09736944
-4.4632893	ubicación	-0.09736944
-4.2835135	Tecpantzinco	-0.09736944
-4.4632893	seguramente	-0.09736944
-4.2835135	Calzada	-0.23460668
-4.1988897	Tacuba	-0.09736944
-4.042578	presto	-0.09736944
-4.042578	dejado	-0.09736947
-4.4632893	vencer	-0.09736944
-4.2835135	bárbaros	-0.09736944
-4.2835135	tuviesen	-0.09736947
-3.9278777	pena	-0.14718786
-4.4632893	prometía	-0.09736944
-4.1988897	venganza	-0.18388793
-4.4632893	burlan	-0.09736944
-4.2835135	habitante	-0.23460668
-3.698368	otomí	-0.16682073
-4.042578	matan	-0.16058959
-4.2835135	traición	-0.09736944
-3.762272	puso	-0.13077447
-4.4632893	risueña	-0.09736944
-4.4632893	monos	-0.09736944
-4.4632893	levantaban	-0.09736944
-4.4632893	amortajan	-0.09736944
-4.4632893	revuelven	-0.09736944
-4.4632893	implorarte	-0.09736944
-3.9278777	orejas	-0.15763043
-3.6426725	vasallos	-0.181112
-4.2835135	enviaste	-0.18388793
-4.4632893	Largo	-0.09736944
-4.4632893	Volved	-0.09736944
-3.4380624	tienen	-0.14626758
-3.762272	compasión	-0.16696464
-4.1988897	niñitos	-0.13236147
-4.4632893	viejitos	-0.09736944
-4.4632893	viejitas	-0.09736944
-4.4632893	Quién	-0.09736947
-3.698368	eres	-0.1586146
-3.276441	tú	-0.19621351
-4.4632893	sientas	-0.09736944
-4.1988897	Capitán	-0.16058959
-3.9278777	General	-0.13847774
-4.2835135	dirá	-0.09736944
-4.4632893	Cómo	-0.09736944
-4.4632893	dispondréis	-0.09736944
-4.4632893	poquitos	-0.09736944
-4.1988897	oigan	-0.09736947
-3.9278777	poquito	-0.19825813
-3.0951948	yo	-0.1586146
-3.5933144	versión	-0.1535843
-4.2835135	castellana	-0.09736944
-3.9278777	huyeron	-0.09736944
-4.2835135	perseguidos	-0.23460668
-3.762272	Códice	-0.34638926
-4.4632893	Florentino	-0.09736947
-4.042578	Historia	-0.2774394
-4.2835135	escrita	-0.09736944
-4.1988897	autor	-0.14718786
-3.5087876	nunca	-0.1535843
-4.042578	oído	-0.09736944
-4.2835135	pudiese	-0.09736944
-4.1988897	quejas	-0.09736947
-4.4632893	corregidor	-0.09736944
-4.4632893	Magariño	-0.09736944
-3.8372285	Archivo	-0.20833677
-4.2835135	Indias	-0.09736944
-3.5489979	hijo	-0.20878294
-4.1988897	Nezahualcóyotl	-0.16058959
-3.471987	-	-0.12652524
-3.9278777	anda	-0.09736944
-4.2835135	buscando	-0.23460668
-4.2835135	busca	-0.09736944
-3.6426725	caer	-0.22407198
-4.4632893	sabéis	-0.09736944
-4.4632893	Unas	-0.09736944
-4.4632893	agitándose	-0.09736944
-3.5933144	A	-0.117437355
-4.4632893	dadles	-0.09736944
-4.1988897	carga	-0.09736944
-3.9278777	mantas	-0.13847774
-4.4632893	brazas	-0.09736944
-3.8372285	ocho	-0.09736944
-3.2545118	cuatro	-0.17864452
-4.4632893	Dad	-0.09736944
-3.5933144	orden	-0.23965085
-4.1988897	haya	-0.09736947
-3.9278777	vigilancia	-0.18388793
-4.2835135	orilla	-0.09736947
-3.762272	llama	-0.13847774
-4.2835135	Nauhtla	-0.23460668
-4.4632893	Tuxtlan	-0.09736944
-4.4632893	Mictlancuauhtl	-0.09736944
-3.8372285	De	-0.13236147
-3.9278777	acuerdo	-0.16058959
-4.2835135	doctor	-0.09736944
-3.9278777	Los	-0.09736947
-4.4632893	barrios	-0.09736944
-4.4632893	Memorias	-0.09736944
-4.4632893	Academia	-0.09736944
-4.2835135	XV	-0.09736944
-4.4632893	núm	-0.09736944
-4.042578	1	-0.19825813
-4.4632893	enero-marzo	-0.09736944
-4.4632893	1956	-0.09736944
-4.4632893	Decidles	-0.09736944
-4.1988897	encantadores	-0.18388793
-4.4632893	declaren	-0.09736944
-4.042578	vendrá	-0.09736944
-3.762272	enfermedad	-0.13236147
-4.4632893	pestilencia	-0.09736944
-3.762272	hambre	-0.19036096
-4.4632893	langosta	-0.09736944
-4.4632893	terremotos	-0.09736944
-4.4632893	secura	-0.09736944
-3.8372285	año	-0.15338334
-4.4632893	Dígnese	-0.09736944
-4.4632893	rendir	-0.09736944
-4.4632893	homenaje	-0.09736944
-4.1988897	El	-0.09736947
-4.4632893	Tolteca	-0.09736944
-4.4632893	Acalocan	-0.09736944
-4.042578	En	-0.13236147
-3.6426725	fin	-0.19035779
-3.9278777	natural	-0.14718786
-4.1988897	nigrománticos	-0.18388793
-4.1988897	admirado	-0.09736947
-4.4632893	azules	-0.09736944
-4.2835135	guardarán	-0.23460668
-4.2835135	tesoreros	-0.09736944
-4.1988897	dejan	-0.09736944
-4.4632893	pierda	-0.09736944
-3.2995372	nuestras	-0.2022556
-4.2835135	serán	-0.23460668
-3.471987	casas	-0.27393553
-4.2835135	seno	-0.09736944
-4.4632893	materno	-0.09736944
-4.2835135	Huey	-0.23460668
-4.4632893	Tecuilhuitl	-0.09736944
-4.1988897	séptimo	-0.09736947
-3.9278777	mes	-0.18388793
-4.1988897	Id	-0.16058959
-4.4632893	demoréis	-0.09736944
-4.4632893	Haced	-0.09736944
-4.1988897	acatamiento	-0.09736947
-4.4632893	Decidle	-0.09736944
-4.4632893	ld	-0.09736944
-4.4632893	Llevad	-0.09736944
-4.4632893	ponedle	-0.09736944
-4.4632893	cárcel	-0.09736944
-4.4632893	tablón	-0.09736944
-4.1988897	mirad	-0.09736944
-4.4632893	Llevadme	-0.09736944
-4.2835135	bellacos	-0.09736944
-4.4632893	encerradlos	-0.09736944
-4.4632893	Cuauhcalco	-0.09736944
-3.8372285	mensajeros	-0.20347051
-4.4632893	entablar	-0.09736944
-4.2835135	diálogos	-0.09736944
-3.698368	principio	-0.18222027
-4.4632893	man	-0.09736944
-4.2835135	Jerónimo	-0.23460668
-4.1988897	Aguilar	-0.16058959
-3.5489979	Malintzin	-0.29769638
-4.1988897	sustitutos	-0.18388793
-4.4632893	representaban	-0.09736944
-4.4632893	Pasadores	-0.09736944
-4.1988897	saetas	-0.09736947
-4.4632893	agudas	-0.09736944
-4.4632893	disparaban	-0.09736944
-4.1988897	ballesta	-0.09736944
-4.4632893	Preguntadles	-0.09736944
-4.042578	suceder	-0.09736944
-3.471987	dónde	-0.11833129
-4.1988897	cielo	-0.15822066
-3.698368	será	-0.09736944
-3.6426725	Señor	-0.16058959
-4.4632893	hacedme	-0.09736944
-4.4632893	tajadas	-0.09736944
-4.4632893	fuéredes	-0.09736944
-4.2835135	servido	-0.09736944
-4.042578	sabed	-0.09736944
-4.1988897	llegué	-0.18388793
-4.4632893	abrí	-0.09736944
-4.4632893	puertas	-0.09736947
-4.4632893	perdóname	-0.09736944
-4.1988897	atrevimiento	-0.09736947
-4.4632893	descansad	-0.09736944
-3.762272	quiero	-0.114513144
-3.3772583	ir	-0.2540269
-3.698368	persona	-0.18388793
-4.4632893	verlos	-0.09736944
-3.5087876	dar	-0.11143818
-3.9278777	fe	-0.09736947
-4.4632893	testigo	-0.09736944
-3.9278777	vista	-0.09736944
-4.2835135	Tepeílhuitl	-0.09736944
-4.4632893	decimotercer	-0.09736944
-4.4632893	montes	-0.09736944
-4.1988897	Vamos	-0.18388793
-4.4632893	Veintena	-0.09736944
-4.2835135	18	-0.09736944
-4.1988897	meses	-0.09736947
-4.2835135	grupos	-0.09736944
-4.4632893	componía	-0.09736944
-4.4632893	xihuitl	-0.09736944
-3.8372285	Venid	-0.29688403
-4.2835135	tigres	-0.23460668
-4.2835135	venid	-0.16058959
-3.6426725	habéis	-0.1535843
-3.5087876	saber	-0.114513144
-4.4632893	envié	-0.09736944
-3.9278777	llamar	-0.22495657
-4.4632893	hagáis	-0.09736944
-4.1988897	cierta	-0.09736947
-4.4632893	Vos	-0.09736944
-3.9278777	sois	-0.09736944
-3.762272	palacio	-0.14489073
-4.4632893	Váyanse	-0.09736944
-4.4632893	Vengan	-0.09736944
-4.4632893	Dónde	-0.09736947
-3.2995372	dicen	-0.3052609
-4.4632893	Haya	-0.09736944
-4.042578	confianza	-0.09736944
-4.4632893	Quiénes	-0.09736944
-4.4632893	vinisteis	-0.09736944
-3.9278777	podemos	-0.15050676
-4.2835135	x	-0.09736947
-4.4632893	20	-0.09736944
-4.4632893	=	-0.09736944
-4.4632893	360	-0.09736944
-4.4632893	+	-0.09736944
-4.1988897	5	-0.09736947
-3.8372285	llamaban	-0.09736944
-4.4632893	nemontemi	-0.09736944
-4.1988897	27	-0.28145486
-4.2835135	abril	-0.18388793
-4.1988897	1918	-0.14718786
-4.2835135	prendieron	-0.09736944
-4.1988897	granos	-0.09736944
-4.4632893	ésos	-0.09736944
-4.2835135	sufrieron	-0.09736944
-4.1988897	trajeron	-0.09736947
-4.2835135	Patio	-0.23460668
-4.4632893	Sagrado	-0.09736944
-4.4632893	Cohuanacochtli	-0.09736944
-4.4632893	Tetlepanquetzatzin	-0.09736944
-4.4632893	continuación	-0.09736947
-4.2835135	relata	-0.09736947
-4.2835135	engaño	-0.09736944
-4.2835135	Tzihuaoopocatzin	-0.23460668
-4.1988897	trató	-0.18388793
-4.1988897	hacerse	-0.09736947
-3.8372285	pasar	-0.13847774
-4.2835135	Motecuhzorna	-0.09736944
-4.4632893	Fracasado	-0.09736944
-4.4632893	intento	-0.09736944
-3.9278777	encontramos	-0.13847774
-4.2835135	serie	-0.23460668
-3.762272	enviados	-0.13517366
-3.9278777	hechiceros	-0.09736944
-4.4632893	pretenden	-0.09736944
-4.1988897	impedir	-0.09736947
-4.042578	marcha	-0.17197272
-4.4632893	detienen	-0.09736947
-4.1988897	relatan	-0.09736947
-3.762272	siendo	-0.0973694
-4.2835135	recibidos	-0.09736944
-3.8372285	dones	-0.124338195
-4.1988897	Coyoacán	-0.09736944
-3.4065971	cinco	-0.11143818
-4.4632893	descender	-0.09736944
-3.762272	Hernando	-0.21403874
-4.2835135	fines	-0.09736944
-4.4632893	siglo	-0.09736947
-4.2835135	XVI	-0.23460668
-4.2835135	principios	-0.16058959
-4.4632893	central	-0.09736944
-4.2835135	renacer	-0.09736944
-4.4632893	historiográfico	-0.09736944
-4.4632893	logrado	-0.09736944
-3.213719	hombres	-0.18477184
-4.2835135	merecen	-0.09736944
-4.4632893	calificativo	-0.09736944
-4.4632893	distinguidos	-0.09736944
-4.4632893	investigadores	-0.09736944
-3.4380624	nahuas	-0.2105279
-4.2835135	humana	-0.09736944
-3.6426725	cuerpo	-0.14931855
-4.4632893	semblante	-0.09736944
-3.8372285	humano	-0.13847774
-4.4632893	apariencia	-0.09736944
-3.471987	hombre	-0.17504115
-4.4632893	incitarla	-0.09736944
-4.4632893	pecara	-0.09736944
-3.3772583	hace	-0.14359231
-3.471987	años	-0.2287446
-4.4632893	azotar	-0.09736944
-4.4632893	consentía	-0.09736944
-4.1988897	espalda	-0.12783018
-3.9278777	lleva	-0.09736944
-4.1988897	colocada	-0.18388793
-3.762272	color	-0.19337673
-3.9278777	tiró	-0.13847774
-3.9278777	creció	-0.14718786
-4.4632893	desgracias	-0.09736944
-4.4632893	afligieron	-0.09736944
-4.4632893	sujeción	-0.09736944
-4.1988897	nuevos	-0.09736944
-4.4632893	encomiendas	-0.09736944
-4.4632893	tributos	-0.09736944
-4.4632893	sumaron	-0.09736944
-4.4632893	frecuentes	-0.09736944
-4.4632893	pestilencias	-0.09736944
-4.4632893	provocaron	-0.09736944
-4.4632893	pavorosa	-0.09736944
-4.4632893	disminución	-0.09736944
-4.4632893	demográfica	-0.09736944
-4.2835135	alza	-0.09736947
-4.4632893	ata	-0.09736944
-4.4632893	añadió	-0.09736944
-4.4632893	crónica	-0.09736944
-4.1988897	maya	-0.09736947
-4.4632893	Chac	-0.09736944
-4.4632893	Xulub-Chen	-0.09736944
-4.2835135	base	-0.09736944
-3.5933144	respondió	-0.14931855
-3.2336364	don	-0.26805142
-3.5087876	fuera	-0.16782635
-3.8372285	madre	-0.1535843
-3.9278777	respuesta	-0.13847774
-4.4632893	quitarle	-0.09736944
-4.4632893	hombros	-0.09736947
-4.4632893	quisiese	-0.09736944
-4.2835135	importaba	-0.09736944
-3.698368	vida	-0.15338334
-4.042578	alma	-0.09736944
-3.9278777	Cuitlahuacatzin	-0.14718786
-3.698368	parecía	-0.117437355
-3.8372285	ninguna	-0.17042196
-4.4632893	maneras	-0.09736944
-4.4632893	blandura	-0.09736944
-4.4632893	dejase	-0.09736944
-4.4632893	miraría	-0.09736944
-4.4632893	vería	-0.09736944
-4.4632893	debía	-0.09736947
-4.1988897	doscientos	-0.09736944
-4.1988897	cuarenta	-0.09736947
-4.042578	llamaron	-0.09736944
-4.4632893	teteuh	-0.09736944
-4.4632893	corrompiendo	-0.09736944
-4.4632893	vocablo	-0.09736944
-4.4632893	teules	-0.09736944
-4.4632893	oidores	-0.09736944
-4.4632893	licenciado	-0.09736944
-4.4632893	Salmerón	-0.09736944
-4.4632893	licenciados	-0.09736944
-4.4632893	Ceynos	-0.09736944
-4.4632893	Quiroga	-0.09736944
-4.2835135	Maldonado	-0.23460668
-4.2835135	sostuvieron	-0.09736944
-3.9278777	órdenes	-0.09736944
-4.4632893	diste	-0.09736944
-3.9278777	Nueva	-0.26210502
-4.2835135	España	-0.09736944
-4.042578	habitantes	-0.14718786
-3.698368	mandó	-0.119308576
-4.4632893	amosqueadores	-0.09736944
-3.9278777	media	-0.14718786
-4.4632893	luna	-0.09736944
-4.4632893	soncolotes	-0.09736944
-4.4632893	metemos	-0.09736944
-4.4632893	mazorcas	-0.09736947
-4.4632893	colocar	-0.09736947
-3.8372285	punto	-0.09736944
-3.6426725	llamado	-0.09736944
-4.4632893	Mazatintamalco	-0.09736944
-4.4632893	desgarraron	-0.09736944
-4.4632893	rebanaron	-0.09736944
-4.1988897	enteramente	-0.09736947
-3.5933144	hecha	-0.23765694
-4.2835135	trizas	-0.09736944
-4.4632893	pesar	-0.09736944
-3.1764307	ser	-0.14331855
-4.4632893	silenciadas	-0.09736944
-3.762272	voces	-0.09736944
-4.042578	macehual	-0.09736944
-4.2835135	Mictlancuauhtla	-0.09736947
-3.8372285	envió	-0.13847774
-3.698368	ninguno	-0.15309316
-4.2835135	autoridad	-0.09736944
-4.4632893	propósito	-0.09736944
-3.9278777	mundo	-0.1123328
-4.4632893	fijo	-0.09736944
-4.1988897	supo	-0.13236147
-4.1988897	hablaron	-0.09736947
-4.1988897	reverencia	-0.22762123
-4.1988897	humildad	-0.09736947
-4.042578	debida	-0.16058959
-4.4632893	Diijéronle	-0.09736944
-4.042578	bueno	-0.16058959
-4.2835135	justo	-0.09736944
-4.2835135	lejano	-0.09736944
-4.4632893	rogarles	-0.09736944
-4.4632893	requeridos	-0.09736944
-4.4632893	enviándoles	-0.09736944
-4.1988897	buscar	-0.117437355
-4.4632893	Culhua	-0.09736944
-4.4632893	culhuacanenses	-0.09736944
-4.4632893	fila	-0.09736944
-4.2835135	representantes	-0.09736944
-4.4632893	adornaron	-0.09736944
-4.1988897	plumajes	-0.28145486
-4.4632893	desnudaron	-0.09736944
-3.5087876	veces	-0.12920423
-4.2835135	compras	-0.09736944
-2.6739595	nomás	-0.42831695
-4.042578	diadema	-0.14718786
-3.6426725	vio	-0.11586034
-3.698368	número	-0.33111614
-4.4632893	VOSOTROS	-0.09736944
-4.4632893	JEFES	-0.09736944
-4.4632893	OFICIALES	-0.09736944
-3.8372285	Y	-0.0973694
-4.4632893	SOLDADOS	-0.09736944
-3.4380624	DE	-0.22708414
-4.042578	LA	-0.09736944
-4.4632893	DIVISIÓN	-0.09736944
-4.4632893	ARENAS	-0.09736944
-4.2835135	grillos	-0.23460668
-4.042578	primeramente	-0.09736944
-4.1988897	empellones	-0.09736947
-4.4632893	golpearon	-0.09736944
-4.4632893	bofetadas	-0.09736944
-4.4632893	abanicos	-0.09736944
-4.2835135	adornos	-0.09736944
-4.2835135	concha	-0.16058959
-4.2835135	nácar	-0.09736947
-4.4632893	Abatimiento	-0.09736944
-4.1988897	aber	-0.09736947
-4.4632893	fijado	-0.09736944
-4.042578	entendieron	-0.09736944
-4.4632893	conocieron	-0.09736944
-4.2835135	cholultecas	-0.12783018
-4.2835135	virtud	-0.09736944
-3.762272	blancos	-0.12783018
-4.2835135	poderosos	-0.09736944
-4.4632893	alcanzó	-0.09736944
-4.2835135	Acatl	-0.23460668
-4.4632893	Iyacapan	-0.09736947
-4.1988897	punta	-0.09736944
-4.4632893	cañaveral	-0.09736944
-4.4632893	Templo	-0.09736944
-4.4632893	Mayor	-0.09736947
-4.2835135	existen	-0.09736944
-4.1988897	numerosas	-0.09736947
-4.2835135	divergencias	-0.09736944
-3.5933144	fuentes	-0.12156468
-3.5933144	final	-0.2422492
-4.4632893	metrópoli	-0.09736944
-4.042578	México-Tenochtitlan	-0.23109989
-3.8372285	varias	-0.09736944
-4.2835135	idas	-0.23460668
-4.4632893	venidas	-0.09736944
-4.4632893	Golfo	-0.09736947
-4.4632893	recorridos	-0.09736944
-4.4632893	nocturnos	-0.09736944
-4.4632893	diosa	-0.09736947
-4.4632893	Cihuacoatl	-0.09736944
-3.1764307	iba	-0.26394948
-3.9278777	llorando	-0.14718786
-4.042578	gritando	-0.16058959
-4.1988897	acercarse	-0.22762123
-4.4632893	certeramente	-0.09736944
-4.2835135	invasión	-0.09736944
-4.4632893	Acercándose	-0.09736944
-4.042578	sur	-0.09736944
-4.1988897	Iztapalapa	-0.18388793
-3.9278777	Xoloco	-0.21214113
-4.2835135	cosecha	-0.09736947
-3.4380624	muertos	-0.24561487
-4.4632893	Acosó	-0.09736944
-4.2835135	soltar	-0.09736944
-4.4632893	presa	-0.09736944
-3.5489979	jefe	-0.28591606
-4.1988897	actitud	-0.22762123
-3.9278777	escritos	-0.14718786
-4.4632893	prominentes	-0.09736944
-4.2835135	personajes	-0.09736944
-4.4632893	dirigidos	-0.09736944
-4.4632893	soberano	-0.09736944
-4.1988897	conservan	-0.09736944
-4.1988897	siglos	-0.09736944
-4.4632893	coloniales	-0.09736944
-4.2835135	cartas	-0.09736944
-4.2835135	denuncias	-0.23460668
-4.1988897	peticiones	-0.09736947
-4.4632893	renzitidas	-0.09736944
-4.2835135	autoridades	-0.09736944
-4.042578	menor	-0.09736944
-4.042578	rango	-0.14718786
-4.4632893	visitadores	-0.09736944
-4.2835135	alcaldes	-0.23460668
-3.9278777	tristes	-0.13236147
-4.1988897	incluidos	-0.16058959
-4.4632893	ediciones	-0.09736944
-4.1988897	anteriores	-0.09736947
-4.042578	Visión	-0.4063936
-4.4632893	extensos	-0.09736944
-4.4632893	recordación	-0.09736944
-4.4632893	angustiada	-0.09736944
-4.042578	ocurrió	-0.13847774
-4.4632893	Admiré	-0.09736944
-4.4632893	Nanahuácatl	-0.09736944
-4.4632893	Admiróse	-0.09736944
-4.4632893	conformaba	-0.09736944
-4.2835135	Nezahualpilli	-0.09736944
-4.4632893	Afortunadamente	-0.09736944
-4.4632893	Afánate	-0.09736944
-4.2835135	oh	-0.09736944
-4.4632893	Tlacaltéccatl	-0.09736944
-3.9278777	Temilotzin	-0.20833677
-4.042578	agarra	-0.14718786
-4.4632893	gato	-0.09736944
-4.1988897	pollo	-0.28145486
-4.2835135	agarraban	-0.09736944
-4.2835135	agarramos	-0.23460668
-4.1988897	conejo	-0.19825813
-4.4632893	Agarras	-0.09736944
-4.1988897	cincel	-0.14718786
-4.4632893	Agarren	-0.09736944
-3.698368	piedra	-0.22363035
-4.1988897	agradecido	-0.09736947
-4.042578	amor	-0.09736944
-4.2835135	merced	-0.09736944
-3.6426725	hermanos	-0.17757604
-4.042578	suyos	-0.13236147
-4.042578	recibido	-0.09736944
-3.9278777	quiso	-0.09736944
-4.2835135	pago	-0.09736944
-4.2835135	intérprete	-0.09736944
-4.1988897	puestos	-0.14718786
-4.2835135	prueba	-0.09736947
-4.2835135	diferente	-0.09736944
-3.039633	ahora	-0.23668598
-3.471987	llevaban	-0.12993887
-4.2835135	quedan	-0.09736944
-4.4632893	Tlacatecco	-0.09736944
-4.042578	Topantemoctzin	-0.22762123
-3.762272	Cuauhtemoctzin	-0.181112
-3.9278777	danza	-0.16058959
-4.042578	valientes	-0.20347051
-4.4632893	festejaron	-0.09736944
-4.4632893	veintena	-0.09736944
-3.9278777	tenochcas	-0.1586146
-4.4632893	refugio	-0.09736944
-4.4632893	cautivados	-0.09736944
-3.5933144	cincuenta	-0.20410888
-3.3497765	tres	-0.12001235
-3.762272	caballos	-0.20085652
-4.4632893	disfrazaban	-0.09736944
-4.2835135	mostraban	-0.18388793
-4.4632893	introducían	-0.09736944
-4.4632893	pieles	-0.09736944
-4.1988897	trabajadores	-0.09736944
-4.2835135	mayordomos	-0.09736947
-4.4632893	Ayotzintepec	-0.09736944
-4.4632893	Chinantlan	-0.09736944
-4.4632893	tonta	-0.09736944
-4.4632893	lluviecita	-0.09736944
-4.2835135	amanecemos	-0.09736944
-4.2835135	comemos	-0.09736944
-4.2835135	queso	-0.09736947
-4.1988897	refresco	-0.28145486
-4.4632893	Universidad	-0.09736944
-4.2835135	Autónoma	-0.09736944
-4.4632893	Estado	-0.09736944
-4.042578	Hidalgo	-0.09736944
-4.042578	Hñähñu	-0.16058959
-4.1988897	maestro	-0.09736947
-4.4632893	estirpe	-0.09736944
-4.2835135	Raymundo	-0.23460668
-4.4632893	Isidro	-0.09736944
-4.4632893	Alavez	-0.09736944
-4.2835135	escucha	-0.09736944
-3.8372285	ti	-0.1763434
-4.4632893	manifestamos	-0.09736944
-3.8372285	decimos	-0.19626424
-4.4632893	apiades	-0.09736944
-4.4632893	ejercites	-0.09736944
-4.4632893	consueles	-0.09736944
-4.4632893	ayudes	-0.09736944
-4.4632893	lloramos	-0.09736944
-4.4632893	afligimos	-0.09736944
-4.2835135	afligidos	-0.09736947
-4.2835135	oprimidos	-0.09736944
-4.1988897	pedazos	-0.18388793
-4.2835135	desaparecer	-0.09736944
-4.042578	Huexotzinco	-0.15763043
-3.762272	sea	-0.10929859
-3.9278777	voluntad	-0.12783018
-3.9278777	ahí	-0.13847774
-4.4632893	enhiesta	-0.09736944
-4.042578	muralla	-0.15309316
-4.4632893	replegados	-0.09736944
-4.4632893	refugiaban	-0.09736944
-4.4632893	protegían	-0.09736944
-3.762272	aquel	-0.09736944
-3.8372285	muro	-0.17441808
-4.2835135	cabo	-0.16058959
-4.2835135	rato	-0.09736944
-3.698368	habló	-0.1646356
-3.762272	siete	-0.3443862
-3.9278777	tarde	-0.16058959
-3.6426725	comenzaron	-0.62556124
-4.2835135	destruido	-0.09736944
-4.042578	coyote	-0.09736944
-4.4632893	antoja	-0.09736944
-3.8372285	dejar	-0.11586034
-4.2835135	enterarse	-0.09736944
-4.2835135	enfrentamiento	-0.09736944
-4.042578	entregar	-0.13236147
-4.042578	numerosos	-0.09736944
-4.042578	objetos	-0.14718786
-4.4632893	complacen	-0.09736944
-4.4632893	pintarnos	-0.09736944
-4.2835135	reacción	-0.18388793
-3.9278777	capítulo	-0.0973694
-4.042578	ofrecen	-0.13236147
-4.4632893	breves	-0.09736944
-4.4632893	aludida	-0.09736944
-4.4632893	décima	-0.09736944
-4.1988897	venida	-0.09736947
-3.762272	comenzó	-0.17042196
-4.4632893	contienda	-0.09736944
-4.4632893	atrapar	-0.09736944
-3.6426725	hechos	-0.13077447
-4.4632893	agruparse	-0.09736944
-3.698368	sido	-0.09736944
-4.4632893	citados	-0.09736944
-4.042578	traen	-0.09736944
-4.2835135	responden	-0.09736944
-4.2835135	comisión	-0.09736944
-3.8372285	llamó	-0.22495657
-4.1988897	magos	-0.18388793
-3.698368	sabios	-0.16058959
-4.2835135	despojan	-0.09736944
-4.4632893	quitan	-0.09736944
-4.4632893	armaduras	-0.09736944
-4.1988897	cotas	-0.18388793
-4.2835135	algodón	-0.09736944
-4.4632893	cubrieron	-0.09736944
-3.9278777	Itzcuauhtzin	-0.17973071
-4.1988897	dieran	-0.09736944
-4.4632893	acuchillan	-0.09736944
-4.4632893	alancean	-0.09736944
-3.6426725	dan	-0.1509749
-4.2835135	tajos	-0.09736944
-4.042578	espadas	-0.19281344
-3.762272	alto	-0.181112
-4.4632893	poderoso	-0.09736944
-4.2835135	Rey	-0.09736947
-4.042578	Felipe	-0.19825813
-4.4632893	presentarlo	-0.09736944
-4.4632893	vertido	-0.09736944
-3.9278777	Garibay	-0.19825813
-4.4632893	acerquen	-0.09736944
-3.9278777	podrán	-0.09736944
-4.2835135	imaginar	-0.09736947
-3.5933144	mejor	-0.11586034
-4.1988897	acompañamiento	-0.18388793
-4.1988897	música	-0.09736947
-4.4632893	revivía	-0.09736944
-4.2835135	drama	-0.23460668
-4.4632893	redactar	-0.09736944
-3.5933144	testimonios	-0.23786387
-4.4632893	escribanas	-0.09736944
-4.4632893	ejercían	-0.09736944
-4.2835135	solían	-0.09736944
-4.4632893	recrear	-0.09736944
-4.4632893	asunto	-0.09736944
-4.4632893	constituía	-0.09736944
-4.042578	tema	-0.09736944
-4.1988897	escrito	-0.09736944
-4.4632893	sonoro	-0.09736944
-4.4632893	rugir	-0.09736944
-4.042578	cañón	-0.12783018
-4.1988897	alegres	-0.09736947
-3.9278777	tantas	-0.09736944
-4.2835135	poblaciones	-0.09736944
-4.2835135	pareceres	-0.09736944
-4.4632893	volviesen	-0.09736944
-4.4632893	Tlaxcallan	-0.09736944
-4.4632893	fuesen	-0.09736944
-3.2995372	algo	-0.14875685
-3.762272	precio	-0.18388793
-4.1988897	siento	-0.09736947
-4.042578	indios	-0.09736944
-4.1988897	coyotes	-0.09736944
-4.2835135	voraces	-0.09736944
-4.4632893	dominan	-0.09736944
-4.4632893	perfección	-0.09736944
-4.2835135	familiarizados	-0.23460668
-4.4632893	creaciones	-0.09736944
-4.1988897	poetas	-0.09736947
-4.4632893	prehispánicos	-0.09736944
-4.042578	hierro	-0.16696464
-4.4632893	ataviados	-0.09736944
-4.4632893	relumbrando	-0.09736944
-4.4632893	enfermos	-0.09736944
-4.2835135	llevamos	-0.16058959
-3.9278777	brazos	-0.19825813
-4.042578	espaldas	-0.16058959
-4.2835135	servimos	-0.09736947
-3.5489979	formas	-0.22407198
-4.4632893	Alimenté	-0.09736944
-4.042578	puercos	-0.09736944
-4.4632893	junta	-0.09736944
-4.1988897	gritó	-0.09736947
-3.8372285	posible	-0.09736944
-4.1988897	venís	-0.09736947
-3.8372285	mañana	-0.181112
-3.698368	pasado	-0.09736944
-4.2835135	iremos	-0.23460668
-4.4632893	pernoctar	-0.09736944
-4.2835135	Anáhuac	-0.18388793
-3.762272	sabe	-0.19036096
-4.2835135	Castilla	-0.09736947
-4.4632893	Cas	-0.09736944
-4.4632893	tilla	-0.09736944
-3.762272	dado	-0.09736944
-4.2835135	viniera	-0.09736944
-4.2835135	centro	-0.09736944
-4.042578	cuántas	-0.09736944
-4.1988897	fabricado	-0.124338195
-4.4632893	Calvario	-0.09736944
-3.9278777	Toluca	-0.19626424
-4.4632893	PetlacaIco	-0.09736944
-4.4632893	Mictonco	-0.09736944
-4.4632893	llevarían	-0.09736944
-4.4632893	Metztitlan	-0.09736944
-4.1988897	volvieron	-0.19825813
-4.4632893	Tula	-0.09736944
-4.042578	ahorcaron	-0.16058959
-4.4632893	Macuilxóchitl	-0.09736944
-4.4632893	Huitzilopochco	-0.09736944
-4.042578	estuvimos	-0.09736944
-3.762272	teníamos	-0.124338195
-4.2835135	macanas	-0.09736944
-3.5933144	comer	-0.21974358
-4.1988897	caminos	-0.13847774
-4.042578	precisamente	-0.16058959
-4.4632893	mortandad	-0.09736944
-3.762272	pudo	-0.09736944
-4.4632893	hallarse	-0.09736944
-4.1988897	apropiaron	-0.09736947
-3.5933144	miedo	-0.1456551
-4.2835135	abandonaron	-0.09736944
-3.698368	estuve	-0.21403874
-4.4632893	pedernales	-0.09736944
-4.4632893	llevarán	-0.09736944
-4.4632893	marchen	-0.09736944
-4.1988897	dignos	-0.28145486
-4.4632893	temidos	-0.09736944
-4.4632893	chichimecas	-0.09736944
-4.4632893	bestias	-0.09736944
-4.2835135	salvajes	-0.09736944
-4.2835135	mantienen	-0.09736944
-4.4632893	bravura	-0.09736944
-4.1988897	reunidos	-0.18388793
-3.1946747	hay	-0.12164596
-4.4632893	parlamento	-0.09736944
-4.1988897	géneros	-0.18388793
-4.2835135	divinas	-0.09736944
-4.4632893	espera	-0.09736944
-3.762272	noche	-0.15179804
-4.4632893	furiosamente	-0.09736944
-4.2835135	atacamos	-0.09736944
-4.4632893	lavaba	-0.09736944
-3.8372285	llegan	-0.16696464
-4.4632893	término	-0.09736944
-4.1988897	meta	-0.09736947
-4.2835135	encontrar	-0.09736944
-3.9278777	maíz	-0.16355297
-4.4632893	grano	-0.09736944
-3.5087876	tomaron	-0.124338195
-4.4632893	resuello	-0.09736944
-4.4632893	rindieron	-0.09736944
-3.762272	acabó	-0.17197272
-4.2835135	acequia	-0.09736944
-4.4632893	acogotaron	-0.09736944
-4.4632893	horquillas	-0.09736944
-4.042578	palo	-0.15309316
-4.4632893	pendón	-0.09736944
-4.4632893	capturado	-0.09736944
-4.4632893	arrebatado	-0.09736944
-4.2835135	reunieron	-0.09736944
-3.698368	juntos	-0.17197272
-4.4632893	definido	-0.09736944
-4.4632893	nombra	-0.09736944
-4.4632893	Cuauhxicalco	-0.09736944
-4.4632893	Urna	-0.09736944
-4.1988897	espada	-0.19825813
-4.042578	propiedad	-0.09736947
-4.4632893	amos	-0.09736944
-4.1988897	sacaron	-0.09736947
-4.4632893	Cuitlahuactonco	-0.09736944
-4.2835135	Itzpotonqui	-0.09736944
-4.4632893	concentrar	-0.09736944
-4.4632893	refrigeraron	-0.09736944
-4.2835135	descanso	-0.09736944
-4.4632893	restauraron	-0.09736944
-4.4632893	juergas	-0.09736944
-3.762272	veía	-0.12156468
-4.042578	estrellas	-0.09736944
-4.4632893	Mastelejo	-0.09736944
-3.698368	mal	-0.12783018
-4.2835135	metido	-0.09736944
-4.4632893	ollas	-0.09736944
-4.1988897	reposo	-0.09736947
-4.2835135	cobraron	-0.09736944
-4.1988897	sintieron	-0.09736947
-3.6426725	estar	-0.13847774
-4.042578	darles	-0.13847774
-4.2835135	bienvenida	-0.09736947
-4.2835135	Teocalhueyacan	-0.09736947
-3.9278777	Alvarado	-0.13517366
-4.1988897	Sol	-0.14241524
-4.2835135	alevosamente	-0.09736947
-3.8372285	llevó	-0.17197272
-4.4632893	alcanzaba	-0.09736944
-3.698368	mayor	-0.09736944
-4.4632893	esplendor	-0.09736944
-4.2835135	rendido	-0.09736944
-4.1988897	volvió	-0.09736947
-4.4632893	acampar	-0.09736944
-4.4632893	cubeta	-0.09736944
-4.1988897	culturas	-0.09736944
-4.042578	historia	-0.15050676
-4.2835135	escritura	-0.09736944
-4.4632893	transmisión	-0.09736944
-4.4632893	oral	-0.09736944
-3.8372285	ambos	-0.13847774
-4.4632893	guardan	-0.09736944
-4.2835135	estrecha	-0.09736944
-4.2835135	semejanza	-0.09736944
-4.2835135	narran	-0.09736947
-4.4632893	prodigios	-0.09736944
-4.4632893	afirmaron	-0.09736944
-4.042578	especial	-0.09736944
-4.2835135	Anales	-0.09736947
-4.1988897	pinturas	-0.16058959
-4.4632893	signos	-0.09736944
-4.4632893	glíficos	-0.09736944
-4.2835135	valiéndose	-0.09736944
-4.4632893	alfabeto	-0.09736944
-4.4632893	adaptado	-0.09736944
-4.1988897	frailes	-0.09736944
-4.4632893	representar	-0.09736944
-4.4632893	fonemas	-0.09736944
-4.4632893	preservaron	-0.09736944
-4.2835135	memoria	-0.09736944
-4.1988897	aconteceres	-0.09736944
-4.4632893	ominosos	-0.09736944
-4.4632893	actos	-0.09736944
-3.698368	valor	-0.15309316
-4.2835135	tragedia	-0.09736947
-4.4632893	Ancha	-0.09736944
-4.1988897	asiento	-0.18388793
-4.4632893	angosta	-0.09736944
-4.4632893	vértice	-0.09736944
-4.4632893	masticando	-0.09736944
-4.4632893	semillas	-0.09736944
-4.4632893	colorín	-0.09736947
-4.4632893	lirios	-0.09736944
-4.4632893	acuáticos	-0.09736944
-4.4632893	relleno	-0.09736944
-4.4632893	construcción	-0.09736944
-4.2835135	cuero	-0.09736944
-4.2835135	piel	-0.16058959
-4.4632893	venado	-0.09736944
-4.2835135	Andad	-0.09736944
-4.4632893	volved	-0.09736944
-4.4632893	andrajosos	-0.09736944
-4.2835135	damos	-0.09736944
-4.2835135	anecúyotl	-0.09736944
-3.8372285	insignia	-0.16696464
-4.042578	especie	-0.4063936
-4.4632893	ceñidero	-0.09736944
-4.4632893	anegándose	-0.09736944
-3.8372285	llanto	-0.14241524
-4.4632893	sollozos	-0.09736944
-4.4632893	suspiros	-0.09736944
-4.2835135	perder	-0.09736947
-3.4380624	decía	-0.25567943
-4.4632893	podré	-0.09736944
-4.042578	llevar	-0.09736944
-4.4632893	esconder	-0.09736944
-4.4632893	Anhelosos	-0.09736944
-4.4632893	salvo	-0.09736947
-4.4632893	hallaban	-0.09736944
-4.4632893	dirigirse	-0.09736944
-3.213719	ante	-0.32220215
-4.2835135	visitador	-0.09736944
-4.2835135	Alonso	-0.16058959
-4.4632893	Ruiz	-0.09736944
-4.2835135	encontraba	-0.09736944
-4.4632893	Huamuxtitan	-0.09736944
-4.4632893	Huamuxtitlan	-0.09736944
-4.1988897	actual	-0.09736947
-4.4632893	Guerrero	-0.09736944
-4.1988897	sandalias	-0.28145486
-4.4632893	obsidiana	-0.09736944
-3.3239307	antes	-0.3869043
-4.4632893	comenzara	-0.09736944
-4.042578	embajadores	-0.19825813
-4.4632893	comprábamos	-0.09736944
-4.4632893	plama	-0.09736944
-3.8372285	crecí	-0.17973071
-4.042578	abuelo	-0.09736944
-4.4632893	abuela	-0.09736944
-2.811613	me	-0.20037247
-4.4632893	contó	-0.09736944
-4.042578	hablaba	-0.09736944
-4.042578	esposo	-0.15763043
-4.1988897	temían	-0.09736947
-4.1988897	pegaban	-0.13847774
-4.2835135	pobrecita	-0.09736944
-3.9278777	aparece	-0.09736944
-4.4632893	alterado	-0.09736944
-4.4632893	Metlangutla	-0.09736944
-4.4632893	Aparentando	-0.09736944
-4.4632893	salvaron	-0.09736944
-3.9278777	ponía	-0.13236147
-3.5933144	veían	-0.1646356
-4.4632893	acuchillaban	-0.09736944
-4.042578	dejarla	-0.16058959
-4.4632893	comenzado	-0.09736944
-3.9278777	canto	-0.17042196
-4.2835135	saliendo	-0.09736944
-3.9278777	pasando	-0.17042196
-4.4632893	apostarse	-0.09736944
-4.4632893	entradas	-0.09736944
-4.4632893	novio	-0.09736944
-4.2835135	aprehendieron	-0.23460668
-4.4632893	Apresuradamente	-0.09736944
-4.2835135	coger	-0.18388793
-3.698368	mataron	-0.20242415
-4.4632893	Aprovechando	-0.09736944
-4.042578	noticias	-0.09736944
-4.042578	llegaban	-0.09736944
-4.2835135	escribieron	-0.09736944
-4.2835135	Europa	-0.09736947
-3.9278777	historias	-0.14718786
-4.4632893	criterio	-0.09736944
-4.4632893	humanista	-0.09736944
-3.4380624	propio	-0.2393848
-4.4632893	época	-0.09736944
-4.4632893	Apúrate	-0.09736944
-4.2835135	comerlo	-0.23460668
-3.9278777	duerme	-0.14718786
-4.2835135	vaca	-0.13847774
-3.698368	estuvo	-0.1646356
-4.4632893	sustento	-0.09736944
-4.4632893	sostén	-0.09736944
-3.6426725	has	-0.16073768
-4.4632893	sentarte	-0.09736944
-4.2835135	solio	-0.09736944
-4.2835135	trono	-0.09736944
-4.1988897	ancianos	-0.18388793
-4.4632893	nombrados	-0.09736944
-4.2835135	teochichimecas	-0.23460668
-4.4632893	Aztlan	-0.09736944
-3.5933144	tierras	-0.22037764
-4.4632893	merecerlas	-0.09736944
-4.2835135	conservados	-0.09736944
-4.2835135	pintan	-0.09736944
-4.2835135	realismo	-0.09736944
-4.4632893	comparable	-0.09736944
-3.698368	poemas	-0.30466944
-4.4632893	épicos	-0.09736944
-4.4632893	antiguedad	-0.09736944
-4.4632893	clásica	-0.09736944
-4.4632893	dramáticos	-0.09736947
-4.1988897	detalles	-0.18388793
-4.4632893	urdida	-0.09736944
-4.2835135	presenta	-0.09736947
-4.2835135	denuncia	-0.09736944
-4.2835135	agosto	-0.23460668
-4.4632893	1595	-0.09736944
-3.8372285	Miguel	-0.28145486
-4.1988897	Hernández	-0.09736944
-4.2835135	Chiyauhtzinco	-0.23460668
-4.4632893	reproduce	-0.09736944
-4.1988897	hablando	-0.09736947
-4.4632893	establece	-0.09736944
-4.4632893	consumada	-0.09736944
-3.698368	hoy	-0.13660058
-4.4632893	conoce	-0.09736944
-4.1988897	Santo	-0.18388793
-4.4632893	Tomás	-0.09736944
-4.4632893	Ajusco	-0.09736944
-4.042578	secretamente	-0.09736944
-4.2835135	adonde	-0.09736944
-4.4632893	abogadero	-0.09736944
-4.2835135	cadena	-0.23460668
-4.042578	dedos	-0.16058959
-4.4632893	eslabón	-0.09736944
-4.4632893	delgado	-0.09736944
-4.1988897	momentos	-0.09736947
-4.4632893	Cuitlachíhuitl	-0.09736944
-4.4632893	6	-0.09736944
-3.9278777	gobernante	-0.19825813
-4.4632893	Alpopoca	-0.09736944
-4.1988897	arcabuces	-0.18388793
-4.1988897	lanzas	-0.23460668
-4.4632893	bardas	-0.09736944
-4.2835135	arcos	-0.09736947
-4.1988897	metal	-0.14034924
-4.4632893	Nación	-0.09736944
-4.4632893	Ramo	-0.09736944
-4.4632893	Inquisición	-0.09736944
-4.2835135	volumen	-0.09736944
-4.4632893	146	-0.09736944
-4.4632893	expediente	-0.09736947
-4.042578	arde	-0.09736944
-4.4632893	calcina	-0.09736944
-4.4632893	doliente	-0.09736944
-4.2835135	ardiendo	-0.18388793
-4.2835135	templos	-0.14718786
-4.1988897	comunales	-0.22762123
-4.4632893	colegios	-0.09736944
-4.4632893	sacerdotales	-0.09736944
-4.4632893	revienta	-0.09736944
-3.471987	arriba	-0.19158171
-4.1988897	guardado	-0.09736947
-4.4632893	recogen	-0.09736944
-4.1988897	asedio	-0.19825813
-3.698368	asimismo	-0.09736944
-4.4632893	reafirmación	-0.09736944
-4.2835135	desgracia	-0.16058959
-4.2835135	notaron	-0.09736944
-4.4632893	señalaron	-0.09736944
-3.9278777	doce	-0.15309316
-4.4632893	Asustas	-0.09736944
-3.698368	niño	-0.14247476
-3.9278777	calma	-0.13236147
-4.4632893	presagiaba	-0.09736944
-4.4632893	desenlace	-0.09736944
-4.4632893	fatal	-0.09736944
-4.4632893	celebras	-0.09736944
-4.1988897	cuantos	-0.09736944
-4.2835135	ejemplos	-0.23460668
-4.4632893	célebres	-0.09736944
-4.4632893	icnocuicatl	-0.09736944
-3.8372285	cantares	-0.15309316
-3.9278777	crecía	-0.22993724
-4.4632893	crecían	-0.09736944
-4.1988897	sacrificios	-0.16058959
-4.4632893	supersticiones	-0.09736944
-4.4632893	porvenir	-0.09736944
-3.8372285	jamás	-0.09736944
-4.4632893	perecerá	-0.09736944
-4.4632893	olvidará	-0.09736944
-3.5489979	siempre	-0.14329514
-4.4632893	guardaremos	-0.09736944
-4.2835135	nietos	-0.18388793
-4.2835135	menores	-0.18388793
-4.4632893	tataranietos	-0.09736944
-4.4632893	biznietos	-0.09736944
-4.1988897	descendientes	-0.09736944
-4.1988897	mero	-0.09736947
-3.3772583	trabajo	-0.17197272
-4.4632893	coraje	-0.09736944
-4.1988897	serpiente	-0.16696464
-3.9278777	estruendo	-0.18388793
-4.4632893	malla	-0.09736944
-4.1988897	cascos	-0.28145486
-4.2835135	díjoles	-0.09736944
-4.1988897	finalmente	-0.14718786
-4.1988897	disponen	-0.09736944
-4.1988897	atacar	-0.14718786
-4.4632893	colocarse	-0.09736944
-4.4632893	Cuepopan	-0.09736944
-4.4632893	Cozcacuahco	-0.09736944
-4.4632893	asentar	-0.09736944
-4.2835135	relato	-0.16058959
-4.4632893	ancianas	-0.09736944
-4.2835135	admiraban	-0.09736944
-4.4632893	espantaban	-0.09736944
-3.9278777	encima	-0.17973071
-3.5933144	breve	-0.17813776
-4.2835135	tomada	-0.09736944
-4.042578	Diego	-0.14718786
-4.2835135	Muñoz	-0.23460668
-4.4632893	Camargo	-0.09736944
-4.4632893	pintados	-0.09736944
-4.4632893	importuno	-0.09736944
-4.042578	noble	-0.16058959
-4.2835135	gobiernas	-0.23460668
-4.4632893	apliques	-0.09736944
-3.8372285	justicia	-0.18388793
-3.9278777	Bartolomé	-0.32453126
-4.4632893	López	-0.09736947
-4.4632893	aflige	-0.09736947
-4.4632893	citar	-0.09736944
-4.1988897	recordarse	-0.09736947
-3.4065971	aquellos	-0.27059385
-4.4632893	verdaderos	-0.09736944
-4.2835135	llamados	-0.09736947
-4.1988897	icnocuícatl	-0.18388793
-4.2835135	Atenchicalco	-0.09736944
-4.4632893	cangrejos	-0.09736944
-4.2835135	Mixcoatechialtitlan	-0.09736944
-4.4632893	Atlixcatzin	-0.09736944
-4.1988897	Tlacatécatl	-0.09736947
-4.4632893	Atropellaron	-0.09736944
-3.2336364	sin	-0.1372254
-4.4632893	aprisionaban	-0.09736944
-4.2835135	dábamos	-0.09736944
-3.698368	tributo	-0.20878294
-4.1988897	pidió	-0.09736947
-4.4632893	moderación	-0.09736944
-4.4632893	proceden	-0.09736944
-4.042578	ofrece	-0.13236147
-4.4632893	traducción	-0.09736944
-4.2835135	acompañado	-0.09736944
-4.4632893	original	-0.09736944
-4.2835135	Tzapotlan	-0.09736944
-4.2835135	ayudaron	-0.23460668
-4.4632893	presionamos	-0.09736944
-4.4632893	ayudaran	-0.09736944
-4.4632893	exhortamos	-0.09736944
-4.1988897	hicieran	-0.09736947
-4.4632893	advertimos	-0.09736944
-4.4632893	embargo	-0.09736947
-4.4632893	vano	-0.09736944
-4.2835135	adoratorio	-0.09736944
-4.1988897	boca	-0.09736944
-4.4632893	meten	-0.09736947
-4.4632893	oráculo	-0.09736944
-4.4632893	espanta	-0.09736944
-4.4632893	reprende	-0.09736944
-4.4632893	dureza	-0.09736944
-4.4632893	hablara	-0.09736944
-4.2835135	ruido	-0.09736944
-4.2835135	queremos	-0.09736944
-4.4632893	anhelamos	-0.09736944
-4.1988897	acercarnos	-0.18388793
-3.6426725	somos	-0.09736947
-4.2835135	necesitamos	-0.09736944
-4.4632893	embarcaciones	-0.09736944
-4.042578	habremos	-0.22762123
-4.4632893	cuantas	-0.09736944
-4.4632893	acerquemos	-0.09736944
-4.4632893	quisieran	-0.09736944
-4.4632893	desaparezcamos	-0.09736944
-4.4632893	Avanzan	-0.09736944
-4.1988897	ayer	-0.09736944
-4.4632893	bailó	-0.09736944
-4.4632893	bauticé	-0.09736944
-4.1988897	empecé	-0.18388793
-4.2835135	sembrar	-0.18388793
-3.8372285	3	-0.17973071
-4.1988897	Conejo	-0.19825813
-4.1988897	vistos	-0.09736944
-4.2835135	Caña	-0.09736944
-4.4632893	Tlayácac	-0.09736944
-4.042578	2	-0.09736944
-4.4632893	Pedernal	-0.09736944
-4.4632893	Itzcohuatzin	-0.09736944
-3.471987	aún	-0.15150622
-4.2835135	despertando	-0.09736944
-4.042578	suceda	-0.16058959
-4.4632893	derrumbó	-0.09736944
-4.4632893	partió	-0.09736944
-4.2835135	tercero	-0.14718786
-4.2835135	abatió	-0.09736947
-4.1988897	hacerlo	-0.09736944
-4.2835135	cantar	-0.09736944
-4.4632893	baila	-0.09736944
-4.2835135	puerta	-0.09736944
-3.9278777	águila	-0.119308576
-4.4632893	Baila	-0.09736944
-4.4632893	Oquiztli	-0.09736944
-4.2835135	baja	-0.09736947
-4.4632893	recogerlo	-0.09736944
-4.4632893	trepas	-0.09736944
-4.4632893	abrigo	-0.09736944
-4.4632893	Bajáronse	-0.09736944
-4.042578	árbol	-0.09736944
-4.2835135	Basta	-0.09736944
-3.9278777	pobre	-0.14241524
-4.4632893	puñados	-0.09736944
-4.2835135	tortas	-0.23460668
-4.4632893	mosco	-0.09736944
-3.762272	bastante	-0.16696464
-4.4632893	Bastaría	-0.09736944
-4.1988897	recordar	-0.09736947
-4.4632893	décadas	-0.09736944
-4.4632893	orbe	-0.09736944
-4.4632893	novo	-0.09736944
-4.4632893	célebre	-0.09736944
-3.9278777	Pedro	-0.17973071
-4.2835135	Mártir	-0.09736944
-4.4632893	Anglería	-0.09736944
-3.471987	llegaba	-0.24667749
-4.4632893	alcanzando	-0.09736944
-4.1988897	pudiera	-0.22762123
-3.9278777	tomado	-0.09736944
-4.4632893	sencilla	-0.09736944
-4.1988897	tejidos	-0.09736947
-4.4632893	elaboradas	-0.09736944
-4.2835135	máxtlatl	-0.09736947
-3.8372285	apareció	-0.09736944
-4.4632893	olmecas	-0.09736944
-4.4632893	Bienvenidos	-0.09736944
-4.2835135	bonito	-0.09736944
-4.1988897	medida	-0.19825813
-4.4632893	grueso	-0.09736944
-4.4632893	Brevemente	-0.09736944
-4.4632893	describiremos	-0.09736944
-4.2835135	tomando	-0.09736947
-3.4065971	tanto	-0.1849166
-4.1988897	antigüedad	-0.09736947
-4.2835135	extensión	-0.09736944
-3.6426725	buen	-0.124338195
-4.4632893	provecho	-0.09736944
-4.4632893	Buenas	-0.09736944
-4.1988897	noches	-0.09736947
-4.4632893	tardes	-0.09736944
-3.5489979	padre	-0.20976713
-4.2835135	abono	-0.09736947
-3.9278777	buenos	-0.09736947
-4.1988897	buscan	-0.09736944
-4.4632893	importan	-0.09736944
-4.4632893	Cabe	-0.09736944
-4.4632893	pasaje	-0.09736944
-4.4632893	aproximarse	-0.09736944
-3.8372285	cabezas	-0.14034924
-3.9278777	sacrificados	-0.14718786
-4.042578	propia	-0.117437355
-4.4632893	Cambias	-0.09736944
-4.2835135	Camina	-0.09736944
-4.1988897	caminas	-0.18388793
-4.2835135	cantad	-0.18388793
-4.1988897	manuscrito	-0.09736947
-4.4632893	1628	-0.09736944
-4.4632893	bis	-0.09736944
-4.4632893	folio	-0.09736944
-4.4632893	16	-0.09736944
-4.2835135	v	-0.23460668
-4.042578	Mexicanos	-0.13236147
-4.4632893	TRISTES	-0.09736944
-4.4632893	CONQUISTA	-0.09736944
-4.042578	carne	-0.12783018
-4.1988897	carta	-0.09736944
-4.4632893	d	-0.09736944
-4.4632893	Histórico	-0.09736944
-4.4632893	Madrid	-0.09736944
-4.4632893	165	-0.09736944
-4.1988897	publicada	-0.09736947
-4.4632893	inglés	-0.09736944
-4.4632893	Arthur	-0.09736944
-4.2835135	J	-0.23460668
-4.4632893	Anderson	-0.09736944
-4.4632893	et	-0.09736944
-4.4632893	Beyond	-0.09736944
-4.2835135	the	-0.09736944
-4.4632893	Codices	-0.09736944
-4.2835135	Nahua	-0.09736944
-4.4632893	View	-0.09736944
-4.2835135	of	-0.09736944
-4.4632893	Colonial	-0.09736944
-4.2835135	Mexico	-0.09736944
-4.4632893	Berkeley	-0.09736944
-4.4632893	University	-0.09736944
-4.4632893	California	-0.09736944
-4.4632893	Press	-0.09736944
-4.4632893	1976	-0.09736944
-4.4632893	pp	-0.09736944
-4.4632893	181-187	-0.09736944
-4.4632893	Sevilla	-0.09736944
-4.4632893	Audiencia	-0.09736944
-4.4632893	168	-0.09736944
-4.4632893	comentada	-0.09736944
-4.4632893	León-Portilla	-0.09736947
-4.4632893	peligro	-0.09736944
-4.2835135	Alianza	-0.09736944
-4.4632893	Editorial	-0.09736944
-4.4632893	102-103	-0.09736944
-4.4632893	Consejo	-0.09736944
-4.042578	II	-0.19825813
-4.1988897	30	-0.09736947
-4.4632893	julio	-0.09736944
-4.4632893	1560	-0.09736944
-4.2835135	bañamos	-0.09736944
-4.1988897	temascal	-0.23460668
-4.4632893	suspiraba	-0.09736944
-4.4632893	medimos	-0.09736944
-4.1988897	víbora	-0.18388793
-4.4632893	pica	-0.09736944
-4.4632893	Aquiyahualcatecuhtli	-0.09736944
-4.1988897	católica	-0.09736947
-4.1988897	Real	-0.16058959
-4.1988897	Majestad	-0.12156468
-4.4632893	doblaron	-0.09736944
-4.4632893	hondo	-0.09736944
-4.4632893	precipitado	-0.09736944
-4.2835135	caído	-0.09736944
-4.2835135	ceñía	-0.09736944
-4.4632893	pecito	-0.09736944
-4.4632893	trapo	-0.09736944
-4.4632893	clases	-0.09736944
-4.4632893	verdes	-0.09736944
-4.4632893	jadeitas	-0.09736944
-4.2835135	chicalote	-0.09736947
-3.698368	hierba	-0.19626424
-4.4632893	medicinal	-0.09736944
-4.4632893	comestible	-0.09736944
-4.4632893	Argemone	-0.09736944
-4.2835135	cien	-0.23460668
-3.762272	pesos	-0.25454047
-4.2835135	ciento	-0.23460668
-4.1988897	molcajete	-0.17042196
-4.042578	cierra	-0.16058959
-4.4632893	Ciña	-0.09736944
-4.1988897	patria	-0.09736944
-4.4632893	sienes	-0.09736944
-4.4632893	oliva	-0.09736944
-4.2835135	Coaíhuitl	-0.23460668
-3.698368	mexica	-0.1586146
-3.6426725	nueva	-0.09736947
-3.762272	objeto	-0.47065926
-4.2835135	estudio	-0.09736947
-4.2835135	humanas	-0.09736947
-4.2835135	Nuevo	-0.23460668
-4.2835135	Mundo	-0.16058959
-3.698368	collares	-0.35582197
-4.2835135	gruesas	-0.23460668
-4.042578	ajorcas	-0.22762123
-4.4632893	galana	-0.09736944
-4.4632893	contextura	-0.09736944
-4.4632893	pulseras	-0.09736944
-3.9278777	bandas	-0.19825813
-4.4632893	muñeca	-0.09736944
-4.2835135	anillos	-0.09736944
-3.8372285	cascabeles	-0.2774394
-4.4632893	atar	-0.09736944
-4.4632893	tobillo	-0.09736944
-4.4632893	Colocación	-0.09736944
-4.1988897	catapulta	-0.09736944
-4.4632893	Combatamos	-0.09736944
-4.2835135	Carranza	-0.09736944
-4.4632893	atormentador	-0.09736944
-4.4632893	fortalezcamos	-0.09736944
-4.2835135	unión	-0.09736944
-4.4632893	lograremos	-0.09736944
-4.042578	mandato	-0.16058959
-4.4632893	libertad	-0.09736944
-4.4632893	Comencé	-0.09736944
-4.042578	trabajar	-0.19281344
-4.4632893	pegaron	-0.09736944
-4.2835135	maltrataron	-0.09736944
-4.4632893	chicote	-0.09736944
-4.4632893	Cuatlan	-0.09736944
-4.4632893	desarrollada	-0.09736944
-4.4632893	12	-0.09736944
-4.4632893	extendió	-0.09736947
-4.4632893	destruidora	-0.09736944
-4.2835135	cubrió	-0.09736944
-4.4632893	ayuno	-0.09736944
-4.4632893	rodajas	-0.09736944
-4.1988897	semilla	-0.28145486
-4.4632893	bledos	-0.09736944
-4.2835135	apelmazada	-0.09736944
-4.042578	comienza	-0.09736944
-4.4632893	EL	-0.09736944
-4.4632893	ASEDIO	-0.09736944
-4.2835135	MÉXICO-TENOCHTITLAN	-0.23460668
-4.4632893	empiezan	-0.09736944
-4.4632893	tañarles	-0.09736944
-4.1988897	flautas	-0.18388793
-4.1988897	mostrando	-0.09736947
-4.4632893	persuasión	-0.09736944
-4.4632893	abrigada	-0.09736944
-4.2835135	regresarían	-0.09736944
-4.4632893	comienzan	-0.09736944
-4.1988897	describir	-0.09736947
-4.2835135	aparición	-0.09736944
-4.1988897	ejército	-0.16058959
-4.1988897	comimos	-0.18388793
-3.2995372	fuego	-0.27008986
-4.1988897	puesta	-0.09736947
-4.4632893	cocida	-0.09736944
-4.2835135	arrebataban	-0.09736944
-4.1988897	comían	-0.16058959
-4.1988897	comió	-0.09736947
-4.2835135	enfermó	-0.09736944
-4.4632893	encharcado	-0.09736944
-4.4632893	hedor	-0.09736944
-4.2835135	alzaba	-0.09736944
-4.2835135	aire	-0.09736944
-4.4632893	arrastrarse	-0.09736944
-4.4632893	arroces	-0.09736944
-4.4632893	charales	-0.09736944
-4.1988897	cocinaba	-0.09736947
-4.1988897	nixtamal	-0.22762123
-4.2835135	preparaba	-0.09736944
-4.2835135	tortillita	-0.09736944
-4.4632893	notable	-0.09736944
-3.9278777	admiración	-0.181112
-4.4632893	india	-0.09736944
-4.4632893	traiciones	-0.09736944
-4.4632893	apuraban	-0.09736944
-3.9278777	necesidad	-0.19825813
-4.4632893	logradas	-0.09736944
-4.2835135	mesoamericanos	-0.09736944
-4.2835135	mostrarán	-0.09736944
-3.8372285	variantes	-0.13847774
-4.4632893	obstante	-0.09736944
-4.4632893	condenaciones	-0.09736944
-4.4632893	incomprensiones	-0.09736944
-4.4632893	mutuas	-0.09736944
-4.4632893	fondo	-0.09736944
-4.4632893	tipos	-0.09736944
-4.2835135	intensamente	-0.09736944
-4.4632893	escribe	-0.09736944
-3.762272	Fernando	-0.24667749
-4.2835135	Alva	-0.18388793
-3.9278777	estoy	-0.13847774
-4.2835135	termino	-0.09736947
-4.4632893	desgranar	-0.09736944
-4.4632893	limpiar	-0.09736944
-4.4632893	mido	-0.09736944
-3.9278777	habiendo	-0.09736944
-4.2835135	declinado	-0.09736944
-4.2835135	Poniente	-0.23460668
-4.1988897	crecido	-0.09736947
-4.1988897	zanja	-0.16058959
-4.042578	llena	-0.22762123
-3.8372285	cayó	-0.14718786
-4.4632893	trabajara	-0.09736944
-3.5489979	quería	-0.109935604
-4.2835135	quedarse	-0.18388793
-4.4632893	amamantaba	-0.09736944
-4.4632893	empujado	-0.09736944
-3.9278777	echó	-0.09736944
-4.042578	hicimos	-0.09736944
-4.1988897	Coyonacazco	-0.09736944
-3.9278777	difunto	-0.14718786
-4.4632893	padrecito	-0.09736944
-3.9278777	trabajaba	-0.09736944
-4.4632893	escarbaba	-0.09736944
-4.4632893	pantanos	-0.09736944
-3.9278777	muestra	-0.14718786
-4.4632893	rescates	-0.09736944
-4.042578	Crónica	-0.14718786
-4.4632893	mexicáyotl	-0.09736944
-4.4632893	Tezozórnoc	-0.09736944
-4.2835135	deseaba	-0.09736944
-4.4632893	emparejo	-0.09736944
-4.4632893	cierro	-0.09736944
-3.698368	llega	-0.16682073
-4.1988897	patea	-0.16058959
-4.1988897	nopales	-0.18388793
-4.4632893	amerindios	-0.09736944
-4.4632893	norte	-0.09736944
-4.2835135	continente	-0.09736944
-4.1988897	voz	-0.14718786
-4.4632893	expresando	-0.09736944
-4.1988897	demandas	-0.09736947
-4.4632893	dirigen	-0.09736944
-4.4632893	terminar	-0.09736944
-4.4632893	exclusión	-0.09736944
-3.8372285	víctimas	-0.18388793
-3.9278777	saben	-0.14718786
-3.9278777	dueños	-0.26210502
-4.1988897	destino	-0.16058959
-4.4632893	confiar	-0.09736944
-4.4632893	papas	-0.09736944
-4.1988897	pescados	-0.18388793
-3.8372285	podía	-0.09736947
-4.4632893	esperarse	-0.09736944
-4.4632893	recurrente	-0.09736944
-4.4632893	reaparece	-0.09736944
-4.1988897	composiciones	-0.09736947
-4.4632893	contemporáneos	-0.09736944
-4.4632893	diarios	-0.09736944
-4.2835135	sufrimientos	-0.09736944
-4.4632893	incesantes	-0.09736944
-4.4632893	confrontaciones	-0.09736944
-3.9278777	cierto	-0.09736947
-4.4632893	anhelan	-0.09736944
-4.4632893	sed	-0.09736944
-4.1988897	recto	-0.09736947
-4.042578	quiera	-0.24667749
-4.1988897	fuese	-0.14718786
-4.2835135	llegada	-0.14718786
-4.1988897	extraña	-0.09736944
-4.4632893	especialmente	-0.09736944
-4.1988897	imperio	-0.09736947
-4.4632893	monarquía	-0.09736944
-4.4632893	rentaban	-0.09736944
-4.4632893	aderezan	-0.09736944
-4.4632893	aderezaban	-0.09736944
-4.4632893	pintaron	-0.09736944
-3.5489979	varios	-0.15522248
-4.4632893	dejados	-0.09736944
-4.2835135	cultura	-0.09736944
-4.4632893	desocupado	-0.09736944
-4.4632893	meto	-0.09736944
-4.042578	mientras	-0.09736944
-4.4632893	olotes	-0.09736944
-3.9278777	dizque	-0.12783018
-4.1988897	matar	-0.14718786
-4.042578	salían	-0.13847774
-4.042578	varones	-0.16058959
-4.4632893	verá	-0.09736947
-4.4632893	brasa	-0.09736944
-4.2835135	cayendo	-0.09736944
-4.042578	lluvia	-0.09736944
-4.2835135	chispas	-0.09736944
-3.9278777	larga	-0.13847774
-4.4632893	tendió	-0.09736944
-4.4632893	cauda	-0.09736944
-4.4632893	cola	-0.09736944
-4.4632893	sentaban	-0.09736944
-4.4632893	ademán	-0.09736944
-3.9278777	gusto	-0.14718786
-4.4632893	renovaba	-0.09736944
-4.4632893	iluminaba	-0.09736944
-4.4632893	sopas	-0.09736944
-4.1988897	llenaba	-0.16058959
-4.4632893	explicación	-0.09736944
-3.9278777	antiguo	-0.09736944
-4.2835135	resentimiento	-0.09736944
-4.4632893	tlatelokas	-0.09736944
-4.1988897	Axayácatl	-0.18388793
-4.4632893	ansiaban	-0.09736944
-4.042578	treinta	-0.16058959
-4.4632893	veremos	-0.09736944
-4.2835135	movido	-0.09736944
-3.698368	temor	-0.15050676
-4.2835135	compadécete	-0.23460668
-4.4632893	ayudarnos	-0.09736944
-4.4632893	Asi	-0.09736944
-4.4632893	pido	-0.09736944
-4.4632893	compuestos	-0.09736944
-4.2835135	usanza	-0.09736944
-4.4632893	cuicapicque	-0.09736944
-4.042578	sobrevivientes	-0.09736944
-4.1988897	comía	-0.09736944
-4.042578	quelite	-0.16058959
-4.2835135	sanguinaria	-0.09736944
-4.1988897	comíamos	-0.09736944
-4.4632893	cadenas	-0.09736944
-4.4632893	animaban	-0.09736944
-4.4632893	aplastado	-0.09736944
-3.8372285	paso	-0.119308576
-4.4632893	sagrados	-0.09736944
-4.4632893	reducida	-0.09736944
-4.2835135	cenizas	-0.09736944
-4.1988897	aprendido	-0.09736947
-4.4632893	arte	-0.09736944
-4.4632893	alfabética	-0.09736944
-4.4632893	continuaron	-0.09736944
-4.4632893	produciendo	-0.09736944
-4.042578	hablan	-0.13236147
-4.4632893	cotidiana	-0.09736944
-4.1988897	difícil	-0.09736947
-4.4632893	coexistencia	-0.09736944
-3.762272	esa	-0.09736944
-4.1988897	hierbita	-0.18388793
-4.4632893	convicción	-0.09736944
-4.4632893	reflexionan	-0.09736944
-4.4632893	lamentosa	-0.09736944
-3.698368	triste	-0.09736944
-3.762272	suerte	-0.09736944
-4.042578	vimos	-0.16058959
-4.4632893	angustiados	-0.09736944
-4.4632893	alteración	-0.09736944
-4.4632893	sobresalto	-0.09736944
-4.4632893	acuitados	-0.09736944
-4.2835135	motivo	-0.09736947
-4.4632893	guardia	-0.09736944
-4.4632893	desbandaron	-0.09736944
-4.042578	salido	-0.09736947
-4.4632893	ardor	-0.09736944
-4.042578	arrojaron	-0.09736947
-4.1988897	misma	-0.09736944
-4.4632893	saludan	-0.09736944
-4.2835135	Huiznahuácatl	-0.09736944
-4.042578	Motelhuihtzin	-0.09736944
-4.4632893	concluyó	-0.09736944
-4.1988897	consejo	-0.28145486
-4.4632893	serias	-0.09736944
-4.4632893	aprobaban	-0.09736944
-4.042578	parecer	-0.16058959
-4.1988897	resguardo	-0.09736947
-4.4632893	famosos	-0.09736944
-4.4632893	ejercitados	-0.09736944
-4.4632893	uso	-0.09736944
-4.4632893	razones	-0.09736944
-4.4632893	lastimosas	-0.09736944
-4.4632893	enternecieron	-0.09736944
-3.762272	príncipe	-0.124338195
-4.4632893	lance	-0.09736944
-4.4632893	permiso	-0.09736944
-3.5933144	voy	-0.4006685
-4.2835135	puros	-0.09736944
-4.2835135	esquites	-0.09736944
-4.4632893	llenábamos	-0.09736944
-4.4632893	parezco	-0.09736944
-3.762272	hacemos	-0.13236147
-4.042578	mandado	-0.09736944
-3.9278777	Yacacolco	-0.17973071
-3.762272	fuerza	-0.13847774
-4.4632893	violencia	-0.09736944
-4.4632893	desechando	-0.09736944
-4.4632893	desapareciendo	-0.09736944
-4.2835135	brasas	-0.09736944
-4.1988897	centellas	-0.09736947
-4.1988897	corrían	-0.18388793
-4.1988897	Oriente	-0.18388793
-4.1988897	asta	-0.18388793
-4.2835135	Xicalanco	-0.23460668
-4.4632893	calmaban	-0.09736944
-4.4632893	cuartillo	-0.09736944
-3.762272	quieren	-0.09736944
-3.8372285	trabajos	-0.13236147
-4.4632893	centelleaba	-0.09736944
-3.698368	tanta	-0.09736944
-4.4632893	espesura	-0.09736944
-4.4632893	polvoreaba	-0.09736944
-4.042578	claridad	-0.16058959
-3.762272	salía	-0.20833677
-4.4632893	dales	-0.09736944
-3.8372285	contento	-0.13847774
-4.2835135	confiamos	-0.23460668
-4.4632893	Apiádate	-0.09736944
-4.2835135	acuérdate	-0.23460668
-4.4632893	viven	-0.09736944
-4.4632893	pastizales	-0.09736944
-4.2835135	bosques	-0.23460668
-4.2835135	causan	-0.09736944
-4.042578	lástima	-0.16058959
-4.4632893	Seriar	-0.09736944
-4.4632893	guardaras	-0.09736944
-4.4632893	fuéramos	-0.09736944
-4.2835135	servidores	-0.16058959
-4.4632893	Conjuntamente	-0.09736944
-4.042578	imagen	-0.14718786
-4.4632893	refiriéndose	-0.09736944
-4.4632893	individuos	-0.09736944
-4.4632893	tratan	-0.09736944
-4.4632893	apoderarse	-0.09736944
-4.042578	lograron	-0.09736944
-4.2835135	conservar	-0.09736947
-4.2835135	derechos	-0.09736947
-4.2835135	luchan	-0.23460668
-4.2835135	conservado	-0.23460668
-4.4632893	Contando	-0.09736944
-4.4632893	auxilio	-0.09736944
-3.762272	traían	-0.119308576
-3.762272	derecho	-0.12783018
-4.4632893	contando	-0.09736944
-4.4632893	colaboración	-0.09736944
-4.1988897	maestros	-0.09736947
-4.4632893	conocedores	-0.09736944
-3.9278777	esas	-0.09736947
-4.4632893	Contraataque	-0.09736944
-4.4632893	Copiamos	-0.09736944
-4.042578	siquiera	-0.09736944
-4.4632893	estrofas	-0.09736944
-4.4632893	coronas	-0.09736944
-3.9278777	reales	-0.12783018
-4.4632893	reservada	-0.09736944
-4.4632893	alhajas	-0.09736944
-4.2835135	corred	-0.09736944
-4.4632893	Corresponde	-0.09736944
-4.4632893	interesan	-0.09736944
-4.4632893	curso	-0.09736944
-4.2835135	correteaban	-0.09736944
-4.4632893	Correteó	-0.09736944
-3.8372285	hermano	-0.13236147
-4.4632893	admitió	-0.09736944
-4.1988897	dejaba	-0.18388793
-4.042578	causa	-0.16058959
-3.762272	vuelta	-0.124338195
-4.2835135	exige	-0.09736944
-4.4632893	entregue	-0.09736944
-4.4632893	consoló	-0.09736944
-4.4632893	rogó	-0.09736944
-4.4632893	mandase	-0.09736944
-4.4632893	rindiesen	-0.09736944
-4.2835135	subió	-0.18388793
-4.4632893	torre	-0.09736944
-4.1988897	alta	-0.18388793
-4.4632893	rindieran	-0.09736944
-4.1988897	calles	-0.16058959
-4.2835135	Sandoval	-0.09736944
-4.042578	poner	-0.13847774
-4.1988897	beber	-0.09736947
-4.1988897	pastura	-0.18388793
-3.762272	guerrero	-0.16058959
-4.2835135	oreja	-0.09736944
-4.4632893	adive	-0.09736944
-4.4632893	Topónimo	-0.09736944
-4.4632893	Cozticteocuítlatl	-0.09736944
-3.698368	amarillo	-0.2568215
-4.4632893	iztacteocuítlatl	-0.09736944
-3.6426725	blanco	-0.181112
-4.2835135	plata	-0.09736944
-4.2835135	sobrepasó	-0.09736944
-4.042578	señora	-0.19337673
-4.2835135	pantano	-0.18388793
-4.4632893	creyó	-0.09736944
-4.2835135	posiblemente	-0.09736944
-4.2835135	volvían	-0.09736944
-4.4632893	anunciado	-0.09736944
-4.2835135	tradiciones	-0.09736944
-4.4632893	Cuachiquesy	-0.09736944
-3.8372285	otomíes	-0.181112
-4.4632893	grados	-0.09736944
-4.4632893	militares	-0.09736944
-4.1988897	descritos	-0.09736947
-4.2835135	anteriormente	-0.09736944
-3.8372285	nota	-0.13236147
-4.4632893	XI	-0.09736944
-4.2835135	brotes	-0.09736944
-4.1988897	cañas	-0.09736947
-4.2835135	maguey	-0.09736944
-4.4632893	espigas	-0.09736944
-4.1988897	madera	-0.13236147
-4.4632893	caria	-0.09736944
-4.4632893	médula	-0.09736944
-4.4632893	sabor	-0.09736944
-4.4632893	dulces	-0.09736944
-4.4632893	enmielados	-0.09736944
-4.2835135	comen	-0.09736944
-4.4632893	miel	-0.09736944
-4.4632893	dulce	-0.09736944
-4.4632893	estrechaban	-0.09736944
-3.9278777	cualquier	-0.09736944
-4.2835135	escapaba	-0.09736944
-4.1988897	juntaban	-0.09736947
-4.1988897	sacrificio	-0.09736944
-4.1988897	ensartaron	-0.09736947
-4.4632893	picas	-0.09736944
-4.4632893	anclado	-0.09736944
-4.4632893	habitaban	-0.09736944
-4.4632893	monté	-0.09736944
-4.4632893	patadas	-0.09736944
-4.1988897	amanecer	-0.09736947
-4.1988897	traer	-0.12156468
-4.1988897	ataron	-0.09736947
-4.1988897	Ahuizotzin	-0.09736947
-4.4632893	Acatliyacapan	-0.09736944
-4.1988897	cegado	-0.18388793
-4.4632893	marchan	-0.09736944
-4.4632893	cautelosamente	-0.09736944
-4.2835135	caminando	-0.09736947
-4.1988897	tañendo	-0.09736947
-4.4632893	chirimías	-0.09736944
-4.2835135	tocando	-0.09736944
-4.2835135	tambores	-0.18388793
-4.4632893	reconcentrarse	-0.09736944
-4.2835135	Mazatzintamalco	-0.09736944
-4.042578	dispararon	-0.20347051
-4.2835135	cationes	-0.09736944
-4.4632893	bala	-0.09736944
-4.042578	pasaron	-0.09736944
-3.9278777	caballo	-0.28780133
-4.4632893	conquistan	-0.09736944
-4.4632893	dividido	-0.09736944
-4.2835135	burros	-0.09736944
-4.4632893	traerlo	-0.09736944
-4.4632893	sacarlo	-0.09736944
-3.9278777	burro	-0.13847774
-4.1988897	hacienda	-0.18388793
-4.1988897	prisionero	-0.09736947
-4.4632893	daga	-0.09736944
-3.9278777	traía	-0.14718786
-4.2835135	conquistador	-0.09736947
-4.4632893	pusiera	-0.09736944
-4.4632893	acorralado	-0.09736944
-4.4632893	espacio	-0.09736944
-3.5087876	dando	-0.114513144
-4.4632893	disparado	-0.09736944
-4.4632893	oscureció	-0.09736944
-4.4632893	difundió	-0.09736944
-4.2835135	humo	-0.09736947
-4.4632893	preparado	-0.09736944
-4.042578	golpe	-0.09736944
-4.2835135	grietas	-0.09736944
-4.4632893	desgarró	-0.09736944
-4.2835135	abrió	-0.09736947
-4.1988897	recogido	-0.09736947
-3.9278777	Xóchitl	-0.181112
-4.4632893	Huitznáhuac	-0.09736944
-4.4632893	decirle	-0.09736944
-4.042578	sabido	-0.09736944
-4.2835135	fabricar	-0.14718786
-4.042578	acabado	-0.16058959
-4.042578	hablar	-0.09736944
-4.2835135	grita	-0.09736944
-4.4632893	oprobios	-0.09736944
-4.4632893	amanecido	-0.09736944
-4.4632893	necesitaba	-0.09736944
-4.4632893	anochecido	-0.09736944
-4.2835135	medianoche	-0.09736947
-4.4632893	compacta	-0.09736944
-4.4632893	formación	-0.09736944
-4.4632893	durmió	-0.09736944
-4.4632893	cesado	-0.09736944
-4.4632893	pedirles	-0.09736944
-4.4632893	Chalmita	-0.09736944
-3.9278777	dinero	-0.14489073
-3.5933144	…	-0.12964419
-4.2835135	mensaje	-0.14718786
-4.2835135	revolución	-0.09736947
-4.1988897	terminado	-0.09736944
-4.4632893	lancearlos	-0.09736944
-4.4632893	atropellarlos	-0.09736944
-4.042578	trataban	-0.4063936
-4.2835135	cerrarles	-0.23460668
-4.4632893	huecos	-0.09736944
-4.4632893	metieran	-0.09736944
-3.9278777	rana	-0.13847774
-3.8372285	charro	-0.16687669
-4.4632893	elegante	-0.09736944
-4.1988897	rebozo	-0.23460668
-4.2835135	desaparecían	-0.09736944
-4.4632893	seca	-0.09736944
-4.4632893	agazapan	-0.09736944
-4.4632893	endureció	-0.09736944
-4.4632893	persistió	-0.09736944
-4.1988897	ataque	-0.09736947
-4.4632893	hilera	-0.09736944
-4.1988897	filas	-0.09736947
-4.042578	matado	-0.09736944
-3.8372285	colocado	-0.13236147
-4.4632893	Coyohuehuekin	-0.09736944
-4.4632893	Temolikin	-0.09736944
-3.8372285	oyeron	-0.17042196
-4.042578	oyó	-0.18388793
-4.4632893	pusieran	-0.09736944
-4.4632893	gri	-0.09736944
-4.4632893	llos	-0.09736944
-4.4632893	encadenaran	-0.09736944
-4.4632893	decirles	-0.09736944
-4.1988897	lados	-0.09736944
-4.2835135	cogido	-0.09736944
-4.4632893	vende	-0.09736944
-4.2835135	incienso	-0.18388793
-3.8372285	gritos	-0.18180433
-4.4632893	instalado	-0.09736944
-4.4632893	interrogaron	-0.09736944
-4.2835135	tocante	-0.23460668
-4.4632893	recursos	-0.09736944
-4.4632893	reservas	-0.09736944
-4.4632893	críe	-0.09736944
-4.1988897	pegaba	-0.14718786
-4.4632893	yema	-0.09736944
-4.4632893	quitaba	-0.09736944
-4.2835135	moría	-0.09736944
-4.2835135	plato	-0.09736944
-4.4632893	chiquihuite	-0.09736944
-4.4632893	quebrar	-0.09736944
-4.4632893	truenan	-0.09736944
-4.4632893	hubimos	-0.09736944
-4.4632893	dispersado	-0.09736944
-4.042578	Cuauhtitlan	-0.18388793
-4.4632893	trasladó	-0.09736944
-3.8372285	Pascuala	-0.13847774
-4.4632893	parimos	-0.09736944
-3.9278777	bajó	-0.22993724
-3.8372285	escudo	-0.17469355
-4.4632893	quedamos	-0.09736944
-4.4632893	derrotados	-0.09736944
-4.4632893	peleando	-0.09736944
-4.4632893	aventó	-0.09736944
-4.4632893	asentarse	-0.09736944
-4.4632893	Acueco	-0.09736944
-4.4632893	preparaban	-0.09736944
-4.1988897	peste	-0.09736944
-4.4632893	habrían	-0.09736944
-4.2835135	casar	-0.09736944
-4.4632893	casaban	-0.09736944
-4.1988897	estómago	-0.13847774
-4.4632893	pensó	-0.09736947
-4.2835135	darían	-0.09736944
-4.4632893	guías	-0.09736944
-4.2835135	movió	-0.23460668
-4.042578	sepa	-0.09736947
-4.4632893	pula	-0.09736944
-3.8372285	molcajetes	-0.15763043
-4.4632893	Iztacalco	-0.09736944
-4.2835135	sabíamos	-0.09736944
-4.2835135	omnipotente	-0.09736944
-4.4632893	compasiva	-0.09736944
-4.4632893	Santísima	-0.09736944
-4.2835135	Trinidad	-0.09736944
-4.2835135	ubo	-0.23460668
-4.1988897	llenó	-0.18388793
-4.4632893	amorteció	-0.09736944
-4.4632893	encogió	-0.09736944
-4.2835135	angustia	-0.09736947
-4.2835135	yendo	-0.09736944
-3.698368	ven	-0.117437355
-4.2835135	arder	-0.09736944
-3.762272	templo	-0.19855429
-4.4632893	clamor	-0.09736944
-4.4632893	lloros	-0.09736944
-3.9278777	hablaban	-0.09736944
-4.4632893	pensaba	-0.09736944
-4.2835135	saqueado	-0.09736944
-3.762272	Tzilacatzin	-0.09736944
-4.4632893	amedrentaban	-0.09736944
-4.2835135	procuraban	-0.09736944
-4.1988897	esfuerzo	-0.09736947
-4.042578	mataban	-0.17042196
-4.1988897	arcabuz	-0.22762123
-4.2835135	viento	-0.09736947
-4.2835135	riega	-0.09736944
-4.1988897	hierbas	-0.09736944
-4.2835135	Zoquiapan	-0.09736944
-4.4632893	emprendieron	-0.09736944
-3.6426725	echaron	-0.12993887
-4.4632893	correr	-0.09736944
-4.1988897	llenos	-0.28145486
-4.4632893	vinimos	-0.09736944
-4.4632893	establecernos	-0.09736944
-4.042578	vivimos	-0.16058959
-4.4632893	instalar	-0.09736944
-4.4632893	formado	-0.09736944
-4.4632893	emplumaban	-0.09736944
-4.4632893	embijarniento	-0.09736944
-4.1988897	rayas	-0.09736944
-4.4632893	atravesaban	-0.09736944
-4.042578	rostro	-0.13236147
-4.1988897	tirar	-0.09736944
-4.2835135	rodearon	-0.09736944
-4.4632893	dedo	-0.09736947
-4.4632893	bajaba	-0.09736944
-4.2835135	burrito	-0.09736944
-4.4632893	fuer	-0.09736944
-3.9278777	chiquito	-0.22993724
-4.4632893	confirmaste	-0.09736944
-4.4632893	hiciste	-0.09736944
-4.2835135	mercedes	-0.23460668
-4.4632893	honraste	-0.09736944
-4.4632893	premiaste	-0.09736944
-4.4632893	sirvió	-0.09736944
-4.2835135	matarse	-0.23460668
-4.4632893	Cuappiatzin	-0.09736944
-4.2835135	funesto	-0.09736947
-4.4632893	cuatrocientos	-0.09736944
-4.4632893	enseñado	-0.09736944
-4.1988897	Cuauhnochtli	-0.09736947
-4.2835135	funcionario	-0.23460668
-4.4632893	Conacoch	-0.09736944
-4.1988897	Tetlepanquetzaltzin	-0.16058959
-4.4632893	dirigió	-0.09736944
-4.2835135	intérpretes	-0.09736944
-4.4632893	Cuitlachihuitl	-0.09736944
-4.4632893	electo	-0.09736944
-4.2835135	tlahtoani	-0.09736947
-4.4632893	trágicamente	-0.09736944
-4.2835135	curvo	-0.09736944
-4.4632893	constelado	-0.09736944
-4.1988897	cuáchic	-0.09736947
-3.276441	&apos;	-0.24051526
-4.1988897	fuerte	-0.09736947
-4.4632893	quáchic	-0.09736944
-4.2835135	propiedades	-0.09736944
-4.2835135	amparo	-0.23460668
-4.4632893	furioso	-0.09736944
-4.4632893	rabioso	-0.09736944
-4.4632893	valentazo	-0.09736944
-4.4632893	membrudo	-0.09736944
-4.4632893	señalado	-0.09736944
-4.4632893	112	-0.09736944
-4.4632893	deseo	-0.09736944
-4.4632893	Cíñete	-0.09736944
-4.4632893	faja	-0.09736944
-4.2835135	falda	-0.09736944
-4.4632893	Aubin	-0.09736947
-4.4632893	Edic	-0.09736944
-4.4632893	Peñafiel	-0.09736944
-4.4632893	84	-0.09736944
-4.4632893	ss	-0.09736944
-4.2835135	Ángel	-0.23460668
-4.2835135	Ma	-0.23460668
-4.4632893	K	-0.09736944
-4.042578	Ramírez	-0.09736947
-4.2835135	Relación	-0.09736944
-4.042578	origen	-0.18388793
-4.4632893	habitan	-0.09736947
-4.4632893	Historias	-0.09736944
-4.2835135	fragmentos	-0.09736944
-4.1988897	4	-0.09736947
-4.2835135	llevas	-0.09736947
-4.2835135	trozos	-0.16058959
-4.4632893	vendría	-0.09736944
-4.4632893	Córrele	-0.09736944
-4.042578	ve	-0.14718786
-4.2835135	alcanzarla	-0.09736944
-4.4632893	esforzado	-0.09736944
-4.4632893	Cuauhtencoztli	-0.09736944
-4.2835135	rotos	-0.23460668
-4.2835135	red	-0.09736947
-4.4632893	agujeros	-0.09736944
-3.9278777	sueño	-0.19825813
-4.042578	La	-0.09736944
-4.2835135	realidad	-0.09736944
-4.2835135	forjador	-0.23460668
-3.698368	flores	-0.17469355
-4.4632893	secaron	-0.09736944
-4.2835135	Tezozómoc	-0.18388793
-4.042578	adentro	-0.16058959
-4.042578	salen	-0.09736944
-4.1988897	llamas	-0.16058959
-3.9278777	lenguas	-0.13847774
-4.2835135	llamaradas	-0.18388793
-4.4632893	persiguieron	-0.09736944
-3.5933144	abajo	-0.30605075
-3.5933144	sale	-0.17973071
-4.042578	sombrero	-0.14718786
-4.2835135	Citlaltépec	-0.09736944
-4.4632893	Temazcalapan	-0.09736944
-4.4632893	marca	-0.09736944
-4.042578	presurosos	-0.09736944
-4.4632893	elocuentes	-0.09736944
-4.2835135	oídos	-0.09736947
-4.1988897	duro	-0.09736947
-4.4632893	reproche	-0.09736944
-4.4632893	dorecio	-0.09736944
-4.4632893	dirige	-0.09736944
-4.4632893	sumisión	-0.09736944
-4.4632893	datos	-0.09736944
-4.4632893	aportados	-0.09736944
-4.2835135	anécdotas	-0.09736944
-4.2835135	particularmente	-0.09736944
-4.4632893	interesantes	-0.09736944
-4.4632893	ejemplo	-0.09736944
-4.4632893	violenta	-0.09736944
-4.1988897	Yacotzin	-0.18388793
-4.1988897	expresa	-0.09736947
-4.4632893	hermosa	-0.09736944
-4.4632893	alabanza	-0.09736944
-3.8372285	diciendo	-0.18388793
-4.2835135	flor	-0.09736947
-4.4632893	causado	-0.09736944
-4.2835135	Huitziltépetl	-0.23460668
-4.4632893	Colibrí	-0.09736944
-4.4632893	desigual	-0.09736944
-4.4632893	importancia	-0.09736944
-4.4632893	suficientes	-0.09736944
-4.2835135	estudiar	-0.09736944
-4.2835135	rasgos	-0.09736944
-4.4632893	característicos	-0.09736944
-4.4632893	formaron	-0.09736944
-4.2835135	cronistas	-0.23460668
-4.1988897	negocio	-0.09736947
-4.4632893	abasto	-0.09736944
-4.4632893	manteníamos	-0.09736944
-4.4632893	trabajábamos	-0.09736944
-4.4632893	aposentaron	-0.09736944
-4.4632893	imperial	-0.09736944
-4.4632893	recogieron	-0.09736944
-4.1988897	cuyo	-0.09736947
-4.4632893	dejaremos	-0.09736944
-4.1988897	entraban	-0.09736947
-4.4632893	correos	-0.09736944
-4.4632893	avisos	-0.09736944
-3.9278777	duró	-0.09736944
-3.8372285	podrá	-0.09736944
-4.1988897	nahua	-0.09736947
-4.2835135	Cantares	-0.23460668
-3.698368	sucedió	-0.15309316
-4.4632893	aconteció	-0.09736944
-3.8372285	grado	-0.13236147
-3.9278777	militar	-0.19825813
-4.1988897	suelen	-0.09736947
-4.2835135	casco	-0.23460668
-4.1988897	combatiendo	-0.16058959
-3.6426725	interés	-0.17197272
-4.4632893	convivido	-0.09736944
-4.4632893	través	-0.09736944
-4.4632893	participante	-0.09736944
-4.4632893	afectado	-0.09736944
-3.9278777	exclusiva	-0.09736944
-4.2835135	improviso	-0.09736944
-4.1988897	desapareció	-0.09736947
-3.9278777	encuentro	-0.17136271
-4.2835135	caminaron	-0.09736944
-4.1988897	palma	-0.17973071
-4.4632893	empezaramos	-0.09736944
-4.4632893	arcángel	-0.09736944
-4.2835135	divino	-0.23460668
-4.4632893	defensiva	-0.09736944
-4.4632893	penetrando	-0.09736944
-4.4632893	Aculhuacan	-0.09736944
-4.1988897	sementeras	-0.18388793
-3.5489979	mil	-0.18180433
-4.2835135	XVII	-0.09736947
-4.042578	petición	-0.16058959
-4.4632893	contenidos	-0.09736944
-4.042578	libro	-0.09736944
-4.2835135	XII	-0.09736944
-4.4632893	maderones	-0.09736944
-4.4632893	dirán	-0.09736944
-4.4632893	quieran	-0.09736944
-4.4632893	trataba	-0.09736944
-4.2835135	fardo	-0.09736944
-4.2835135	hueco	-0.09736944
-4.042578	manto	-0.16058959
-4.4632893	dondequiera	-0.09736944
-4.4632893	cogen	-0.09736944
-4.2835135	quitando	-0.09736944
-4.4632893	exhalaba	-0.09736944
-4.042578	segunda	-0.22762123
-4.4632893	dario	-0.09736944
-4.1988897	tío	-0.14718786
-4.4632893	principe	-0.09736944
-4.4632893	enviaba	-0.09736944
-4.4632893	quisiesen	-0.09736944
-4.4632893	diese	-0.09736944
-4.4632893	enviar	-0.09736944
-4.4632893	castigar	-0.09736944
-4.2835135	osadía	-0.09736944
-3.8372285	teniendo	-0.09736947
-4.2835135	tantos	-0.23460668
-4.4632893	valerosos	-0.09736944
-4.4632893	pereció	-0.09736944
-4.2835135	catión	-0.23460668
-4.4632893	profesión	-0.09736944
-4.4632893	expresado	-0.09736944
-4.2835135	pensamiento	-0.09736944
-3.9278777	presente	-0.13847774
-4.4632893	futuro	-0.09736944
-4.4632893	repente	-0.09736944
-4.4632893	unirse	-0.09736944
-4.4632893	TEZCATLIPOCA	-0.09736944
-3.9278777	EN	-0.14718786
-4.4632893	LAS	-0.09736944
-4.4632893	CERCANÍAS	-0.09736944
-4.042578	DEL	-0.09736944
-4.4632893	POPOCATÉPETL	-0.09736944
-4.4632893	posteriores	-0.09736944
-4.4632893	evocaciones	-0.09736944
-4.4632893	acompañaron	-0.09736944
-4.4632893	‘	-0.09736944
-4.2835135	Danza	-0.09736944
-4.1988897	traje	-0.09736944
-4.1988897	extraño	-0.09736947
-4.4632893	denodados	-0.09736944
-4.4632893	animosos	-0.09736944
-3.8372285	entrar	-0.13236147
-4.4632893	provincias	-0.09736944
-4.4632893	tocados	-0.09736944
-4.4632893	proyectiles	-0.09736944
-4.4632893	abren	-0.09736944
-4.4632893	vientre	-0.09736944
-4.4632893	abría	-0.09736944
-4.2835135	variadas	-0.09736944
-4.1988897	siguieron	-0.09736947
-4.4632893	salida	-0.09736944
-4.2835135	recuerdos	-0.09736944
-4.1988897	antepasados	-0.09736947
-4.1988897	verde	-0.09736947
-4.4632893	mugrienta	-0.09736944
-4.2835135	ychtilmatle	-0.09736944
-4.4632893	feo	-0.09736944
-4.4632893	encarnados	-0.09736944
-4.4632893	Ximachoctzin	-0.09736944
-4.4632893	Chimalpaquinitzin	-0.09736944
-4.4632893	decidle	-0.09736944
-4.042578	guarda	-0.09736944
-4.1988897	andan	-0.15309316
-4.2835135	sé	-0.09736944
-4.4632893	Decidnos	-0.09736944
-4.1988897	traído	-0.09736947
-4.2835135	alquilados	-0.09736944
-4.4632893	declararles	-0.09736944
-4.2835135	ley	-0.09736947
-4.2835135	juntado	-0.09736944
-4.2835135	propuso	-0.09736944
-3.698368	caso	-0.14718786
-4.1988897	diciéndoles	-0.09736947
