\data\
ngram 1=5200
ngram 2=23713
ngram 3=37987

\1-grams:
-4.3785615	<unk>	0
0	<s>	-0.9616128
-1.3074763	</s>	0
-2.498878	yo	-0.23708403
-4.246307	amanecí	-0.11414914
-2.4150817	muy	-0.284628
-2.6411388	bien	-0.335153
-1.1511841	.	-1.9530972
-3.872411	soy	-0.16727892
-3.6605656	maestro	-0.21672006
-1.6220311	de	-0.41539013
-4.0363135	ceremonias	-0.15110011
-2.401023	como	-0.24388345
-4.246307	amanecieron	-0.11414914
-2.973912	ustedes	-0.2045063
-2.0186143	?	-0.9948534
-2.5477395	nosotros	-0.3117955
-4.246307	amanecimos	-0.11414914
-3.7536974	amaneció	-0.1795616
-2.5349991	usted	-0.28552204
-3.2893004	Juan	-0.20065404
-3.2550354	cómo	-0.19555141
-1.9580448	se	-0.31120217
-3.7536974	llama	-0.12736046
-2.6028035	me	-0.18142849
-3.7536974	llamo	-0.12960197
-4.246307	Ah	-0.11414914
-2.2071345	!	-0.7377408
-3.3265026	somos	-0.1608922
-4.246307	tocayos	-0.11414914
-4.246307	apellida	-0.11414914
-2.7012186	mi	-0.29177254
-4.0363135	apellido	-0.11414914
-1.8601983	es	-0.39816368
-4.246307	López	-0.11414914
-4.246307	Quiénes	-0.11414914
-2.3874047	son	-0.2409116
-2.5349991	ellos	-0.26466784
-3.5839217	familia	-0.1608922
-3.6605656	Carlos	-0.19800675
-2.0401688	y	-0.29875633
-4.0751243	Maria	-0.11414914
-2.8810952	este	-0.21314228
-3.165979	lugar	-0.26184118
-3.7536974	Salitre	-0.2217704
-3.165979	aquella	-0.19072583
-3.7536974	planta	-0.14156349
-4.0751243	chayote	-0.11414914
-2.560865	él	-0.267579
-2.3212128	un	-0.23838645
-3.872411	buen	-0.11414914
-4.0363135	chamán	-0.11414914
-2.5883694	así	-0.3415231
-3.3265026	hombre	-0.20269516
-3.2893004	bueno	-0.18571575
-3.2550354	canta	-0.20081657
-2.9915106	aquel	-0.18889579
-3.7536974	malo	-0.19148985
-2.5883694	su	-0.20110282
-3.872411	tío	-0.187633
-4.246307	Familiar	-0.11414914
-3.6605656	quién	-0.15888315
-4.0751243	sobrino	-0.11414914
-4.246307	Talok	-0.11414914
-3.0490382	maíz	-0.29462194
-1.9481808	la	-0.3032672
-3.5839217	mujer	-0.18142785
-4.246307	Lopez	-0.11414914
-4.246307	maiz	-0.11414914
-3.223277	tu	-0.21763657
-3.1936836	te	-0.12648149
-4.246307	llamas	-0.11414914
-4.0363135	esposa	-0.15888315
-1.8778064	el	-0.29824555
-3.5187964	niño	-0.16257139
-3.4120924	ve	-0.18928175
-4.0751243	mariposa	-0.11414914
-3.5187964	juega	-0.25251782
-3.1153667	casa	-0.31347921
-4.246307	felicito	-0.11414914
-2.9407196	si	-0.23672165
-2.3571975	lo	-0.21194968
-2.9569988	dice	-0.2844722
-3.0290036	...	-0.31422746
-2.064971	con	-0.4348234
-3.0921133	esta	-0.17293018
-3.7536974	bola	-0.26451644
-3.6605656	puedo	-0.11414914
-3.3671923	jugar	-0.3078475
-4.0363135	debo	-0.11414914
-3.5187964	ayudar	-0.2387855
-1.7546619	a	-0.44444862
-3.5187964	madre	-0.19888677
-2.5413227	eso	-0.33775377
-3.3265026	debe	-0.11414914
-4.246307	beberse	-0.11414914
-2.9250288	hoy	-0.25011107
-2.173095	está	-0.2588251
-3.2893004	estoy	-0.17004117
-2.1570263	no	-0.3638453
-3.5187964	enfermo	-0.33334693
-3.1399357	qué	-0.15447666
-3.7536974	pasó	-0.11414914
-3.3265026	tengo	-0.15985098
-3.070042	mucha	-0.18335043
-4.0363135	gripe	-0.15110011
-4.0751243	anteayer	-0.11414914
-1.8019047	en	-0.65116155
-3.5187964	noche	-0.18705508
-3.872411	zorro	-0.14345416
-3.872411	metió	-0.11414914
-2.2472951	los	-0.25780097
-3.5187964	pollos	-0.25721633
-3.1153667	hizo	-0.19793448
-4.246307	levanté	-0.11414914
-3.7536974	matarlo	-0.23957759
-3.7536974	lluvia	-0.14345416
-3.5187964	mató	-0.15888315
-2.253817	al	-0.25281292
-4.0751243	maldito	-0.11414914
-4.0751243	escapó	-0.11414914
-3.1399357	mal	-0.18967797
-2.78191	ese	-0.2295291
-2.449772	hay	-0.28685963
-4.246307	zorros	-0.11414914
-3.165979	lejos	-0.33603305
-3.5839217	montaña	-0.1482051
-3.5187964	azul	-0.317206
-3.3671923	estuvo	-0.168216
-3.3265026	vio	-0.2023077
-3.5839217	cantó	-0.20317201
-3.2893004	vi	-0.16632785
-3.7536974	vió	-0.18533522
-2.560865	están	-0.23777153
-3.7536974	escuela	-0.19800675
-4.0363135	llegué	-0.15462057
-4.0363135	Amubri	-0.17082563
-3.7536974	arco	-0.18533522
-2.6028035	le	-0.18077366
-3.7536974	maté	-0.17082563
-3.7536974	conejo	-0.20840822
-3.2893004	antes	-0.22686191
-1.9962597	que	-0.37027538
-3.070042	esto	-0.20425922
-4.246307	Sibonu	-0.11414914
-4.0363135	pobre	-0.11414914
-2.8286772	va	-0.39632732
-3.3265026	cantar	-0.2654608
-4.0751243	podré	-0.23602466
-4.0363135	echar	-0.11414914
-2.973912	algo	-0.23266153
-2.8673859	o	-0.1431545
-2.7602887	nada	-0.4766984
-3.5839217	iré	-0.22458407
-4.0363135	jugó	-0.20875971
-3.7536974	comió	-0.16377842
-3.2893004	yuca	-0.33322564
-4.0751243	cante	-0.11414914
-4.0751243	juegue	-0.11414914
-4.246307	beba	-0.11414914
-4.0363135	coma	-0.11414914
-3.0098526	pero	-0.1793596
-4.246307	échelo	-0.11414914
-4.246307	entero	-0.11414914
-2.560865	:	-0.27777898
-4.246307	corte	-0.11414914
-2.3874047	las	-0.26346767
-4.246307	uñas	-0.11414914
-1.4542471	,	-0.5716564
-4.246307	saque	-0.11414914
-4.246307	tripas	-0.11414914
-3.5187964	he	-0.16897605
-4.246307	escuchado	-0.11414914
-3.4621756	mayores	-0.13633958
-4.0751243	preguntado	-0.11414914
-4.246307	querer	-0.11414914
-2.5349991	nos	-0.20573038
-4.0751243	vemos	-0.11414914
-3.872411	morirá	-0.17082563
-4.0363135	estás	-0.11414914
-3.4120924	haciendo	-0.16201796
-4.0363135	leyendo	-0.15110011
-3.872411	libro	-0.21330054
-3.5187964	sentado	-0.18653592
-4.246307	bebiendo	-0.11414914
-3.0490382	chicha	-0.30119243
-3.5187964	suelo	-0.1384306
-3.3671923	trabajar	-0.20630614
-3.7536974	comerlo	-0.18533522
-4.246307	sucedía	-0.11414914
-2.5955265	cuando	-0.2251589
-4.246307	panza	-0.11414914
-2.2345378	del	-0.23451398
-3.872411	Yàbulu	-0.15888315
-2.7602887	estaba	-0.18428098
-3.0921133	nuestra	-0.19866
-3.6605656	canasta	-0.23957759
-3.070042	todavía	-0.19848888
-2.7012186	ahí	-0.28622824
-3.3265026	dentro	-0.3707121
-4.246307	resto	-0.11414914
-3.4120924	nuestras	-0.14562501
-4.246307	semillitas	-0.11414914
-4.0751243	producir	-0.11414914
-3.4120924	dolor	-0.33334693
-4.0751243	estómago	-0.13594043
-4.0363135	cocinado	-0.15888315
-2.7297502	ya	-0.30051053
-2.9407196	vamos	-0.39572793
-4.246307	destapar	-0.11414914
-2.8286772	había	-0.21767236
-4.246307	traído	-0.11414914
-4.0751243	niña	-0.11414914
-3.3671923	desde	-0.1886815
-3.6605656	regresó	-0.17263077
-2.6253963	allá	-0.48391303
-3.070042	arriba	-0.21472487
-3.872411	hubo	-0.15888315
-3.872411	llegado	-0.19148985
-2.6028035	entonces	-0.242138
-3.0098526	llegó	-0.27142745
-3.2893004	gente	-0.17656067
-3.5839217	señora	-0.13711819
-3.7536974	puso	-0.16377842
-4.246307	desgranar	-0.11414914
-2.6831884	aquí	-0.31283173
-3.3671923	mismo	-0.15224928
-4.0363135	pondré	-0.24023135
-3.6605656	sol	-0.15888315
-3.2550354	abajo	-0.24702318
-2.0867796	para	-0.3247247
-3.7536974	indígenas	-0.1608922
-3.872411	brillante	-0.17082563
-2.9407196	esa	-0.19169769
-2.973912	hacer	-0.18092272
-3.5187964	unos	-0.13391355
-4.0363135	buenos	-0.15888315
-4.0751243	bolsitos	-0.11414914
-2.854096	uno	-0.2744016
-4.0751243	pequeñito	-0.11414914
-3.1936836	adentro	-0.26375133
-3.2550354	piedra	-0.26031232
-3.4120924	mata	-0.15993594
-3.3671923	comemos	-0.13825525
-3.5839217	completamente	-0.23957759
-4.246307	designado	-0.11414914
-4.0751243	matarnos	-0.11414914
-4.0751243	definitivamente	-0.11414914
-4.246307	téribes	-0.11414914
-4.246307	amarra	-0.11414914
-2.2637875	por	-0.38686293
-3.4621756	alguien	-0.11414914
-4.0751243	morir	-0.11414914
-2.9407196	pues	-0.19868307
-4.246307	examínelo	-0.11414914
-3.5187964	ver	-0.13391355
-3.0290036	puede	-0.14465688
-3.872411	curar	-0.15888315
-4.0363135	comienza	-0.24023135
-4.246307	enrollar	-0.11414914
-3.5187964	persona	-0.1608922
-4.246307	envolver	-0.11414914
-4.0363135	cuerpo	-0.17082563
-4.246307	beberé	-0.11414914
-4.0751243	pide	-0.11414914
-4.246307	agarremos	-0.11414914
-4.246307	mismos	-0.11414914
-4.0751243	pedazo	-0.19148985
-3.872411	mecate	-0.15888315
-3.2550354	ahora	-0.1677191
-4.0751243	agarra	-0.11414914
-3.5187964	mano	-0.179148
-2.6028035	&quot;	-0.27655277
-4.246307	levántelo	-0.11414914
-4.0363135	reventó	-0.11414914
-2.8952515	;	-0.2249375
-4.0751243	volvieron	-0.17082563
-4.0751243	sacar	-0.19148985
-4.246307	Saquen	-0.11414914
-4.246307	sacaron	-0.11414914
-4.246307	enormes	-0.11414914
-3.2550354	piedras	-0.18653592
-3.1153667	todas	-0.4462101
-4.0751243	partes	-0.11414914
-4.0751243	metieron	-0.11414914
-4.246307	Yábulu	-0.11414914
-4.246307	invadieron	-0.11414914
-3.0290036	nuestro	-0.19895351
-4.246307	pidamos	-0.11414914
-3.223277	animales	-0.21110311
-3.5839217	venado	-0.15178923
-3.7536974	saíno	-0.15888315
-4.0751243	algún	-0.11414914
-3.6605656	momento	-0.13081376
-3.223277	después	-0.22228786
-4.246307	examinar	-0.11414914
-3.3265026	trabaja	-0.17201146
-3.223277	ha	-0.14562501
-3.7536974	pasado	-0.11414914
-2.8810952	cuatro	-0.23904303
-3.2550354	veces	-0.27440754
-3.7536974	óköm	-0.15888315
-3.4120924	mayor	-0.13516776
-3.7536974	hora	-0.11414914
-3.2893004	siete	-0.1384306
-4.0751243	media	-0.23602466
-4.246307	dejaré	-0.11414914
-4.0751243	hígado	-0.11414914
-3.872411	pescado	-0.1795616
-4.246307	mollejón	-0.11414914
-4.0363135	materno	-0.17082563
-3.6605656	pariente	-0.11414914
-3.5187964	padre	-0.1580424
-3.4120924	mis	-0.15572815
-4.246307	excrementos	-0.11414914
-4.246307	piojo	-0.11414914
-4.0751243	cola	-0.11414914
-3.5187964	olla	-0.20547695
-4.246307	estropeó	-0.11414914
-2.9250288	fue	-0.18916517
-4.246307	estropeado	-0.11414914
-4.0363135	pegó	-0.19148985
-4.246307	gató	-0.11414914
-4.0751243	durmió	-0.11414914
-4.246307	gatos	-0.11414914
-4.0751243	durmieron	-0.11414914
-3.7536974	ratón	-0.17882657
-3.872411	ratones	-0.17263077
-4.246307	sentó	-0.11414914
-4.246307	sentaron	-0.11414914
-4.0363135	comí	-0.19148985
-3.872411	vieron	-0.20511705
-4.0363135	vimos	-0.11414914
-3.3671923	mujeres	-0.20436637
-4.246307	compraron	-0.11414914
-4.0751243	vestidos	-0.19148985
-3.223277	entre	-0.2132798
-3.7536974	ellas	-0.11414914
-4.246307	bailé	-0.11414914
-4.0363135	novia	-0.20875971
-2.8412006	porque	-0.18021989
-4.0751243	cansado	-0.19148985
-4.0751243	porqué	-0.11414914
-4.0751243	caminé	-0.11414914
-2.7200298	hasta	-0.2850578
-3.070042	cinco	-0.14562501
-4.246307	tarde	-0.11414911
-4.246307	Hola	-0.11414914
-3.5839217	buscando	-0.13594043
-3.4120924	machete	-0.19374166
-3.070042	sí	-0.2359086
-4.0751243	usando	-0.11414914
-3.2893004	trabajando	-0.23957759
-4.246307	sacho	-0.11414914
-3.5839217	toma	-0.16173205
-3.872411	gracias	-0.19922438
-4.246307	Adiós	-0.11414914
-3.5839217	fui	-0.30376533
-3.872411	cocinarlo	-0.18533522
-4.0363135	nuevo	-0.14156349
-4.0363135	corriendo	-0.19148985
-3.5839217	comiendo	-0.1424063
-3.4120924	arroz	-0.30609328
-4.0751243	estuvimos	-0.11414914
-3.872411	caminando	-0.11414914
-3.7536974	jugando	-0.1886815
-3.5187964	viendo	-0.14814338
-2.454962	una	-0.25033936
-3.5839217	camisa	-0.23170538
-4.0363135	tela	-0.11414914
-4.0751243	naipe	-0.11414914
-3.7536974	cantando	-0.23957759
-4.0751243	cumbia	-0.23602466
-4.0751243	bailando	-0.11414914
-4.0363135	cocinando	-0.21637659
-4.246307	diciéndoselo	-0.11414914
-2.909885	Sibö	-0.31797224
-4.246307	rezando	-0.11414914
-2.8810952	cosas	-0.25099605
-4.0751243	fumando	-0.11414914
-4.246307	escritos	-0.11414914
-3.223277	sabe	-0.187633
-3.4621756	hablar	-0.3259357
-4.0363135	hable	-0.11414914
-3.4120924	diez	-0.15110011
-3.1153667	mañana	-0.25534838
-3.4621756	María	-0.16569062
-4.0751243	diga	-0.11414914
-4.0751243	escúchelo	-0.23602466
-3.223277	voy	-0.42416286
-4.246307	arregló	-0.11414914
-4.0751243	cocinó	-0.11414914
-4.246307	Comencé	-0.11414914
-3.3671923	caminar	-0.31305808
-3.1399357	ayer	-0.26689726
-4.0363135	vine	-0.11414914
-4.0751243	esperar	-0.11414914
-4.246307	amarrarlo	-0.11414914
-3.5839217	cuál	-0.13391355
-4.0363135	hice	-0.11414914
-3.6605656	mes	-0.1708256
-3.223277	estamos	-0.17594127
-4.0363135	compró	-0.23602466
-4.246307	fustán	-0.11414914
-3.872411	amarillo	-0.15888315
-4.246307	Llámelos	-0.11414914
-4.0751243	canté	-0.19148985
-3.2550354	dinero	-0.33184996
-4.246307	corren	-0.11414914
-3.5839217	llegaron	-0.15462057
-4.0751243	cucharacha	-0.11414914
-4.246307	mantis	-0.11414914
-4.0751243	insectos	-0.11414914
-3.872411	mío	-0.18533522
-4.0751243	habló	-0.11414914
-3.3671923	perro	-0.20590448
-3.5839217	mordió	-0.22458407
-4.246307	Po	-0.11414914
-3.223277	&apos;	-0.13594043
-4.246307	tak	-0.11414914
-3.5187964	dicho	-0.15224928
-3.3671923	suquia	-0.2738793
-4.246307	bordón	-0.11414914
-4.246307	bordon	-0.11414914
-4.0751243	pulpería	-0.11414914
-4.0751243	gallinero	-0.11414914
-3.7536974	quiero	-0.15736586
-4.246307	anaranjado	-0.11414914
-4.0751243	celeste	-0.11414914
-3.4621756	rojo	-0.29030636
-4.0363135	blancuzco	-0.19148985
-4.0363135	negruzco	-0.11414914
-4.0363135	amarillento	-0.19148985
-3.3671923	verde	-0.19922438
-3.872411	oscuro	-0.23602466
-4.0363135	redondo	-0.24023135
-4.0363135	liviano	-0.15888315
-4.0751243	claro	-0.11414914
-3.5839217	medio	-0.11414914
-4.0751243	verdaderamente	-0.11414914
-3.0098526	grande	-0.36716518
-3.872411	fácil	-0.17082563
-4.0363135	difícil	-0.15110011
-3.4621756	blanco	-0.28585118
-3.872411	perros	-0.11414914
-3.872411	blancos	-0.11414914
-3.223277	grandes	-0.2690888
-3.3265026	pequeño	-0.22103257
-3.6605656	pequeños	-0.11414914
-3.5187964	bonito	-0.204713
-3.6605656	bonita	-0.14562501
-3.872411	aquellas	-0.11414914
-3.5187964	bonitas	-0.25721633
-4.0363135	mía	-0.18533522
-3.4621756	blanca	-0.31803587
-4.246307	ladrando	-0.11414914
-2.8673859	más	-0.17825946
-3.6605656	pie	-0.1482051
-3.4120924	hombres	-0.2105161
-4.0363135	silla	-0.14562501
-3.3671923	afuera	-0.22814524
-4.246307	ave	-0.11414914
-4.246307	posada	-0.11414914
-4.0751243	rama	-0.13594043
-2.8952515	sobre	-0.36615688
-4.0751243	mesa	-0.11414914
-3.872411	cuarto	-0.20875971
-4.0363135	acostado	-0.19148985
-3.872411	cama	-0.17263077
-3.872411	lagarto	-0.17082563
-4.0751243	orilla	-0.11414914
-3.5187964	río	-0.19855678
-3.5187964	chancho	-0.39551905
-3.6605656	monte	-0.14893323
-4.0751243	papaya	-0.11414914
-3.7536974	pejibaye	-0.18533522
-4.0363135	bolso	-0.20511705
-3.7536974	rifle	-0.1384306
-3.7536974	bote	-0.1708256
-3.4120924	caballo	-0.20276682
-4.0363135	metido	-0.19148985
-4.246307	barrial	-0.11414914
-4.0751243	tepezcuintle	-0.11414914
-4.0751243	cueva	-0.17082563
-3.6605656	matas	-0.38945517
-4.0751243	metidas	-0.23602466
-4.246307	milpa	-0.11414914
-4.246307	clavado	-0.11414914
-3.6605656	tierra	-0.19148989
-4.0363135	foto	-0.11414914
-4.0751243	pegada	-0.11414914
-4.246307	pared	-0.11414914
-3.5839217	flecha	-0.1708256
-4.246307	apoyada	-0.11414914
-4.0751243	puerta	-0.17082563
-4.246307	montado	-0.11414914
-4.246307	viéndolo	-0.11414914
-2.6921098	dos	-0.20020483
-4.0363135	tepezcuintles	-0.17082563
-3.4621756	pájaros	-0.17566763
-4.0363135	culebras	-0.17082563
-3.5187964	cuántos	-0.14538012
-3.5839217	vaca	-0.19986662
-3.070042	otra	-0.23887855
-4.0363135	solía	-0.11414914
-4.0751243	andar	-0.11414914
-3.4120924	camino	-0.1742366
-4.0751243	comía	-0.11414914
-3.5839217	bailar	-0.1783595
-2.449772	mucho	-0.32936874
-4.246307	subía	-0.11414914
-4.0363135	escalera	-0.18533522
-4.0363135	pocas	-0.11414914
-4.246307	pocos	-0.11414914
-3.5187964	chanchos	-0.23939942
-4.246307	mediana	-0.11414914
-3.223277	casas	-0.23911719
-4.246307	medianas	-0.11414914
-3.4621756	hijos	-0.34872204
-3.223277	tenemos	-0.20026769
-4.0751243	cacique	-0.11414914
-2.429611	tiene	-0.28426602
-3.872411	peones	-0.15888315
-4.0751243	dientes	-0.11414914
-3.872411	vestido	-0.14562501
-4.0751243	tan	-0.11414914
-2.8286772	ella	-0.27310008
-4.0751243	larga	-0.11414914
-4.0751243	tuya	-0.11414914
-3.5187964	alto	-0.20840822
-3.6605656	menos	-0.13594043
-4.246307	bella	-0.11414914
-4.0363135	Carmen	-0.11414914
-3.872411	delgada	-0.11414914
-4.0363135	veinte	-0.11414914
-3.872411	treinta	-0.15888315
-4.246307	Cuarenta	-0.11414914
-4.246307	Cincuenta	-0.11414914
-4.246307	Sesenta	-0.11414914
-4.0751243	setenta	-0.11414914
-4.0751243	ochenta	-0.11414914
-4.0751243	noventa	-0.11414914
-4.0751243	cien	-0.11414914
-4.0363135	miel	-0.11414914
-4.246307	Doscientos	-0.11414914
-4.0751243	trescientos	-0.11414914
-4.246307	Cuatrocientos	-0.11414914
-4.0751243	quinientos	-0.11414914
-4.246307	Seiscientos	-0.11414914
-4.246307	Setecientos	-0.11414914
-4.246307	Ochosientos	-0.11414914
-4.246307	Novecientos	-0.11414914
-4.0751243	mil	-0.23602466
-4.246307	Once	-0.11414914
-3.223277	personas	-0.22765796
-3.070042	come	-0.16976334
-4.246307	Míralo	-0.11414914
-4.246307	Escríbelo	-0.11414914
-4.246307	comas	-0.11414914
-4.246307	juegues	-0.11414914
-4.246307	veas	-0.11414914
-4.246307	escribas	-0.11414914
-3.7536974	sea	-0.11414914
-3.6605656	visto	-0.187633
-4.0751243	escrito	-0.11414914
-4.0363135	camine	-0.11414914
-3.7536974	corrió	-0.19148985
-4.0751243	pus	-0.11414914
-4.0363135	último	-0.17082563
-4.246307	disculpe	-0.11414914
-3.2893004	dijo	-0.28585118
-4.0363135	ves	-0.17082563
-3.6605656	compré	-0.18601745
-3.2893004	comer	-0.18457009
-3.7536974	cuentan	-0.15110011
-4.0751243	narraciones	-0.11414914
-4.246307	tradicionales	-0.11414914
-3.7536974	ven	-0.14562501
-4.0363135	leo	-0.19148985
-3.872411	canto	-0.13391355
-4.246307	juego	-0.11414914
-3.872411	veo	-0.14562501
-4.246307	corro	-0.11414914
-4.0751243	sucede	-0.11414914
-4.0751243	cantaré	-0.23602466
-4.0751243	jugaré	-0.23602466
-4.246307	veré	-0.11414914
-4.0751243	correré	-0.23602466
-4.0751243	sucederá	-0.23602466
-4.246307	cantará	-0.11414914
-4.246307	mataré	-0.11414914
-3.2550354	llega	-0.21374515
-4.0751243	comieron	-0.11414914
-4.246307	dijiste	-0.11414914
-3.4621756	vino	-0.19563746
-4.246307	grité	-0.11414914
-4.246307	corran	-0.11414914
-3.7536974	San	-0.24023135
-3.5839217	Pedro	-0.16497505
-4.246307	amubreño	-0.11414914
-4.246307	sanpedreño	-0.11414914
-3.6605656	parecido	-0.3071781
-4.246307	adinerado	-0.11414914
-3.070042	años	-0.3460558
-4.0363135	oye	-0.11414914
-3.6605656	verlo	-0.3289643
-3.5839217	correr	-0.2562696
-3.5839217	suele	-0.23702848
-4.246307	oírse	-0.11414914
-4.0751243	jugado	-0.23602466
-4.0751243	comido	-0.19148985
-3.223277	carne	-0.31830427
-3.7536974	han	-0.15110011
-3.7536974	gordo	-0.23957759
-4.246307	país	-0.11414914
-4.0751243	Costa	-0.23602466
-4.246307	Rica	-0.11414914
-3.5187964	cosa	-0.1622619
-3.872411	negra	-0.11414914
-4.246307	gordos	-0.11414914
-4.246307	perrito	-0.11414914
-3.3671923	señor	-0.1646828
-4.246307	tiíto	-0.11414914
-4.0751243	sentarse	-0.11414914
-4.246307	Siéntese	-0.11414914
-4.246307	sienten	-0.11414914
-4.0751243	primeras	-0.11414914
-3.5187964	palabras	-0.17190784
-4.0751243	saludar	-0.11414914
-4.0363135	preguntar	-0.14562501
-3.6605656	nombre	-0.13594043
-4.0363135	despedirse	-0.19148985
-3.6605656	Hernán	-0.15110011
-3.6605656	Trini	-0.25108907
-3.6605656	luego	-0.13594043
-3.5839217	vaya	-0.15888315
-4.246307	Expresiones	-0.11414914
-4.0751243	frecuentes	-0.23602466
-3.7536974	pasando	-0.11414914
-3.2893004	tiempo	-0.17481028
-3.0290036	muchas	-0.14259678
-4.0363135	molesto	-0.19148985
-4.246307	Felicidades	-0.11414914
-4.0751243	acuerdo	-0.11414914
-3.5839217	niños	-0.16184214
-3.5839217	médico	-0.19104244
-4.246307	Vámonos	-0.11414914
-4.246307	Disculpe	-0.11414914
-3.3671923	árbol	-0.22611319
-3.3671923	árboles	-0.24577335
-4.246307	chamanes	-0.11414914
-3.5839217	muchacha	-0.17159833
-3.872411	muchachas	-0.1384306
-3.2893004	tigre	-0.22459076
-3.5187964	tigres	-0.19401608
-3.4621756	muchacho	-0.1427956
-4.0363135	muchachos	-0.15888315
-3.872411	ollas	-0.11414914
-3.5839217	dónde	-0.15337479
-2.9407196	vive	-0.42654037
-4.246307	Lea	-0.11414914
-4.0751243	mama	-0.11414914
-4.246307	siotami	-0.11414914
-4.246307	No	-0.11414914
-3.7536974	Ana	-0.14562501
-3.7536974	gallina	-0.18533522
-3.4621756	aquellos	-0.17981796
-4.0751243	escuchan	-0.11414914
-3.5839217	vivo	-0.23887855
-4.0363135	Cartago	-0.15888315
-2.973912	también	-0.21394235
-4.0751243	Talamanca	-0.14345416
-4.0363135	Anastasia	-0.15110011
-4.0751243	Bachi	-0.11414914
-3.6605656	estudiantes	-0.16377842
-3.5187964	Alí	-0.25864208
-4.246307	profesores	-0.11414914
-3.3671923	aquello	-0.16149673
-3.872411	escucha	-0.15110011
-2.78191	era	-0.27198896
-3.872411	estudiante	-0.17082563
-4.246307	Heredia	-0.11414914
-3.5839217	papá	-0.17190784
-4.0751243	viejita	-0.15888315
-3.7536974	médicos	-0.16632785
-3.872411	cerbatana	-0.1795616
-4.0363135	diente	-0.24023135
-3.872411	piel	-0.17263077
-3.6605656	cerdo	-0.1811399
-4.0363135	pata	-0.11414914
-3.6605656	madera	-0.16632785
-3.223277	banano	-0.20451637
-3.7536974	parientes	-0.17190784
-4.0363135	oh	-0.15888315
-3.4621756	frente	-0.4863652
-4.246307	echado	-0.11414914
-4.0751243	borde	-0.19148985
-4.246307	parado	-0.11414914
-4.246307	par	-0.11414914
-3.3671923	mono	-0.38945517
-4.246307	congo	-0.11414914
-4.0363135	colgado	-0.17082563
-3.872411	limón	-0.17882657
-3.7536974	colgando	-0.14156349
-4.0363135	tallo	-0.11414914
-4.0363135	Limón	-0.15888315
-3.1936836	durante	-0.24809933
-3.0098526	todo	-0.20399149
-4.0363135	año	-0.13391355
-4.0751243	crecido	-0.11414914
-4.0363135	chácara	-0.11414914
-3.1153667	cerca	-0.44348323
-4.0363135	nubes	-0.11414914
-3.7536974	hormiga	-0.11414914
-3.6605656	pájaro	-0.15355186
-4.0363135	pierna	-0.11414914
-3.4120924	bribri	-0.30376533
-3.872411	guacal	-0.11414914
-3.5839217	danta	-0.2180948
-3.5839217	hijo	-0.16389
-4.0751243	Coroma	-0.15888315
-4.246307	hijas	-0.11414914
-3.872411	Silverio	-0.11414914
-4.0751243	marido	-0.11414914
-3.4120924	esos	-0.13149379
-3.2893004	esas	-0.22458407
-3.3265026	gallinas	-0.4648084
-4.0751243	parada	-0.11414914
-4.246307	canasto	-0.11414914
-3.2550354	sirve	-0.59859955
-3.7536974	recoger	-0.14562501
-3.070042	cacao	-0.4157204
-3.7536974	barro	-0.33146322
-4.246307	aguado	-0.11414914
-3.5187964	trajo	-0.13391355
-4.246307	regalo	-0.11414914
-4.0363135	traje	-0.15888315
-2.9250288	tres	-0.16924535
-3.872411	palos	-0.15888315
-3.5839217	paquetes	-0.187633
-3.4120924	naranjas	-0.39786163
-4.246307	maduras	-0.11414914
-3.5839217	anoche	-0.19104244
-3.6605656	llevó	-0.16619344
-3.872411	pantalones	-0.18533522
-4.246307	rifles	-0.11414914
-4.0751243	compramos	-0.11414914
-3.872411	dantas	-0.19148985
-3.872411	almendro	-0.15110011
-3.2893004	junto	-0.5002544
-4.0751243	araña	-0.11414914
-4.246307	robles	-0.11414914
-4.0751243	patio	-0.11414914
-4.246307	suq	-0.11414914
-4.246307	uias	-0.11414914
-4.0751243	sentados	-0.11414914
-3.2893004	duerme	-0.22998963
-4.246307	duermen	-0.11414914
-4.0751243	caballos	-0.11414914
-4.246307	atados	-0.11414914
-3.6605656	vacas	-0.2975695
-4.246307	atadas	-0.11414914
-4.246307	echadas	-0.11414914
-3.1399357	allí	-0.2617301
-4.246307	cariblanco	-0.11414914
-3.4621756	camina	-0.17190784
-4.246307	colgándose	-0.11414914
-4.0751243	cocino	-0.11414914
-3.7536974	buscar	-0.14718786
-3.872411	lagartos	-0.17082563
-4.246307	pedirían	-0.11414914
-3.1936836	café	-0.3220891
-3.5839217	hermana	-0.15958472
-2.9915106	quiere	-0.1726485
-3.872411	sé	-0.16619344
-3.4621756	moler	-0.14562501
-3.6605656	hermano	-0.15189531
-4.0751243	tambores	-0.11414914
-3.872411	aguacates	-0.14562501
-3.872411	cocinar	-0.15888315
-4.0363135	pescados	-0.11414914
-4.0751243	cuántas	-0.11414911
-3.6605656	amigo	-0.15178923
-4.246307	reir	-0.11414914
-4.0363135	red	-0.19148985
-4.0363135	cazando	-0.11414914
-4.0751243	llorando	-0.23602466
-3.2893004	estaban	-0.14981839
-4.0363135	hablando	-0.11414914
-3.1153667	ir	-0.3308893
-3.5839217	vivir	-0.1886815
-4.0751243	verte	-0.11414914
-4.246307	deseo	-0.11414914
-4.246307	deseó	-0.11414914
-4.246307	corras	-0.11414914
-4.246307	asusta	-0.11414914
-4.246307	bailan	-0.11414914
-4.0363135	dije	-0.11414914
-4.246307	habré	-0.11414914
-4.0363135	habrá	-0.11414914
-4.0751243	pelear	-0.11414914
-4.246307	pediremos	-0.11414914
-4.246307	pediríamos	-0.11414914
-4.246307	cuidaría	-0.11414914
-4.246307	cuidará	-0.11414914
-4.246307	cantaría	-0.11414914
-4.0751243	fiesta	-0.11414914
-4.246307	bailaríamos	-0.11414914
-4.246307	bailaremos	-0.11414914
-4.246307	asustaría	-0.11414914
-4.246307	asustaré	-0.11414914
-4.246307	anudaría	-0.11414914
-4.246307	anudaré	-0.11414914
-4.246307	hablaría	-0.11414914
-4.246307	hablará	-0.11414914
-4.246307	Vélo	-0.11414914
-4.246307	viajé	-0.11414914
-4.246307	cargué	-0.11414914
-4.246307	guardé	-0.11414914
-4.246307	cociné	-0.11414914
-4.246307	talé	-0.11414914
-4.246307	pensé	-0.11414914
-4.0363135	quebré	-0.19148985
-4.0363135	escribí	-0.11414914
-4.246307	molí	-0.11414914
-3.6605656	sonar	-0.11414914
-4.246307	metí	-0.11414914
-4.246307	quise	-0.11414914
-3.872411	nacieron	-0.15110011
-4.246307	remecimos	-0.11414914
-4.246307	jugaron	-0.11414914
-4.246307	raspó	-0.11414914
-4.246307	muralla	-0.11414914
-4.246307	desgarró	-0.11414914
-3.6605656	pantalón	-0.13391355
-4.246307	ató	-0.11414914
-4.246307	silbó	-0.11414914
-3.6605656	gritó	-0.11414914
-4.0751243	regañó	-0.23602466
-4.0363135	ví	-0.11414914
-3.3671923	hecho	-0.21187636
-3.3265026	pueden	-0.13223179
-3.5839217	hicieron	-0.13391355
-3.7536974	hamacas	-0.15888315
-4.246307	suelen	-0.11414914
-4.246307	verá	-0.11414914
-3.872411	luna	-0.15725568
-4.0751243	llena	-0.11414914
-4.246307	repentinamente	-0.11414914
-4.246307	oir	-0.11414914
-4.0751243	disparo	-0.11414914
-4.0751243	empecé	-0.23602466
-3.5839217	empezó	-0.2975695
-3.5839217	ropa	-0.17159833
-4.246307	perdimos	-0.11414914
-4.246307	selva	-0.11414914
-3.7536974	pasar	-0.15110011
-3.4621756	lado	-0.24549018
-4.0751243	colgó	-0.11414914
-4.246307	fotografía	-0.11414914
-2.8286772	donde	-0.2574167
-4.0363135	tía	-0.21981984
-4.0751243	materna	-0.17082563
-4.0363135	descansando	-0.11414914
-3.3671923	debajo	-0.36372426
-4.246307	informa	-0.11414914
-3.872411	pasa	-0.11414914
-3.7536974	Katsi	-0.14562501
-3.872411	amarró	-0.20875971
-3.6605656	carga	-0.1384306
-4.246307	dejes	-0.11414914
-4.0751243	recogí	-0.11414914
-4.246307	guijarros	-0.11414914
-4.246307	vispa	-0.11414914
-4.0751243	enterradora	-0.11414914
-2.8673859	hace	-0.26566342
-2.9915106	sus	-0.1618114
-4.0751243	huecos	-0.11414914
-4.0751243	suelos	-0.11414914
-4.0751243	limpios	-0.19148985
-4.0363135	lleno	-0.19148985
-4.246307	sarna	-0.11414914
-4.246307	raspando	-0.11414914
-3.7536974	bastón	-0.14562501
-3.872411	cuchillo	-0.17263077
-3.6605656	cortaron	-0.14562501
-4.246307	hacha	-0.11414914
-3.5187964	quedó	-0.12683477
-4.0751243	bailó	-0.11414914
-3.3265026	conmigo	-0.3189548
-4.246307	guiaré	-0.11414914
-4.0363135	Feliciano	-0.11414914
-4.0751243	invierno	-0.17082563
-4.0363135	venir	-0.11414914
-3.7536974	verano	-0.13594043
-4.246307	niflo	-0.11414914
-4.246307	ensuciando	-0.11414914
-4.246307	ensucia	-0.11414914
-4.0363135	piña	-0.11414914
-4.246307	golondrinas	-0.11414914
-4.0751243	cerro	-0.11414914
-3.5187964	terreno	-0.15178923
-4.0751243	pantanoso	-0.11414914
-4.246307	empantanando	-0.11414914
-4.246307	chiquero	-0.11414914
-3.1399357	todos	-0.32593566
-4.0751243	verguenza	-0.23602466
-4.246307	avergüenza	-0.11414914
-3.2893004	ser	-0.11414914
-4.246307	avergonzando	-0.11414914
-4.246307	jenjibre	-0.11414914
-3.4621756	medicina	-0.16619344
-3.5839217	buena	-0.16173205
-4.0363135	abuelo	-0.13594043
-3.6605656	tamaño	-0.19148985
-3.4120924	igual	-0.18533522
-4.246307	tamaflo	-0.11414914
-4.246307	lleguen	-0.11414914
-4.246307	avisen	-0.11414914
-4.246307	hoja	-0.11414914
-3.7536974	sainillo	-0.15725568
-3.5839217	da	-0.13223179
-4.246307	picazón	-0.11414914
-4.246307	Pérez	-0.11414914
-4.246307	mostrando	-0.11414914
-4.246307	baqueano	-0.11414914
-4.246307	guió	-0.11414914
-3.7536974	cazador	-0.11414914
-4.246307	silbando	-0.11414914
-3.4621756	ajá	-0.30102643
-4.0751243	muchachito	-0.11414914
-3.2550354	seis	-0.15888315
-3.872411	tiempos	-0.14156349
-3.0290036	muchos	-0.19238526
-4.0751243	llamados	-0.11414914
-4.0751243	decían	-0.23602466
-4.246307	llamaban	-0.11414914
-3.7536974	lapa	-0.14562501
-3.5839217	roja	-0.19922438
-3.7536974	cabeza	-0.17082563
-3.5187964	clase	-0.179148
-4.246307	trinaban	-0.11414914
-4.246307	òëòë	-0.11414914
-3.872411	íbamos	-0.17082563
-4.246307	observarlas	-0.11414914
-4.0363135	bosque	-0.15888315
-4.246307	posadas	-0.11414914
-4.246307	matarlas	-0.11414914
-3.4621756	tenían	-0.13516776
-3.4120924	matar	-0.2268345
-4.0751243	aves	-0.11414914
-3.5839217	pequeñas	-0.16377842
-4.0363135	lapas	-0.15888315
-4.0751243	mueren	-0.23602466
-4.246307	duras	-0.11414914
-3.7536974	dura	-0.1795616
-4.246307	atraparlas	-0.11414914
-4.0751243	carnita	-0.11414914
-4.0363135	colorado	-0.14156349
-4.0363135	venían	-0.11414914
-4.0363135	estábamos	-0.11414914
-4.246307	vivíamos	-0.11414914
-3.6605656	venía	-0.11414914
-4.0363135	fruta	-0.15888315
-3.7536974	llamada	-0.11414914
-4.0751243	caía	-0.11414914
-4.0363135	abundante	-0.11414914
-4.0363135	madura	-0.11414914
-4.0751243	llegaba	-0.11414914
-3.5839217	mataban	-0.1384306
-4.0363135	lanza	-0.17082563
-4.0363135	sabían	-0.11414914
-3.872411	lanzas	-0.11414914
-3.872411	comíamos	-0.19148985
-4.246307	secábamos	-0.11414914
-4.0751243	encontraba	-0.11414914
-3.872411	sino	-0.11414914
-4.246307	aprovechado	-0.11414914
-3.4120924	vez	-0.16632782
-4.246307	flechita	-0.11414914
-4.246307	conseguía	-0.11414914
-4.0363135	mataba	-0.17082563
-3.872411	hambre	-0.16377842
-4.246307	asaeteaban	-0.11414914
-3.223277	peces	-0.3259357
-4.246307	incontables	-0.11414914
-3.6605656	pez	-0.187633
-4.246307	bobo	-0.11414914
-3.6605656	ríos	-0.15788092
-4.246307	Yorkín	-0.11414914
-4.246307	Tsukú	-0.11414914
-4.246307	Balà	-0.11414914
-4.0751243	muchísimos	-0.11414914
-3.6605656	seco	-0.16415043
-3.5187964	iban	-0.2622286
-4.0363135	sacan	-0.11414914
-4.0751243	llegaban	-0.11414914
-4.246307	ahumaban	-0.11414914
-4.246307	ahumado	-0.11414914
-4.0751243	trozos	-0.23602466
-3.5839217	plátano	-0.2387855
-3.872411	quiera	-0.11414914
-4.246307	sopa	-0.11414914
-3.2893004	día	-0.22039492
-4.0363135	terminó	-0.17082563
-3.4621756	eran	-0.14562501
-3.5839217	antiguamente	-0.13223179
-4.0751243	pobres	-0.11414914
-3.6605656	plata	-0.15110011
-3.3671923	comida	-0.16912356
-3.872411	querían	-0.11414914
-3.7536974	aunque	-0.11414914
-4.246307	pobrecitos	-0.11414914
-4.0751243	teníamos	-0.11414914
-3.165979	nuestros	-0.18195799
-4.0751243	desmontan	-0.11414914
-4.0363135	potreros	-0.11414914
-3.872411	quieren	-0.11414914
-4.246307	alquilar	-0.11414914
-4.246307	ricos	-0.11414914
-3.5187964	trabajan	-0.11414914
-4.246307	parcelas	-0.11414914
-4.246307	cabalmente	-0.11414914
-4.246307	ganar	-0.11414914
-2.8810952	solo	-0.1758514
-4.246307	alquilárselo	-0.11414914
-4.246307	ganaderos	-0.11414914
-3.4621756	decir	-0.19374166
-3.872411	Cabagra	-0.17082563
-4.0751243	olvidado	-0.11414914
-3.4621756	sembrar	-0.21016425
-3.872411	frijoles	-0.15888315
-3.1399357	van	-0.3500446
-3.6605656	decimos	-0.28454304
-4.246307	generación	-0.11414914
-4.0751243	aprendió	-0.23602466
-4.246307	labrar	-0.11414914
-4.0363135	plantas	-0.11414914
-4.0751243	comestibles	-0.11414914
-4.246307	hortalizas	-0.11414914
-3.3265026	hacemos	-0.15572815
-4.246307	seguimos	-0.11414914
-4.0751243	hechos	-0.11414914
-4.0363135	ayuda	-0.11414914
-4.246307	gobierno	-0.11414914
-4.0751243	saber	-0.11414914
-3.5839217	hemos	-0.15888315
-4.0751243	mitad	-0.11414914
-4.246307	regalamos	-0.11414914
-3.5839217	únicamente	-0.11414914
-4.246307	primeramente	-0.11414914
-3.7536974	cortamos	-0.11414914
-4.0751243	fruto	-0.11414914
-4.246307	reventamos	-0.11414914
-4.0751243	eh	-0.19148985
-4.246307	fermentamos	-0.11414914
-3.3671923	hojas	-0.26031232
-4.0751243	cortado	-0.11414914
-4.246307	tendemos	-0.11414914
-3.5839217	seca	-0.16173205
-4.0751243	tostamos	-0.11414914
-4.246307	venteamos	-0.11414914
-3.4621756	molemos	-0.19925478
-4.0751243	máquina	-0.11414914
-3.6605656	masa	-0.2217704
-4.0363135	dulce	-0.11414914
-3.5187964	caña	-0.22647002
-3.7536974	pone	-0.11414914
-3.7536974	fuego	-0.15110011
-4.0751243	mientras	-0.11414914
-3.6605656	tanto	-0.17263077
-4.0751243	echamos	-0.11414914
-4.246307	sabrosas	-0.11414914
-3.5187964	llaman	-0.11414914
-4.246307	canela	-0.11414914
-3.872411	llamamos	-0.15224928
-4.246307	jengibre	-0.11414914
-4.0751243	pedacitos	-0.11414914
-4.0363135	envolvemos	-0.11414914
-3.7536974	papel	-0.14562501
-3.7536974	vendemos	-0.19148985
-4.246307	adineradas	-0.11414914
-4.0751243	cónica	-0.11414914
-3.2550354	dejó	-0.17209025
-4.0363135	cielo	-0.17190784
-3.4120924	semilla	-0.19628705
-4.0751243	bebió	-0.17082563
-4.0363135	Sulàyöm	-0.17263077
-4.246307	semejante	-0.11414914
-3.5839217	forma	-0.16821848
-3.2550354	hacen	-0.1384306
-3.5187964	diferente	-0.25721633
-4.0751243	pensar	-0.11414914
-3.1936836	les	-0.16532364
-4.0363135	enseñó	-0.11414914
-4.0363135	mundo	-0.14156349
-4.246307	superficie	-0.11414914
-4.0751243	suyo	-0.11414914
-3.2550354	primero	-0.19374166
-4.0751243	bijagua	-0.11414914
-4.246307	forró	-0.11414914
-3.5839217	parte	-0.13660586
-4.0751243	parecida	-0.19148985
-4.246307	interior	-0.11414914
-3.5839217	cuelga	-0.21637659
-2.9569988	solamente	-0.16674215
-3.7536974	nace	-0.14562501
-4.0751243	horcones	-0.11414914
-3.165979	ocho	-0.19549254
-4.246307	danzamos	-0.11414914
-4.0751243	sorbón	-0.11414914
-4.246307	fúnebres	-0.11414914
-4.246307	reflexionar	-0.11414914
-3.7536974	buenas	-0.11414914
-4.246307	temas	-0.11414914
-4.0751243	importantes	-0.11414914
-4.246307	conocimientos	-0.11414914
-3.5839217	manera	-0.17190784
-4.0363135	aún	-0.11414914
-4.0363135	llevamos	-0.11414914
-4.246307	propiamente	-0.11414914
-4.0363135	puesto	-0.11414914
-4.246307	rancho	-0.11414914
-4.246307	alòwe	-0.11414914
-4.246307	construcción	-0.11414914
-4.0363135	principio	-0.11414914
-4.0751243	lajas	-0.11414914
-3.872411	cemento	-0.17082563
-4.246307	pisamos	-0.11414914
-4.246307	significado	-0.11414914
-4.246307	madrecita	-0.11414914
-4.0363135	siente	-0.17082563
-3.5187964	queremos	-0.1384306
-4.246307	éstas	-0.11414914
-4.0363135	corté	-0.11414914
-4.0363135	puse	-0.19148985
-4.246307	suavizar	-0.11414914
-4.246307	raspé	-0.11414914
-3.4120924	queda	-0.11414914
-4.246307	fibrita	-0.11414914
-3.7536974	secar	-0.11414914
-4.246307	empiezo	-0.11414914
-4.246307	hilar	-0.11414914
-4.0363135	hago	-0.11414914
-4.246307	venderlas	-0.11414914
-4.246307	vendo	-0.11414914
-3.2550354	trabajo	-0.2887172
-4.246307	inicio	-0.11414914
-4.0751243	busco	-0.11414914
-4.246307	pintarlas	-0.11414914
-4.246307	pinto	-0.11414914
-3.1153667	agua	-0.25115553
-3.7536974	caliente	-0.16377842
-4.246307	echo	-0.11414914
-3.7536974	quedan	-0.15110011
-4.0751243	pintadas	-0.11414914
-4.0751243	hechas	-0.11414914
-3.872411	varias	-0.11414914
-4.246307	formas	-0.11414914
-4.0751243	bolsos	-0.11414914
-3.872411	llevo	-0.15888315
-4.0751243	vender	-0.11414914
-3.7536974	llevar	-0.13081376
-4.0751243	dominico	-0.11414914
-3.4621756	cualquier	-0.14828528
-4.0363135	poner	-0.17082563
-3.6605656	contar	-0.15725568
-3.872411	nacemos	-0.15110011
-4.0751243	impuros	-0.11414914
-4.0363135	mamá	-0.11414914
-4.246307	ambos	-0.11414914
-4.0751243	necesitan	-0.11414914
-4.246307	purificados	-0.11414914
-4.0751243	enterradores	-0.11414914
-4.0363135	actualmente	-0.15888315
-3.5839217	Sula	-0.4481551
-4.0751243	envía	-0.11414914
-4.0363135	imagen	-0.11414914
-4.0363135	misma	-0.11414914
-4.0751243	lleguemos	-0.23602466
-4.0363135	lava	-0.11414914
-4.0751243	dado	-0.11414914
-4.0363135	haga	-0.19148985
-4.246307	regresemos	-0.11414914
-4.0363135	regresamos	-0.11414914
-4.0363135	llevando	-0.11414914
-4.246307	testimonio	-0.11414914
-4.246307	satë	-0.11414914
-4.246307	recogido	-0.11414914
-4.246307	entregar	-0.11414914
-3.4120924	vea	-0.1838476
-4.0751243	cierto	-0.11414914
-4.246307	dijimos	-0.11414914
-3.7536974	trabajamos	-0.13594043
-4.0751243	además	-0.17082563
-3.7536974	deben	-0.15110011
-4.0363135	responder	-0.19148985
-3.0921133	dicen	-0.50754446
-4.0751243	mezquina	-0.11414914
-4.0751243	demás	-0.11414914
-4.246307	vivamos	-0.11414914
-3.4120924	viene	-0.16752268
-4.246307	integrada	-0.11414914
-3.872411	vivimos	-0.17082563
-3.165979	toda	-0.5398155
-4.246307	querernos	-0.11414914
-4.0751243	ayudarnos	-0.11414914
-4.246307	respetarnos	-0.11414914
-4.0363135	explicar	-0.11414914
-3.872411	venimos	-0.11414914
-2.9915106	tienen	-0.15110014
-3.872411	puesta	-0.11414914
-4.246307	casita	-0.11414914
-3.6605656	vienen	-0.15110011
-4.0363135	nacer	-0.11414914
-4.246307	nazca	-0.11414914
-4.0751243	awá	-0.11414914
-4.246307	encargan	-0.11414914
-4.246307	prepararlo	-0.11414914
-4.246307	ungirlo	-0.11414914
-4.246307	purifique	-0.11414914
-4.0751243	pueda	-0.11414914
-4.246307	irse	-0.11414914
-4.0751243	solemos	-0.11414914
-3.872411	hacerlo	-0.20511705
-4.0751243	explicó	-0.11414914
-4.0363135	palabra	-0.11414914
-3.6605656	viviendo	-0.21517718
-4.246307	hagamos	-0.11414914
-4.246307	dejo	-0.11414914
-4.246307	explico	-0.11414914
-4.0363135	ujú	-0.18533522
-3.7536974	propio	-0.11414914
-3.7536974	estos	-0.11414914
-3.6605656	digo	-0.16752268
-3.872411	maduros	-0.20511705
-4.246307	cortadora	-0.11414914
-4.0751243	kó	-0.11414914
-4.0751243	saca	-0.11414914
-3.4120924	tal	-0.4370259
-4.0751243	saco	-0.11414914
-3.6605656	deja	-0.15110011
-3.223277	días	-0.23083681
-3.2893004	nueve	-0.15594816
-3.2893004	rápido	-0.22188036
-4.0751243	tuesta	-0.11414914
-4.246307	cazuela	-0.11414914
-4.246307	ardiente	-0.11414914
-4.0751243	tostando	-0.23602466
-4.246307	pela	-0.11414914
-4.246307	quitando	-0.11414914
-4.246307	cáscaras	-0.11414914
-4.0363135	semillas	-0.17082563
-4.0751243	muelen	-0.11414914
-4.246307	molían	-0.11414914
-3.3671923	llegamos	-0.13825525
-4.0751243	bribris	-0.11414914
-4.246307	muelan	-0.11414914
-4.246307	nacimos	-0.11414914
-3.7536974	llamado	-0.11414914
-3.7536974	humanos	-0.21637659
-4.0363135	alimentos	-0.11414914
-4.246307	duros	-0.11414914
-4.246307	blandos	-0.11414914
-4.246307	alimentarnos	-0.11414914
-4.0363135	tierno	-0.11414914
-4.246307	moliento	-0.11414914
-4.0751243	muele	-0.11414914
-4.0751243	idioma	-0.11414914
-4.246307	jovencitas	-0.11414914
-4.0751243	aprenden	-0.11414914
-3.6605656	granos	-0.317725
-4.0751243	llegue	-0.11414914
-4.246307	casarse	-0.11414914
-4.0751243	encontrar	-0.11414914
-4.246307	pareja	-0.11414914
-4.246307	aprendido	-0.11414914
-3.872411	buscamos	-0.11414914
-3.872411	grupo	-0.17082563
-4.246307	alza	-0.11414914
-4.246307	traerla	-0.11414914
-3.7536974	tomamos	-0.11414914
-4.0751243	juntos	-0.11414914
-4.246307	ayudándonos	-0.11414914
-4.0751243	e	-0.11414914
-3.7536974	trae	-0.11414914
-3.5187964	algunas	-0.14718786
-3.6605656	varios	-0.14562501
-3.4621756	llegan	-0.20840822
-4.246307	pueblo	-0.11414914
-4.246307	unido	-0.11414914
-4.0751243	vida	-0.23602466
-4.246307	contamos	-0.11414914
-4.246307	contaban	-0.11414914
-3.5187964	águila	-0.15594816
-3.872411	animal	-0.11414914
-4.0751243	enorme	-0.11414914
-3.2550354	iba	-0.24670395
-4.0751243	llevarnos	-0.11414914
-3.872411	cada	-0.11414914
-3.4120924	lleva	-0.17082563
-4.246307	realizado	-0.11414914
-3.6605656	algunos	-0.12855448
-3.872411	suquias	-0.13391355
-4.246307	dueños	-0.11414914
-4.0751243	humo	-0.11414914
-3.6605656	dijeron	-0.23957759
-4.0363135	trabajen	-0.17082563
-4.0751243	empezaron	-0.23602466
-4.246307	echarlo	-0.11414914
-4.246307	echaron	-0.11414914
-4.246307	llevaron	-0.11414914
-4.0363135	garrote	-0.11414914
-4.246307	levantara	-0.11414914
-4.246307	llevara	-0.11414914
-4.246307	cansa	-0.11414914
-4.246307	posó	-0.11414914
-4.246307	oscuridad	-0.11414914
-4.0363135	amarraron	-0.11414914
-4.0363135	metida	-0.19148985
-3.872411	permanece	-0.11414914
-4.246307	posa	-0.11414914
-4.246307	fuman	-0.11414914
-4.246307	exhalan	-0.11414914
-3.872411	sentada	-0.14562501
-4.246307	profundamente	-0.11414914
-4.0751243	cigarro	-0.11414914
-4.0751243	traían	-0.11414914
-4.246307	preparado	-0.11414914
-4.246307	durmiera	-0.11414914
-4.246307	queditos	-0.11414914
-4.246307	desatan	-0.11414914
-4.246307	desantan	-0.11414914
-4.0363135	salen	-0.19148985
-3.872411	golpean	-0.11414914
-4.246307	milís	-0.11414914
-3.872411	duro	-0.14562501
-3.7536974	matan	-0.11414914
-4.0751243	historia	-0.11414914
-4.246307	decirte	-0.11414914
-3.7536974	fuimos	-0.19922438
-4.246307	abandonados	-0.11414914
-4.246307	tristemente	-0.11414914
-4.246307	abandonó	-0.11414914
-4.0363135	decirle	-0.17082563
-4.246307	tú	-0.11414914
-4.246307	Jesus	-0.11414914
-4.246307	Amén	-0.11414914
-3.5839217	diferentes	-0.17882657
-3.6605656	otras	-0.16415043
-4.0751243	sabemos	-0.11414914
-4.0751243	poquito	-0.11414914
-4.246307	cambiado	-0.11414914
-4.0363135	pensamos	-0.11414914
-3.6605656	quien	-0.11414914
-4.0751243	dió	-0.11414914
-4.0363135	Coén	-0.11414914
-4.0751243	cambia	-0.11414914
-3.5187964	poco	-0.19688953
-2.9915106	siempre	-0.18486561
-3.7536974	entendemos	-0.15110011
-4.0751243	entienden	-0.11414914
-3.7536974	rato	-0.15178923
-4.246307	importa	-0.11414914
-3.3671923	otros	-0.20840822
-4.246307	Rigoberto	-0.11414914
-4.246307	Morales	-0.11414914
-4.0751243	nací	-0.17082563
-4.0751243	70	-0.23602466
-4.246307	español	-0.11414914
-3.872411	cantidad	-0.11414914
-3.872411	joven	-0.11414914
-3.872411	chapear	-0.11414914
-4.246307	voltear	-0.11414914
-4.0751243	compraba	-0.19148985
-3.2893004	nadie	-0.17882657
-4.246307	vendía	-0.11414914
-4.0751243	cacaotal	-0.11414914
-4.0751243	peón	-0.11414914
-3.872411	sembrando	-0.15110011
-4.246307	tiquisque	-0.11414914
-3.872411	encuentra	-0.11414914
-4.0363135	comamos	-0.19148985
-4.0363135	encuentran	-0.11414914
-4.0363135	uju	-0.18533522
-3.872411	menor	-0.11414914
-4.0751243	estudiando	-0.11414914
-4.0751243	colegio	-0.11414914
-4.246307	aprendimos	-0.11414914
-4.246307	Juanita	-0.11414914
-4.0751243	En	-0.11414914
-4.0751243	ah	-0.15888315
-3.4120924	pequeña	-0.17636454
-4.246307	ayudaba	-0.11414914
-4.246307	alimentar	-0.11414914
-4.246307	pollitos	-0.11414914
-4.246307	botar	-0.11414914
-4.0751243	basura	-0.19148985
-4.246307	entoces	-0.11414914
-3.5839217	cortar	-0.13081376
-4.0751243	quebrar	-0.11414914
-3.872411	cuándo	-0.11414914
-3.872411	murió	-0.14562501
-3.872411	familiares	-0.11414914
-4.246307	reunirnos	-0.11414914
-4.246307	defender	-0.11414914
-3.7536974	iguanas	-0.14562501
-4.246307	criar	-0.11414914
-4.0363135	crecí	-0.19148985
-3.5187964	tenía	-0.17235085
-4.0751243	trajó	-0.11414914
-4.246307	Boca	-0.11414914
-3.872411	Urén	-0.11414914
-4.246307	crié	-0.11414914
-3.872411	esposo	-0.11414914
-3.7536974	compañero	-0.15110011
-4.246307	buscarme	-0.11414914
-3.7536974	acá	-0.15110011
-4.246307	suegra	-0.11414914
-4.246307	viví	-0.11414914
-3.7536974	casi	-0.17082563
-4.246307	despues	-0.11414914
-4.0363135	hicimos	-0.19148985
-4.246307	vivido	-0.11414914
-4.246307	asentada	-0.11414914
-4.246307	pierda	-0.11414914
-4.0363135	aire	-0.11414914
-4.246307	mantiene	-0.11414914
-3.872411	aja	-0.26451644
-4.246307	hijitos	-0.11414914
-3.4120924	fueron	-0.15460686
-4.246307	alumbrados	-0.11414914
-4.0751243	fuí	-0.11414914
-4.0363135	hospital	-0.20875971
-4.0363135	crecieron	-0.11414914
-4.246307	aprendieron	-0.11414914
-3.872411	leer	-0.19148985
-4.0751243	saliendo	-0.11414914
-4.246307	madurando	-0.11414914
-4.246307	quede	-0.11414914
-4.0363135	solita	-0.17082563
-4.246307	finado	-0.11414914
-4.0751243	falleció	-0.11414914
-4.0363135	limpio	-0.11414914
-3.872411	siembro	-0.11414914
-4.0363135	frijol	-0.11414914
-4.0751243	ayote	-0.11414914
-4.246307	enseñaron	-0.11414914
-4.246307	comerán	-0.11414914
-3.165979	viven	-0.40355778
-4.246307	amanezco	-0.11414914
-4.246307	anochezco	-0.11414914
-4.246307	actualidad	-0.11414914
-4.0751243	enseñé	-0.11414914
-4.246307	descendencia	-0.11414914
-4.246307	robos	-0.11414914
-3.6605656	kë	-0.5412613
-4.246307	köldi	-0.11414914
-4.0363135	señores	-0.11414914
-4.0751243	curarnos	-0.19148985
-4.246307	köl	-0.11414914
-4.0363135	aquél	-0.11414914
-4.0751243	crecía	-0.11414914
-4.246307	utilicen	-0.11414914
-4.0363135	enferma	-0.17082563
-3.5187964	cura	-0.23957759
-4.0363135	dan	-0.11414914
-3.872411	jefes	-0.11414914
-4.0751243	pusimos	-0.11414914
-4.0751243	escuchamos	-0.11414914
-4.246307	Andrey	-0.11414914
-4.0751243	Almengor	-0.11414914
-4.0751243	dieciocho	-0.23602466
-3.2893004	nació	-0.15159225
-4.246307	formaste	-0.11414914
-3.872411	formado	-0.15888315
-4.246307	egresado	-0.11414914
-4.0751243	probando	-0.11414914
-4.246307	ciudad	-0.11414914
-4.0751243	principal	-0.23602466
-4.0363135	José	-0.11414914
-4.246307	Seminario	-0.11414914
-4.246307	Paúl	-0.11414914
-4.246307	explique	-0.11414914
-4.0363135	mar	-0.19148989
-4.246307	creado	-0.11414914
-4.246307	proviene	-0.11414914
-4.246307	explíquenos	-0.11414914
-4.246307	antiguo	-0.11414914
-4.0363135	prima	-0.14156349
-4.246307	visitarlo	-0.11414914
-4.246307	vengo	-0.11414914
-3.7536974	pronto	-0.14156349
-3.7536974	hamaca	-0.1783595
-4.0363135	primo	-0.15888315
-3.872411	hormigas	-0.14562501
-4.0751243	pican	-0.11414914
-4.246307	véngase	-0.11414914
-4.246307	desplaza	-0.11414914
-3.5839217	vuelve	-0.2975695
-4.246307	arrieras	-0.11414914
-4.0751243	levanta	-0.11414914
-4.246307	moja	-0.11414914
-4.246307	présteme	-0.11414914
-4.246307	acostarme	-0.11414914
-4.0751243	presto	-0.11414914
-4.0751243	prestaré	-0.23602466
-4.0751243	contesta	-0.11414914
-4.246307	respeta	-0.11414914
-3.7536974	dio	-0.16632785
-4.246307	recostó	-0.11414914
-4.246307	estando	-0.11414914
-4.246307	quedita	-0.11414914
-4.0751243	servicio	-0.11414914
-4.0363135	nuevamente	-0.11414914
-4.246307	préstemelo	-0.11414914
-4.246307	tercera	-0.11414914
-4.246307	prestar	-0.11414914
-4.0751243	sienta	-0.11414914
-4.246307	apoye	-0.11414914
-4.0751243	hombro	-0.11414914
-4.0363135	deje	-0.19148985
-4.246307	escuchadas	-0.11414914
-4.0751243	clavó	-0.11414914
-4.246307	sonado	-0.11414914
-4.0363135	volvió	-0.19148985
-3.5839217	buscó	-0.17082563
-3.3265026	sin	-0.14814338
-4.246307	rumbo	-0.11414914
-4.0751243	levantó	-0.11414914
-4.246307	buscarlo	-0.11414914
-3.7536974	encontró	-0.15110011
-4.0363135	siguió	-0.19148985
-3.872411	culebra	-0.16632785
-4.0363135	tome	-0.11414914
-4.246307	obedeció	-0.11414914
-4.246307	acuéstese	-0.11414914
-4.246307	cabo	-0.11414914
-4.246307	horas	-0.11414914
-4.0751243	impura	-0.19148985
-4.246307	tendió	-0.11414914
-4.0363135	cadáver	-0.15888315
-4.246307	llamó	-0.11414914
-4.0751243	ranas	-0.11414914
-4.0363135	vigilarlo	-0.19148985
-4.246307	vigilaban	-0.11414914
-4.246307	ayudaban	-0.11414914
-3.872411	esté	-0.11414914
-4.246307	matando	-0.11414914
-4.246307	vigilar	-0.11414914
-4.0363135	final	-0.11414914
-4.0363135	grano	-0.11414914
-3.7536974	encima	-0.17263077
-4.0751243	saltó	-0.11414914
-4.246307	estalló	-0.11414914
-4.0363135	surgió	-0.11414914
-4.0751243	despacio	-0.23602466
-4.0363135	creciendo	-0.11414914
-3.6605656	llegar	-0.1795616
-4.0751243	reventar	-0.11414914
-4.0751243	aviso	-0.11414914
-4.246307	tucanes	-0.11414914
-4.0363135	ramas	-0.11414914
-4.0751243	cortaban	-0.23602466
-4.246307	caerse	-0.11414914
-4.246307	transformado	-0.11414914
-4.0751243	quebrada	-0.11414914
-3.872411	habla	-0.18533522
-4.0751243	indígena	-0.11414914
-3.872411	laguna	-0.17082563
-4.246307	maneras	-0.11414914
-4.0751243	cortaba	-0.11414914
-4.246307	seguía	-0.11414914
-4.246307	empezar	-0.11414914
-4.246307	talarlo	-0.11414914
-4.0363135	ayudantes	-0.14562501
-4.0751243	levantaron	-0.11414914
-3.872411	hachas	-0.17082563
-4.0363135	agarraron	-0.11414914
-4.246307	durísimo	-0.11414914
-4.0363135	podía	-0.11414914
-4.246307	cordado	-0.11414914
-4.246307	quebraban	-0.11414914
-4.246307	Òkama	-0.11414914
-4.246307	pedir	-0.11414914
-4.246307	prestadas	-0.11414914
-4.0751243	quiebran	-0.11414914
-4.246307	quebrando	-0.11414914
-4.246307	cortando	-0.11414914
-4.246307	quebraron	-0.11414914
-4.246307	trataré	-0.11414914
-4.246307	encontrarlas	-0.11414914
-4.0363135	regresaron	-0.11414914
-4.0751243	cortarlo	-0.19148985
-3.5839217	rey	-0.22647002
-4.0363135	punta	-0.17082563
-4.246307	fin	-0.11414914
-4.246307	jalar	-0.11414914
-3.1153667	hacia	-0.23900712
-4.0363135	bejucos	-0.11414914
-4.246307	oculta	-0.11414914
-3.872411	agarró	-0.11414914
-3.7536974	corre	-0.16415043
-4.246307	debido	-0.11414914
-3.872411	patas	-0.1384306
-3.872411	largas	-0.17082563
-4.246307	numerosos	-0.11414914
-4.246307	polluelos	-0.11414914
-4.246307	transformaron	-0.11414914
-3.7536974	tortugas	-0.11414914
-4.0751243	camarones	-0.11414914
-3.1936836	otro	-0.20958418
-4.246307	Santa	-0.11414914
-4.246307	Elena	-0.11414914
-4.0363135	estuve	-0.17263077
-4.246307	puente	-0.11414914
-4.246307	dejar	-0.11414914
-4.0751243	sola	-0.11414914
-3.872411	clanes	-0.1384306
-4.0751243	coman	-0.11414914
-3.7536974	clan	-0.15110011
-3.872411	dueño	-0.11414914
-4.0363135	poste	-0.11414914
-4.246307	quiémes	-0.11414914
-4.0751243	comerla	-0.11414914
-3.4621756	comen	-0.13223179
-3.872411	cuidado	-0.1795616
-3.5187964	estas	-0.13391355
-3.872411	familias	-0.11414914
-4.0751243	hule	-0.11414914
-4.246307	contraemos	-0.11414914
-3.3265026	enfermedad	-0.1742366
-4.246307	reiteradamente	-0.11414914
-4.0363135	quizás	-0.19148985
-3.7536974	corta	-0.18310578
-4.246307	columna	-0.11414914
-4.246307	acalentura	-0.11414914
-4.246307	sangrándonos	-0.11414914
-4.246307	empecemos	-0.11414914
-4.246307	empiece	-0.11414914
-3.7536974	nosotras	-0.15110011
-4.0363135	campo	-0.15888315
-4.0751243	bananito	-0.11414914
-3.4120924	detrás	-0.39786163
-4.246307	limpiar	-0.11414914
-4.246307	bananal	-0.11414914
-4.246307	cargo	-0.11414914
-3.5839217	cerdos	-0.28454304
-3.7536974	alimento	-0.11414914
-4.0751243	traer	-0.11414914
-4.246307	duelan	-0.11414914
-4.0751243	brazos	-0.11414914
-4.246307	fuerzas	-0.11414914
-4.246307	ayudamos	-0.11414914
-4.246307	cargamos	-0.11414914
-4.246307	trabajito	-0.11414914
-4.0751243	calentar	-0.11414914
-4.246307	calientelo	-0.11414914
-4.246307	sentamos	-0.11414914
-4.246307	tostarlo	-0.11414914
-3.872411	tostar	-0.1795616
-4.0751243	bichos	-0.11414914
-4.246307	acostados	-0.11414914
-4.246307	cerditos	-0.11414914
-4.246307	darles	-0.11414914
-4.0751243	gusto	-0.11414914
-4.0751243	sentarnos	-0.11414914
-4.246307	quietas	-0.11414914
-4.246307	varones	-0.11414914
-4.0751243	ayudarles	-0.23602466
-4.246307	mejores	-0.11414914
-3.872411	cuidando	-0.17082563
-4.0751243	moliendo	-0.11414914
-4.0751243	alimentarlos	-0.11414914
-4.0751243	quedamos	-0.11414914
-4.246307	Tomasa	-0.11414914
-4.0363135	Pereira	-0.19148985
-3.872411	temprano	-0.19148985
-4.0363135	golpear	-0.11414914
-4.246307	especie	-0.11414914
-4.0363135	color	-0.11414914
-4.246307	mulú	-0.11414914
-4.246307	canciones	-0.11414914
-4.0751243	piensa	-0.11414914
-4.246307	amancer	-0.11414914
-4.246307	estropeé	-0.11414914
-3.7536974	siembra	-0.15110011
-4.0751243	chapeo	-0.11414914
-3.7536974	sembramos	-0.15888315
-4.246307	hectárea	-0.11414914
-3.5839217	mejor	-0.1384306
-4.246307	habitantes	-0.11414914
-4.0751243	conocemos	-0.11414914
-4.246307	técnica	-0.11414914
-4.246307	queramos	-0.11414914
-4.0363135	cosecha	-0.17082563
-3.872411	pegado	-0.17082563
-4.0751243	separado	-0.11414914
-4.0363135	tupido	-0.11414914
-4.246307	distanciado	-0.11414914
-4.0751243	molestan	-0.11414914
-4.0363135	cuáles	-0.15888315
-4.0751243	pizote	-0.15110011
-3.7536974	molesta	-0.1795616
-4.0751243	atrapar	-0.23602466
-3.5839217	limpia	-0.19922438
-4.246307	sembrado	-0.11414914
-3.872411	atol	-0.11414914
-4.246307	asan	-0.11414914
-4.0751243	tortillas	-0.11414914
-4.246307	asamos	-0.11414914
-4.0363135	cocinamos	-0.11414914
-3.7536974	tamales	-0.15110011
-4.0751243	dulces	-0.19148985
-4.0363135	cocina	-0.11414914
-4.0363135	mazorca	-0.16377842
-4.246307	tusa	-0.11414914
-4.246307	habíamos	-0.11414914
-4.246307	asado	-0.11414914
-3.872411	tamal	-0.17082563
-4.0363135	mojoso	-0.15110011
-4.0751243	ingrediente	-0.11414914
-3.5187964	sale	-0.11414914
-3.7536974	bebe	-0.15888315
-4.246307	siemple	-0.11414914
-4.0751243	amarga	-0.11414914
-3.7536974	mala	-0.15888315
-4.0363135	simple	-0.19148985
-4.246307	ácida	-0.11414914
-4.0751243	adquiere	-0.23602466
-3.872411	sabor	-0.11414914
-3.7536974	agria	-0.19148985
-4.246307	tomarla	-0.11414914
-4.0751243	cuánto	-0.11414914
-3.3671923	podemos	-0.12490812
-3.7536974	tomar	-0.15224928
-3.7536974	sentir	-0.18533522
-3.872411	bastante	-0.20511705
-4.0363135	calor	-0.11414914
-4.246307	embriagar	-0.11414914
-4.0363135	aguanta	-0.11414914
-4.0363135	podría	-0.11414914
-4.0363135	espesa	-0.11414914
-3.5839217	hacían	-0.15888315
-4.246307	hacíamos	-0.11414914
-4.0363135	dejaron	-0.11414914
-4.0363135	dejamos	-0.11414914
-4.246307	recoge	-0.11414914
-4.246307	mazorza	-0.11414914
-3.5187964	crece	-0.2975695
-4.246307	dobla	-0.11414914
-4.246307	sabía	-0.11414914
-4.0363135	hacerla	-0.19148985
-3.7536974	hacía	-0.15110011
-4.246307	modos	-0.11414914
-4.246307	aprendí	-0.11414914
-4.246307	cuente	-0.11414914
-4.246307	contesto	-0.11414914
-4.246307	mentir	-0.11414914
-4.0751243	trillo	-0.11414914
-3.872411	feo	-0.15888315
-3.7536974	alguna	-0.15888315
-4.246307	burra	-0.11414914
-4.246307	sucia	-0.11414914
-4.246307	pasabamos	-0.11414914
-4.0751243	éramos	-0.11414914
-4.0363135	niñas	-0.11414914
-4.0363135	sucio	-0.11414914
-4.0751243	iglesia	-0.11414914
-3.6605656	luz	-0.20135796
-4.246307	carretera	-0.11414914
-4.246307	acuerda	-0.11414914
-4.0363135	chapeaban	-0.19148985
-4.0751243	don	-0.11414914
-4.0363135	vayan	-0.11414914
-4.246307	15	-0.11414914
-4.246307	agarren	-0.11414914
-4.0751243	obedecían	-0.11414914
-4.246307	jóvenes	-0.11414914
-4.246307	hacian	-0.11414914
-4.0751243	caso	-0.11414914
-4.246307	quirem	-0.11414914
-3.872411	tambien	-0.11414914
-4.0751243	afila	-0.11414914
-4.246307	machetito	-0.11414914
-4.0363135	ante	-0.11414914
-4.0751243	padres	-0.11414914
-4.0363135	termine	-0.11414914
-4.0751243	llegando	-0.11414914
-3.6605656	vivía	-0.15224928
-4.0751243	difunto	-0.11414914
-4.246307	chapea	-0.11414914
-3.872411	llevan	-0.11414914
-3.6605656	tener	-0.11414914
-4.0751243	espalda	-0.15110011
-4.246307	puerto	-0.11414914
-4.246307	yoeste	-0.11414914
-4.0751243	llevaba	-0.11414914
-4.246307	cargaba	-0.11414914
-3.872411	bajo	-0.11414914
-4.246307	dejarlo	-0.11414914
-4.0751243	tiendas	-0.11414914
-4.246307	chase	-0.11414914
-4.246307	voz	-0.11414914
-4.0751243	llegarás	-0.11414914
-4.0751243	compra	-0.11414914
-3.872411	meses	-0.17082563
-4.0751243	cambio	-0.11414914
-4.246307	pulperías	-0.11414914
-4.246307	atención	-0.11414914
-4.246307	cositas	-0.11414914
-4.0751243	desea	-0.11414914
-4.0751243	conseguir	-0.11414914
-3.872411	hubiera	-0.11414914
-4.246307	platita	-0.11414914
-4.0363135	consigue	-0.11414914
-4.246307	criamos	-0.11414914
-4.0751243	tristes	-0.11414914
-4.246307	penurias	-0.11414914
-4.0751243	existía	-0.11414914
-4.246307	vestí	-0.11414914
-4.246307	remendado	-0.11414914
-4.0751243	usar	-0.11414914
-4.246307	ensuciar	-0.11414914
-4.246307	pasear	-0.11414914
-4.246307	lavaste	-0.11414914
-4.0363135	mintiendo	-0.19148985
-4.246307	ùù	-0.11414914
-4.0751243	lucecita	-0.23602466
-3.7536974	baila	-0.17263077
-4.0363135	hablan	-0.11414914
-4.246307	luces	-0.11414914
-4.0751243	mentira	-0.11414914
-4.246307	quiem	-0.11414914
-4.0363135	conocido	-0.11414914
-4.0363135	usamos	-0.11414914
-4.0363135	medicinas	-0.11414914
-4.0363135	extranjeros	-0.14562501
-4.246307	preocupamos	-0.11414914
-4.0363135	hocico	-0.15110011
-4.246307	florcita	-0.11414914
-4.246307	problemas	-0.11414914
-4.246307	respiración	-0.11414914
-4.246307	raspa	-0.11414914
-4.0751243	cáscara	-0.17082563
-4.0751243	dar	-0.11414914
-4.246307	caraña	-0.11414914
-4.246307	machacada	-0.11414914
-4.0751243	usa	-0.11414914
-3.7536974	bebemos	-0.11414914
-3.872411	pedazos	-0.17082563
-3.872411	bejuco	-0.11414914
-4.0363135	cólico	-0.19148985
-4.246307	machacan	-0.11414914
-4.0751243	raspamos	-0.23602466
-4.246307	machacado	-0.11414914
-4.246307	desaparece	-0.11414914
-4.246307	ancestros	-0.11414914
-4.246307	criaron	-0.11414914
-4.246307	crecimos	-0.11414914
-3.7536974	habían	-0.11414914
-4.0363135	ningún	-0.11414914
-4.246307	mayoría	-0.11414914
-4.0363135	trabajos	-0.11414914
-4.246307	curábamos	-0.11414914
-3.872411	vivió	-0.15110011
-4.0751243	apenas	-0.11414914
-3.5839217	nacen	-0.14156349
-4.246307	vuelven	-0.11414914
-4.246307	edificio	-0.11414914
-3.872411	vivían	-0.21517718
-4.246307	comportaban	-0.11414914
-4.246307	imitamos	-0.11414914
-4.246307	tomo	-0.11414914
-4.246307	raspan	-0.11414914
-4.0751243	siguen	-0.11414914
-4.0363135	cuantos	-0.11414914
-4.0751243	míos	-0.11414914
-3.7536974	mí	-0.16173205
-4.246307	enfermamos	-0.11414914
-4.0751243	tibia	-0.19148985
-4.0363135	pregunto	-0.11414914
-4.246307	preparación	-0.11414914
-4.0751243	formarse	-0.11414914
-4.246307	prepararse	-0.11414914
-4.246307	preparé	-0.11414914
-4.246307	estudiamos	-0.11414914
-4.246307	estudié	-0.11414914
-4.0363135	verdad	-0.11414914
-4.246307	escuchando	-0.11414914
-4.0363135	conocimiento	-0.15888315
-3.872411	soplar	-0.14562501
-4.246307	enseñar	-0.11414914
-4.246307	Raúl	-0.11414914
-4.246307	Méndez	-0.11414914
-3.7536974	conoce	-0.11414914
-4.246307	practica	-0.11414914
-4.0751243	sopla	-0.19148985
-4.246307	soplando	-0.11414914
-4.0363135	soplan	-0.11414914
-4.0751243	soplarse	-0.11414914
-3.4120924	contra	-0.19688953
-4.0751243	adultos	-0.11414914
-4.0363135	soplamos	-0.11414914
-3.7536974	enfermedades	-0.11414914
-4.0363135	reumatismo	-0.17082563
-4.246307	necesitaba	-0.11414914
-3.872411	tipo	-0.36517006
-4.0363135	necesita	-0.13391355
-4.246307	propios	-0.11414914
-4.246307	contraen	-0.11414914
-3.7536974	modo	-0.11414914
-4.246307	falta	-0.11414914
-4.246307	curarlos	-0.11414914
-4.246307	anduve	-0.11414914
-4.0363135	curan	-0.11414914
-4.246307	propias	-0.11414914
-4.0751243	usan	-0.11414914
-4.246307	pasmo	-0.11414914
-4.0751243	anisillo	-0.11414914
-4.0363135	guayabo	-0.11414914
-4.0363135	zacate	-0.19148985
-3.7536974	estar	-0.11414914
-4.0751243	juntando	-0.11414914
-4.0751243	sudar	-0.11414914
-4.246307	requiere	-0.11414914
-4.0751243	manojos	-0.11414914
-4.246307	sainillos	-0.11414914
-4.246307	variedades	-0.11414914
-4.246307	mordedura	-0.11414914
-4.0363135	serpiente	-0.14562501
-4.246307	explica	-0.11414914
-4.0363135	pequeñitos	-0.20511705
-4.0751243	pato	-0.11414914
-4.0751243	pluma	-0.23602466
-3.7536974	gavilán	-0.1384306
-4.246307	norteño	-0.11414914
-4.246307	loro	-0.11414914
-4.0363135	pava	-0.15888315
-4.0751243	ala	-0.11414914
-3.7536974	conchas	-0.19922438
-4.246307	niñitos	-0.11414914
-4.246307	salvar	-0.11414914
-4.246307	marca	-0.11414914
-4.246307	centro	-0.11414914
-4.246307	frotar	-0.11414914
-4.246307	concha	-0.11414914
-4.246307	cocha	-0.11414914
-4.246307	rotas	-0.11414914
-4.246307	llamadas	-0.11414914
-4.246307	jueputa	-0.11414914
-4.0751243	empaco	-0.11414914
-4.246307	bika	-0.11414914
-4.246307	chiquillos	-0.11414914
-4.246307	explíquelo	-0.11414914
-4.246307	traigo	-0.11414914
-4.0751243	tortuga	-0.11414914
-4.0363135	martilla	-0.11414914
-4.0751243	tolomuco	-0.11414914
-4.0751243	oso	-0.15888315
-4.246307	hormiguero	-0.11414914
-4.0751243	puma	-0.11414914
-4.246307	traídas	-0.11414914
-4.246307	compañeras	-0.11414914
-4.0751243	compañera	-0.11414914
-3.4120924	dieta	-0.26294976
-4.0751243	sigue	-0.11414914
-4.246307	asolearse	-0.11414914
-4.0751243	causa	-0.11414914
-4.246307	salpullido	-0.11414914
-4.246307	tratamos	-0.11414914
-4.0751243	broma	-0.11414914
-4.246307	soluciona	-0.11414914
-3.872411	tabú	-0.17082563
-4.246307	asados	-0.11414914
-4.0363135	sal	-0.17082563
-3.872411	maduro	-0.17082563
-4.246307	simplecito	-0.11414914
-4.246307	explíquemelo	-0.11414914
-4.0363135	véalo	-0.24023135
-4.246307	vuelto	-0.11414914
-4.246307	bananitos	-0.11414914
-3.872411	comprar	-0.11414914
-4.246307	salecita	-0.11414914
-4.246307	jabón	-0.11414914
-4.0363135	lavar	-0.11414914
-4.246307	vendíamos	-0.11414914
-4.246307	consumido	-0.11414914
-4.246307	acompañarlo	-0.11414914
-4.246307	isla	-0.11414914
-4.0751243	mire	-0.19148985
-3.6605656	bananos	-0.14156349
-4.246307	dominique	-0.11414914
-3.7536974	plátanos	-0.15888315
-4.246307	reventándose	-0.11414914
-4.0751243	maduran	-0.11414914
-4.246307	presenciado	-0.11414914
-4.246307	cortarlos	-0.11414914
-3.872411	podridos	-0.20511705
-4.246307	botaban	-0.11414914
-4.0751243	uh	-0.23602466
-4.246307	desperdiciaba	-0.11414914
-4.246307	según	-0.11414914
-4.246307	recordamos	-0.11414914
-4.246307	creen	-0.11414914
-4.0751243	solían	-0.11414914
-4.246307	compraban	-0.11414914
-4.246307	compran	-0.11414914
-4.246307	víveres	-0.11414914
-4.0363135	manteca	-0.15888315
-4.246307	chicharrones	-0.11414914
-3.872411	sólo	-0.15888315
-4.246307	acompañamiento	-0.11414914
-4.0363135	busca	-0.17082563
-4.246307	caído	-0.11414914
-4.246307	fósforito	-0.11414914
-3.5187964	cuesta	-0.14156349
-4.246307	dependiente	-0.11414914
-4.0363135	ay	-0.23854378
-4.0751243	quedando	-0.11414914
-4.246307	frutita	-0.11414914
-4.246307	desperdigada	-0.11414914
-4.246307	raquítica	-0.11414914
-4.246307	comermos	-0.11414914
-4.246307	comernos	-0.11414914
-4.246307	correcto	-0.11414914
-4.246307	perjudicamos	-0.11414914
-4.0751243	efectivamente	-0.11414914
-4.0363135	patos	-0.19148985
-4.0363135	ninguna	-0.19148985
-4.0363135	produce	-0.11414914
-4.246307	colocan	-0.11414914
-4.0363135	molestar	-0.11414914
-4.246307	situación	-0.11414914
-4.246307	crítica	-0.11414914
-4.0751243	vendían	-0.11414914
-4.0751243	delante	-0.23602466
-4.0751243	bebido	-0.11414914
-4.0751243	botamos	-0.11414914
-4.0751243	horcón	-0.11414914
-4.246307	rajamos	-0.11414914
-4.246307	jiras	-0.11414914
-4.246307	cercha	-0.11414914
-4.0363135	suita	-0.19148985
-4.246307	tejemos	-0.11414914
-4.246307	dis	-0.11414914
-4.246307	tejíamos	-0.11414914
-4.246307	levantábamos	-0.11414914
-4.246307	atiza	-0.11414914
-4.0751243	pa	-0.11414914
-4.246307	pudra	-0.11414914
-4.246307	mantenga	-0.11414914
-4.0751243	hacerse	-0.11414914
-4.0751243	estudie	-0.11414914
-4.0751243	excava	-0.11414914
-4.246307	circular	-0.11414914
-4.246307	deposite	-0.11414914
-4.246307	cumbrera	-0.11414914
-4.246307	poquitita	-0.11414914
-4.0751243	tapa	-0.11414914
-4.246307	enrolla	-0.11414914
-4.246307	rollizos	-0.11414914
-4.246307	viento	-0.11414914
-4.246307	construida	-0.11414914
-4.0751243	echando	-0.11414914
-4.246307	ardiendo	-0.11414914
-4.246307	atizar	-0.11414914
-4.246307	seque	-0.11414914
-4.246307	ésta	-0.11414914
-4.246307	cocinaban	-0.11414914
-4.246307	sientan	-0.11414914
-4.246307	narran	-0.11414914
-4.0751243	levantado	-0.11414914
-4.246307	bikakala	-0.11414914
-4.246307	forman	-0.11414914
-4.246307	vano	-0.11414914
-4.246307	formar	-0.11414914
-4.0363135	menores	-0.19148985
-4.246307	amor	-0.11414914
-3.872411	bebamos	-0.23917581
-4.0751243	chichita	-0.11414914
-4.0751243	fresca	-0.11414914
-4.0363135	excelente	-0.19148985
-4.246307	levanto	-0.11414914
-4.246307	mujercita	-0.11414914
-4.246307	invocar	-0.11414914
-4.0363135	extranjero	-0.11414914
-4.246307	extranjerito	-0.11414914
-4.246307	avengonzamos	-0.11414914
-3.872411	pescar	-0.11414914
-4.246307	montear	-0.11414914
-4.0751243	cordillera	-0.11414914
-4.0363135	ido	-0.15888315
-4.0751243	cuénteme	-0.11414914
-4.0751243	pesca	-0.11414914
-4.0751243	explicando	-0.11414914
-4.246307	ladera	-0.11414914
-4.0751243	digamos	-0.11414914
-4.246307	ká	-0.11414914
-4.246307	iaia	-0.11414914
-4.246307	cuanto	-0.11414914
-4.0751243	peses	-0.11414914
-3.4621756	clases	-0.34872204
-4.0751243	lisas	-0.11414914
-4.0751243	sardinas	-0.11414914
-4.246307	sábalos	-0.11414914
-4.246307	candela	-0.11414914
-4.0751243	olominas	-0.11414914
-4.246307	arrriba	-0.11414914
-3.6605656	dormir	-0.17882657
-4.0363135	dormimos	-0.11414914
-4.246307	llevada	-0.11414914
-4.246307	matamos	-0.11414914
-3.872411	palmito	-0.11414914
-3.5187964	encontramos	-0.13594043
-4.246307	pierden	-0.11414914
-4.0751243	perder	-0.11414914
-4.246307	suerte	-0.11414914
-4.246307	caminaba	-0.11414914
-3.5839217	lugares	-0.13223179
-4.246307	lejanos	-0.11414914
-4.246307	código	-0.11414914
-4.246307	cacería	-0.11414914
-4.0751243	estricto	-0.11414914
-3.872411	poca	-0.17082563
-4.246307	distancia	-0.11414914
-3.5839217	anda	-0.11414914
-4.246307	andube	-0.11414914
-4.0363135	loma	-0.11414914
-4.246307	ocora	-0.11414914
-4.0751243	Kàlbli	-0.11414914
-4.0363135	andan	-0.11414914
-4.246307	emplumados	-0.11414914
-4.0751243	pavones	-0.11414914
-4.246307	legítimo	-0.11414914
-4.0751243	pavón	-0.11414914
-4.0751243	propia	-0.11414914
-4.246307	vista	-0.11414914
-4.246307	kù	-0.11414914
-4.246307	aqul	-0.11414914
-4.0751243	presencialmente	-0.11414914
-3.872411	conozco	-0.14156349
-4.246307	figura	-0.11414914
-4.0363135	atrapamos	-0.11414914
-4.0363135	sagrado	-0.11414914
-4.246307	verdaderos	-0.11414914
-4.0751243	sagrada	-0.11414914
-3.872411	guardamos	-0.20511705
-3.6605656	respeto	-0.30836886
-4.0751243	molestamos	-0.19148985
-4.0751243	depredador	-0.11414914
-4.246307	pruebo	-0.11414914
-3.6605656	miedo	-0.187633
-4.246307	pensaba	-0.11414914
-4.246307	podíamos	-0.11414914
-4.0751243	tiramos	-0.11414914
-4.0751243	volvemos	-0.23602466
-4.246307	regresar	-0.11414914
-4.246307	tercer	-0.11414914
-4.0751243	viajan	-0.11414914
-4.246307	quedarnos	-0.11414914
-3.7536974	regresa	-0.15888315
-4.246307	dormirse	-0.11414914
-4.246307	sufrimos	-0.11414914
-4.0363135	ayuna	-0.11414914
-4.246307	El	-0.11414914
-4.246307	Kalbli	-0.11414914
-3.7536974	estan	-0.11414914
-4.0751243	verlos	-0.11414914
-4.246307	Karbli	-0.11414914
-3.7536974	Tsu	-0.46208006
-4.246307	ku	-0.11414914
-4.0751243	haber	-0.11414914
-4.246307	Kàrbli	-0.11414914
-4.246307	tamaños	-0.11414914
-4.0363135	diminutos	-0.19148985
-4.246307	bocana	-0.11414914
-4.246307	peligroso	-0.11414914
-4.0751243	adelante	-0.11414914
-4.0363135	pasamos	-0.17082563
-4.246307	cierta	-0.11414914
-4.0751243	peligrosa	-0.11414914
-4.246307	encajonada	-0.11414914
-4.0751243	pozas	-0.11414914
-3.7536974	gran	-0.11414914
-4.246307	desgracia	-0.11414914
-3.5187964	estuvieron	-0.1450687
-4.246307	escavando	-0.11414914
-4.0751243	oro	-0.11414914
-4.0363135	tucán	-0.17082563
-4.0363135	nublado	-0.19148985
-4.0751243	andaban	-0.19148985
-4.0751243	adónde	-0.11414914
-4.0751243	falda	-0.11414914
-4.246307	abismo	-0.11414914
-4.246307	trabajaban	-0.11414914
-3.4621756	asi	-0.20853367
-4.246307	trasladaban	-0.11414914
-4.246307	helicóptero	-0.11414914
-4.246307	limpiaron	-0.11414914
-4.246307	levantaba	-0.11414914
-4.0751243	Shtö	-0.23602466
-4.246307	despegaban	-0.11414914
-4.0363135	rápidamente	-0.11414914
-4.246307	aterrizaban	-0.11414914
-4.246307	regresados	-0.11414914
-3.872411	vinieron	-0.11414914
-4.246307	pelean	-0.11414914
-3.6605656	polvo	-0.23957759
-4.246307	brillaba	-0.11414914
-4.246307	acaso	-0.11414914
-4.246307	recuerde	-0.11414914
-4.0751243	arena	-0.14562501
-4.0751243	oscura	-0.11414914
-3.872411	parece	-0.20511705
-4.246307	golpeaban	-0.11414914
-4.0751243	Kakes	-0.11414914
-4.0751243	recogen	-0.11414914
-4.246307	echan	-0.11414914
-4.246307	bolsitas	-0.11414914
-4.246307	bolsas	-0.11414914
-4.0751243	cargan	-0.11414914
-4.246307	tirarlo	-0.11414914
-4.246307	ví.	-0.11414914
-4.246307	recuerdo	-0.11414914
-4.246307	reventándolas	-0.11414914
-4.246307	dinamitas	-0.11414914
-4.246307	consiguieron	-0.11414914
-4.246307	rocas	-0.11414914
-4.246307	quebrarlo	-0.11414914
-3.7536974	muchísimo	-0.15888315
-4.0363135	sucedió	-0.11414914
-4.246307	parecer	-0.11414914
-4.246307	pudrieron	-0.11414914
-4.246307	enterraron	-0.11414914
-4.246307	convirtiéndose	-0.11414914
-4.246307	sitios	-0.11414914
-4.0363135	planos	-0.19148985
-4.0751243	ley	-0.11414914
-4.246307	dejan	-0.11414914
-4.246307	ahorita	-0.11414914
-3.872411	acaba	-0.20511705
-4.0751243	trajeron	-0.11414914
-4.0751243	traen	-0.23602466
-4.246307	pescarlos	-0.11414914
-4.246307	volveremos	-0.11414914
-4.246307	nosotro	-0.11414914
-4.0363135	arcos	-0.11414914
-4.246307	retrocedernos	-0.11414914
-4.246307	aprender	-0.11414914
-4.246307	menospreciar	-0.11414914
-3.872411	ni	-0.11414914
-4.0751243	lanzar	-0.11414914
-4.246307	casualidad	-0.11414914
-4.246307	presenta	-0.11414914
-4.246307	fallas	-0.11414914
-4.246307	fallar	-0.11414914
-4.246307	atrapa	-0.11414914
-4.246307	cerquita	-0.11414914
-4.246307	risas	-0.11414914
-4.246307	vuelva	-0.11414914
-4.246307	poseen	-0.11414914
-4.246307	estricta	-0.11414914
-4.246307	deberas	-0.11414914
-4.246307	perdiendo	-0.11414914
-4.246307	pescaremos	-0.11414914
-4.0751243	pescaban	-0.11414914
-4.0751243	perdió	-0.11414914
-4.246307	poder	-0.11414914
-3.872411	guarda	-0.26451644
-4.0363135	guardar	-0.17082563
-3.7536974	tranquilo	-0.15888315
-4.246307	unir	-0.11414914
-3.6605656	nunca	-0.17263077
-3.5839217	frío	-0.38945517
-4.246307	suficiente	-0.11414914
-4.246307	estarse	-0.11414914
-3.872411	unge	-0.17082563
-4.246307	ungidos	-0.11414914
-4.0751243	tirado	-0.11414914
-4.246307	encaga	-0.11414914
-4.246307	ungirnos	-0.11414914
-4.0363135	cumplir	-0.19148985
-4.246307	requerido	-0.11414914
-4.246307	guada	-0.11414914
-4.246307	concluye	-0.11414914
-4.246307	úú	-0.11414914
-4.0751243	primera	-0.19148985
-4.0751243	manchado	-0.11414914
-3.872411	matado	-0.11414914
-4.246307	encargado	-0.11414914
-4.0751243	purifica	-0.11414914
-4.246307	ààà	-0.11414914
-3.7536974	adonde	-0.11414914
-4.0751243	cortan	-0.23602466
-4.246307	explican	-0.11414914
-4.246307	atraerlo	-0.11414914
-4.246307	á	-0.11414914
-4.0751243	asunto	-0.11414914
-4.246307	entierran	-0.11414914
-4.246307	entierra	-0.11414914
-4.246307	etierra	-0.11414914
-4.0751243	atraerla	-0.17082563
-4.246307	à	-0.11414914
-4.246307	atraer	-0.11414914
-4.246307	oportunidad	-0.11414914
-4.246307	padecerá	-0.11414914
-4.246307	cumplido	-0.11414914
-4.0363135	ojos	-0.17082563
-4.0751243	padece	-0.19148985
-3.5839217	sangre	-0.18310578
-4.246307	naríz	-0.11414914
-4.246307	efermedad	-0.11414914
-3.872411	llaga	-0.15888315
-4.246307	taqueo	-0.11414914
-4.0751243	orine	-0.11414914
-4.246307	desprende	-0.11414914
-4.246307	dolemos	-0.11414914
-4.0751243	intenso	-0.11414914
-4.246307	riñones	-0.11414914
-4.246307	aguantamos	-0.11414914
-4.246307	benga	-0.11414914
-4.246307	curamos	-0.11414914
-4.0751243	remedio	-0.11414914
-3.872411	saben	-0.15110011
-4.0363135	ceremoniado	-0.19148985
-4.246307	formó	-0.11414914
-4.246307	fué	-0.11414914
-4.246307	mejoramos	-0.11414914
-4.246307	original	-0.11414914
-4.246307	tenga	-0.11414914
-4.246307	sukias	-0.11414914
-4.0751243	victima	-0.11414914
-4.246307	vengará	-0.11414914
-4.246307	vengara	-0.11414914
-4.246307	totalmente	-0.11414914
-4.246307	venganza	-0.11414914
-4.246307	uuu	-0.11414914
-4.246307	pienso	-0.11414914
-4.246307	soplaban	-0.11414914
-4.246307	curararnos	-0.11414914
-4.246307	nariz	-0.11414914
-4.0751243	sangramos	-0.11414914
-4.246307	causandonos	-0.11414914
-4.246307	derrame	-0.11414914
-4.246307	sacrifica	-0.11414914
-4.246307	cuchilla	-0.11414914
-4.0751243	oxigeno	-0.11414914
-4.246307	chorrea	-0.11414914
-4.246307	sangra	-0.11414914
-4.246307	revienta	-0.11414914
-4.246307	muriendonos	-0.11414914
-4.246307	caen	-0.11414914
-4.246307	uuj	-0.11414914
-4.246307	pérsona	-0.11414914
-4.0363135	dormido	-0.17082563
-4.246307	vengarse	-0.11414914
-4.0363135	venga	-0.11414914
-4.246307	escuha	-0.11414914
-4.0363135	silbido	-0.11414914
-4.246307	vengando	-0.11414914
-4.246307	vecino	-0.11414914
-3.6605656	andaba	-0.14562501
-4.246307	tiro	-0.11414914
-4.246307	pu	-0.11414914
-4.246307	silba	-0.11414914
-4.246307	silbaba	-0.11414914
-4.246307	preocupa	-0.11414914
-4.246307	cuido	-0.11414914
-4.246307	avisando	-0.11414914
-4.246307	reportando	-0.11414914
-4.0751243	tira	-0.11414914
-4.246307	emite	-0.11414914
-4.246307	jala	-0.11414914
-4.246307	ahi	-0.11414914
-4.246307	demonios	-0.11414914
-4.246307	vivio	-0.11414914
-4.0363135	llego	-0.11414914
-4.246307	mas	-0.11414914
-4.0751243	paso	-0.23602466
-4.246307	padecio	-0.11414914
-4.0751243	mato	-0.11414914
-4.246307	estanca	-0.11414914
-3.872411	pura	-0.20511705
-3.5187964	duele	-0.3259357
-4.246307	burlar	-0.11414914
-4.246307	proteje	-0.11414914
-4.246307	viviremos	-0.11414914
-4.246307	contagia	-0.11414914
-4.246307	curable	-0.11414914
-4.246307	padecer	-0.11414914
-4.0363135	frito	-0.17082563
-4.0751243	aceite	-0.11414914
-4.0751243	taquea	-0.23602466
-4.246307	sikua	-0.11414914
-4.246307	próstata	-0.11414914
-4.0363135	creo	-0.15888315
-4.246307	brotan	-0.11414914
-4.246307	brotar	-0.11414914
-4.0751243	brota	-0.11414914
-3.872411	realmente	-0.11414914
-4.0363135	papalomoyo	-0.11414914
-4.246307	única	-0.11414914
-4.0363135	yaga	-0.11414914
-3.6605656	será	-0.11414914
-4.246307	acelera	-0.11414914
-4.246307	propagan	-0.11414914
-4.246307	llevado	-0.11414914
-4.0751243	propagación	-0.23602466
-4.246307	acelerado	-0.11414914
-4.246307	persiben	-0.11414914
-4.246307	prestigio	-0.11414914
-4.246307	aceledaramente	-0.11414914
-4.246307	gravemente	-0.11414914
-4.0751243	intocable	-0.11414914
-4.246307	breve	-0.11414914
-4.246307	nucho	-0.11414914
-4.246307	probamos	-0.11414914
-4.0751243	pereza	-0.11414914
-4.246307	ujù	-0.11414914
-4.246307	riguroso	-0.11414914
-4.246307	pués	-0.11414914
-4.0751243	conversamos	-0.11414914
-4.246307	espontáneamente	-0.11414914
-4.246307	froté	-0.11414914
-4.246307	ungüento	-0.11414914
-4.246307	diré	-0.11414914
-4.246307	cantarle	-0.11414914
-4.0751243	canción	-0.11414914
-3.7536974	piedrita	-0.11414914
-4.246307	extender	-0.11414914
-4.0363135	querido	-0.19148985
-4.0751243	existimos	-0.11414914
-4.246307	pensamiento	-0.11414914
-4.246307	celaje	-0.11414914
-4.0751243	pensando	-0.11414914
-4.246307	acercándonos	-0.11414914
-4.246307	Natividad	-0.11414914
-4.246307	Alto	-0.11414914
-3.872411	Dùriñak	-0.20875971
-4.246307	narre	-0.11414914
-4.246307	cuéntenos	-0.11414914
-4.246307	nombró	-0.11414914
-4.246307	quebradita	-0.11414914
-4.246307	Dùri	-0.11414914
-4.0751243	bañándose	-0.11414914
-4.246307	pusieron	-0.11414914
-4.246307	depués	-0.11414914
-4.246307	subió	-0.11414914
-3.5839217	Namàsöl	-0.2387855
-4.246307	situada	-0.11414914
-4.246307	Namà	-0.11414914
-4.246307	respetan	-0.11414914
-4.246307	firmemente	-0.11414914
-4.0363135	cuidar	-0.15110011
-4.246307	existían	-0.11414914
-3.7536974	historias	-0.11414914
-4.246307	narrar	-0.11414914
-4.0751243	contó	-0.11414914
-4.0751243	contado	-0.11414914
-4.246307	trabajaron	-0.11414914
-4.246307	labran	-0.11414914
-4.0751243	cosechar	-0.11414914
-4.246307	suficientes	-0.11414914
-4.246307	vecinos	-0.11414914
-4.246307	familas	-0.11414914
-4.246307	ubicadas	-0.11414914
-4.246307	uhuh	-0.11414914
-4.0751243	suaves	-0.11414914
-4.246307	dedicamos	-0.11414914
-4.0751243	estableció	-0.11414914
-4.246307	Sulàyibi	-0.11414914
-4.246307	crearon	-0.11414914
-4.0363135	creó	-0.15110011
-4.246307	Suléyibi	-0.11414914
-4.0363135	cuidarlo	-0.24023135
-4.246307	vivos	-0.11414914
-4.246307	objetos	-0.11414914
-4.246307	perturbarlos	-0.11414914
-4.246307	tocarlos	-0.11414914
-4.246307	respetarlos	-0.11414914
-4.246307	cuidados	-0.11414914
-4.246307	pase	-0.11414914
-4.246307	pierdan	-0.11414914
-4.246307	mueran	-0.11414914
-4.0363135	debemos	-0.11414914
-4.246307	cuantas	-0.11414914
-4.246307	mencionando	-0.11414914
-4.246307	sitio	-0.11414914
-4.0751243	sembró	-0.11414914
-4.246307	llevadas	-0.11414914
-4.246307	sembralas	-0.11414914
-4.0751243	espíritus	-0.11414914
-4.246307	humana	-0.11414914
-4.246307	exterminarnos	-0.11414914
-4.246307	observar	-0.11414914
-3.872411	sube	-0.20511705
-4.0363135	cautelosamente	-0.11414914
-4.246307	invita	-0.11414914
-3.7536974	subir	-0.16377842
-4.246307	dañar	-0.11414914
-4.246307	dejarse	-0.11414914
-4.246307	obtendremos	-0.11414914
-3.7536974	establecido	-0.15888315
-4.0751243	igualmente	-0.11414914
-4.0751243	posible	-0.11414914
-4.246307	alcanzarla	-0.11414914
-4.246307	pukchi	-0.11414914
-4.0363135	ralo	-0.11414914
-4.0751243	raíces	-0.11414914
-4.0751243	punto	-0.11414914
-4.246307	guste	-0.11414914
-4.246307	cosechando	-0.11414914
-4.246307	matitas	-0.11414914
-3.7536974	pregunta	-0.19148985
-4.246307	comentemos	-0.11414914
-4.0363135	molido	-0.19148985
-4.246307	machacar	-0.11414914
-4.0751243	convierte	-0.11414914
-4.0363135	echa	-0.11414914
-4.0751243	espaciar	-0.23602466
-4.246307	obtiene	-0.11414914
-4.246307	amargo	-0.11414914
-4.246307	sexto	-0.11414914
-4.0751243	mezclamos	-0.23602466
-4.246307	mezcla	-0.11414914
-4.246307	cosita	-0.11414914
-4.0751243	regresan	-0.11414914
-4.0751243	comenzamos	-0.23602466
-4.246307	emborrachamos	-0.11414914
-4.0363135	bebida	-0.11414914
-4.0363135	azúcar	-0.11414914
-4.0751243	jugo	-0.19148985
-4.246307	mezclado	-0.11414914
-4.246307	ocupa	-0.11414914
-4.246307	masita	-0.11414914
-4.246307	preparaban	-0.11414914
-4.246307	removían	-0.11414914
-4.246307	chupaban	-0.11414914
-4.246307	dedos	-0.11414914
-4.246307	fermenta	-0.11414914
-4.246307	embriaga	-0.11414914
-4.246307	poquitito	-0.11414914
-4.0363135	veía	-0.11414914
-4.246307	fueran	-0.11414914
-4.246307	cambiamos	-0.11414914
-3.872411	danzaban	-0.18533522
-4.246307	bebían	-0.11414914
-4.0363135	peleaban	-0.11414914
-4.246307	bailamos	-0.11414914
-4.246307	danzar	-0.11414914
-4.246307	sobón	-0.11414914
-4.0751243	quedaba	-0.11414914
-4.0751243	siguiente	-0.11414914
-4.246307	bailaba	-0.11414914
-4.0751243	golpearse	-0.11414914
-4.246307	puños	-0.11414914
-4.0363135	peleando	-0.11414914
-3.5839217	quería	-0.14156349
-4.246307	llevaban	-0.11414914
-4.246307	paz	-0.11414914
-4.246307	hablamos	-0.11414914
-4.0751243	saliva	-0.11414914
-4.246307	cercó	-0.11414914
-4.246307	labios	-0.11414914
-4.0751243	bonitos	-0.11414914
-4.246307	paladar	-0.11414914
-4.0363135	guarumo	-0.11414914
-3.7536974	leña	-0.15110011
-4.246307	cierres	-0.11414914
-4.0751243	ladrón	-0.11414914
-4.246307	amordazó	-0.11414914
-4.246307	pañuelo	-0.11414914
-4.246307	ocelote	-0.11414914
-4.246307	vigilante	-0.11414914
-4.246307	sorprendió	-0.11414914
-4.246307	mentiroso	-0.11414914
-4.0363135	hirió	-0.19148985
-4.246307	corteza	-0.11414914
-4.0751243	roble	-0.23602466
-4.246307	descortezó	-0.11414914
-3.872411	mastate	-0.187633
-4.246307	frazada	-0.11414914
-4.246307	despellejando	-0.11414914
-4.246307	desollador	-0.11414914
-4.246307	reses	-0.11414914
-4.246307	cabro	-0.11414914
-4.246307	descortezando	-0.11414914
-4.246307	escarnó	-0.11414914
-4.246307	sábalo	-0.11414914
-3.7536974	suave	-0.15110011
-4.246307	escamó	-0.11414914
-4.246307	robo	-0.11414914
-4.246307	riñón	-0.11414914
-4.246307	afilados	-0.11414914
-4.246307	filo	-0.11414914
-4.246307	pico	-0.11414914
-3.872411	gusta	-0.14562501
-4.0751243	hagan	-0.11414914
-4.0751243	bromas	-0.11414914
-4.0751243	afilada	-0.19148985
-4.246307	metate	-0.11414914
-4.246307	usó	-0.11414914
-4.246307	pasados	-0.11414914
-4.246307	lámpara	-0.11414914
-4.246307	raso	-0.11414914
-4.246307	morachos	-0.11414914
-3.872411	regaló	-0.20220278
-3.7536974	gato	-0.11414914
-4.0751243	Antonio	-0.11414914
-4.246307	bromista	-0.11414914
-4.0751243	barba	-0.11414914
-4.246307	dentista	-0.11414914
-3.872411	sacó	-0.15110011
-4.0751243	muelas	-0.11414914
-4.246307	colmillos	-0.11414914
-4.0751243	largos	-0.11414914
-4.246307	afilando	-0.11414914
-4.246307	cuchillos	-0.11414914
-4.246307	carnicería	-0.11414914
-4.246307	mandíbula	-0.11414914
-3.5187964	fuerte	-0.23939942
-4.246307	picote	-0.11414914
-3.7536974	colores	-0.2975695
-4.246307	cercas	-0.11414914
-4.0751243	robó	-0.11414914
-4.0751243	ladrones	-0.11414914
-4.246307	televisor	-0.11414914
-4.246307	recomendar	-0.11414914
-4.246307	pacientes	-0.11414914
-4.0363135	cantos	-0.11414914
-4.246307	pedernal	-0.11414914
-4.246307	salgan	-0.11414914
-4.0363135	malos	-0.11414914
-4.246307	obtener	-0.11414914
-4.0363135	frutas	-0.11414914
-4.246307	sazonas	-0.11414914
-4.246307	viejo	-0.11414914
-4.246307	envejeció	-0.11414914
-4.246307	anciano	-0.11414914
-4.0363135	zapote	-0.11414914
-4.246307	sazonando	-0.11414914
-4.246307	sazonamos	-0.11414914
-4.0363135	guineos	-0.11414914
-4.246307	salí	-0.11414914
-4.246307	escondidas	-0.11414914
-4.246307	celes	-0.11414914
-4.246307	playas	-0.11414914
-4.0751243	Sixaola	-0.11414914
-4.246307	pedregales	-0.11414914
-4.246307	asaltaron	-0.11414914
-4.0751243	banco	-0.11414914
-4.246307	hondas	-0.11414914
-4.0751243	Ujarrás	-0.11414914
-4.0363135	montañas	-0.11414914
-4.246307	peñascos	-0.11414914
-4.246307	impiden	-0.11414914
-4.0751243	bañando	-0.11414914
-4.246307	Juana	-0.11414914
-4.246307	bañó	-0.11414914
-4.246307	chutrá	-0.11414914
-4.0363135	lengua	-0.11414914
-4.246307	Aprenda	-0.11414914
-4.0751243	contento	-0.23602466
-3.7536974	estudiar	-0.2387855
-4.246307	Sëbaliwak	-0.11414914
-4.246307	ondulado	-0.11414914
-4.0751243	cabécar	-0.11414914
-4.246307	coromeño	-0.11414914
-4.246307	josefino	-0.11414914
-4.246307	cartaginés	-0.11414914
-4.246307	Esperame	-0.11414914
-4.0363135	sed	-0.24023135
-4.0751243	sueño	-0.17082563
-4.246307	ganas	-0.11414914
-4.0363135	baño	-0.20511705
-4.246307	enfermos	-0.11414914
-4.246307	cazadores	-0.11414914
-4.246307	Responda	-0.11414914
-3.872411	conversando	-0.20511705
-3.7536974	conversar	-0.23854378
-3.872411	descansar	-0.17263077
-4.246307	barriendo	-0.11414914
-3.7536974	barrer	-0.26451644
-4.0751243	tomando	-0.11414914
-4.246307	consultor	-0.11414914
-4.0751243	siento	-0.11414914
-4.246307	Diálogo	-0.11414914
-3.6605656	termina	-0.220296
-4.246307	terminamos	-0.11414914
-4.246307	últimos	-0.11414914
-4.246307	barbasco	-0.11414914
-4.0363135	golpearlo	-0.19148985
-4.0751243	presa	-0.11414914
-3.5187964	beber	-0.15888315
-3.6605656	vas	-0.5412613
-4.0751243	mediodía	-0.1384306
-4.246307	Querés	-0.11414914
-4.246307	recogiendo	-0.11414914
-4.0363135	cantaba	-0.11414914
-4.0751243	haces	-0.11414914
-4.246307	juegan	-0.11414914
-4.0751243	leen	-0.23602466
-4.246307	debés	-0.11414914
-4.0363135	abuela	-0.11414914
-4.0363135	bañarse	-0.15110011
-4.246307	manaña	-0.11414914
-4.0363135	Valeria	-0.11414914
-4.0751243	cantan	-0.11414914
-4.0751243	viejitas	-0.11414914
-4.0751243	bañarme	-0.19148985
-4.246307	Lean	-0.11414914
-4.246307	aula	-0.11414914
-4.246307	lea	-0.11414914
-4.246307	responda	-0.11414914
-4.246307	aprenda	-0.11414914
-4.246307	Espéreme	-0.11414914
-4.246307	Vealo	-0.11414914
-4.246307	expresiones	-0.11414914
-4.246307	Repitan	-0.11414914
-4.0751243	grupos	-0.23602466
-4.246307	pizarra	-0.11414914
-4.0751243	entiendo	-0.19148985
-4.0751243	kökoköko	-0.11414914
-4.246307	frecuente	-0.11414914
-4.0751243	kapöli	-0.11414914
-3.7536974	significa	-0.1384306
-4.246307	extranjera	-0.11414914
-4.246307	refiere	-0.11414914
-4.246307	medicinal	-0.11414914
-4.246307	purificar	-0.11414914
-4.246307	prepara	-0.11414914
-4.246307	Raje	-0.11414914
-4.0751243	séquela	-0.11414914
-4.246307	muélala	-0.11414914
-4.246307	cocínelo	-0.11414914
-4.246307	bañe	-0.11414914
-4.0751243	oído	-0.11414914
-4.0363135	cocine	-0.11414914
-4.246307	Remoje	-0.11414914
-4.246307	tardes	-0.11414914
-4.246307	córtelo	-0.11414914
-4.0751243	tuéstelo	-0.11414914
-4.0751243	escurra	-0.23602466
-4.0363135	líquido	-0.15110011
-4.0751243	eche	-0.11414914
-4.0751243	gota	-0.11414914
-4.0751243	hágalo	-0.11414914
-4.246307	tóttò	-0.11414914
-4.246307	Tóttò	-0.11414914
-4.246307	Veala	-0.11414914
-4.0363135	repetir	-0.19148985
-4.246307	Repitalo	-0.11414914
-4.246307	Salúdela	-0.11414914
-4.246307	Moléstelo	-0.11414914
-4.246307	Cómalo	-0.11414914
-4.246307	Espérala	-0.11414914
-4.246307	Ayúdelo	-0.11414914
-4.0363135	bañar	-0.11414914
-4.246307	Báñelo	-0.11414914
-4.0751243	llamar	-0.11414914
-4.246307	Llámela	-0.11414914
-4.246307	Dilo	-0.11414914
-4.246307	Pregúntelo	-0.11414914
-4.246307	Respóndalo	-0.11414914
-4.0363135	señalar	-0.11414914
-4.246307	Señálela	-0.11414914
-4.246307	Léalo	-0.11414914
-4.246307	Búsquela	-0.11414914
-4.246307	Recójalo	-0.11414914
-4.246307	Siémbrela	-0.11414914
-4.246307	Bébalo	-0.11414914
-4.0751243	rajar	-0.11414914
-4.246307	Rájelo	-0.11414914
-3.872411	tocar	-0.17082563
-4.246307	Tóquela	-0.11414914
-4.246307	Golpéelo	-0.11414914
-4.246307	Córtela	-0.11414914
-4.246307	Mátelo	-0.11414914
-4.0751243	escuchar	-0.11414914
-4.246307	Escúchela	-0.11414914
-4.246307	Cocínela	-0.11414914
-4.0363135	remojar	-0.19148985
-4.246307	Remójelo	-0.11414914
-4.0363135	escurrir	-0.19148985
-4.246307	Escúrralo	-0.11414914
-4.246307	Muélelo	-0.11414914
-4.246307	Corra	-0.11414914
-4.246307	Descanse	-0.11414914
-3.872411	terminar	-0.20511705
-4.246307	Bánese	-0.11414914
-4.246307	Trabaje	-0.11414914
-4.246307	Converse	-0.11414914
-3.872411	baile	-0.14562501
-4.246307	Duerma	-0.11414914
-4.246307	Suba	-0.11414914
-4.246307	despídase	-0.11414914
-4.246307	Respóndale	-0.11414914
-4.0751243	escribiendo	-0.11414914
-4.246307	Ayúdele	-0.11414914
-4.246307	maestra	-0.11414914
-4.246307	Despiértelo	-0.11414914
-4.246307	respondan	-0.11414914
-4.246307	Váyase	-0.11414914
-4.246307	Vaya	-0.11414914
-4.0751243	entiende	-0.23602466
-4.246307	ẽ	-0.11414914
-4.246307	yawökblapa	-0.11414914
-4.246307	yawökbla	-0.11414914
-3.872411	verla	-0.36517006
-4.246307	repito	-0.11414914
-4.0751243	repetirlo	-0.23602466
-4.246307	repite	-0.11414914
-4.246307	saludo	-0.11414914
-4.0751243	saludarla	-0.23602466
-4.246307	saluda	-0.11414914
-4.0363135	molestarlo	-0.24023135
-4.0363135	espero	-0.11414914
-4.0751243	esperarla	-0.23602466
-4.246307	espera	-0.11414914
-4.246307	ayudo	-0.11414914
-4.246307	ayudarla	-0.11414914
-4.0751243	secarla	-0.23602466
-4.0363135	bañarlo	-0.24023135
-4.0363135	baña	-0.19148985
-4.0751243	llamarla	-0.23602466
-4.0751243	decirlo	-0.23602466
-4.0751243	preguntarlo	-0.23602466
-4.246307	respondo	-0.11414914
-4.0751243	responderlo	-0.23602466
-4.0751243	responde	-0.11414914
-4.0751243	señalo	-0.23602466
-4.0751243	señalarla	-0.23602466
-4.246307	señala	-0.11414914
-4.0751243	leerlo	-0.23602466
-4.246307	lee	-0.11414914
-4.0751243	buscarla	-0.23602466
-4.246307	recojo	-0.11414914
-4.0751243	recogerlo	-0.23602466
-4.0751243	recoje	-0.11414914
-4.0751243	sembrarla	-0.23602466
-4.246307	bebo	-0.11414914
-4.0751243	beberlo	-0.23602466
-4.246307	rajo	-0.11414914
-4.0751243	rajarlo	-0.23602466
-4.246307	raja	-0.11414914
-4.0751243	toco	-0.11414914
-4.0751243	tocarla	-0.23602466
-4.0751243	toca	-0.11414914
-4.246307	golpeo	-0.11414914
-4.246307	golpea	-0.11414914
-4.0363135	corto	-0.19148985
-4.0363135	cortarla	-0.24023135
-4.246307	escucho	-0.11414914
-4.0751243	escucharla	-0.23602466
-4.0751243	remojo	-0.11414914
-4.246307	remoja	-0.11414914
-4.246307	tuesto	-0.11414914
-4.246307	escurro	-0.11414914
-4.246307	escurre	-0.11414914
-4.246307	muelo	-0.11414914
-4.246307	corres	-0.11414914
-4.246307	descanso	-0.11414914
-4.0363135	descansa	-0.20511705
-4.246307	termino	-0.11414914
-4.246307	converso	-0.11414914
-4.0363135	conversa	-0.24023135
-4.246307	hablo	-0.11414914
-4.246307	bailo	-0.11414914
-3.872411	barre	-0.20511705
-4.246307	duermo	-0.11414914
-4.246307	subo	-0.11414914
-4.246307	despido	-0.11414914
-4.0751243	despedirme	-0.23602466
-4.246307	despide	-0.11414914
-4.246307	estudio	-0.11414914
-3.7536974	estudia	-0.18533522
-4.0751243	Sebastiana	-0.11414914
-4.246307	parentesco	-0.11414914
-3.7536974	hermanos	-0.15888315
-4.0363135	hija	-0.11414914
-4.0751243	Dulytãmĩ	-0.11414914
-4.0751243	sustantivos	-0.23602466
-4.0363135	mariposas	-0.17082563
-4.0363135	serpientes	-0.11414914
-4.0751243	naranja	-0.11414914
-4.246307	21	-0.11414914
-4.246307	cuarenta	-0.11414914
-4.246307	cincuenta	-0.11414914
-4.246307	sesenta	-0.11414914
-4.246307	once	-0.11414914
-4.0751243	redondas	-0.23602466
-4.0751243	planas	-0.23602466
-4.0751243	alargadas	-0.11414914
-4.246307	Cuente	-0.11414914
-4.246307	veintidos	-0.11414914
-4.0751243	hermanas	-0.11414914
-4.0363135	tíos	-0.11414914
-4.246307	tías	-0.11414914
-4.246307	Sabino	-0.11414914
-3.872411	cuñado	-0.11414914
-4.246307	Mónica	-0.11414914
-4.0363135	cuñada	-0.11414914
-4.0363135	troncos	-0.11414914
-4.0751243	dibujo	-0.15888315
-4.246307	bolas	-0.11414914
-4.0363135	cerbatanas	-0.19148985
-3.5187964	racimos	-0.66620004
-4.246307	maternos	-0.11414914
-3.872411	libros	-0.17082563
-4.0751243	veinticinco	-0.11414914
-4.0363135	posado	-0.19148985
-4.0751243	muchachita	-0.11414914
-4.246307	parados	-0.11414914
-4.0363135	esperando	-0.19148985
-4.246307	bus	-0.11414914
-4.0751243	banca	-0.11414914
-4.246307	acostada	-0.11414914
-4.0363135	monos	-0.11414914
-4.246307	colgados	-0.11414914
-4.246307	limones	-0.11414914
-4.0363135	cuelgan	-0.19148985
-4.246307	cuadro	-0.11414914
-4.0751243	escaleras	-0.23602466
-4.246307	recostadas	-0.11414914
-4.246307	nuevas	-0.11414914
-4.246307	elote	-0.11414914
-4.246307	durmiendo	-0.11414914
-4.246307	tapesco	-0.11414914
-4.0751243	iguana	-0.11414914
-4.0363135	nido	-0.17082563
-4.246307	arrollada	-0.11414914
-4.246307	sentadas	-0.11414914
-4.0751243	armadillo	-0.11414914
-4.246307	armadillos	-0.11414914
-4.246307	metidos	-0.11414914
-4.246307	señoras	-0.11414914
-4.246307	posados	-0.11414914
-4.246307	retrato	-0.11414914
-4.246307	recostados	-0.11414914
-4.246307	bancas	-0.11414914
-4.0751243	Kadije	-0.11414914
-4.246307	enterradas	-0.11414914
-4.0363135	plana	-0.18533522
-4.0751243	murciélago	-0.11414914
-4.246307	insecto	-0.11414914
-4.0751243	alargada	-0.11414914
-4.246307	osos	-0.11414914
-4.0751243	hormigueros	-0.11414914
-4.0363135	redonda	-0.24023135
-3.872411	perezoso	-0.11414914
-3.5839217	caracol	-0.15815908
-4.0751243	nombres	-0.11414914
-4.0363135	doce	-0.11414914
-4.246307	compañeros	-0.11414914
-4.246307	alumnos	-0.11414914
-4.0751243	ardillas	-0.23602466
-4.0751243	estrellas	-0.11414914
-4.246307	cariblancos	-0.11414914
-4.246307	recimos	-0.11414914
-4.0363135	venados	-0.17082563
-4.0751243	quetzales	-0.11414914
-4.0751243	curativa	-0.11414914
-4.0363135	macho	-0.19148985
-4.246307	hembra	-0.11414914
-4.0751243	quetzal	-0.11414914
-4.0751243	cucaracha	-0.11414914
-4.0751243	camarón	-0.11414914
-4.0751243	lechuza	-0.11414914
-4.246307	só	-0.11414914
-4.0363135	mecates	-0.17082563
-3.872411	cucarachas	-0.15888315
-4.246307	pegadas	-0.11414914
-4.246307	cruzado	-0.11414914
-4.246307	chiquita	-0.11414914
-4.0751243	malas	-0.11414914
-4.0751243	feas	-0.23602466
-4.246307	flaco	-0.11414914
-3.872411	tronco	-0.15725568
-4.0751243	pesado	-0.11414914
-4.0751243	pesados	-0.23602466
-4.246307	arañas	-0.11414914
-4.0363135	amarilla	-0.24023135
-3.5839217	negro	-0.20511705
-4.246307	anaranjada	-0.11414914
-4.0751243	perico	-0.11414914
-4.246307	lora	-0.11414914
-3.7536974	largo	-0.21517718
-4.0751243	alta	-0.23602466
-4.246307	anaranjadas	-0.11414914
-3.7536974	palo	-0.13391355
-4.0363135	camisas	-0.17082563
-4.246307	azules	-0.11414914
-4.246307	acostumbra	-0.11414914
-4.0751243	haya	-0.11414914
-4.0751243	cantado	-0.11414914
-4.0363135	iremos	-0.24023135
-3.872411	llora	-0.23602466
-4.246307	llorar	-0.11414914
-4.0363135	lloró	-0.19148985
-4.0751243	descansó	-0.23602466
-4.0363135	caminó	-0.17082563
-4.246307	escurrí	-0.11414914
-4.246307	regresé	-0.11414914
-4.246307	cazó	-0.11414914
-4.246307	leyó	-0.11414914
-4.246307	comimos	-0.11414914
-4.246307	sembraron	-0.11414914
-4.0363135	grita	-0.14562501
-4.246307	corpulento	-0.11414914
-4.0751243	usaba	-0.19148985
-4.0363135	gritar	-0.11414914
-3.5839217	sonaba	-0.19922438
-4.0363135	escuchó	-0.11414914
-4.0363135	tocando	-0.11414914
-4.246307	gustó	-0.11414914
-3.6605656	pensó	-0.21517718
-4.246307	apoderarme	-0.11414914
-4.246307	cavilando	-0.11414914
-3.872411	suena	-0.15110011
-4.246307	vayamos	-0.11414914
-4.246307	probarlo	-0.11414914
-4.246307	Está	-0.11414914
-4.246307	fijar	-0.11414914
-4.246307	fijaron	-0.11414914
-4.246307	fecha	-0.11414914
-4.0363135	jícaras	-0.15888315
-4.246307	huecas	-0.11414914
-4.0751243	toc	-0.19148985
-4.0751243	Sí	-0.19148985
-4.246307	gustaría	-0.11414914
-3.872411	meter	-0.17082563
-3.872411	manos	-0.1384306
-4.246307	meto	-0.11414914
-4.246307	extendió	-0.11414914
-4.246307	golpe	-0.11414914
-4.246307	decidió	-0.11414914
-4.246307	escapar	-0.11414914
-4.0751243	pudo	-0.11414914
-4.0751243	subirse	-0.23602466
-4.246307	quitó	-0.11414914
-4.246307	sonó	-0.11414914
-4.246307	estában	-0.11414914
-4.246307	amarradas	-0.11414914
-4.246307	sueños	-0.11414914
-4.246307	acusando	-0.11414914
-4.0751243	agradable	-0.23602466
-4.246307	deseé	-0.11414914
-4.246307	lamiendo	-0.11414914
-4.246307	desacreditarme	-0.11414914
-4.246307	vieja	-0.11414914
-4.246307	gavilana	-0.11414914
-4.246307	pulen	-0.11414914
-4.246307	usarla	-0.11414914
-4.246307	bilis	-0.11414914
-4.246307	terrenos	-0.11414914
-4.246307	sabana	-0.11414914
-4.246307	aplanando	-0.11414914
-4.246307	rompí	-0.11414914
-4.246307	boca	-0.11414914
-4.246307	caí	-0.11414914
-4.246307	roto	-0.11414914
-4.246307	canastas	-0.11414914
-4.246307	aliento	-0.11414914
-4.246307	chiza	-0.11414914
-4.0751243	ruego	-0.23602466
-4.246307	acompañes	-0.11414914
-4.0751243	pidió	-0.11414914
-4.246307	auxilio	-0.11414914
-4.246307	suplicar	-0.11414914
-4.246307	Clávelo	-0.11414914
-4.246307	Dígalo	-0.11414914
-4.246307	Tóquelo	-0.11414914
-4.246307	esclavo	-0.11414914
-4.0363135	caro	-0.19148985
-4.0363135	colones	-0.24023135
-4.246307	mercadería	-0.11414914
-4.246307	oirá	-0.11414914
-4.246307	voluntad	-0.11414914
-4.246307	tomó	-0.11414914
-4.246307	perderlos	-0.11414914
-4.0751243	bebé	-0.11414914
-4.246307	dele	-0.11414914
-4.246307	huyó	-0.11414914
-3.872411	Buenos	-0.36517006
-4.246307	Aires	-0.11414914
-4.0751243	visita	-0.11414914
-4.246307	Véamoslo	-0.11414914
-4.246307	Juguemos	-0.11414914
-4.246307	quisiera	-0.11414914
-4.246307	fumar	-0.11414914
-4.246307	oy	-0.11414914
-4.246307	considero	-0.11414914
-4.246307	eleva	-0.11414914
-4.246307	súplicas	-0.11414914
-4.246307	convirtió	-0.11414914
-4.246307	rebanando	-0.11414914
-4.246307	rebanada	-0.11414914
-4.246307	encontraban	-0.11414914
-4.0751243	ciertamente	-0.11414914
-4.246307	dormía	-0.11414914
-4.246307	cuarta	-0.11414914
-4.0751243	muerto	-0.23602466
-4.0363135	despertó	-0.15888315
-4.0751243	vendré	-0.11414914
-4.0751243	escapado	-0.11414914
-4.0751243	habría	-0.11414914
-4.246307	habríamos	-0.11414914
-3.872411	venido	-0.11414914
-4.246307	ratos	-0.11414914
-4.246307	funerario	-0.11414914
-4.246307	concavidad	-0.11414914
-4.246307	esperé	-0.11414914
-4.246307	Sibo	-0.11414914
-4.0363135	decidieron	-0.19148985
-4.246307	agarrarlo	-0.11414914
-4.246307	saqué	-0.11414914
-4.246307	salieron	-0.11414914
-4.246307	senté	-0.11414914
-4.246307	aguantó	-0.11414914
-4.246307	flechó	-0.11414914
-4.246307	ta	-0.11414914
-4.0751243	felino	-0.11414914
-4.246307	lomo	-0.11414914
-4.246307	arqueado	-0.11414914
-4.0751243	ternero	-0.11414914
-3.872411	cayó	-0.11414914
-4.0363135	ruido	-0.11414914
-4.0751243	trueno	-0.11414914
-4.246307	saínos	-0.11414914
-4.246307	camote	-0.11414914
-4.246307	cansé	-0.11414914
-4.246307	cansó	-0.11414914
-4.246307	cilíndricos	-0.11414914
-4.0363135	dieron	-0.11414914
-4.246307	cilíndrica	-0.11414914
-4.0751243	viste	-0.11414914
-4.246307	ceñidos	-0.11414914
-4.246307	adolescentes	-0.11414914
-4.0751243	parió	-0.11414914
-4.246307	ternera	-0.11414914
-4.0751243	hijito	-0.11414914
-4.0751243	conversó	-0.11414914
-4.246307	entristecieron	-0.11414914
-4.246307	placenta	-0.11414914
-4.246307	estudian	-0.11414914
-4.246307	olfateando	-0.11414914
-4.246307	acostaron	-0.11414914
-4.246307	playa	-0.11414914
-4.0751243	flor	-0.11414914
-4.0363135	olor	-0.11414914
-4.0751243	robaron	-0.11414914
-4.246307	chascha	-0.11414914
-4.0363135	racimo	-0.24023135
-4.246307	rica	-0.11414914
-4.246307	oyó	-0.11414914
-4.246307	claramente	-0.11414914
-4.246307	eco	-0.11414914
-4.246307	rayo	-0.11414914
-4.246307	tibio	-0.11414914
-4.246307	locos	-0.11414914
-4.246307	ensamble	-0.11414914
-4.246307	ajustado	-0.11414914
-4.246307	supuesto	-0.11414914
-4.246307	discurso	-0.11414914
-4.0751243	finca	-0.11414914
-4.246307	guabas	-0.11414914
-4.0751243	quebró	-0.11414914
-4.246307	coco	-0.11414914
-4.246307	palma	-0.11414914
-4.0751243	real	-0.11414914
-4.0751243	techo	-0.23602466
-4.246307	zopilotes	-0.11414914
-4.246307	alimentan	-0.11414914
-4.246307	podridas	-0.11414914
-4.246307	cele	-0.11414914
-4.0751243	domésticos	-0.23602466
-4.246307	espejo	-0.11414914
-4.246307	quebrado	-0.11414914
-4.246307	criando	-0.11414914
-4.246307	crecer	-0.11414914
-4.0751243	poza	-0.11414914
-4.246307	trajiste	-0.11414914
-4.246307	vena	-0.11414914
-4.0363135	humano	-0.11414914
-4.246307	huesos	-0.11414914
-4.246307	externa	-0.11414914
-4.0363135	burío	-0.17082563
-4.0751243	gusanos	-0.11414914
-4.0751243	fuerza	-0.23602466
-4.246307	sudor	-0.11414914
-4.246307	propensa	-0.11414914
-4.246307	enfermarse	-0.11414914
-3.872411	nueva	-0.18533522
-4.246307	usada	-0.11414914
-4.0751243	cobija	-0.23602466
-4.0751243	llueve	-0.11414914
-4.246307	plástico	-0.11414914
-4.246307	mima	-0.11414914
-4.246307	reconciliaron	-0.11414914
-4.246307	calentó	-0.11414914
-3.872411	calienta	-0.15110011
-4.246307	escarbé	-0.11414914
-4.0363135	alrededor	-0.19148985
-4.246307	sacarlo	-0.11414914
-4.246307	rascándose	-0.11414914
-4.246307	envolví	-0.11414914
-4.246307	ofenda	-0.11414914
-4.0751243	desagradable	-0.23602466
-4.246307	mastica	-0.11414914
-3.872411	tabaco	-0.36517006
-4.246307	limpió	-0.11414914
-4.0363135	caras	-0.19148985
-4.246307	vistió	-0.11414914
-4.246307	temblar	-0.11414914
-4.246307	volcán	-0.11414914
-4.0751243	tembló	-0.11414914
-4.246307	tirita	-0.11414914
-4.0751243	abrazó	-0.23602466
-4.0751243	Francisco	-0.11414914
-4.246307	sosteniendo	-0.11414914
-4.0751243	vellos	-0.11414914
-4.0751243	conversé	-0.23602466
-4.246307	Joaquín	-0.11414914
-4.246307	peludo	-0.11414914
-4.246307	ternerito	-0.11414914
-4.246307	Alberto	-0.11414914
-4.246307	anduvo	-0.11414914
-4.246307	aguardando	-0.11414914
-4.246307	tepeizcuintle	-0.11414914
-4.246307	palmadas	-0.11414914
-4.246307	aporreando	-0.11414914
-4.246307	manteniendo	-0.11414914
-4.246307	secando	-0.11414914
-4.246307	lavando	-0.11414914
-4.246307	batea	-0.11414914
-4.246307	impureza	-0.11414914
-4.246307	probé	-0.11414914
-4.0363135	Rosa	-0.17082563
-4.246307	tantea	-0.11414914
-4.0363135	paquete	-0.18533522
-4.246307	pagué	-0.11414914
-4.246307	frotó	-0.11414914
-4.246307	pomada	-0.11414914
-4.246307	cementerio	-0.11414914
-4.246307	suavicé	-0.11414914
-4.246307	aprietes	-0.11414914
-4.246307	mandé	-0.11414914
-4.246307	empujé	-0.11414914
-4.246307	aconsejaron	-0.11414914
-4.246307	consejero	-0.11414914
-4.246307	guareciendo	-0.11414914
-4.246307	amarrando	-0.11414914
-4.246307	cuidadosamente	-0.11414914
-4.246307	presté	-0.11414914
-4.246307	acarició	-0.11414914
-4.246307	circula	-0.11414914
-4.0363135	época	-0.11414914
-4.246307	muertos	-0.11414914
-4.246307	enterrados	-0.11414914
-4.246307	cementerios	-0.11414914
-4.0363135	dejaba	-0.11414914
-4.246307	posición	-0.11414914
-4.246307	inclinada	-0.11414914
-4.0363135	guabo	-0.19148985
-4.0751243	cara	-0.11414914
-4.0751243	abultada	-0.11414914
-4.246307	mujarras	-0.11414914
-4.246307	noches	-0.11414914
-4.0751243	suelto	-0.11414914
-4.246307	cuide	-0.11414914
-4.246307	barranco	-0.11414914
-4.246307	derrumbe	-0.11414914
-4.0751243	cítricos	-0.11414914
-4.246307	determinada	-0.11414914
-4.246307	ácido	-0.11414914
-4.246307	casera	-0.11414914
-4.246307	cultivo	-0.11414914
-4.246307	tipos	-0.11414914
-4.246307	cazar	-0.11414914
-4.246307	nutria	-0.11414914
-4.246307	alimenta	-0.11414914
-4.0751243	Cecilia	-0.11414914
-4.246307	Abel	-0.11414914
-4.0751243	recién	-0.11414914
-4.246307	nacidos	-0.11414914
-4.246307	fiebre	-0.11414914
-4.246307	aftosa	-0.11414914
-4.246307	trabajadores	-0.11414914
-4.246307	sillas	-0.11414914
-4.0363135	mejillas	-0.11414914
-4.246307	sonrojaron	-0.11414914
-4.246307	taltuza	-0.11414914
-4.246307	limoneros	-0.11414914
-4.0363135	débil	-0.20511705
-4.246307	quitar	-0.11414914
-4.246307	locura	-0.11414914
-4.246307	ridículo	-0.11414914
-4.246307	perdieran	-0.11414914
-4.246307	fiestas	-0.11414914
-4.246307	bebía	-0.11414914
-4.246307	desparramó	-0.11414914
-4.246307	cañajira	-0.11414914
-4.0751243	cerros	-0.11414914
-4.0363135	flores	-0.17082563
-4.246307	cariñosa	-0.11414914
-4.246307	mamita	-0.11414914
-4.246307	zapayol	-0.11414914
-4.0751243	imita	-0.11414914
-4.246307	coloradilla	-0.11414914
-4.246307	sabrosos	-0.11414914
-4.0751243	redes	-0.11414914
-4.246307	pita	-0.11414914
-4.0363135	lápiz	-0.19148985
-4.246307	fibras	-0.11414914
-4.246307	piñas	-0.11414914
-4.246307	débiles	-0.11414914
-4.246307	causó	-0.11414914
-4.246307	risa	-0.11414914
-4.246307	reímos	-0.11414914
-4.246307	pesamos	-0.11414914
-4.246307	pelea	-0.11414914
-4.246307	tenido	-0.11414914
-4.246307	sexo	-0.11414914
-4.246307	juntaron	-0.11414914
-4.246307	besando	-0.11414914
-4.0751243	chiste	-0.11414914
-4.246307	rió	-0.11414914
-4.246307	odiaba	-0.11414914
-4.246307	mencionó	-0.11414914
-4.246307	cure	-0.11414914
