\data\
ngram 1=7639
ngram 2=36138
ngram 3=59714

\1-grams:
-4.587006	<unk>	0
0	<s>	-1.0127696
-1.660668	</s>	0
-2.7293165	ella	-0.30827934
-3.751914	echó	-0.16790287
-1.9468805	la	-0.37129214
-3.5410106	pequeña	-0.13280404
-4.0267296	rueda	-0.23710841
-1.5625931	de	-0.47344244
-3.5410106	hilar	-0.21612445
-3.2931914	oro	-0.30211785
-1.9598325	el	-0.41824442
-3.5011322	esposo	-0.26365727
-4.178099	liebre	-0.11540137
-1.2039714	,	-0.8660902
-2.8386486	sin	-0.21426772
-4.4477773	embargo	-0.10362151
-3.089645	pensó	-0.44644967
-2.386536	:	-1.4382577
-4.27479	cuyo	-0.10362155
-4.0267296	dueño	-0.1450492
-1.6355511	y	-0.31524327
-3.4646094	señor	-0.23972835
-2.658154	era	-0.3324452
-2.1243572	un	-0.29649186
-4.178099	ogro	-0.132804
-4.4477773	ví	-0.10362151
-2.1788435	una	-0.28284076
-3.2931914	casa	-0.35186538
-2.0716782	se	-0.32059073
-4.4477773	posaron	-0.10362151
-1.7348826	en	-0.6512691
-2.386536	los	-0.27709523
-4.0267296	hombros	-0.10362151
-3.4646094	Cenicienta	-0.12966609
-2.7841916	cuando	-0.24331684
-3.3996594	oyó	-0.24847491
-3.5011322	aquello	-0.40542713
-2.4737523	tan	-0.22975068
-4.0267296	enfermo	-0.10362151
-1.7631987	que	-0.43194854
-3.153163	pronto	-0.19346932
-3.9147003	moriría	-0.2069268
-3.6337838	pero	-0.15375897
-2.2411594	su	-0.26782507
-3.4309213	corazón	-0.21818553
-4.27479	orgulloso	-0.10362151
-2.2760265	no	-0.33592173
-2.6316316	estaba	-0.25500512
-4.27479	saciado	-0.10362151
-2.9009266	aún	-0.25905833
-2.7166166	dijo	-0.51276433
-3.5849247	-	-0.21697208
-2.1663268	&quot;	-0.30824125
-3.751914	¡	-0.14200255
-4.178099	No	-0.12722415
-3.6337838	quiero	-0.18791145
-2.3554811	más	-0.31149733
-4.0267296	hierba	-0.1450492
-2.2626212	!	-0.9544638
-2.0577302	al	-0.35772416
-3.9147003	fin	-0.15755214
-4.0267296	llenó	-0.15605444
-1.9754484	con	-0.5251632
-4.27479	cuanta	-0.10362151
-3.6337838	piedra	-0.20125866
-3.9147003	preciosa	-0.10362155
-3.343171	pudo	-0.12384153
-3.6337838	cargar	-0.1450492
-1.3717431	.	-2.4199338
-4.4477773	Pronto	-0.10362155
-4.27479	encontraremos	-0.21569817
-3.5011322	camino	-0.22021942
-4.0267296	Pero	-0.15111697
-2.2828877	lo	-0.261607
-3.4646094	encontraron	-0.15391429
-3.5011322	vieron	-0.1748869
-3.6888447	apuesto	-0.18357839
-3.2483747	hombre	-0.18381386
-3.0474448	tomó	-0.34248143
-3.751914	pájaro	-0.11796775
-3.8257241	lanzó	-0.16734584
-4.178099	aire	-0.14990598
-4.27479	observando	-0.10362155
-4.0267296	salida	-0.16408966
-2.1843202	del	-0.32081845
-3.751914	sol	-0.14372474
-4.27479	kilómetros	-0.10362151
-3.0342424	bajo	-0.45157853
-3.8257241	tierra	-0.18142797
-3.0474448	ese	-0.15263234
-3.6888447	momento	-0.1782948
-3.5410106	supo	-0.24045353
-4.4477773	resolución	-0.10362151
-3.2931914	padre	-0.23840599
-4.178099	enanos	-0.11614831
-3.3174627	dijeron	-0.41798228
-4.27479	Sí	-0.19084942
-3.2077532	mujer	-0.20549245
-2.9009266	ahora	-0.283788
-3.5410106	soy	-0.15457168
-3.2483747	reina	-0.24766439
-3.6337838	éste	-0.13431591
-3.2077532	hizo	-0.1807279
-4.4477773	desempacar	-0.10362151
-3.089645	todas	-0.3657794
-2.5392716	sus	-0.25564075
-4.27479	jarras	-0.10362151
-3.3174627	agua	-0.28264952
-4.4477773	pura	-0.10362151
-2.2560706	como	-0.39485756
-4.178099	cristal	-0.10362151
-3.9147003	mesa	-0.1404167
-3.9147003	puesta	-0.10362151
-4.27479	cuidó	-0.10362151
-4.178099	acarició	-0.10362155
-3.2931914	mañana	-0.19497836
-3.751914	temprano	-0.17503992
-4.178099	amanecer	-0.16525638
-3.0342424	todos	-0.36114272
-4.0267296	bajaron	-0.10362151
-2.9306178	allí	-0.3668118
-3.6888447	reino	-0.15430261
-3.8257241	caerá	-0.13786426
-4.4477773	ruina	-0.10362151
-3.1706083	cada	-0.28522137
-4.4477773	especie	-0.10362151
-3.8257241	animal	-0.10362151
-3.1706083	debe	-0.21318135
-3.1202438	entonces	-0.16949031
-3.9147003	cazador	-0.15636407
-3.5410106	siguió	-0.14078464
-2.6368082	hasta	-0.4342038
-3.4309213	llegar	-0.29551902
-3.8257241	refugio	-0.2094149
-2.891464	dos	-0.17789483
-4.4477773	rápidos	-0.10362151
-4.27479	saltos	-0.10362151
-3.153163	salió	-0.203854
-3.9147003	establo	-0.26740685
-3.3174627	Blanca-Nieves	-0.21781921
-4.178099	vive	-0.10362151
-2.5605862	muy	-0.22017696
-3.1887836	buena	-0.20105354
-4.0267296	salud	-0.19084942
-4.4477773	éstos	-0.10362155
-3.2931914	son	-0.14984585
-2.9106	tres	-0.23473094
-3.8257241	pájaros	-0.18215479
-3.1706083	así	-0.22529641
-3.4646094	pasó	-0.18695997
-2.5605862	todo	-0.3852089
-3.104675	día	-0.30176193
-4.4477773	Mañana	-0.10362151
-3.2483747	solamente	-0.1346373
-4.0267296	deberás	-0.10362151
-3.9147003	hacerme	-0.16408966
-4.4477773	trabajito	-0.10362151
-4.0267296	pequeñito	-0.15605444
-4.27479	interno	-0.10362151
-4.178099	foresta	-0.12614746
-4.4477773	perritos	-0.10362151
-4.4477773	meneando	-0.10362151
-4.4477773	cabecitas	-0.10362151
-3.8257241	nuevo	-0.11148358
-3.8257241	todavía	-0.132804
-3.6337838	hicieron	-0.11909113
-3.6888447	menos	-0.1405049
-4.4477773	ofender	-0.10362151
-1.6985867	a	-0.55347764
-4.27479	pretendientes	-0.10362151
-3.0751178	habían	-0.16647302
-4.4477773	reunido	-0.10362151
-4.4477773	desvaneció	-0.10362155
-3.5849247	vista	-0.230878
-3.5011322	¿	-0.20371214
-3.3704975	Elsie	-0.2370834
-2.0298214	por	-0.52210134
-3.1363916	qué	-0.15838857
-4.4477773	lloras	-0.10362151
-2.269272	?	-1.1827378
-4.178099	según	-0.10362155
-4.27479	acordado	-0.10362155
-2.7104032	él	-0.29631633
-4.178099	recogió	-0.15605444
-3.4646094	abrió	-0.24752101
-3.5011322	dejó	-0.19824351
-3.751914	mantel	-0.22741432
-3.8257241	carbonero	-0.19360246
-2.3954055	le	-0.2826781
-3.9147003	abrieron	-0.26018724
-2.4137073	las	-0.2577204
-3.751914	puertas	-0.121963985
-3.751914	amo	-0.14756104
-4.4477773	luna	-0.103621475
-3.0751178	ellos	-0.25773412
-3.6337838	pusieron	-0.14234087
-3.343171	están	-0.17169093
-3.6888447	durmiendo	-0.16525638
-4.27479	realidad	-0.132804
-4.27479	astuto	-0.10362155
-3.5849247	gato	-0.18809548
-2.597027	había	-0.24264994
-3.9147003	escondido	-0.10362151
-4.27479	Si	-0.111001104
-4.4477773	sigues	-0.10362151
-2.7769408	mi	-0.19552384
-4.178099	consejo	-0.10362155
-4.4477773	Significa	-0.10362151
-3.5011322	doce	-0.132804
-4.27479	asesinos	-0.21569817
-3.751914	Preciosa	-0.66057575
-4.4477773	Rosa	-0.10362151
-3.751914	esplendor	-0.31855935
-3.1887836	este	-0.12780203
-4.27479	Hermana	-0.10362155
-3.343171	tengo	-0.17732796
-3.8257241	sed	-0.13786426
-3.2702053	quien	-0.17960496
-4.0267296	quiera	-0.21569817
-4.4477773	nazca	-0.10362151
-2.9204936	eso	-0.29672384
-4.0267296	tendrá	-0.15605444
-3.5849247	suerte	-0.2971681
-4.178099	Oh	-0.1573727
-3.2931914	contestó	-0.33803
-3.5410106	rana	-0.17309104
-4.0267296	La	-0.12614746
-3.751914	bella	-0.20419843
-3.5011322	tocó	-0.30260143
-3.6888447	puerta	-0.13674355
-3.1202438	gritó	-0.36079776
-2.8822033	otra	-0.2554183
-3.4646094	voz	-0.18720803
-2.755888	ya	-0.28243312
-4.4477773	oscurecido	-0.10362151
-3.5011322	sucedió	-0.21129669
-2.6806037	fue	-0.2773069
-3.751914	niña	-0.1704084
-3.751914	zapatero	-0.13610436
-3.6888447	parte	-0.25754106
-4.4477773	rendía	-0.10362151
-3.0474448	vio	-0.384833
-4.27479	respecto	-0.10362151
-4.4477773	fallecida	-0.10362151
-3.3174627	esposa	-0.24222927
-4.178099	burro	-0.16790287
-4.4477773	pararía	-0.10362151
-4.0267296	ventana	-0.15178858
-4.4477773	apoyarse	-0.10362151
-4.27479	parecerse	-0.10362151
-3.1202438	uno	-0.32325968
-3.2077532	otro	-0.22798125
-3.1887836	les	-0.15327026
-3.751914	mandó	-0.48014647
-4.27479	matar	-0.10362151
-4.27479	sentó	-0.11614831
-4.27479	suelo	-0.15278853
-2.962489	junto	-0.98180914
-4.27479	fogón	-0.15605444
-2.962489	yo	-0.210496
-4.178099	creo	-0.10362155
-2.7769408	también	-0.22871825
-2.847017	te	-0.17222819
-3.3174627	has	-0.13280404
-3.6888447	dado	-0.14756104
-3.751914	cuenta	-0.2164089
-3.751914	dulce	-0.10362151
-4.27479	cantan	-0.17503992
-4.27479	pajaritos	-0.10362155
-3.343171	pasar	-0.30416363
-3.6888447	volando	-0.15605444
-4.4477773	exploró	-0.10362151
-4.178099	bolsillo	-0.17503992
-3.2702053	encontró	-0.2480744
-4.178099	pipa	-0.10362151
-4.4477773	tabaco	-0.10362151
-3.0751178	estaban	-0.14661148
-4.0267296	perfectamente	-0.1450492
-4.4477773	confeccionados	-0.10362151
-4.178099	estén	-0.10362155
-4.0267296	cansados	-0.10362151
-3.751914	pueden	-0.10362151
-3.3996594	dormir	-0.23940496
-4.4477773	ratito	-0.10362151
-4.4477773	vendremos	-0.10362151
-3.4309213	ustedes	-0.1712146
-4.27479	descubrió	-0.10362151
-4.4477773	nivel	-0.10362151
-4.4477773	social	-0.10362151
-4.27479	provenía	-0.10362151
-3.2702053	joven	-0.231673
-4.4477773	monarca	-0.10362151
-4.4477773	escuchado	-0.10362151
-3.9147003	sendero	-0.1290472
-4.0267296	dorado	-0.15605444
-4.27479	Ahora	-0.10362151
-4.178099	dame	-0.17503992
-4.178099	prometido	-0.23710841
-3.9147003	búho	-0.1290472
-3.9147003	notó	-0.28610808
-4.27479	venían	-0.10362151
-3.104675	contra	-0.39240313
-2.7990668	bien	-0.2196293
-3.4646094	dormido	-0.28953442
-4.0267296	árboles	-0.15330476
-4.4477773	doblaban	-0.10362151
-4.27479	pegaban	-0.10362151
-4.0267296	casas	-0.1450492
-4.27479	pompa	-0.10362151
-4.27479	Caray	-0.15605444
-3.5011322	noche	-0.22367558
-4.4477773	estudiaba	-0.10362151
-3.1706083	cómo	-0.13556631
-3.0474448	podría	-0.17494847
-4.27479	realizarlo	-0.10362151
-4.0267296	tragó	-0.19084942
-3.4646094	lobo	-0.21144587
-2.1645677	para	-0.3343328
-3.8257241	cena	-0.3072328
-4.0267296	estuvieran	-0.1450492
-3.5011322	vida	-0.24055062
-3.8257241	puente	-0.13786426
-3.0342424	ni	-0.1873391
-4.178099	tablón	-0.10362155
-4.4477773	acompañara	-0.10362151
-3.9147003	recorrido	-0.1290472
-4.27479	Eso	-0.15605444
-2.583001	es	-0.32295385
-3.6888447	cierto	-0.11909113
-3.751914	pues	-0.1082405
-3.6888447	muchísimo	-0.15795994
-3.1363916	mejor	-0.24526764
-4.178099	usual	-0.17503992
-4.4477773	séptimo	-0.10362151
-4.4477773	pensaré	-0.10362151
-2.847017	algo	-0.3062511
-3.153163	será	-0.18434295
-2.85555	tu	-0.14026828
-3.6888447	final	-0.18212686
-4.178099	Y	-0.11361385
-3.5011322	castillo	-0.2528814
-4.27479	pertenece	-0.10362151
-2.847017	llegó	-0.47124404
-4.178099	choza	-0.15605444
-2.7166166	donde	-0.33386528
-3.6337838	vivía	-0.1892444
-3.8257241	bruja	-0.16063103
-3.2483747	sólo	-0.109839745
-3.4309213	hacía	-0.14677449
-3.751914	necesidad	-0.19469324
-4.4477773	latía	-0.10362151
-4.27479	deleite	-0.21569817
-3.9147003	gritaban	-0.1450492
-3.2275891	sí	-0.24366824
-4.4477773	demostraba	-0.10362151
-4.4477773	bravura	-0.10362151
-4.27479	escrito	-0.17503992
-3.9147003	ninguno	-0.132804
-3.3996594	sería	-0.14789928
-4.27479	útil	-0.10362155
-4.27479	valioso	-0.10362151
-4.178099	lindos	-0.10362151
-3.5849247	pequeños	-0.11909113
-4.4477773	hombrecillos	-0.10362151
-4.4477773	desnudos	-0.10362151
-3.089645	llegaron	-0.41782606
-3.751914	ojo	-0.16216737
-4.178099	derecho	-0.1450492
-4.27479	angustia	-0.15605444
-3.6888447	quienes	-0.10362151
-4.27479	traían	-0.10362151
-3.4309213	niño	-0.20899136
-3.9147003	correcto	-0.15605444
-3.153163	nos	-0.12285702
-4.4477773	pasará	-0.10362151
-3.2931914	después	-0.34095109
-3.5410106	soldado	-0.22965656
-4.0267296	consintió	-0.15605444
-3.6888447	siguiente	-0.14593878
-4.4477773	trabajó	-0.10362151
-3.9147003	fuerzas	-0.14990598
-3.343171	vez	-0.20567796
-4.4477773	recibida	-0.10362151
-4.178099	promesa	-0.1450492
-4.4477773	008-La	-0.10362151
-4.4477773	Luz	-0.10362151
-4.27479	Azul	-0.12040548
-2.9106	ser	-0.2250887
-4.27479	cumplida	-0.10362151
-4.0267296	metió	-0.1748869
-3.751914	hueco	-0.18357839
-3.2275891	gran	-0.12736297
-3.5849247	árbol	-0.22316462
-4.27479	durmió	-0.10362151
-3.751914	daba	-0.10362151
-3.9147003	manzanas	-0.2069268
-3.6337838	da	-0.10362151
-3.5849247	hojas	-0.14111541
-4.0267296	limpiar	-0.19084942
-4.178099	botas	-0.10362151
-2.9306178	hacer	-0.27032113
-4.0267296	trabajos	-0.132804
-4.4477773	misceláneos	-0.10362151
-3.343171	rey	-0.19644792
-2.9306178	tenía	-0.26664189
-3.5011322	hijas	-0.18751998
-3.6337838	nuestra	-0.15967542
-3.5410106	madre	-0.20554796
-3.5410106	tiene	-0.15687002
-3.8257241	patas	-0.1450492
-4.27479	negras	-0.10362151
-4.4477773	tuyas	-0.10362151
-3.2702053	mismo	-0.18595636
-3.8257241	pastor	-0.12614746
-4.4477773	alarmó	-0.10362155
-3.6888447	cosa	-0.17492221
-2.9009266	me	-0.15190457
-4.178099	prohibido	-0.10362155
-3.5849247	porque	-0.13414606
-4.27479	pensaban	-0.10362151
-4.4477773	hablaron	-0.10362151
-4.178099	acerca	-0.26018724
-4.178099	Doctor	-0.29259893
-4.4477773	Sábelotodo	-0.10362151
-4.27479	Quien	-0.10362151
-4.27479	beba	-0.21569817
-3.751914	mí	-0.21397837
-4.27479	volverá	-0.10362151
-2.9106	si	-0.27326024
-3.5849247	alguien	-0.16128877
-3.5849247	viene	-0.23511781
-4.178099	mercado	-0.1450492
-3.5410106	ve	-0.16287455
-3.4646094	sentada	-0.24089785
-4.178099	cielos	-0.17503992
-4.178099	Cómo	-0.11313276
-4.4477773	llegué	-0.10362151
-3.751914	molino	-0.20569144
-4.178099	Por	-0.10362151
-3.3996594	preguntó	-0.29807705
-3.6337838	muchacho	-0.11540137
-4.178099	buhardilla	-0.15605444
-3.9147003	quitó	-0.14990598
-4.178099	sucio	-0.15605444
-3.4646094	vestido	-0.29463258
-3.3174627	empezó	-0.6885138
-3.5011322	correr	-0.132804
-3.8257241	ven	-0.15330476
-3.9147003	perro	-0.1705803
-3.5011322	blanco	-0.17503992
-4.27479	abeja	-0.10362151
-4.4477773	torcedura	-0.10362151
-4.27479	tuvieron	-0.21569817
-3.9147003	irse	-0.13786426
-4.27479	sufriendo	-0.10362151
-4.4477773	múltiples	-0.10362151
-4.0267296	heridas	-0.10362151
-3.5011322	llamó	-0.33269566
-3.8257241	pequeñas	-0.10362151
-4.27479	acercaba	-0.15605444
-3.6888447	cien	-0.24584575
-4.0267296	pasos	-0.10362151
-3.751914	desea	-0.17482138
-4.27479	madrastra	-0.13786426
-4.4477773	Me	-0.10362155
-3.3996594	he	-0.1424749
-3.8257241	herido	-0.13786426
-3.8257241	pies	-0.16790287
-4.178099	ponme	-0.17503992
-3.5849247	poco	-0.16363141
-4.178099	masa	-0.10362155
-2.5150025	sobre	-0.54921955
-4.0267296	peor	-0.1450492
-4.4477773	canciones	-0.10362151
-4.4477773	habitualmente	-0.10362151
-4.27479	turno	-0.10362155
-3.6888447	Simpletón	-0.15220976
-3.9147003	orilla	-0.19360246
-4.4477773	contraria	-0.10362151
-4.27479	acompañó	-0.10362151
-3.3996594	Caperucita	-0.15910016
-3.3704975	pequeño	-0.11940007
-4.4477773	tramo	-0.10362151
-3.5849247	luego	-0.11850826
-4.4477773	Verdecita	-0.10362151
-4.4477773	doncellita	-0.10362151
-4.178099	noticias	-0.10362155
-3.9147003	asunto	-0.17503992
-4.178099	medianoche	-0.1450492
-3.3996594	primero	-0.17360382
-4.27479	potro	-0.10362155
-4.4477773	café	-0.10362151
-4.4477773	persiguieron	-0.10362151
-3.8257241	secreto	-0.28610808
-2.9204936	o	-0.15383652
-4.4477773	trasladaran	-0.10362151
-3.751914	sitio	-0.132804
-4.27479	sigilosamente	-0.10362151
-4.4477773	hacen	-0.10362151
-4.4477773	hechiceras	-0.10362151
-4.178099	molesto	-0.10362155
-3.343171	subió	-0.21835113
-3.343171	rápidamente	-0.25788835
-3.8257241	aquél	-0.25485826
-3.8257241	recién	-0.10362155
-4.178099	construido	-0.10362151
-3.2931914	tuvo	-0.32611656
-3.3996594	volvió	-0.42700478
-3.153163	tener	-0.24923585
-3.9147003	descanso	-0.17503992
-4.0267296	querían	-0.10362151
-3.4646094	comer	-0.20255165
-3.9147003	beber	-0.26740685
-4.4477773	atrasado	-0.10362151
-3.6337838	llevaba	-0.18791145
-3.8257241	media	-0.1290472
-3.6337838	hora	-0.14176247
-4.178099	vayan	-0.10362155
-3.5849247	algunas	-0.12040548
-3.6888447	piedras	-0.14111541
-3.4309213	grandes	-0.11229744
-3.1363916	esta	-0.2005174
-3.751914	flor	-0.121963985
-3.3704975	pobre	-0.14348926
-4.4477773	Korbes	-0.10362151
-3.4646094	dio	-0.2221716
-3.6337838	forma	-0.1705803
-3.8257241	apariencia	-0.17482138
-3.2702053	hija	-0.2695868
-4.0267296	molinero	-0.123841554
-4.4477773	Serías	-0.10362151
-3.9147003	amable	-0.1450492
-4.178099	traerme	-0.17503992
-4.4477773	envoltorio	-0.10362151
-4.0267296	habla	-0.10362151
-4.4477773	bajito	-0.10362151
-4.27479	vayas	-0.21569817
-4.27479	despertar	-0.10362151
-4.0267296	nido	-0.10362151
-4.27479	salvó	-0.10362151
-3.3996594	vino	-0.24835047
-3.9147003	cinco	-0.10362151
-3.4646094	mil	-0.14504915
-4.0267296	hormigas	-0.1450492
-4.0267296	cervatillo	-0.10362151
-2.9409838	ir	-0.3867214
-3.2483747	conmigo	-0.3904751
-3.5849247	puedo	-0.11229744
-4.4477773	abandonarlo	-0.10362151
-4.27479	salté	-0.10362151
-3.3996594	encima	-0.35964411
-4.4477773	Pues	-0.10362151
-3.5849247	emperadora	-0.33917916
-4.27479	El	-0.10362151
-4.27479	premio	-0.10362151
-3.9147003	verdad	-0.1450492
-3.3704975	grande	-0.282559
-3.5011322	sastre	-0.20261002
-4.178099	rama	-0.11909113
-4.0267296	creció	-0.19084942
-4.178099	llegando	-0.29259893
-4.4477773	frondoso	-0.10362151
-3.6888447	princesa	-0.19637859
-4.27479	Mi	-0.10362155
-3.6888447	nombre	-0.16471148
-4.0267296	realizar	-0.10362151
-4.27479	limpieza	-0.21569817
-4.178099	jóvenes	-0.10362151
-3.2702053	eran	-0.16070478
-4.4477773	atrapados	-0.10362151
-4.178099	ayudó	-0.17503992
-3.5011322	llevar	-0.15330476
-4.4477773	digna	-0.10362151
-3.343171	hijo	-0.26024023
-3.4646094	quería	-0.13431591
-4.27479	subir	-0.15605444
-4.4477773	resplandecía	-0.10362151
-4.4477773	carbunclos	-0.10362151
-3.5410106	debes	-0.21178356
-3.1706083	antes	-0.3950369
-4.4477773	hazaña	-0.10362151
-4.4477773	heroica	-0.10362151
-4.178099	pasaban	-0.15605444
-4.27479	cerezas	-0.10362151
-3.6337838	hermana	-0.14963737
-3.9147003	rica	-0.1450492
-3.5410106	lado	-0.230468
-3.3704975	unos	-0.11414621
-4.27479	avellanos	-0.10362151
-4.178099	Mira	-0.1450492
-4.27479	cortaré	-0.21569817
-4.0267296	manzana	-0.13786426
-4.0267296	piezas	-0.19084942
-3.6888447	siguieron	-0.1290472
-3.9147003	comiendo	-0.10362155
-4.27479	preocupación	-0.10362151
-4.0267296	empezar	-0.10362151
-4.4477773	enciende	-0.10362151
-3.751914	fuego	-0.17494425
-4.178099	pon	-0.15605444
-4.27479	hervir	-0.10362155
-4.0267296	enojo	-0.13786426
-4.4477773	zapateó	-0.10362151
-3.6888447	duro	-0.15605444
-4.4477773	morirían	-0.10362151
-3.6337838	hambre	-0.24544102
-4.27479	debilidad	-0.21569817
-4.4477773	horrorizó	-0.10362155
-3.0089843	tanto	-0.32226238
-3.2275891	cayó	-0.28706256
-3.5410106	cama	-0.22945532
-3.6888447	recibió	-0.123841554
-4.178099	carta	-0.15605444
-4.178099	leyó	-0.17503992
-4.178099	sonaban	-0.10362155
-4.27479	reloj	-0.10362155
-3.8257241	cuarto	-0.1712146
-3.6337838	sé	-0.17482138
-2.7490911	nada	-0.42345804
-3.6888447	anillo	-0.21217342
-4.0267296	gallo	-0.1290472
-3.3174627	sentado	-0.2328133
-4.4477773	portón	-0.10362151
-4.178099	diré	-0.10362155
-3.5849247	podrás	-0.10362151
-3.8257241	obtener	-0.13786426
-4.0267296	cantó	-0.10362151
-4.178099	delante	-0.17503992
-4.0267296	recompensa	-0.19084942
-4.178099	Ay	-0.17482138
-3.6888447	señora	-0.1726896
-3.3704975	entrar	-0.35551
-4.178099	desconocidas	-0.10362155
-3.9147003	mujeres	-0.10362151
-3.8257241	segundo	-0.12614746
-3.5011322	sirviente	-0.18906295
-3.5849247	deseaba	-0.10362151
-3.5410106	hubo	-0.13996515
-3.6337838	viejo	-0.14176247
-4.178099	vistieron	-0.29259893
-4.178099	rapidez	-0.10362155
-4.4477773	Las	-0.10362151
-4.0267296	bestias	-0.19084942
-4.178099	salvajes	-0.1450492
-4.4477773	devorarán	-0.10362151
-4.4477773	perversa	-0.10362151
-3.6337838	habitación	-0.17497034
-3.9147003	habría	-0.10362151
-3.6337838	sido	-0.10964997
-4.27479	derrotado	-0.10362151
-3.2931914	hubiera	-0.1421095
-3.8257241	tenido	-0.12614746
-3.6888447	sombrero	-0.22173706
-4.4477773	cerraban	-0.10362151
-4.178099	montañas	-0.132804
-4.4477773	exquisita	-0.10362151
-3.5410106	comida	-0.23762561
-3.5011322	aquel	-0.10362151
-4.0267296	pedacito	-0.28610808
-4.27479	serpiente	-0.10362151
-3.3996594	llevó	-0.21303374
-3.1706083	afuera	-0.2775882
-3.153163	fueron	-0.20895074
-4.4477773	exhorcitadas	-0.10362151
-4.4477773	eliminarles	-0.10362151
-4.4477773	brujerías	-0.10362151
-4.178099	gradas	-0.13786426
-4.0267296	sostuvo	-0.10362151
-3.9147003	regreso	-0.14411391
-3.2077532	tú	-0.20466053
-4.178099	hazle	-0.17503992
-4.4477773	par	-0.10362151
-4.4477773	zapatitos	-0.10362151
-4.4477773	encontrarán	-0.10362151
-3.9147003	caminar	-0.14111541
-3.5410106	largo	-0.19469324
-4.27479	trecho	-0.17503992
-4.178099	ciudad	-0.15605444
-4.27479	honesta	-0.10362151
-4.27479	envolvió	-0.10362155
-4.178099	corona	-0.15220976
-4.27479	cerrando	-0.10362151
-3.089645	ha	-0.1928442
-4.4477773	reparo	-0.10362151
-4.4477773	engordar	-0.10362151
-3.8257241	momentos	-0.18791145
-4.27479	subía	-0.10362151
-3.9147003	nadando	-0.10362151
-4.27479	trayendo	-0.10362151
-3.9147003	boca	-0.15795994
-3.9147003	bola	-0.19469324
-3.4646094	debería	-0.15111697
-4.4477773	medirse	-0.10362151
-4.178099	zapatilla	-0.12614746
-4.4477773	Debiste	-0.10362151
-3.5849247	haber	-0.16185078
-4.4477773	cauteloso	-0.10362151
-4.27479	mantener	-0.17503992
-3.3996594	ojos	-0.22828114
-4.178099	abiertos	-0.17503992
-4.4477773	prudente	-0.10362151
-4.4477773	observar	-0.10362151
-2.85555	está	-0.17294961
-3.2077532	alrededor	-0.37397468
-3.751914	golpe	-0.16216737
-4.27479	termina	-0.10362151
-3.3174627	siete	-0.20756748
-4.27479	pesadas	-0.10362151
-4.27479	soportó	-0.21569817
-4.178099	esfuerzo	-0.10362151
-3.4309213	muerto	-0.38446772
-3.751914	duende	-0.18458965
-3.5849247	palacio	-0.28715304
-3.9147003	colocó	-0.16471148
-4.178099	tronco	-0.10362155
-4.4477773	defendido	-0.10362151
-4.27479	quemado	-0.10362151
-4.4477773	Estoy	-0.10362151
-4.0267296	cansada	-0.33401844
-3.3174627	ninguna	-0.18176743
-4.4477773	desprecio	-0.10362151
-3.6888447	doncella	-0.13786426
-3.5410106	trajo	-0.11796775
-3.5849247	Sencillón	-0.18326797
-3.2931914	Grethel	-0.18365005
-4.4477773	compartió	-0.10362151
-3.4309213	pan	-0.22122581
-3.3174627	Hansel	-0.25907737
-4.27479	tocas	-0.10362151
-3.6888447	gente	-0.14842576
-4.4477773	destruyes	-0.10362151
-4.0267296	panal	-0.19084942
-3.9147003	llevada	-0.1290472
-4.4477773	través	-0.10362151
-4.178099	filas	-0.17503992
-4.178099	sintiendo	-0.15605444
-4.4477773	últimos	-0.10362151
-3.2077532	días	-0.27401647
-3.2077532	hay	-0.26534495
-3.751914	sangre	-0.12040548
-4.0267296	zapato	-0.13786426
-3.061061	quedó	-0.14828348
-4.4477773	encantada	-0.10362151
-3.1202438	ver	-0.2563698
-4.27479	juguete	-0.10362155
-4.27479	duros	-0.10362151
-3.1706083	desde	-0.3210149
-4.178099	presencia	-0.10362151
-3.5011322	ningún	-0.11614831
-3.6888447	tesoro	-0.123841554
-3.4646094	puede	-0.20371743
-4.4477773	sustituir	-0.10362151
-4.27479	ama	-0.10362151
-3.5011322	profundamente	-0.23634474
-3.6888447	cerró	-0.1892444
-3.3704975	detrás	-0.7384057
-4.27479	furiosa	-0.10362151
-3.751914	bestia	-0.1450492
-3.751914	somos	-0.132804
-3.9147003	muchachos	-0.10362151
-3.3996594	regresó	-0.33186555
-3.3174627	inmediatamente	-0.19027038
-3.3704975	corriendo	-0.15687002
-4.178099	vuelves	-0.10362155
-4.27479	molestar	-0.10362155
-4.4477773	jalaré	-0.10362151
-4.27479	orejas	-0.10362155
-4.178099	Que	-0.10362151
-4.178099	encantadora	-0.10362151
-3.6888447	muchacha	-0.16168073
-3.2275891	ellas	-0.22010621
-4.4477773	pruebas	-0.10362151
-4.4477773	contundentes	-0.10362151
-4.27479	daban	-0.10362155
-3.5011322	trabajo	-0.23200414
-4.4477773	voluntariamente	-0.10362151
-4.4477773	cerraremos	-0.10362151
-3.6888447	modo	-0.13786426
-3.6337838	pueda	-0.11909113
-4.4477773	ingresar	-0.10362151
-4.4477773	.-	-0.10362151
-3.5011322	dar	-0.11909113
-4.4477773	capacidad	-0.10362151
-4.27479	malvado	-0.10362155
-4.27479	cuarta	-0.10362151
-3.9147003	decirle	-0.10362151
-4.0267296	hechicera	-0.11614831
-4.178099	propiedades	-0.10362155
-4.4477773	extrañas	-0.10362151
-4.4477773	apuntó	-0.10362151
-2.62146	hacia	-0.57828057
-4.0267296	oso	-0.1450492
-4.4477773	disparándole	-0.10362151
-4.4477773	hocico	-0.10362151
-4.4477773	Pásame	-0.10362151
-4.4477773	carnes	-0.10362151
-4.4477773	asadas	-0.10362151
-4.4477773	cocidas	-0.10362151
-4.178099	aparecieron	-0.10362155
-3.089645	toda	-0.4063374
-3.6888447	haya	-0.10362151
-4.4477773	entrarán	-0.10362151
-4.4477773	amarrarán	-0.10362151
-3.6337838	abuelita	-0.23538531
-4.27479	enferma	-0.10362151
-3.5849247	va	-0.5493495
-3.6888447	bueno	-0.1450492
-4.4477773	fortalecerse	-0.10362151
-4.0267296	daré	-0.16734584
-4.27479	pidan	-0.10362151
-4.4477773	Este	-0.10362155
-4.27479	piensa	-0.10362151
-4.27479	engañar	-0.10362151
-4.4477773	negó	-0.10362151
-4.0267296	palmeó	-0.10362151
-3.5849247	ordenó	-0.19838972
-3.6888447	soldados	-0.10362151
-3.9147003	capturar	-0.13786426
-4.27479	antiguo	-0.10362155
-4.4477773	discusiones	-0.10362151
-4.4477773	repartición	-0.10362151
-4.4477773	volví	-0.10362151
-3.1202438	estar	-0.171277
-3.9147003	limpio	-0.19084942
-4.4477773	modelaron	-0.10362151
-4.4477773	cera	-0.10362155
-4.0267296	quieres	-0.13786426
-4.4477773	Padre	-0.10362151
-3.9147003	déjame	-0.21627955
-4.0267296	vuelve	-0.1450492
-4.27479	llama	-0.10362151
-3.8257241	Gran	-0.59362894
-4.178099	Pez	-0.10362155
-4.4477773	inconforme	-0.10362151
-3.6888447	recibido	-0.123841554
-4.27479	poquito	-0.10362155
-4.178099	delicado	-0.10362155
-4.178099	nieve	-0.132804
-4.178099	malas	-0.10362155
-4.178099	montón	-0.1450492
-4.27479	tiempos	-0.10362155
-4.27479	guerras	-0.21569817
-3.9147003	enano	-0.1748869
-3.5849247	veces	-0.123841554
-4.4477773	vendré	-0.10362151
-3.2483747	nunca	-0.17411429
-4.4477773	cepilla	-0.10362151
-3.9147003	nuestros	-0.10362155
-3.751914	zapatos	-0.13786426
-4.4477773	sujeta	-0.10362151
-4.0267296	nuestras	-0.10362151
-4.178099	propiedad	-0.10362155
-3.9147003	paja	-0.28396583
-4.27479	Quién	-0.11796775
-3.9147003	silla	-0.16525638
-3.9147003	hombrecito	-0.13513222
-3.2483747	entró	-0.31247592
-3.6888447	envió	-0.2707286
-4.27479	regimiento	-0.10362151
-3.751914	quién	-0.10362151
-3.6888447	esos	-0.15178858
-4.178099	terrenos	-0.17503992
-4.27479	limpiando	-0.10362151
-3.9147003	criada	-0.13334645
-3.6337838	dormía	-0.18357839
-4.4477773	contigua	-0.10362155
-4.4477773	Ven	-0.10362151
-4.178099	serio	-0.10362155
-4.27479	pásanos	-0.10362151
-3.4309213	nosotros	-0.21525656
-3.751914	tercera	-0.15220976
-3.751914	fiesta	-0.1861612
-4.178099	excepto	-0.10362151
-3.4309213	algunos	-0.10362151
-4.27479	rudos	-0.10362155
-4.4477773	quedando	-0.10362155
-4.4477773	cicatrices	-0.10362151
-3.5849247	muchos	-0.13540235
-3.8257241	veo	-0.15605444
-4.4477773	huellas	-0.10362151
-4.4477773	humanas	-0.10362151
-4.178099	anteriores	-0.15605444
-4.178099	rogó	-0.13786426
-4.4477773	permitiera	-0.10362151
-4.0267296	buscar	-0.132804
-4.27479	Ah	-0.16408966
-3.6888447	vieja	-0.14636311
-4.27479	desierto	-0.21569817
-3.5011322	vivir	-0.27833802
-4.27479	pesadumbre	-0.10362151
-4.178099	miseria	-0.15605444
-4.4477773	Yo	-0.10362151
-4.4477773	condené	-0.10362151
-3.9147003	vivieron	-0.1290472
-3.9147003	felices	-0.1290472
-4.27479	vidas	-0.10362155
-4.4477773	atrevía	-0.10362151
-3.343171	salir	-0.2707286
-4.178099	vendrá	-0.10362155
-3.9147003	ti	-0.21333519
-4.0267296	avanzó	-0.17503992
-4.4477773	rancho	-0.10362151
-4.0267296	mejillas	-0.10362155
-4.27479	pálidas	-0.10362151
-4.4477773	enrojecidos	-0.10362151
-4.178099	dándole	-0.10362151
-4.4477773	palos	-0.10362151
-3.8257241	corrieron	-0.103621475
-3.751914	misma	-0.11414621
-3.3174627	tiempo	-0.26527587
-4.178099	retornó	-0.10362155
-4.178099	gira	-0.10362151
-4.27479	sabiduría	-0.10362155
-4.4477773	basa	-0.10362151
-3.9147003	correcta	-0.10362155
-4.27479	observación	-0.10362151
-3.5849247	mientras	-0.13414606
-4.27479	guardias	-0.10362151
-4.4477773	sacaban	-0.10362151
-4.178099	Marqués	-0.18791145
-3.1706083	fuera	-0.2270669
-3.751914	río	-0.18142797
-4.27479	cetro	-0.10362151
-4.27479	puro	-0.10362155
-3.6888447	manos	-0.1805626
-4.4477773	Enseñanza	-0.10362151
-3.5849247	cayeron	-0.16790287
-4.4477773	curiosear	-0.10362151
-3.5410106	realmente	-0.10362151
-3.8257241	montaña	-0.1405049
-3.6888447	decidió	-0.19692945
-4.27479	disparar	-0.10362155
-4.0267296	caminado	-0.15605444
-4.4477773	obligó	-0.10362151
-3.8257241	levantarse	-0.10362155
-4.4477773	roca	-0.10362151
-3.9147003	abierta	-0.1450492
-4.178099	hubieran	-0.10362155
-3.5011322	visto	-0.15101746
-4.0267296	cuan	-0.10362151
-3.6888447	contento	-0.13786426
-4.4477773	mañanas	-0.10362155
-3.1202438	iba	-0.26346722
-3.8257241	gritaba	-0.16216737
-3.6337838	lloró	-0.13786426
-3.9147003	lágrimas	-0.132804
-4.4477773	humedeció	-0.10362151
-4.4477773	Primero	-0.10362155
-3.4309213	debo	-0.20125866
-3.3996594	saber	-0.20787485
-3.8257241	clase	-0.26740685
-4.0267296	poderes	-0.10362151
-4.178099	traje	-0.10362155
-4.178099	unicornio	-0.13786426
-4.27479	capturé	-0.10362151
-4.178099	jabalí	-0.1450492
-3.9147003	salvaje	-0.15605444
-4.4477773	Voltea	-0.10362151
-3.9147003	joyas	-0.19469324
-4.4477773	suyas	-0.10362151
-4.4477773	juntaran	-0.10362151
-4.4477773	agitando	-0.10362151
-4.4477773	alitas	-0.10362151
-4.4477773	lloriqueando	-0.10362151
-4.27479	terminada	-0.21569817
-3.751914	ambos	-0.11614831
-4.4477773	contaban	-0.10362151
-2.8304384	mucho	-0.3735668
-4.178099	rumbo	-0.15605444
-3.3174627	ante	-0.25052518
-4.4477773	dificultades	-0.10362151
-4.4477773	Dónde	-0.10362151
-3.8257241	sirvientes	-0.14990598
-4.4477773	siembra	-0.10362151
-4.4477773	volverlo	-0.10362151
-3.9147003	siquiera	-0.13079634
-3.9147003	primera	-0.10362151
-4.4477773	jalaba	-0.10362151
-3.6888447	hilo	-0.16115053
-4.4477773	pedaleaba	-0.10362151
-4.27479	futuro	-0.10362155
-3.751914	tendrás	-0.1290472
-4.4477773	Porque	-0.10362151
-3.2931914	estoy	-0.13079634
-4.178099	poniendo	-0.10362155
-4.4477773	atraía	-0.10362151
-4.4477773	suspicacia	-0.10362151
-3.9147003	parado	-0.16115053
-2.9968855	aquí	-0.32953465
-4.0267296	bebió	-0.1450492
-3.5849247	terminado	-0.31586334
-4.0267296	invitó	-0.15605444
-4.4477773	familiares	-0.10362151
-4.4477773	córtalo	-0.10362151
-4.4477773	divídelo	-0.10362151
-4.178099	saltaba	-0.10362151
-4.4477773	silbaba	-0.10362151
-4.0267296	cantaba	-0.1450492
-4.178099	canción	-0.10362151
-3.3996594	eres	-0.1832797
-3.6888447	bello	-0.15330476
-4.4477773	desesperación	-0.10362155
-3.5011322	saltó	-0.1897453
-3.5410106	alto	-0.17972547
-4.0267296	torre	-0.17503992
-4.27479	Haz	-0.10362151
-4.0267296	voluntad	-0.10362151
-4.4477773	soportaré	-0.10362151
-4.4477773	deba	-0.10362151
-3.9147003	posición	-0.1450492
-4.4477773	lanzando	-0.10362151
-4.4477773	aires	-0.10362151
-4.178099	tomado	-0.10362151
-3.9147003	bocado	-0.132804
-4.178099	heno	-0.1450492
-4.4477773	desmenuzaba	-0.10362151
-4.27479	suyo	-0.10362151
-4.27479	levantar	-0.10362151
-3.8257241	carruaje	-0.18534961
-4.4477773	ocho	-0.10362151
-3.751914	caballos	-0.121963985
-4.27479	blancos	-0.10362151
-4.4477773	despedazada	-0.10362151
-4.4477773	fieras	-0.10362151
-3.5849247	bosque	-0.2523421
-4.178099	herida	-0.10362151
-4.178099	simple	-0.10362151
-3.751914	corso	-0.19575588
-3.5849247	regresar	-0.5308838
-4.27479	entregó	-0.10362155
-4.178099	cantos	-0.10362155
-4.0267296	aves	-0.23710841
-3.4309213	puso	-0.18359688
-4.4477773	collar	-0.10362151
-4.4477773	quemando	-0.10362151
-4.4477773	carbón	-0.10362151
-4.27479	cuelga	-0.10362151
-4.27479	cadalso	-0.10362151
-4.27479	Has	-0.10362155
-4.4477773	contestado	-0.10362151
-4.0267296	preguntas	-0.132804
-4.4477773	sabio	-0.10362151
-4.27479	definitivamente	-0.10362151
-4.178099	lleva	-0.17503992
-3.751914	éxito	-0.17482138
-3.751914	pasado	-0.1964517
-3.751914	rato	-0.17554675
-3.2702053	comenzó	-0.7319795
-4.4477773	fingir	-0.10362151
-4.27479	roncaba	-0.10362155
-4.0267296	difícil	-0.10362151
-4.27479	seguirla	-0.10362151
-3.6888447	cabeza	-0.23439276
-4.4477773	estrujó	-0.10362151
-4.4477773	vertedero	-0.10362151
-4.27479	lados	-0.10362151
-3.9147003	temor	-0.13786426
-4.4477773	abalanzó	-0.10362151
-4.178099	brazos	-0.132804
-4.4477773	abriremos	-0.10362151
-4.0267296	gritaron	-0.2069268
-3.8257241	imposible	-0.16115053
-4.4477773	escupido	-0.10362151
-4.178099	cuerno	-0.132804
-4.178099	ceremonia	-0.10362155
-4.178099	matarla	-0.17503992
-3.5849247	dinero	-0.21469493
-4.4477773	transcurso	-0.10362151
-4.4477773	pintó	-0.10362151
-4.178099	cara	-0.16115053
-4.27479	Su	-0.10362155
-4.4477773	Alteza	-0.10362151
-3.9147003	tipo	-0.10362151
-4.178099	arrogante	-0.10362155
-4.4477773	recogiéndola	-0.10362151
-3.1706083	corrió	-0.2767834
-3.751914	menor	-0.13996515
-4.27479	simplemente	-0.10362151
-4.4477773	ala	-0.10362151
-4.27479	amenazas	-0.10362151
-4.4477773	amedrentado	-0.10362151
-4.27479	Uno	-0.10362155
-4.4477773	halló	-0.10362151
-4.4477773	Déjalo	-0.10362151
-4.4477773	He	-0.10362151
-4.178099	librado	-0.17503992
-4.4477773	inesperado	-0.10362151
-3.8257241	pretendiente	-0.132804
-3.5849247	hace	-0.12851565
-4.4477773	estragos	-0.10362151
-3.6337838	terminó	-0.28610808
-2.9851148	dentro	-0.9360784
-4.4477773	estufa	-0.10362151
-3.9147003	cocina	-0.10362155
-4.0267296	contrario	-0.132804
-4.4477773	servirá	-0.10362151
-4.4477773	generar	-0.10362151
-4.178099	propia	-0.1290472
-3.9147003	desgracia	-0.2069268
-4.4477773	llamándolo	-0.10362151
-3.9147003	ofreció	-0.10362151
-4.178099	venta	-0.17503992
-3.6337838	pensaba	-0.16115053
-3.5011322	hermano	-0.15525861
-3.9147003	campesino	-0.112695925
-4.27479	sabré	-0.10362151
-4.27479	nueva	-0.10362151
-3.4646094	feliz	-0.27263823
-4.178099	demasiado	-0.1450492
-4.4477773	Tomen	-0.10362151
-4.4477773	asiento	-0.10362151
-4.4477773	descansen	-0.10362151
-4.27479	viera	-0.10362151
-4.4477773	transformaba	-0.10362151
-3.8257241	esperó	-0.16525638
-4.178099	sucedía	-0.10362151
-3.9147003	contó	-0.15178858
-4.4477773	acontecido	-0.10362151
-4.178099	agregó	-0.23710841
-4.4477773	emocionadamente	-0.10362151
-4.27479	Mis	-0.10362151
-3.5849247	jamás	-0.14372474
-3.8257241	tanta	-0.1290472
-3.8257241	belleza	-0.13786426
-4.4477773	ataviada	-0.10362151
-4.27479	bellamente	-0.10362151
-4.4477773	cúpulas	-0.10362151
-4.4477773	comenzaban	-0.10362151
-4.178099	brillar	-0.10362155
-4.178099	abejas	-0.10362151
-4.4477773	cogerles	-0.10362151
-4.0267296	miel	-0.17503992
-4.0267296	Yorinda	-0.132804
-3.8257241	cantando	-0.2094149
-4.4477773	pesar	-0.10362151
-4.27479	varias	-0.10362151
-4.27479	pongas	-0.10362151
-4.4477773	reparos	-0.10362151
-3.5011322	mal	-0.14677449
-4.0267296	tratado	-0.13786426
-4.4477773	reunió	-0.10362151
-4.27479	segadores	-0.10362151
-4.4477773	diciéndolo	-0.10362151
-4.178099	colocaron	-0.1450492
-4.4477773	posiciones	-0.10362151
-4.27479	heredará	-0.10362151
-3.5410106	lino	-0.20127317
-4.4477773	convertirlo	-0.10362151
-4.4477773	Rocíame	-0.10362151
-4.4477773	harina	-0.10362151
-3.343171	mis	-0.16656649
-4.27479	truco	-0.10362151
-4.4477773	hubieras	-0.10362151
-4.27479	aceptado	-0.10362151
-4.0267296	tuyo	-0.15605444
-3.751914	boda	-0.20150128
-4.27479	cabo	-0.10362155
-4.27479	magnificencia	-0.10362151
-4.27479	regocijo	-0.10362151
-3.9147003	cabellera	-0.132804
-3.2702053	bajó	-0.2036634
-3.5410106	hermanos	-0.28450042
-3.6888447	mayores	-0.15706211
-3.4309213	tus	-0.1275096
-4.0267296	bueyes	-0.10362151
-4.4477773	comprarte	-0.10362151
-3.2931914	alguna	-0.1424749
-4.0267296	ropa	-0.18791145
-4.4477773	venida	-0.10362151
-3.751914	caso	-0.132804
-4.4477773	introducirse	-0.10362151
-3.8257241	dormitorio	-0.132804
-4.27479	pareció	-0.10362155
-4.178099	idea	-0.10362151
-4.4477773	Tan	-0.10362151
-3.751914	llegue	-0.10362151
-4.4477773	corrido	-0.10362151
-3.5849247	fuerte	-0.1275096
-3.6888447	justo	-0.24831949
-4.178099	pasando	-0.17503992
-4.4477773	hierro	-0.10362151
-4.178099	tocado	-0.10362155
-4.178099	huso	-0.1450492
-4.4477773	hubiéramos	-0.10362151
-3.089645	juntos	-0.42229104
-3.4646094	tienes	-0.13644145
-3.6337838	haré	-0.12040548
-3.751914	paz	-0.21872886
-4.4477773	llegaste	-0.10362151
-4.178099	cabaña	-0.10362151
-4.27479	horcas	-0.15605444
-4.27479	sabes	-0.10362151
-4.4477773	Planificar	-0.10362151
-4.27479	adecuado	-0.10362151
-4.27479	conocimiento	-0.10362151
-4.4477773	conocer	-0.10362151
-4.178099	familia	-0.10362155
-4.27479	acostumbraban	-0.10362151
-4.27479	comerlos	-0.21569817
-4.4477773	tristes	-0.10362151
-4.4477773	pérdida	-0.10362151
-3.5011322	hijos	-0.23889928
-4.178099	tomo	-0.17503992
-3.5849247	mano	-0.212422
-4.4477773	judía	-0.10362155
-4.4477773	acomodó	-0.10362151
-4.4477773	banca	-0.10362155
-4.4477773	bañando	-0.10362151
-4.4477773	secando	-0.10362151
-3.5011322	niños	-0.20400068
-4.4477773	Esos	-0.10362151
-4.27479	hombrecitos	-0.10362151
-3.6888447	han	-0.10362151
-3.343171	hecho	-0.1876667
-4.4477773	ricos	-0.10362151
-4.4477773	mofa	-0.10362151
-3.5849247	llegaba	-0.20150128
-3.9147003	hermanas	-0.1450492
-4.4477773	Traigo	-0.10362151
-4.178099	pastel	-0.29259893
-4.0267296	tristeza	-0.19084942
-3.751914	sino	-0.11540137
-4.27479	danza	-0.10362155
-3.9147003	cazadores	-0.14234087
-4.4477773	proveerle	-0.10362151
-3.5849247	ayuda	-0.20158264
-4.4477773	necesaria	-0.10362151
-4.4477773	Denme	-0.10362151
-4.178099	hoja	-0.10362151
-4.27479	papel	-0.21569817
-3.4646094	deseo	-0.15967542
-3.9147003	estuviera	-0.121963985
-4.0267296	distancia	-0.1450492
-4.4477773	acostado	-0.10362151
-4.27479	cuna	-0.10362151
-4.4477773	Cóseme	-0.10362151
-4.27479	costura	-0.10362151
-4.4477773	metía	-0.10362151
-4.27479	jaula	-0.15605444
-3.9147003	salón	-0.16790287
-3.5849247	Hans	-0.30851713
-3.751914	llegado	-0.18534961
-3.9147003	rapunzeles	-0.13786426
-4.4477773	convencerlo	-0.10362151
-4.4477773	revelara	-0.10362151
-4.178099	causa	-0.1450492
-4.178099	difícilmente	-0.15605444
-4.0267296	cientos	-0.23710841
-3.6888447	hogar	-0.2707286
-3.4309213	puedes	-0.13527694
-4.178099	quedarte	-0.15605444
-4.0267296	quieras	-0.13786426
-4.4477773	significaba	-0.10362151
-4.4477773	ofensa	-0.10362151
-4.27479	dejan	-0.10362151
-4.4477773	maltratar	-0.10362151
-3.5011322	caballo	-0.21062605
-4.4477773	estúpido	-0.10362151
-4.0267296	caía	-0.15605444
-3.6888447	poder	-0.123841554
-4.27479	mataba	-0.10362151
-4.27479	maltrataron	-0.10362151
-4.0267296	piernas	-0.123841554
-4.27479	seguramente	-0.10362151
-4.4477773	habré	-0.10362151
-4.0267296	regresaba	-0.10362155
-3.5011322	tenían	-0.16287455
-4.4477773	delicioso	-0.10362151
-4.0267296	pollo	-0.10362151
-4.27479	asado	-0.10362151
-4.4477773	comerlo	-0.10362151
-3.6888447	creatura	-0.121963985
-4.4477773	aclaró	-0.10362151
-4.178099	espacio	-0.10362151
-3.5849247	despertó	-0.34984544
-3.4309213	miró	-0.1770734
-4.27479	dulcemente	-0.10362151
-4.4477773	encontraré	-0.10362151
-3.5410106	manera	-0.22173706
-4.27479	ayudarnos	-0.21569817
-4.4477773	Acaba	-0.10362151
-4.4477773	nacer	-0.10362151
-4.4477773	membrana	-0.10362151
-4.27479	fresco	-0.10362151
-4.0267296	coraje	-0.132804
-3.9147003	replicó	-0.18357839
-4.4477773	mantendría	-0.10362151
-4.178099	acostó	-0.1290472
-3.5849247	tranquilamente	-0.1450492
-4.4477773	ayudara	-0.10362151
-3.8257241	deshacerse	-0.40631527
-4.0267296	marido	-0.16408966
-3.5410106	fuerza	-0.13786426
-4.4477773	decaía	-0.10362151
-4.27479	corrían	-0.10362151
-4.4477773	escondiéndose	-0.10362151
-3.9147003	alimentos	-0.10362151
-4.0267296	quizás	-0.10362155
-4.27479	hablara	-0.10362151
-4.4477773	delatara	-0.10362151
-3.9147003	enigma	-0.2298538
-3.4646094	escuchó	-0.18090113
-4.178099	plan	-0.17503992
-4.4477773	burlaron	-0.10362151
-3.751914	débil	-0.132804
-4.27479	lámpara	-0.21569817
-4.4477773	aceite	-0.10362151
-4.4477773	alumbraba	-0.10362151
-4.4477773	contestaban	-0.10362151
-3.6337838	platos	-0.12614746
-4.27479	servir	-0.10362151
-4.178099	Qué	-0.11004181
-4.178099	compañero	-0.10362155
-4.4477773	portaba	-0.10362151
-4.0267296	pajarito	-0.10362151
-3.6888447	venía	-0.10362151
-2.9968855	siempre	-0.16087642
-4.27479	alegría	-0.1450492
-4.178099	golpeaba	-0.17503992
-4.4477773	danzar	-0.10362151
-4.178099	vasos	-0.10362155
-4.27479	perno	-0.10362155
-4.4477773	maltrató	-0.10362151
-4.0267296	sentarse	-0.132804
-4.178099	aceptar	-0.10362155
-4.178099	maleta	-0.10362151
-4.178099	hombro	-0.15605444
-4.27479	marchó	-0.10362155
-3.751914	diciéndole	-0.25485826
-4.178099	De	-0.12614746
-4.27479	serviría	-0.10362151
-3.9147003	escapar	-0.19084942
-3.6888447	muerte	-0.21299864
-3.9147003	seguía	-0.10362151
-4.178099	guardas	-0.10362151
-3.8257241	atardecer	-0.20265281
-3.4646094	quiso	-0.1424749
-4.178099	retirarse	-0.17503992
-4.0267296	prisa	-0.16525638
-3.4309213	sacó	-0.25222445
-4.27479	puñado	-0.21569817
-4.178099	monedas	-0.10362151
-4.4477773	observado	-0.10362151
-4.4477773	tantísimos	-0.10362151
-4.27479	puntos	-0.10362151
-4.4477773	finos	-0.10362151
-3.8257241	podían	-0.103621475
-4.4477773	distinguirse	-0.10362151
-3.9147003	cogió	-0.10362151
-4.27479	opción	-0.10362155
-4.4477773	entregarte	-0.10362151
-4.27479	Ve	-0.10362151
-3.6888447	ancho	-0.15605444
-4.27479	nombres	-0.10362155
-4.178099	país	-0.10362151
-3.8257241	vivían	-0.10362155
-3.9147003	gigantes	-0.18142797
-4.4477773	causaban	-0.10362151
-4.4477773	desasosiego	-0.10362151
-4.4477773	robos	-0.10362151
-4.4477773	ejercicio	-0.10362151
-3.6337838	hoy	-0.17503992
-3.751914	sea	-0.10362151
-4.4477773	provecho	-0.10362151
-4.4477773	amedrentó	-0.10362151
-4.27479	rugir	-0.10362151
-3.751914	mochila	-0.18014279
-4.0267296	consiguió	-0.10362151
-4.0267296	obligada	-0.23710841
-3.8257241	pozo	-0.17972547
-4.4477773	seguirá	-0.10362151
-4.0267296	siendo	-0.23710841
-4.178099	Diablo	-0.123841554
-4.178099	espejo	-0.12614746
-3.8257241	hablar	-0.1290472
-4.4477773	olvidando	-0.10362151
-3.5410106	cualquier	-0.121963985
-3.8257241	peligro	-0.17482138
-4.4477773	buscan	-0.10362151
-3.8257241	daño	-0.26740685
-3.9147003	estómago	-0.13079634
-4.27479	vaca	-0.17503992
-3.8257241	cuál	-0.17503992
-4.4477773	preferiría	-0.10362151
-4.27479	devorado	-0.10362151
-4.178099	viejita	-0.10362151
-4.4477773	salvada	-0.10362151
-3.9147003	aunque	-0.1275096
-4.27479	diga	-0.10362151
-4.27479	peces	-0.10362155
-4.4477773	mudos	-0.10362151
-4.178099	dejando	-0.13786426
-4.4477773	pasadizo	-0.10362151
-3.751914	gris	-0.1290472
-4.0267296	gigante	-0.12614746
-4.4477773	reaccionaba	-0.10362151
-4.4477773	enlistó	-0.10362151
-4.4477773	encenderé	-0.10362151
-4.178099	fogata	-0.17503992
-4.4477773	enfríen	-0.10362151
-4.27479	diera	-0.10362151
-3.2702053	esa	-0.1280403
-4.0267296	extraña	-0.10362151
-4.27479	Esto	-0.10362155
-4.178099	llevas	-0.10362155
-4.0267296	canasta	-0.10362155
-4.4477773	diferencia	-0.10362151
-4.27479	Sólo	-0.10362155
-4.4477773	sótano	-0.10362155
-4.4477773	averigua	-0.10362151
-4.4477773	muchachita	-0.10362151
-4.27479	asustó	-0.10362155
-4.0267296	botero	-0.12614746
-4.178099	acercó	-0.16790287
-3.4646094	pidió	-0.23917612
-4.27479	subiera	-0.21569817
-3.751914	querida	-0.10362151
-4.4477773	piadosa	-0.10362151
-4.4477773	suplico	-0.10362151
-4.4477773	ocultarse	-0.10362151
-4.4477773	avanzando	-0.10362151
-3.9147003	estaré	-0.10362151
-4.4477773	estorbaré	-0.10362151
-3.9147003	siento	-0.1290472
-4.4477773	Isabel	-0.10362151
-3.751914	estado	-0.11540137
-3.751914	dormida	-0.19469324
-3.3996594	años	-0.31614113
-4.4477773	maltratarse	-0.10362151
-4.0267296	espalda	-0.12040548
-4.178099	hacerse	-0.17503992
-4.4477773	inesperada	-0.10362151
-3.751914	muerta	-0.26740685
-3.8257241	humana	-0.21627955
-4.4477773	buscaron	-0.10362155
-3.8257241	favor	-0.1892444
-4.27479	traeré	-0.10362151
-4.178099	importa	-0.15605444
-4.4477773	cueste	-0.10362151
-4.27479	dormían	-0.10362151
-4.178099	alcoba	-0.29259893
-3.6337838	rico	-0.1405049
-4.27479	jornada	-0.10362151
-4.27479	setenta	-0.21569817
-3.5410106	cuatro	-0.123841554
-3.9147003	ratones	-0.16525638
-4.4477773	briosos	-0.10362151
-4.178099	arrastró	-0.10362151
-3.5849247	hombres	-0.22316462
-3.9147003	oyeron	-0.1450492
-3.9147003	hablando	-0.10362151
-4.27479	enfermedad	-0.21569817
-4.27479	tranquilidad	-0.10362151
-4.4477773	tomás	-0.10362151
-3.6888447	buenos	-0.12614746
-4.0267296	decían	-0.15605444
-3.3996594	estuvo	-0.12614746
-3.8257241	listo	-0.29259893
-4.4477773	Hay	-0.10362151
-4.178099	sastrecillo	-0.121963985
-4.27479	entrado	-0.10362151
-3.6888447	sueño	-0.16790287
-3.751914	profundo	-0.15605444
-4.178099	comeré	-0.10362155
-4.27479	instantáneamente	-0.10362155
-4.4477773	ensaladas	-0.10362151
-4.4477773	postres	-0.10362151
-4.4477773	anden	-0.10362151
-3.6888447	solos	-0.15605444
-4.4477773	calles	-0.10362151
-4.4477773	caminos	-0.10362151
-3.9147003	estiró	-0.13786426
-4.4477773	descansó	-0.10362155
-3.5410106	medio	-0.12493229
-4.4477773	rendija	-0.10362151
-3.751914	dejaron	-0.121963985
-4.178099	examinar	-0.10362155
-4.4477773	minuciosamente	-0.10362151
-4.4477773	disgustado	-0.10362151
-4.27479	cortes	-0.10362151
-4.4477773	usuales	-0.10362151
-4.4477773	afligido	-0.10362151
-3.751914	pobres	-0.16734584
-4.27479	produzca	-0.17503992
-4.0267296	mío	-0.1450492
-4.4477773	Empecemos	-0.10362151
-4.0267296	trabajar	-0.15220976
-3.8257241	partió	-0.132804
-4.178099	mente	-0.10362155
-3.751914	tranquila	-0.22627135
-3.5011322	voy	-0.62190014
-4.4477773	hacerte	-0.10362151
-4.4477773	cosquillas	-0.10362151
-4.0267296	nariz	-0.17503992
-4.4477773	retiraron	-0.10362151
-3.5011322	solo	-0.11614831
-4.4477773	playa	-0.10362151
-4.4477773	atolondrado	-0.10362151
-3.2931914	e	-0.119721554
-4.178099	ingenuo	-0.10362155
-4.0267296	conejo	-0.10362151
-4.27479	bolsa	-0.10362155
-4.4477773	criadas	-0.10362151
-3.9147003	llorar	-0.11909113
-4.0267296	sentir	-0.10362151
-4.27479	consuelo	-0.10362151
-3.5410106	buscando	-0.16216737
-3.6888447	novia	-0.14756104
-4.4477773	igualara	-0.10362151
-3.751914	anterior	-0.26740685
-4.4477773	profunda	-0.10362151
-4.27479	disfrutando	-0.21569817
-4.27479	brisa	-0.10362151
-4.4477773	Uy	-0.10362151
-4.4477773	espantosa	-0.10362151
-4.4477773	metida	-0.10362151
-3.6337838	sola	-0.14980973
-4.27479	olvidada	-0.10362151
-3.9147003	mundo	-0.21973132
-3.6337838	quedaron	-0.12040548
-3.8257241	terriblemente	-0.10362151
-4.4477773	asustados	-0.10362151
-3.9147003	serás	-0.10362151
-3.8257241	llamado	-0.132804
-3.5011322	Piel	-0.8946589
-4.4477773	Oso	-0.103621475
-4.4477773	anterioridad	-0.10362151
-4.4477773	entorpecer	-0.10362151
-4.4477773	actividad	-0.10362151
-4.4477773	esperaré	-0.10362151
-4.27479	garganta	-0.10362151
-4.27479	kilómetro	-0.10362155
-3.5011322	triste	-0.2983378
-4.178099	hermanita	-0.1450492
-4.27479	lamentaba	-0.10362151
-3.6337838	traer	-0.16772716
-4.178099	tareas	-0.15605444
-4.178099	exitosamente	-0.10362155
-3.6337838	traído	-0.14111541
-4.4477773	perdidos	-0.10362151
-4.178099	probado	-0.10362151
-3.5849247	sintió	-0.12614746
-4.27479	retiraba	-0.10362151
-4.27479	guardián	-0.10362151
-3.751914	yacía	-0.1290472
-3.8257241	real	-0.28826094
-4.4477773	extensivo	-0.10362151
-4.27479	territorio	-0.10362151
-4.27479	caña	-0.10362151
-4.4477773	ribera	-0.10362151
-4.27479	encantamiento	-0.10362151
-4.4477773	astilla	-0.10362151
-3.9147003	viga	-0.10362155
-3.5011322	sabía	-0.2033384
-3.5011322	decía	-0.258069
-4.27479	transformar	-0.10362151
-4.27479	oposición	-0.10362151
-4.0267296	necesario	-0.15605444
-4.0267296	zapatillas	-0.123841554
-4.27479	suelas	-0.10362151
-4.0267296	llenas	-0.4175377
-4.27479	huecos	-0.10362151
-3.9147003	doctor	-0.103621475
-4.0267296	sabe	-0.10362151
-3.751914	debemos	-0.15220976
-4.4477773	cuidarnos	-0.10362151
-4.4477773	doblar	-0.10362151
-4.27479	esquina	-0.132804
-4.0267296	gritando	-0.10362151
-4.27479	Cuando	-0.10362151
-3.8257241	esté	-0.10362151
-4.0267296	entrada	-0.10362155
-4.27479	dirigió	-0.10362155
-3.3174627	allá	-0.30967316
-4.27479	terminando	-0.21569817
-4.27479	ponerse	-0.10362151
-4.4477773	enfurecido	-0.10362151
-4.178099	devolvió	-0.15605444
-3.9147003	barril	-0.16408966
-4.27479	silencioso	-0.10362151
-4.27479	respiro	-0.10362151
-3.3704975	podía	-0.121805675
-4.4477773	oírse	-0.10362151
-4.178099	cambió	-0.10362155
-4.178099	ropas	-0.10362151
-4.4477773	brujería	-0.10362151
-4.178099	Es	-0.103621475
-4.27479	suceso	-0.10362151
-4.4477773	tornará	-0.10362151
-4.178099	Ya	-0.14636311
-4.4477773	encontré	-0.10362151
-4.0267296	ocurrido	-0.1450492
-4.4477773	satisfechos	-0.10362151
-4.4477773	personales	-0.10362151
-4.27479	provocó	-0.10362151
-4.4477773	disturbio	-0.10362151
-4.27479	alistó	-0.10362155
-4.4477773	dormí	-0.10362151
-4.4477773	broma	-0.10362151
-4.4477773	anduve	-0.10362151
-3.6888447	tantas	-0.1290472
-4.4477773	situaciones	-0.10362151
-4.4477773	percibía	-0.10362151
-3.6337838	pasaba	-0.1748869
-3.9147003	moverse	-0.10362151
-4.4477773	chorreaba	-0.10362151
-4.27479	grueso	-0.10362155
-3.5011322	plato	-0.21824189
-4.4477773	acercar	-0.10362151
-4.4477773	tomemos	-0.10362151
-4.178099	frutas	-0.17503992
-3.751914	vamos	-0.15605444
-4.27479	recorrer	-0.10362151
-4.4477773	apuesta	-0.10362151
-4.4477773	canoso	-0.10362151
-4.27479	cigüeña	-0.10362155
-4.178099	Simplemente	-0.10362151
-4.4477773	llámalo	-0.10362151
-3.9147003	fácil	-0.10362155
-4.0267296	quebrarse	-0.10362151
-4.27479	brazo	-0.10362151
-4.178099	pierna	-0.1450492
-4.27479	mermelada	-0.10362151
-3.3174627	arriba	-0.27036428
-3.2275891	cerca	-0.56105775
-4.27479	material	-0.10362151
-4.27479	pares	-0.17503992
-4.4477773	estremeció	-0.10362151
-4.4477773	golpeteó	-0.10362151
-4.178099	rabia	-0.10362151
-4.4477773	ayudarte	-0.10362151
-4.4477773	humedecieron	-0.10362151
-3.8257241	último	-0.10362151
-4.27479	placer	-0.10362151
-3.9147003	rojo	-0.1450492
-4.178099	llenar	-0.10362155
-4.0267296	ambas	-0.10362151
-4.0267296	fueran	-0.10362155
-4.4477773	llevadas	-0.10362151
-4.4477773	justicia	-0.10362151
-4.178099	ello	-0.1450492
-4.4477773	poniéndose	-0.10362151
-4.27479	regalos	-0.10362151
-4.4477773	platitos	-0.10362151
-4.4477773	vasitos	-0.10362151
-4.4477773	repleta	-0.10362151
-3.5410106	buenas	-0.11796775
-3.5011322	cosas	-0.16875306
-3.8257241	quedaba	-0.103621475
-4.4477773	ducado	-0.10362151
-4.178099	pato	-0.1450492
-4.27479	amenazó	-0.10362155
-4.27479	punzó	-0.10362155
-3.9147003	dedos	-0.21080339
-3.5410106	veía	-0.19406137
-4.178099	capitán	-0.10362151
-4.27479	llamar	-0.10362155
-3.751914	bajar	-0.14990598
-4.4477773	organizó	-0.10362151
-4.178099	festival	-0.132804
-4.4477773	duraría	-0.10362151
-4.4477773	Permíteme	-0.10362151
-4.4477773	invitarlas	-0.10362151
-4.178099	preparando	-0.10362155
-3.9147003	A	-0.10362151
-3.6888447	debía	-0.18955739
-4.27479	B	-0.10362151
-4.0267296	irá	-0.21569817
-4.4477773	Después	-0.10362151
-4.178099	verdadera	-0.13786426
-4.27479	lástima	-0.10362151
-3.6888447	agarró	-0.15605444
-4.0267296	pata	-0.13786426
-4.27479	Bien	-0.10362155
-3.751914	vaso	-0.16525638
-4.27479	balanceándose	-0.10362151
-3.9147003	viento	-0.13513222
-4.4477773	cordones	-0.10362151
-4.4477773	cierre	-0.10362151
-4.4477773	delanteras	-0.10362151
-3.9147003	oscuro	-0.2094149
-4.178099	avanzar	-0.29259893
-3.9147003	cuervo	-0.15795994
-4.27479	posaba	-0.10362151
-3.8257241	casi	-0.10362151
-4.27479	bocados	-0.10362151
-3.751914	tomaba	-0.10362151
-4.4477773	torpes	-0.10362151
-4.4477773	menudo	-0.10362151
-4.4477773	detenía	-0.10362151
-4.27479	tirar	-0.10362151
-4.178099	borona	-0.10362155
-4.4477773	crecen	-0.10362151
-4.178099	tutora	-0.15605444
-4.4477773	voltear	-0.10362151
-4.4477773	já	-0.10362151
-4.4477773	supieran	-0.10362151
-4.178099	diablo	-0.15278853
-4.4477773	apagaron	-0.10362151
-3.8257241	luz	-0.21952063
-3.9147003	jarra	-0.10362151
-4.0267296	capa	-0.16216737
-4.27479	creyeron	-0.21569817
-4.4477773	llevaría	-0.10362151
-3.6888447	iban	-0.15220976
-4.4477773	quebraba	-0.10362151
-3.5410106	atrás	-0.16525638
-4.4477773	arrojaban	-0.10362151
-4.4477773	Vengo	-0.10362151
-4.4477773	conservaba	-0.10362151
-4.178099	libertad	-0.1450492
-3.751914	capaz	-0.35305482
-4.4477773	Supongo	-0.10362151
-4.0267296	podrías	-0.10362151
-3.751914	mirar	-0.1450492
-3.3174627	ahí	-0.213626
-4.27479	Para	-0.10362151
-4.27479	sonido	-0.10362151
-4.4477773	gratificante	-0.10362151
-4.178099	hilando	-0.10362155
-4.4477773	atreves	-0.10362151
-4.27479	mirada	-0.10362151
-4.4477773	candelabros	-0.10362151
-4.4477773	colgando	-0.10362151
-4.0267296	techo	-0.16790287
-3.9147003	pescador	-0.10362151
-3.751914	llorando	-0.10362151
-4.178099	revisaron	-0.10362151
-4.27479	peine	-0.10362151
-4.27479	envenenado	-0.10362151
-4.0267296	cuchillo	-0.19084942
-3.751914	cortó	-0.1748869
-4.4477773	atrevió	-0.10362151
-4.4477773	hablarle	-0.10362151
-4.4477773	podamos	-0.10362151
-4.0267296	quédate	-0.10362151
-3.751914	satisfecha	-0.25485826
-3.751914	podré	-0.1290472
-3.3996594	encontrar	-0.1705803
-3.2077532	nadie	-0.20117782
-4.4477773	reemplace	-0.10362151
-4.4477773	025-La	-0.10362151
-4.4477773	Bella	-0.10362151
-4.4477773	Durmiente	-0.10362151
-4.4477773	Bosque	-0.10362151
-3.8257241	dando	-0.2094149
-3.8257241	vuelta	-0.15605444
-3.4646094	príncipe	-0.16576332
-4.27479	viniera	-0.10362155
-4.0267296	directo	-0.2069268
-4.27479	centro	-0.1290472
-4.4477773	generosa	-0.10362151
-4.0267296	soltó	-0.132804
-4.178099	ido	-0.15605444
-4.178099	sacado	-0.10362151
-4.4477773	médico	-0.10362151
-4.178099	hiciera	-0.15605444
-4.4477773	enviopor	-0.10362151
-4.178099	jueces	-0.17503992
-3.3704975	adentro	-0.26762462
-3.9147003	encontrarás	-0.10362151
-4.4477773	hambrientos	-0.10362151
-4.0267296	estarás	-0.10362151
-4.27479	quieta	-0.21569817
-4.4477773	odiosa	-0.10362151
-4.178099	trajera	-0.10362151
-4.178099	hermosa	-0.1450492
-4.27479	oían	-0.10362151
-4.4477773	golpear	-0.10362151
-4.178099	hacha	-0.2069268
-3.8257241	entraron	-0.1450492
-4.27479	danzó	-0.21569817
-4.4477773	preferencia	-0.10362151
-4.4477773	supimos	-0.10362151
-4.4477773	andabas	-0.10362151
-4.4477773	busca	-0.10362151
-4.27479	Árbol	-0.21569817
-4.4477773	Vida	-0.10362155
-3.6888447	apareció	-0.1450492
-4.27479	anciana	-0.10362151
-3.3704975	frente	-0.3523011
-3.8257241	campo	-0.15706211
-3.8257241	mala	-0.12614746
-3.8257241	oportunidad	-0.16525638
-4.4477773	asomando	-0.10362151
-4.4477773	delicada	-0.10362151
-4.4477773	Aquél	-0.10362151
-4.27479	traiga	-0.10362151
-3.4646094	caer	-0.15278853
-4.4477773	enfureció	-0.10362151
-4.4477773	cucharita	-0.10362151
-4.178099	viajes	-0.10362155
-4.0267296	acostumbraba	-0.10362151
-4.4477773	insolente	-0.10362151
-3.5849247	cumplir	-0.14111541
-3.6888447	aquella	-0.103621475
-3.8257241	tarea	-0.2094149
-4.4477773	aliviado	-0.10362151
-3.8257241	esperando	-0.18791145
-4.4477773	ingrese	-0.10362151
-4.178099	espada	-0.16790287
-4.27479	prestó	-0.10362155
-4.4477773	despertaran	-0.10362151
-3.9147003	movió	-0.1450492
-4.4477773	despertarla	-0.10362151
-4.4477773	concediese	-0.10362151
-3.9147003	prometida	-0.132804
-4.4477773	celestial	-0.10362151
-4.4477773	conseguiré	-0.10362151
-3.8257241	patrón	-0.19360246
-4.178099	patrona	-0.10362155
-4.4477773	ponle	-0.10362151
-4.4477773	remos	-0.10362151
-4.4477773	maletín	-0.10362151
-4.0267296	duendes	-0.2069268
-4.27479	urgentemente	-0.10362151
-4.4477773	honestamente	-0.10362151
-3.6337838	haciendo	-0.103621475
-4.27479	presentaciones	-0.10362151
-4.27479	caminaron	-0.13786426
-4.178099	corto	-0.10362155
-4.4477773	resto	-0.10362151
-4.4477773	cerradura	-0.10362155
-3.9147003	compró	-0.10362151
-4.0267296	lazo	-0.10362151
-4.0267296	sentados	-0.10362151
-4.4477773	corredor	-0.10362151
-4.27479	cabezas	-0.17503992
-3.5011322	debajo	-0.6403985
-4.178099	alas	-0.17503992
-4.27479	saberlo	-0.10362151
-4.27479	brincando	-0.10362155
-3.6337838	pie	-0.23988998
-3.8257241	estaría	-0.13786426
-3.9147003	hecha	-0.10362151
-4.4477773	puré	-0.10362151
-4.27479	compañeras	-0.10362151
-4.178099	sostenían	-0.10362155
-4.4477773	animada	-0.10362151
-4.27479	conversación	-0.21569817
-4.4477773	018-Rúmpeles-Tíjeles	-0.10362151
-4.178099	confortaba	-0.17503992
-4.4477773	bordó	-0.10362151
-4.178099	letras	-0.17503992
-4.4477773	SIETE	-0.10362151
-4.4477773	DE	-0.10362151
-4.4477773	UN	-0.10362151
-4.4477773	GOLPE	-0.10362151
-4.4477773	Alguien	-0.10362151
-3.9147003	camas	-0.15605444
-3.5849247	tiró	-0.17494425
-4.4477773	colocados	-0.10362151
-4.178099	acuerdo	-0.13786426
-4.4477773	rango	-0.10362151
-4.4477773	jacta	-0.10362151
-3.4646094	quiere	-0.13786429
-4.4477773	salta	-0.10362151
-4.4477773	Cálmate	-0.10362151
-3.9147003	erizo	-0.16493262
-4.4477773	concha	-0.10362151
-4.4477773	mecate	-0.10362151
-3.8257241	verde	-0.19469324
-4.4477773	Bienvenidas	-0.10362151
-4.27479	queridas	-0.10362151
-4.0267296	tías	-0.15605444
-4.0267296	espera	-0.10362151
-3.751914	órdenes	-0.17482138
-4.4477773	formando	-0.10362151
-4.27479	fila	-0.17503992
-4.4477773	Imposible	-0.10362151
-4.0267296	verás	-0.10362151
-3.3996594	tras	-0.26509884
-4.27479	llamaba	-0.10362155
-4.0267296	(	-0.10362155
-4.4477773	Juancito	-0.10362151
-3.9147003	)	-0.19084942
-4.27479	sumamente	-0.10362151
-4.4477773	alterada	-0.10362151
-4.4477773	permitiría	-0.10362151
-4.178099	decisión	-0.10362151
-4.4477773	ponértelo	-0.10362151
-4.0267296	adecuadamente	-0.10362151
-3.9147003	noble	-0.1290472
-4.0267296	trono	-0.10362155
-4.27479	burros	-0.21569817
-4.27479	cargados	-0.17503992
-4.0267296	semilla	-0.10362151
-4.178099	cayera	-0.10362155
-4.4477773	seguridad	-0.10362151
-4.4477773	nacería	-0.10362151
-4.178099	volar	-0.10362155
-4.4477773	cumbre	-0.10362155
-4.4477773	indicaron	-0.10362151
-4.4477773	celebró	-0.10362155
-4.27479	moscas	-0.132804
-4.4477773	entendían	-0.10362151
-4.27479	lenguaje	-0.10362151
-4.4477773	atas	-0.10362151
-4.27479	Ella	-0.1450492
-4.178099	sabrá	-0.10362155
-3.3704975	esto	-0.1978929
-4.4477773	pintaron	-0.10362151
-4.4477773	coquetamente	-0.10362151
-4.178099	papas	-0.10362151
-4.178099	mostró	-0.10362151
-4.0267296	tesoros	-0.132804
-4.4477773	apilados	-0.10362151
-4.4477773	señas	-0.10362151
-4.27479	colgados	-0.10362151
-4.0267296	cambio	-0.14990598
-4.27479	das	-0.17503992
-4.4477773	tuya	-0.10362151
-4.178099	saltar	-0.17503992
-4.4477773	devorarla	-0.10362151
-4.4477773	oscuridad	-0.10362151
-4.27479	serían	-0.10362151
-4.4477773	inmediato	-0.10362155
-4.178099	bondad	-0.10362151
-4.27479	perezosa	-0.10362151
-4.178099	gustaba	-0.10362151
-4.4477773	maldición	-0.10362151
-4.4477773	provisión	-0.10362151
-4.27479	cansancio	-0.10362151
-3.8257241	año	-0.1450492
-3.751914	posada	-0.14111541
-4.178099	posadero	-0.10362151
-4.4477773	recibía	-0.10362151
-4.0267296	avellano	-0.10362151
-4.27479	palomas	-0.10362151
-4.178099	quebraron	-0.10362155
-4.4477773	costillas	-0.10362151
-4.4477773	armarios	-0.10362151
-4.178099	sacaron	-0.10362155
-4.4477773	preciosos	-0.10362151
-3.3704975	vestidos	-0.36225247
-4.4477773	Viga	-0.10362151
-4.4477773	fatigados	-0.10362151
-4.0267296	dormidos	-0.15605444
-4.178099	pensado	-0.10362155
-3.8257241	crecía	-0.10362151
-4.178099	pañuelo	-0.10362151
-4.4477773	formas	-0.10362151
-4.4477773	payaso	-0.10362151
-4.4477773	despertará	-0.10362151
-4.4477773	infatigable	-0.10362151
-4.4477773	industriosidad	-0.10362151
-4.178099	valor	-0.10362155
-3.3996594	suficiente	-0.31855935
-4.4477773	cambiarte	-0.10362151
-4.4477773	anunció	-0.10362151
-3.6888447	respondió	-0.21333519
-3.751914	usar	-0.132804
-4.4477773	recorrió	-0.10362151
-4.0267296	cuerpo	-0.132804
-4.4477773	Entra	-0.10362151
-4.27479	Hey	-0.17503992
-4.178099	Henry	-0.10362151
-4.27479	quebrando	-0.10362151
-4.27479	paloma	-0.10362155
-4.4477773	Debes	-0.10362155
-4.27479	retornar	-0.10362151
-4.27479	Esposo	-0.10362155
-3.8257241	seré	-0.10362155
-3.6888447	Super	-0.71856767
-4.4477773	Emperadora	-0.10362151
-4.178099	trigo	-0.1450492
-4.178099	nació	-0.10362155
-4.0267296	granos	-0.10362151
-4.4477773	maduraron	-0.10362151
-4.4477773	diciéndoles	-0.10362151
-4.4477773	sacaré	-0.10362151
-3.6888447	regresaron	-0.1892444
-4.4477773	dueños	-0.10362151
-4.27479	disfrutó	-0.10362151
-4.4477773	gozó	-0.10362151
-4.4477773	Recuerdas	-0.10362151
-4.27479	dijiste	-0.10362151
-4.27479	trataré	-0.10362151
-4.4477773	habitarás	-0.10362151
-3.9147003	hilado	-0.17503992
-4.0267296	muchachas	-0.2069268
-4.4477773	decidía	-0.10362151
-3.6888447	cual	-0.12904716
-4.4477773	empezaría	-0.10362151
-4.178099	Ésta	-0.2069268
-4.4477773	calabaza	-0.10362151
-4.178099	claro	-0.13786426
-4.0267296	encendió	-0.1450492
-4.4477773	fósforo	-0.10362151
-4.4477773	alumbrarlos	-0.10362151
-4.27479	región	-0.21569817
-4.27479	Estás	-0.10362151
-4.4477773	pídale	-0.10362151
-4.27479	pase	-0.21569817
-3.751914	podrá	-0.15605444
-4.0267296	sacos	-0.13786426
-4.4477773	implorándoles	-0.10362151
-4.4477773	ayudaran	-0.10362151
-4.4477773	sienta	-0.10362151
-4.27479	cantar	-0.17503992
-4.27479	sintieron	-0.10362151
-4.4477773	seguras	-0.10362151
-4.27479	creaturas	-0.10362151
-3.4646094	libre	-0.35628816
-4.178099	problemas	-0.17503992
-4.4477773	poniéndosela	-0.10362151
-4.27479	adiós	-0.21569817
-4.4477773	prendieron	-0.10362151
-4.4477773	costados	-0.10362151
-4.27479	edificio	-0.10362151
-4.4477773	Esperaré	-0.10362151
-4.4477773	próximo	-0.10362151
-3.8257241	arroyo	-0.25485826
-4.4477773	reemprendió	-0.10362151
-4.27479	abuela	-0.13786426
-4.0267296	habló	-0.10362151
-4.0267296	suavemente	-0.10362151
-4.4477773	roncó	-0.10362151
-4.178099	precioso	-0.17503992
-4.4477773	considerar	-0.10362151
-3.751914	tendría	-0.15220976
-4.4477773	fijó	-0.10362151
-4.4477773	permanecer	-0.10362151
-3.2931914	adelante	-0.23264468
-4.4477773	Nosotros	-0.10362151
-4.27479	queremos	-0.10362151
-3.8257241	plata	-0.17492221
-3.751914	volaron	-0.2164089
-4.178099	hacienda	-0.16408966
-3.3704975	exactamente	-0.15706211
-4.0267296	orden	-0.16408966
-4.4477773	Carabás	-0.10362151
-4.178099	conocido	-0.10362155
-4.27479	venado	-0.10362151
-4.4477773	saliendo	-0.10362151
-4.4477773	favorables	-0.10362151
-4.4477773	desfavorables	-0.10362151
-4.178099	celebrar	-0.23710841
-4.4477773	entregarle	-0.10362151
-3.6337838	aceptó	-0.21080339
-4.178099	trato	-0.132804
-4.4477773	abrirá	-0.10362151
-4.4477773	ornamentado	-0.10362151
-3.5849247	perlas	-0.32087016
-4.27479	continuamente	-0.10362151
-3.5410106	pensando	-0.33401844
-4.178099	botella	-0.17482138
-4.4477773	norte	-0.10362151
-4.0267296	abierto	-0.19084942
-4.27479	llenado	-0.10362155
-3.9147003	querido	-0.10362151
-4.4477773	roar	-0.10362151
-4.27479	..	-0.10362151
-3.5849247	...	-0.21168923
-3.3704975	mayor	-0.157916
-4.178099	quedar	-0.10362155
-3.6337838	estás	-0.11229744
-3.6337838	vas	-0.28610808
-4.4477773	apurada	-0.10362151
-4.4477773	fueras	-0.10362151
-4.4477773	escuela	-0.10362151
-4.0267296	asomó	-0.132804
-4.4477773	Fui	-0.10362151
-3.751914	ramas	-0.1573727
-4.4477773	tupidas	-0.10362151
-4.4477773	colaba	-0.10362151
-4.4477773	rayo	-0.10362155
-4.4477773	obligaba	-0.10362151
-4.4477773	callar	-0.10362151
-4.27479	meses	-0.10362151
-4.27479	prendedor	-0.21569817
-4.27479	faltaba	-0.10362151
-4.178099	perla	-0.17503992
-4.4477773	dirigieron	-0.10362151
-3.8257241	enseguida	-0.11699644
-4.178099	llave	-0.10362151
-4.27479	espantó	-0.10362151
-4.0267296	gustaría	-0.10362151
-4.178099	alfombra	-0.10362155
-3.9147003	fina	-0.13786426
-4.4477773	tendrían	-0.10362151
-4.27479	trajes	-0.10362155
-4.178099	nuevos	-0.10362155
-4.4477773	quietecita	-0.10362151
-3.4309213	lugar	-0.24179222
-4.4477773	pronosticando	-0.10362151
-3.5849247	buen	-0.11746504
-4.0267296	atravesar	-0.15605444
-4.27479	muro	-0.15605444
-4.178099	espinos	-0.19084942
-4.178099	toma	-0.10362151
-4.27479	trago	-0.10362151
-4.0267296	baja	-0.10362151
-4.4477773	limpió	-0.10362151
-3.8257241	creía	-0.4131997
-4.27479	subido	-0.10362151
-4.4477773	peras	-0.10362151
-4.27479	Levántame	-0.10362151
-4.4477773	concedido	-0.10362151
-4.4477773	oración	-0.10362151
-3.9147003	dices	-0.2069268
-3.8257241	perdido	-0.13786426
-4.0267296	regalo	-0.23710841
-4.27479	estrella	-0.10362151
-4.4477773	concibió	-0.10362151
-4.4477773	demuestras	-0.10362151
-3.751914	ruido	-0.14990598
-4.4477773	032-Los	-0.10362151
-4.4477773	Duendes	-0.10362151
-4.178099	hermoso	-0.10362155
-4.0267296	brillantes	-0.15605444
-4.27479	paraba	-0.10362151
-3.4646094	abajo	-0.18449898
-3.9147003	enviado	-0.10362151
-4.178099	permaneció	-0.10362155
-4.27479	solicitud	-0.10362151
-4.4477773	arreglaron	-0.10362151
-4.4477773	espejos	-0.10362151
-4.178099	preciso	-0.17503992
-4.27479	piqueta	-0.10362151
-4.4477773	desprendiera	-0.10362151
-4.4477773	mate	-0.10362151
-3.6888447	paró	-0.1573727
-3.9147003	mar	-0.1917738
-3.9147003	pensar	-0.19780517
-4.4477773	párpados	-0.10362151
-4.4477773	Antes	-0.10362151
-4.4477773	puedas	-0.10362151
-4.0267296	recibir	-0.10362151
-3.9147003	mitad	-0.2658401
-4.4477773	quemarlo	-0.10362151
-3.751914	completamente	-0.17482138
-4.27479	propio	-0.10362155
-4.4477773	concepto	-0.10362151
-4.4477773	distinguido	-0.10362151
-4.27479	caballero	-0.10362151
-4.4477773	pegó	-0.10362151
-4.4477773	botó	-0.10362151
-4.4477773	bajado	-0.10362151
-4.4477773	comes	-0.10362151
-3.751914	roja	-0.18485321
-3.751914	blanca	-0.19469324
-4.4477773	Empezamos	-0.10362151
-4.0267296	reyes	-0.10362151
-4.4477773	Justo	-0.10362151
-4.4477773	observen	-0.10362151
-4.4477773	poca	-0.10362151
-4.4477773	distinguía	-0.10362151
-4.0267296	amada	-0.17482138
-4.4477773	quebraría	-0.10362151
-4.4477773	caería	-0.10362151
-4.0267296	tercer	-0.1290472
-4.27479	marchado	-0.10362151
-4.27479	cubiertas	-0.21569817
-4.4477773	límpido	-0.10362151
-4.27479	aplanado	-0.10362151
-4.27479	arreos	-0.10362151
-4.27479	cadenas	-0.10362151
-4.27479	enredado	-0.10362151
-4.4477773	fingiendo	-0.10362151
-4.178099	hollín	-0.10362151
-4.4477773	Ustedes	-0.10362151
-3.6337838	igual	-0.16115053
-4.27479	azadón	-0.10362151
-3.8257241	dejado	-0.10362155
-4.4477773	materna	-0.10362151
-4.0267296	avanzaba	-0.15605444
-4.27479	despacio	-0.10362151
-4.27479	gratis	-0.21569817
-3.9147003	podemos	-0.132804
-4.4477773	atravesarlo	-0.10362151
-4.4477773	saberse	-0.10362151
-4.4477773	noticia	-0.10362151
-4.4477773	regocijaron	-0.10362155
-4.27479	familiar	-0.10362151
-4.4477773	recorrería	-0.10362151
-4.4477773	rivera	-0.10362151
-4.4477773	rescatado	-0.10362151
-4.4477773	terrorífica	-0.10362151
-4.4477773	funciona	-0.10362151
-4.4477773	riendo	-0.10362151
-4.4477773	sobrepasara	-0.10362151
-4.4477773	hermosura	-0.10362151
-4.178099	almohada	-0.29259893
-3.9147003	brillante	-0.10362151
-4.4477773	paga	-0.10362151
-4.4477773	adicional	-0.10362151
-4.4477773	atónita	-0.10362151
-2.9204936	entre	-0.42586362
-4.0267296	cenizas	-0.121963985
-4.4477773	valiosas	-0.10362151
-4.4477773	tiraron	-0.10362151
-4.4477773	consentimiento	-0.10362151
-4.0267296	padres	-0.16115053
-4.4477773	carretes	-0.10362151
-4.0267296	llenos	-0.15605444
-4.4477773	molestos	-0.10362151
-4.0267296	preguntaron	-0.10362151
-3.6888447	extraño	-0.14756104
-3.6888447	seguro	-0.14677449
-4.4477773	sostener	-0.10362151
-4.27479	doblada	-0.10362155
-4.4477773	banda	-0.10362151
-3.751914	casita	-0.18142797
-4.27479	besó	-0.17503992
-3.3704975	Dios	-0.20973131
-3.8257241	voló	-0.13786426
-4.27479	arbustos	-0.17503992
-3.8257241	tuviera	-0.25485826
-4.4477773	estrecho	-0.10362151
-4.4477773	atrapado	-0.10362151
-4.4477773	Cuánto	-0.10362151
-4.27479	verte	-0.10362151
-4.0267296	cubierto	-0.15605444
-4.0267296	veré	-0.10362151
-3.4309213	durante	-0.19274019
-4.27479	viaje	-0.1450492
-4.4477773	resistir	-0.10362151
-4.178099	antojo	-0.17503992
-4.4477773	probarla	-0.10362151
-4.4477773	sugerencia	-0.10362151
-4.0267296	león	-0.20371743
-4.4477773	Pégale	-0.10362151
-4.27479	pálido	-0.10362151
-4.4477773	jorobado	-0.10362151
-3.9147003	únicamente	-0.10362151
-4.27479	avaro	-0.21569817
-3.6337838	fortuna	-0.28883025
-4.27479	cuyas	-0.10362151
-4.4477773	analizaron	-0.10362151
-4.27479	debían	-0.10362151
-4.4477773	programarse	-0.10362151
-4.178099	oculto	-0.10362155
-3.5410106	;	-0.5493495
-4.4477773	adolescente	-0.10362151
-4.0267296	espíritu	-0.10362151
-3.751914	recogido	-0.132804
-4.27479	judías	-0.10362155
-4.4477773	cocinarlas	-0.10362151
-4.178099	metros	-0.17503992
-4.178099	carrera	-0.10362151
-4.4477773	Seguro	-0.10362155
-4.27479	soñando	-0.10362151
-4.4477773	contesto	-0.10362151
-3.751914	alta	-0.1290472
-4.4477773	correré	-0.10362151
-4.4477773	cuantas	-0.10362151
-4.27479	Esta	-0.15605444
-3.6888447	piel	-0.12040548
-4.4477773	Vengan	-0.10362151
-4.4477773	diciéndose	-0.10362151
-4.4477773	actuaba	-0.10362151
-3.5410106	hacerlo	-0.21627955
-4.4477773	resumen	-0.10362151
-4.27479	conocimientos	-0.10362151
-4.0267296	hacían	-0.10362151
-4.4477773	groserías	-0.10362151
-4.178099	imaginarse	-0.10362155
-4.4477773	tragué	-0.10362151
-4.27479	sortija	-0.10362151
-4.27479	Reina	-0.10362155
-4.0267296	prueba	-0.19084942
-4.0267296	encontraba	-0.10362151
-4.27479	encerró	-0.10362151
-4.4477773	enrejada	-0.10362151
-4.4477773	alejó	-0.10362151
-4.178099	comenzar	-0.17503992
-4.4477773	pajaro	-0.10362151
-4.27479	entregado	-0.10362151
-4.4477773	siguientes	-0.10362151
-4.4477773	generaciones	-0.10362151
-4.178099	opinión	-0.10362155
-3.4309213	otras	-0.15111697
-4.27479	altas	-0.10362151
-4.27479	torres	-0.10362151
-4.4477773	castillos	-0.10362151
-3.4646094	tomar	-0.16063103
-4.4477773	proveyeron	-0.10362151
-3.8257241	alimento	-0.10362155
-3.8257241	ansiedad	-0.13786426
-4.178099	gorda	-0.1450492
-4.4477773	agradecer	-0.10362151
-4.4477773	gesto	-0.10362151
-4.27479	comedor	-0.21569817
-4.4477773	disfruten	-0.10362151
-4.27479	comprendió	-0.21569817
-4.4477773	traicionó	-0.10362151
-4.178099	Tú	-0.16216737
-4.0267296	ayudar	-0.17503992
-4.178099	gusta	-0.10362151
-4.0267296	pedirle	-0.15605444
-4.4477773	melena	-0.10362151
-4.4477773	sofocar	-0.10362151
-4.4477773	retornaban	-0.10362151
-4.4477773	impacientó	-0.10362151
-4.4477773	retornaba	-0.10362151
-4.4477773	demandando	-0.10362151
-4.4477773	nombró	-0.10362151
-3.9147003	corte	-0.14111541
-4.27479	próxima	-0.17503992
-3.751914	Yoringel	-0.1450492
-3.8257241	tampoco	-0.13786426
-4.4477773	oigo	-0.10362151
-4.4477773	sonar	-0.10362151
-4.0267296	trompetas	-0.2069268
-4.0267296	reía	-0.15605444
-4.178099	burlonamente	-0.10362155
-4.27479	Ese	-0.10362155
-4.4477773	pícaro	-0.10362151
-4.27479	burlarse	-0.10362151
-4.4477773	condenadas	-0.10362151
-4.27479	forzados	-0.10362151
-4.4477773	aguantaba	-0.10362151
-4.27479	chica	-0.10362151
-4.0267296	malvada	-0.12614746
-4.27479	inocentemente	-0.10362151
-4.4477773	permitirá	-0.10362151
-4.4477773	vencer	-0.10362151
-4.4477773	ejércitos	-0.10362151
-4.27479	completos	-0.10362151
-3.9147003	cabello	-0.22933589
-3.4646094	negro	-0.17783846
-4.178099	ébano	-0.10362151
-4.4477773	punto	-0.10362151
-4.4477773	encenderlo	-0.10362151
-4.178099	asustada	-0.10362155
-4.4477773	líder	-0.10362151
-4.27479	rompió	-0.10362151
-4.178099	escribió	-0.10362155
-3.3174627	diciendo	-0.43316197
-3.8257241	llegara	-0.18357839
-4.4477773	consintieron	-0.10362151
-4.0267296	dieron	-0.10362151
-4.4477773	independencia	-0.10362151
-4.4477773	pareces	-0.10362151
-4.178099	imaginar	-0.10362151
-4.27479	marqués	-0.10362155
-4.4477773	brindó	-0.10362151
-4.4477773	ayudarle	-0.10362151
-4.4477773	maizal	-0.10362151
-4.4477773	enfrente	-0.10362151
-3.6337838	Allerleirauh	-0.13786426
-4.4477773	esplendoroso	-0.10362151
-4.178099	respeto	-0.10362155
-4.4477773	individuo	-0.10362151
-4.27479	Hola	-0.10362155
-4.4477773	mansas	-0.10362151
-4.4477773	palomitas	-0.10362151
-4.27479	tortolitas	-0.21569817
-4.4477773	envidia	-0.10362151
-4.4477773	odio	-0.10362151
-4.178099	levantaron	-0.13786426
-3.8257241	además	-0.16035919
-3.8257241	oído	-0.10362151
-4.27479	abuelo	-0.21569817
-4.178099	hacemos	-0.10362155
-4.4477773	mías	-0.10362151
-4.178099	encuentro	-0.10362155
-4.27479	presentimiento	-0.10362151
-4.27479	escalera	-0.15605444
-3.6888447	levantó	-0.18515094
-4.27479	entendido	-0.10362151
-3.6888447	mucha	-0.103621475
-4.4477773	astucia	-0.10362151
-4.0267296	evitar	-0.10362151
-4.0267296	desdicha	-0.15605444
-4.4477773	Gracias	-0.10362151
-4.178099	cielo	-0.16216737
-4.27479	liberó	-0.10362151
-4.27479	escapé	-0.10362151
-4.4477773	pellejo	-0.10362151
-3.8257241	entero	-0.1290472
-3.5849247	piedad	-0.16115053
-4.27479	dejé	-0.10362151
-4.4477773	alegró	-0.10362151
-4.178099	verla	-0.10362155
-4.27479	esperado	-0.10362155
-4.4477773	cazados	-0.10362151
-4.4477773	halcones	-0.10362151
-3.9147003	tarde	-0.1290472
-4.4477773	creación	-0.10362151
-4.4477773	divina	-0.10362151
-4.0267296	ocurrió	-0.2069268
-4.4477773	Navidad	-0.10362151
-4.4477773	moriré	-0.10362151
-4.0267296	continuó	-0.10362151
-4.4477773	preguntando	-0.10362151
-4.27479	viuda	-0.21569817
-3.8257241	quisiera	-0.10362151
-4.4477773	carabina	-0.10362151
-4.27479	oeste	-0.21569817
-4.4477773	molestó	-0.10362155
-4.4477773	Pasada	-0.10362151
-4.4477773	acató	-0.10362151
-4.4477773	repetía	-0.10362151
-4.4477773	curiosos	-0.10362151
-4.0267296	vivo	-0.10362151
-4.4477773	anunciarse	-0.10362151
-4.4477773	competidor	-0.10362151
-4.4477773	contarlos	-0.10362151
-4.4477773	conduce	-0.10362151
-4.4477773	cariñosa	-0.10362151
-4.0267296	escuchando	-0.21569817
-4.27479	claramente	-0.10362151
-4.27479	mascotas	-0.10362151
-4.178099	ayudará	-0.15605444
-3.8257241	problema	-0.17482138
-4.0267296	pone	-0.1450492
-3.751914	abrigo	-0.21619007
-4.178099	carbones	-0.10362155
-3.9147003	sentía	-0.10362151
-4.4477773	preparar	-0.10362151
-4.27479	demás	-0.132804
-3.5849247	cuidado	-0.30118704
-4.178099	pedazo	-0.23710841
-4.4477773	aleros	-0.10362151
-3.9147003	traía	-0.10362151
-4.4477773	mirándola	-0.10362155
-3.5011322	salieron	-0.16942236
-4.4477773	lloraron	-0.10362151
-4.4477773	largos	-0.10362151
-4.0267296	sucede	-0.1450492
-4.178099	pesada	-0.10362155
-4.4477773	subirte	-0.10362151
-4.178099	escoger	-0.17503992
-4.178099	monstruo	-0.10362155
-4.4477773	apareceré	-0.10362151
-4.4477773	regañó	-0.10362151
-4.4477773	dureza	-0.10362151
-4.27479	preciosas	-0.10362155
-4.4477773	quedaré	-0.10362151
-3.2702053	contigo	-0.23917612
-4.4477773	importe	-0.10362151
-3.3174627	lejos	-0.2850772
-4.0267296	pudieron	-0.10362151
-3.8257241	darle	-0.1290472
-4.4477773	modesta	-0.10362151
-3.6888447	persona	-0.12614746
-4.4477773	permitir	-0.10362151
-4.4477773	burlen	-0.10362151
-4.27479	pertenecerá	-0.10362151
-4.0267296	lindo	-0.10362151
-3.6337838	pueblo	-0.18784088
-4.4477773	sospechó	-0.10362151
-4.27479	Buenas	-0.1450492
-3.9147003	noches	-0.16408966
-4.4477773	hiciste	-0.10362151
-4.4477773	castigada	-0.10362151
-4.4477773	protegerse	-0.10362151
-4.4477773	clima	-0.10362151
-4.27479	encantador	-0.10362151
-4.27479	bellos	-0.10362151
-4.4477773	modales	-0.10362151
-4.27479	maté	-0.21569817
-4.178099	caballeros	-0.10362151
-4.4477773	seguían	-0.10362151
-4.178099	respirar	-0.10362155
-3.751914	parecía	-0.13786426
-4.4477773	movía	-0.10362151
-4.4477773	presintiendo	-0.10362151
-3.751914	dejar	-0.15605444
-4.4477773	guadaña	-0.10362151
-3.5849247	cuervos	-0.14372474
-4.4477773	ahorcados	-0.10362151
-4.4477773	impuesto	-0.10362151
-4.178099	terrible	-0.10362151
-4.178099	castigo	-0.17503992
-4.27479	llamaban	-0.10362155
-4.4477773	Lista	-0.10362151
-4.4477773	parándose	-0.10362151
-4.4477773	internó	-0.10362151
-3.751914	mirando	-0.10362151
-3.9147003	izquierda	-0.1450492
-4.178099	derecha	-0.10362151
-3.9147003	oía	-0.10362151
-4.4477773	campanillas	-0.10362151
-4.27479	abrían	-0.10362151
-4.27479	oscurecer	-0.10362151
-4.0267296	orgullosa	-0.21569817
-4.178099	horno	-0.23710841
-4.4477773	Veo	-0.10362151
-4.27479	vender	-0.10362151
-4.4477773	Corre	-0.10362151
-4.4477773	vete	-0.10362151
-4.178099	olvidó	-0.10362151
-4.4477773	rezar	-0.10362151
-4.27479	pecadores	-0.10362151
-4.27479	colgaban	-0.10362155
-4.0267296	cierta	-0.15605444
-3.9147003	palabra	-0.14990598
-3.6888447	jardín	-0.24020644
-3.9147003	patio	-0.16408966
-4.4477773	chiquitos	-0.10362151
-3.9147003	quedarse	-0.10362155
-4.4477773	acertada	-0.10362151
-3.751914	respuesta	-0.16216737
-4.27479	juego	-0.21569817
-4.27479	plateado	-0.21569817
-4.27479	Él	-0.10362155
-4.4477773	amará	-0.10362151
-3.6888447	comido	-0.10362151
-4.4477773	darías	-0.10362151
-4.178099	acaso	-0.10362155
-3.9147003	razón	-0.13786426
-4.4477773	dejándolo	-0.10362151
-4.27479	reconocieron	-0.10362151
-4.4477773	024-Hermano	-0.10362151
-4.178099	altura	-0.17503992
-4.27479	condiciones	-0.10362151
-4.0267296	debido	-0.23710841
-4.4477773	falleció	-0.10362151
-4.4477773	finges	-0.10362151
-4.4477773	Con	-0.10362155
-4.27479	éstas	-0.10362151
-4.4477773	botellas	-0.10362151
-4.4477773	saludable	-0.10362151
-4.4477773	juventud	-0.10362151
-4.4477773	colgaran	-0.10362151
-4.27479	largas	-0.10362155
-4.4477773	preocuparon	-0.10362151
-4.4477773	replicaron	-0.10362151
-4.4477773	obispo	-0.10362151
-4.4477773	dejarse	-0.10362151
-4.27479	casar	-0.10362151
-3.9147003	músico	-0.16216737
-4.4477773	acto	-0.10362151
-4.0267296	creyó	-0.10362151
-4.178099	encontrarse	-0.10362155
-4.4477773	séptima	-0.10362151
-4.0267296	falta	-0.21569817
-4.27479	peligroso	-0.10362151
-4.4477773	descubierto	-0.10362151
-4.178099	sentadas	-0.10362155
-4.27479	cocinero	-0.11699644
-4.27479	dejarla	-0.10362151
-4.4477773	contarlas	-0.10362151
-4.0267296	pieza	-0.2069268
-4.27479	dientes	-0.10362151
-4.4477773	muerden	-0.10362151
-4.178099	lavó	-0.10362151
-4.4477773	ordenados	-0.10362151
-4.4477773	hirió	-0.10362151
-4.4477773	levemente	-0.10362151
-4.27479	pagó	-0.10362151
-4.27479	costumbre	-0.15605444
-4.4477773	alumbra	-0.10362151
-3.6888447	azul	-0.22703297
-4.4477773	apaga	-0.10362151
-4.178099	sentían	-0.10362151
-3.9147003	tí	-0.24584575
-4.4477773	cambia	-0.10362151
-4.0267296	carreta	-0.13786426
-4.4477773	Quieren	-0.10362151
-4.0267296	horriblemente	-0.10362151
-4.4477773	partido	-0.10362151
-4.27479	partes	-0.15605444
-4.4477773	verg	-0.10362151
-4.27479	+	-0.10362151
-4.4477773	enza	-0.10362151
-4.4477773	inútil	-0.10362151
-4.27479	saltaban	-0.10362151
-4.178099	Te	-0.10362151
-4.4477773	aseguro	-0.10362151
-4.4477773	imágenes	-0.10362151
-4.4477773	alabastro	-0.10362151
-4.4477773	decoraciones	-0.10362151
-4.4477773	actuar	-0.10362151
-4.4477773	delicadeza	-0.10362151
-3.9147003	fácilmente	-0.19084942
-4.4477773	darnos	-0.10362151
-4.4477773	dejamos	-0.10362151
-4.4477773	hiló	-0.10362151
-4.0267296	convirtió	-0.1450492
-4.4477773	ocultó	-0.10362151
-4.4477773	alacena	-0.10362151
-3.9147003	oír	-0.10362155
-4.27479	soplado	-0.10362151
-4.0267296	tormenta	-0.15605444
-4.4477773	visitarlos	-0.10362151
-4.4477773	cogieron	-0.10362151
-4.0267296	Comadre	-0.23710841
-4.4477773	Loba	-0.10362155
-3.5849247	nuestro	-0.10362151
-4.178099	tejer	-0.17503992
-3.4646094	fuertemente	-0.20710692
-4.178099	guardó	-0.10362155
-3.8257241	bolso	-0.2873985
-4.4477773	Nadie	-0.10362151
-4.4477773	dormi	-0.10362151
-4.0267296	tenemos	-0.10362151
-4.4477773	Hermano	-0.10362151
-4.178099	despierto	-0.10362155
-4.4477773	afila	-0.10362151
-4.178099	pico	-0.15605444
-4.27479	vacío	-0.10362151
-4.27479	cortesmente	-0.10362151
-4.178099	Bremen	-0.17503992
-4.4477773	vano	-0.10362151
-4.4477773	argumentó	-0.10362151
-4.4477773	inocencia	-0.10362151
-4.0267296	aterrorizado	-0.15605444
-4.4477773	gruesa	-0.10362151
-4.0267296	justamente	-0.10362151
-4.4477773	descendieron	-0.10362151
-4.27479	llores	-0.10362151
-4.0267296	ganado	-0.10362151
-4.0267296	mejores	-0.132804
-4.4477773	coches	-0.10362151
-3.8257241	encontrado	-0.10362155
-4.178099	conciencia	-0.15605444
-4.4477773	aceptarán	-0.10362151
-4.27479	correctamente	-0.10362151
-4.178099	máximo	-0.10362151
-4.178099	vecinos	-0.10362155
-4.27479	condenado	-0.21569817
-4.4477773	mirarlo	-0.10362151
-4.27479	soplar	-0.10362151
-4.178099	malos	-0.10362151
-4.4477773	entendidos	-0.10362151
-4.178099	general	-0.10362151
-4.4477773	subo	-0.10362151
-4.4477773	cogerlas	-0.10362151
-4.4477773	adelantó	-0.10362155
-4.4477773	saludarla	-0.10362151
-4.4477773	peinaré	-0.10362151
-4.27479	apropiadamente	-0.21569817
-3.5011322	pudiera	-0.1290472
-3.343171	algún	-0.14636311
-4.4477773	beberé	-0.10362151
-4.4477773	digas	-0.10362151
-4.0267296	lentejas	-0.10362155
-3.751914	tienen	-0.10362151
-4.4477773	mezcladas	-0.10362151
-4.178099	huevo	-0.1450492
-4.4477773	callaron	-0.10362151
-4.0267296	condujo	-0.2069268
-4.0267296	contestaron	-0.1450492
-4.4477773	lanza	-0.10362151
-4.27479	retorna	-0.10362151
-4.4477773	cenado	-0.10362151
-4.0267296	bebido	-0.10362151
-3.9147003	cansado	-0.18791145
-4.27479	desearon	-0.10362151
-3.8257241	felicidad	-0.17482138
-4.0267296	matrimonio	-0.10362155
-4.27479	Pico	-0.21569817
-4.4477773	Tordo	-0.10362151
-4.4477773	zumbaban	-0.10362151
-4.4477773	llegamos	-0.10362151
-4.4477773	confín	-0.10362151
-4.27479	prójimo	-0.10362151
-4.0267296	trajeron	-0.10362151
-4.27479	cómodamente	-0.10362151
-4.4477773	empezaba	-0.10362151
-4.4477773	cordero	-0.10362151
-4.4477773	comían	-0.10362151
-4.27479	permanecía	-0.10362151
-4.4477773	inmutable	-0.10362151
-4.4477773	poste	-0.10362151
-4.4477773	subí	-0.10362151
-4.178099	enorme	-0.10362151
-4.27479	hondo	-0.21569817
-4.27479	encendieron	-0.10362151
-4.178099	candelas	-0.23710841
-4.4477773	manejada	-0.10362151
-4.4477773	mírame	-0.10362151
-4.178099	tenga	-0.10362155
-3.751914	poner	-0.17482138
-4.27479	duda	-0.10362151
-4.4477773	búhos	-0.10362151
-4.4477773	cornudo	-0.10362151
-4.4477773	bollos	-0.10362151
-4.178099	llegaban	-0.17503992
-4.27479	barones	-0.10362151
-4.4477773	cortesana	-0.10362151
-4.4477773	desgastan	-0.10362151
-4.27479	obedecieron	-0.21569817
-4.27479	aguanto	-0.10362151
-4.27479	perderás	-0.10362151
-4.178099	gusto	-0.1450492
-4.27479	gruñendo	-0.10362151
-4.4477773	mostrara	-0.10362151
-4.27479	habilidad	-0.10362151
-4.0267296	lentamente	-0.10362151
-4.4477773	sorprendió	-0.10362151
-4.4477773	matará	-0.10362151
-3.8257241	saltaron	-0.13786426
-4.178099	sillas	-0.29259893
-4.4477773	bancos	-0.10362151
-3.9147003	bailó	-0.26740685
-4.4477773	ranita	-0.10362155
-4.178099	bellísima	-0.10362151
-4.4477773	respondieron	-0.10362151
-4.178099	tercero	-0.16408966
-4.27479	detuvo	-0.15605444
-4.27479	cercanos	-0.10362151
-4.27479	recorriendo	-0.10362151
-4.178099	escapó	-0.10362151
-3.751914	rápido	-0.11909113
-4.4477773	otorgado	-0.10362151
-4.4477773	Irás	-0.10362151
-3.4309213	tal	-0.2603696
-4.4477773	aprende	-0.10362151
-4.4477773	manejarlo	-0.10362151
-4.4477773	prontito	-0.10362151
-4.0267296	dará	-0.10362151
-4.0267296	nuevas	-0.10362151
-4.4477773	pondrás	-0.10362151
-4.27479	queridos	-0.10362151
-4.4477773	disputa	-0.10362151
-4.4477773	necesitó	-0.10362151
-4.4477773	insistencia	-0.10362151
-4.27479	lamentarse	-0.10362151
-3.6888447	otros	-0.14756104
-4.27479	pasara	-0.10362151
-4.4477773	señalando	-0.10362151
-3.9147003	dedo	-0.12040548
-4.27479	rodeado	-0.10362151
-4.4477773	palacios	-0.10362151
-4.178099	menores	-0.10362155
-4.4477773	levántate	-0.10362151
-4.4477773	asómate	-0.10362151
-4.178099	entraba	-0.10362155
-4.4477773	alisaban	-0.10362151
-3.9147003	plumas	-0.132804
-4.4477773	espeso	-0.10362151
-3.751914	estos	-0.132804
-4.4477773	armó	-0.10362151
-4.4477773	tardó	-0.10362151
-4.178099	famoso	-0.10362155
-3.9147003	pesados	-0.10362151
-4.4477773	plomo	-0.10362151
-4.4477773	cerrado	-0.10362155
-4.4477773	susurró	-0.10362151
-4.0267296	caminó	-0.10362151
-4.4477773	detienes	-0.10362151
-4.4477773	quedas	-0.10362151
-3.5849247	viendo	-0.121963985
-4.4477773	circunstancia	-0.10362151
-4.178099	desconocida	-0.15605444
-4.4477773	cambiada	-0.10362151
-4.4477773	abrazarte	-0.10362151
-4.4477773	desabotonando	-0.10362151
-4.4477773	chaqueta	-0.10362151
-4.27479	cinta	-0.10362151
-3.751914	iré	-0.10362151
-4.4477773	Perlas	-0.10362151
-3.5011322	lleno	-0.8946589
-4.4477773	gozo	-0.10362151
-4.4477773	lamentable	-0.10362151
-4.178099	colinas	-0.10362155
-4.4477773	Como	-0.10362151
-4.178099	Entonces	-0.10362151
-4.27479	hacernos	-0.21569817
-4.4477773	decirnos	-0.10362151
-4.27479	violentamente	-0.10362151
-4.4477773	luchar	-0.10362151
-4.27479	poderoso	-0.10362151
-4.27479	enemigo	-0.10362151
-4.4477773	Han	-0.10362151
-4.27479	ordenado	-0.10362151
-4.4477773	solicitar	-0.10362151
-4.178099	repentinamente	-0.10362155
-4.4477773	deslizó	-0.10362151
-4.0267296	cueva	-0.1290472
-4.4477773	hallaba	-0.10362151
-4.4477773	sospecharon	-0.10362151
-4.178099	perder	-0.10362155
-4.0267296	cuidadosamente	-0.15605444
-4.27479	caja	-0.10362151
-4.4477773	aburría	-0.10362151
-4.4477773	Margarita	-0.10362151
-4.0267296	diez	-0.15605444
-4.27479	mijo	-0.10362151
-4.4477773	viajaron	-0.10362151
-4.4477773	atemorizó	-0.10362151
-4.4477773	vale	-0.10362151
-4.4477773	maña	-0.10362151
-4.4477773	cabizbajo	-0.10362151
-4.27479	leyeron	-0.10362151
-4.4477773	arrecostándolo	-0.10362151
-3.8257241	morir	-0.25485826
-4.4477773	panorama	-0.10362151
-4.0267296	dicha	-0.132804
-4.0267296	vaya	-0.10362151
-4.4477773	crecimiento	-0.10362151
-4.178099	fiel	-0.15605444
-4.4477773	Soy	-0.10362151
-4.178099	soga	-0.10362151
-4.0267296	cuello	-0.17482138
-4.4477773	practica	-0.10362151
-4.4477773	artes	-0.10362151
-4.4477773	arregles	-0.10362151
-3.751914	totalmente	-0.10362151
-4.0267296	amarró	-0.10362151
-4.4477773	barras	-0.10362151
-4.4477773	angosto	-0.10362151
-4.27479	perdices	-0.10362151
-4.4477773	propina	-0.10362151
-3.8257241	olvidado	-0.1290472
-4.27479	zorro	-0.15605444
-3.4309213	decir	-0.16678657
-4.4477773	oraciones	-0.10362151
-4.4477773	harás	-0.10362151
-4.27479	invisible	-0.10362151
-4.4477773	resorte	-0.10362151
-4.4477773	Deja	-0.10362151
-4.4477773	hazme	-0.10362151
-3.9147003	sopa	-0.14111541
-4.4477773	-Nieves	-0.10362151
-4.4477773	apresurarse	-0.10362151
-4.27479	guardar	-0.10362151
-4.27479	necesitara	-0.10362151
-4.27479	calientes	-0.10362151
-4.4477773	joyero	-0.10362151
-4.4477773	enterrado	-0.10362151
-4.4477773	sonó	-0.10362151
-4.27479	estrepitosamente	-0.10362151
-4.27479	mensajero	-0.10362155
-4.178099	preguntar	-0.10362155
-4.4477773	desataría	-0.10362151
-4.27479	naturaleza	-0.10362151
-4.4477773	sabia	-0.10362151
-4.0267296	conocía	-0.15605444
-3.8257241	dejaba	-0.14111541
-4.0267296	descansar	-0.10362151
-4.178099	danzaban	-0.17503992
-4.4477773	ideó	-0.10362151
-4.27479	notara	-0.10362151
-4.178099	llega	-0.17503992
-4.4477773	castigará	-0.10362151
-4.4477773	admirarlo	-0.10362151
-4.27479	seña	-0.10362151
-4.4477773	trabajarle	-0.10362151
-3.9147003	barrer	-0.1450492
-4.178099	aterrorizada	-0.17503992
-4.27479	partieron	-0.10362155
-4.4477773	matarlos	-0.10362151
-4.4477773	hervirlos	-0.10362151
-4.27479	asarlos	-0.21569817
-4.27479	suciedad	-0.10362151
-4.27479	original	-0.10362151
-4.27479	Sería	-0.10362151
-3.9147003	posible	-0.1450492
-4.4477773	hijitas	-0.10362151
-4.4477773	034-El	-0.10362151
-4.4477773	Campesino	-0.10362151
-4.27479	ataque	-0.10362151
-4.4477773	exhibimos	-0.10362151
-4.4477773	caigo	-0.10362151
-4.178099	En	-0.10362151
-4.4477773	colchas	-0.10362151
-4.4477773	blanquitas	-0.10362151
-4.4477773	maullando	-0.10362151
-3.9147003	parada	-0.1450492
-4.27479	Claro	-0.10362155
-4.4477773	pueblos	-0.10362151
-4.4477773	villas	-0.10362151
-4.178099	vinieron	-0.10362155
-4.4477773	acepto	-0.10362151
-4.27479	advirtió	-0.10362151
-4.4477773	tomaran	-0.10362151
-3.9147003	pelos	-0.13786426
-4.4477773	pasmado	-0.10362151
-4.27479	entendía	-0.10362151
-4.4477773	ápice	-0.10362151
-4.4477773	Tirita	-0.10362151
-4.4477773	tiembla	-0.10362151
-4.27479	arbolito	-0.10362151
-4.27479	pido	-0.10362155
-4.4477773	liberarte	-0.10362151
-3.6888447	llena	-0.3128502
-4.4477773	recorrerlo	-0.10362151
-3.9147003	probar	-0.10362151
-4.4477773	guarida	-0.10362151
-4.4477773	arrodilló	-0.10362155
-4.0267296	gracias	-0.10362151
-4.27479	merced	-0.21569817
-4.4477773	Vayan	-0.10362151
-4.27479	Un	-0.10362155
-3.751914	miedo	-0.26740685
-4.27479	labor	-0.10362151
-4.27479	perdida	-0.10362151
-4.27479	conozco	-0.10362151
-4.4477773	finca	-0.10362151
-4.27479	rebaño	-0.10362151
-4.4477773	ovejas	-0.10362151
-4.27479	tiras	-0.10362151
-4.4477773	mimbre	-0.10362151
-4.27479	engaños	-0.10362151
-4.4477773	acuerda	-0.10362151
-4.4477773	conocerte	-0.10362151
-4.27479	ayudado	-0.10362151
-3.9147003	cabritas	-0.19360246
-4.27479	perros	-0.10362151
-4.4477773	césped	-0.10362151
-4.4477773	panderetas	-0.10362151
-4.27479	tambores	-0.10362155
-4.27479	dicen	-0.10362151
-4.27479	seco	-0.10362151
-4.27479	varillas	-0.10362151
-3.8257241	seis	-0.10362155
-4.4477773	vivitas	-0.10362151
-4.4477773	déjala	-0.10362151
-4.4477773	hambrienta	-0.10362151
-4.178099	desear	-0.10362155
-4.27479	hacerle	-0.21569817
-4.0267296	amor	-0.15605444
-4.4477773	disfracé	-0.10362151
-4.27479	habitantes	-0.10362151
-4.0267296	coger	-0.10362151
-4.4477773	Abre	-0.10362151
-4.178099	traigo	-0.10362155
-4.0267296	pasteles	-0.10362151
-4.178099	durmieron	-0.1290472
-4.27479	ruego	-0.10362151
-4.4477773	bebas	-0.10362151
-4.4477773	galopando	-0.10362151
-4.27479	jinete	-0.10362151
-4.178099	aparentemente	-0.10362155
-4.4477773	borracho	-0.10362151
-3.751914	esperaba	-0.10362151
-4.178099	ansioso	-0.10362155
-4.4477773	incorporaron	-0.10362151
-4.178099	apretado	-0.10362155
-3.5011322	Pulgarcito	-0.1922893
-4.4477773	relataba	-0.10362151
-4.4477773	rezaran	-0.10362151
-4.4477773	entonaba	-0.10362151
-4.4477773	estruendo	-0.10362151
-4.4477773	insiste	-0.10362151
-4.4477773	permaneces	-0.10362151
-4.178099	quedarás	-0.17503992
-4.4477773	ablandarlo	-0.10362151
-4.178099	cuanto	-0.10362151
-4.4477773	pidiendo	-0.10362151
-3.9147003	ciertamente	-0.1290472
-4.27479	fea	-0.10362151
-4.4477773	intrigada	-0.10362151
-4.27479	engordarlo	-0.10362151
-4.27479	contentos	-0.10362151
-4.4477773	cuernos	-0.10362151
-4.27479	cortaron	-0.10362151
-4.0267296	pequeñín	-0.10362151
-4.178099	hablaba	-0.10362155
-4.178099	humilde	-0.15605444
-4.4477773	Siento	-0.10362151
-4.0267296	pesado	-0.10362151
-3.6888447	muchas	-0.12614746
-3.751914	criado	-0.121963985
-4.4477773	lamentarnos	-0.10362151
-4.4477773	empieces	-0.10362151
-4.4477773	discutir	-0.10362151
-4.27479	negocios	-0.10362151
-4.4477773	masculinos	-0.10362151
-4.27479	inspeccionó	-0.10362151
-4.4477773	creciendo	-0.10362151
-3.751914	comió	-0.16734584
-3.751914	gordo	-0.10362151
-4.4477773	accedió	-0.10362151
-3.8257241	malo	-0.10362155
-4.4477773	veras	-0.10362151
-4.27479	cerrada	-0.17503992
-3.3996594	lista	-0.21824189
-4.4477773	magnífica	-0.10362151
-4.4477773	nubes	-0.10362151
-4.4477773	acumulaban	-0.10362151
-4.178099	malvadas	-0.10362155
-4.27479	acciones	-0.10362151
-3.9147003	extendió	-0.10362151
-4.4477773	vioa	-0.10362151
-4.4477773	finamente	-0.10362151
-4.4477773	terminados	-0.10362151
-4.178099	contestaba	-0.10362155
-4.4477773	lamenta	-0.10362151
-4.178099	golpea	-0.10362151
-3.6337838	Rapunzel	-0.24063475
-4.178099	vivió	-0.10362155
-3.8257241	felizmente	-0.13786426
-4.178099	miserablemente	-0.10362155
-4.4477773	espectador	-0.10362151
-4.4477773	ocupada	-0.10362151
-4.27479	tírame	-0.10362151
-4.27479	miraron	-0.17503992
-3.9147003	dicho	-0.10362151
-4.4477773	moraleja	-0.10362151
-4.0267296	historia	-0.17503992
-4.4477773	alimentarse	-0.10362151
-4.4477773	capturando	-0.10362151
-3.751914	caliente	-0.15605444
-4.4477773	estocadas	-0.10362151
-4.4477773	echarme	-0.10362151
-4.4477773	decidí	-0.10362151
-4.4477773	huir	-0.10362151
-4.4477773	liberarse	-0.10362151
-4.4477773	barco	-0.10362151
-4.178099	cualidades	-0.10362155
-4.178099	diferentes	-0.10362151
-4.27479	silenciosamente	-0.10362155
-4.0267296	ruiseñor	-0.10362151
-4.27479	saludo	-0.10362151
-4.27479	Zachiel	-0.10362151
-4.27479	deber	-0.10362151
-4.4477773	lobato	-0.10362151
-4.4477773	comprendan	-0.10362151
-4.27479	devorar	-0.10362151
-4.0267296	mendigo	-0.17482138
-4.178099	cerraron	-0.17503992
-4.4477773	adivinado	-0.10362151
-4.27479	pertenecían	-0.10362151
-4.4477773	segando	-0.10362151
-3.751914	miraba	-0.1290472
-4.27479	maliciosamente	-0.10362151
-4.4477773	lanzársele	-0.10362151
-4.0267296	oscureció	-0.15605444
-4.4477773	Auxilio	-0.10362151
-4.178099	brilla	-0.17503992
-4.4477773	candela	-0.10362151
-4.0267296	ratón	-0.10362151
-4.27479	mordiendo	-0.10362151
-4.27479	raíz	-0.17503992
-4.4477773	mataran	-0.10362151
-4.27479	despreciar	-0.10362151
-4.178099	música	-0.17503992
-4.4477773	calidad	-0.10362151
-4.4477773	revisó	-0.10362151
-4.178099	rincón	-0.10362151
-3.6888447	buscó	-0.11909113
-4.4477773	memoria	-0.10362151
-4.27479	clavó	-0.10362151
-4.4477773	prométemelo	-0.10362151
-4.178099	confeccionado	-0.10362155
-4.4477773	entretenerse	-0.10362151
-4.4477773	Reunió	-0.10362151
-4.4477773	lugareños	-0.10362151
-4.27479	reveló	-0.10362151
-4.27479	maravillosa	-0.10362151
-4.4477773	virtud	-0.10362151
-4.27479	haremos	-0.10362151
-4.0267296	servicio	-0.10362151
-4.4477773	sumo	-0.10362151
-4.4477773	horas	-0.10362155
-4.178099	nosotras	-0.12614746
-4.0267296	adonde	-0.10362151
-4.4477773	gastaron	-0.10362151
-4.4477773	provisiones	-0.10362151
-4.4477773	011-Un	-0.10362151
-4.4477773	Cuento	-0.10362151
-4.4477773	Enigmático	-0.10362151
-3.8257241	cantidad	-0.18791145
-4.27479	tubo	-0.21569817
-4.178099	esperar	-0.10362155
-4.4477773	compradores	-0.10362151
-4.4477773	pagaron	-0.10362151
-4.27479	brotó	-0.17503992
-4.4477773	terrestre	-0.10362151
-3.8257241	deseos	-0.24700433
-4.4477773	Discutieron	-0.10362151
-4.178099	desapareció	-0.10362155
-4.4477773	trepó	-0.10362151
-4.178099	novio	-0.10362155
-4.4477773	regocijó	-0.10362155
-4.4477773	sombreros	-0.10362151
-4.4477773	perdiendo	-0.10362151
-4.4477773	pálida	-0.10362151
-3.6888447	miserable	-0.14990598
-4.4477773	Somos	-0.10362151
-3.8257241	aquellos	-0.10362155
-4.27479	pequeñitos	-0.10362151
-4.4477773	salvaste	-0.10362151
-4.27479	Querido	-0.13786426
-4.4477773	producía	-0.10362151
-4.4477773	molestarlo	-0.10362151
-4.178099	soportar	-0.10362151
-4.178099	hambres	-0.17503992
-4.4477773	-E	-0.10362151
-4.4477773	alegremente	-0.10362151
-4.4477773	firmeza	-0.10362151
-4.4477773	secarse	-0.10362151
-4.27479	toalla	-0.21569817
-4.0267296	bailar	-0.1450492
-4.27479	dejarlo	-0.21569817
-4.27479	convencieron	-0.21569817
-4.4477773	oye	-0.10362151
-4.4477773	carretero	-0.10362151
-4.4477773	arreando	-0.10362151
-3.8257241	dolor	-0.16525638
-4.27479	sufrido	-0.21569817
-4.4477773	036-La	-0.10362151
-4.4477773	Abeja	-0.10362151
-4.4477773	probaré	-0.10362151
-4.178099	cocinar	-0.17503992
-4.4477773	arreglar	-0.10362151
-4.27479	lavar	-0.10362155
-4.178099	coser	-0.15605444
-4.4477773	impaciencia	-0.10362151
-4.27479	desmayado	-0.10362151
-3.8257241	despertaron	-0.28610808
-4.27479	presentaba	-0.10362155
-4.27479	navaja	-0.10362151
-3.9147003	villa	-0.2069268
-4.27479	brinco	-0.10362151
-4.4477773	pidiéndoles	-0.10362151
-4.4477773	cogiste	-0.10362151
-4.27479	tejeré	-0.10362151
-4.27479	encaminó	-0.10362151
-4.0267296	apenas	-0.10362151
-4.4477773	estirando	-0.10362151
-4.4477773	confundían	-0.10362151
-4.27479	pensamientos	-0.10362151
-4.4477773	caían	-0.10362151
-4.4477773	saltado	-0.10362155
-4.4477773	opuesto	-0.10362151
-4.4477773	peral	-0.10362151
-4.4477773	mediante	-0.10362151
-4.27479	cuales	-0.10362151
-4.4477773	realizaban	-0.10362151
-3.8257241	partir	-0.132804
-3.8257241	cumplido	-0.18791145
-4.4477773	presurosa	-0.10362151
-4.4477773	orgullosas	-0.10362151
-4.178099	juicio	-0.10362155
-4.4477773	sanaría	-0.10362151
-4.4477773	ingenio	-0.10362151
-4.4477773	heredan	-0.10362151
-4.4477773	tocaba	-0.10362151
-4.4477773	hechizos	-0.10362151
-4.4477773	Permítame	-0.10362151
-4.4477773	Animal	-0.10362151
-4.27479	peludo	-0.21569817
-4.4477773	confortablemente	-0.10362151
-4.4477773	propias	-0.10362151
-4.4477773	esparció	-0.10362151
-4.4477773	principio	-0.10362151
-4.4477773	sorprendieron	-0.10362151
-4.178099	rodó	-0.10362155
-4.4477773	posó	-0.10362155
-4.0267296	acción	-0.10362151
-4.4477773	depara	-0.10362151
-4.0267296	verlo	-0.15605444
-3.9147003	mantuvo	-0.10362151
-4.27479	Blanca	-0.10362151
-4.0267296	brillaba	-0.10362155
-4.0267296	cacería	-0.18791145
-4.27479	subiendo	-0.10362151
-4.27479	aroma	-0.10362151
-4.4477773	Pedro	-0.10362151
-4.178099	continuaron	-0.17503992
-4.4477773	canta	-0.10362151
-4.4477773	gaviota	-0.10362151
-4.27479	morirá	-0.21569817
-4.4477773	buscarlo	-0.10362151
-4.27479	desplumar	-0.10362151
-3.9147003	ladrones	-0.11699644
-4.4477773	maravillado	-0.10362151
-4.4477773	presentación	-0.10362151
-4.27479	aprendido	-0.10362151
-4.4477773	combates	-0.10362151
-4.0267296	uso	-0.10362151
-4.4477773	cambiaría	-0.10362151
-4.4477773	Crees	-0.10362151
-4.4477773	aplastó	-0.10362151
-4.4477773	mataré	-0.10362151
-4.4477773	cocinaré	-0.10362151
-4.4477773	mayoría	-0.10362151
-4.4477773	madrastras	-0.10362151
-4.27479	averiguar	-0.10362151
-4.4477773	aflicción	-0.10362151
-4.0267296	gritar	-0.10362151
-4.4477773	colectado	-0.10362151
-4.4477773	arrojaron	-0.10362151
-4.0267296	fondo	-0.21928214
-4.27479	borrego	-0.21569817
-4.4477773	loca	-0.10362151
-3.9147003	cuya	-0.10362155
-4.4477773	física	-0.10362151
-4.4477773	excedía	-0.10362151
-4.4477773	comparación	-0.10362151
-4.4477773	dejen	-0.10362151
-3.8257241	estamos	-0.10362155
-4.27479	agradecidos	-0.10362151
-4.4477773	decimotercera	-0.10362151
-4.4477773	conviven	-0.10362151
-4.4477773	sentaron	-0.10362151
-4.4477773	043-El	-0.10362151
-4.4477773	Pescador	-0.10362151
-4.27479	Esposa	-0.10362155
-4.4477773	bebiera	-0.10362151
-4.4477773	curara	-0.10362151
-4.4477773	vería	-0.10362151
-4.27479	contenía	-0.10362155
-4.4477773	perseguir	-0.10362151
-4.4477773	mirlo	-0.10362151
-4.4477773	afamado	-0.10362151
-4.4477773	propongo	-0.10362151
-4.4477773	trueque	-0.10362151
-4.27479	Llévame	-0.10362151
-4.178099	hueso	-0.23710841
-4.4477773	regañado	-0.10362151
-4.4477773	tocaré	-0.10362151
-4.4477773	flauta	-0.10362151
-4.4477773	golpearás	-0.10362151
-4.4477773	tambor	-0.10362151
-4.27479	copos	-0.21569817
-4.27479	caen	-0.10362151
-4.4477773	humildad	-0.10362151
-4.4477773	ajeno	-0.10362151
-4.4477773	violentos	-0.10362151
-4.27479	ruidos	-0.10362151
-4.178099	Vete	-0.10362151
-4.178099	Señora	-0.10362155
-4.178099	cáscaras	-0.29259893
-4.27479	ponerlo	-0.10362151
-3.8257241	encender	-0.13786426
-4.27479	descansando	-0.10362151
-4.27479	sonrió	-0.10362151
-4.27479	fe	-0.10362151
-4.4477773	perseverancia	-0.10362151
-4.27479	conducen	-0.10362151
-4.178099	indicó	-0.10362155
-3.3174627	dónde	-0.1424749
-4.0267296	fuente	-0.16408966
-4.27479	sácame	-0.21569817
-4.27479	alejarse	-0.21569817
-3.8257241	sucedido	-0.25485826
-4.4477773	agachó	-0.10362151
-4.0267296	tugurio	-0.13786426
-4.27479	valles	-0.21569817
-4.178099	instante	-0.10362151
-4.4477773	retornaron	-0.10362151
-4.27479	estanque	-0.10362155
-4.4477773	jovial	-0.10362151
-4.178099	alegre	-0.17503992
-4.27479	finalmente	-0.10362151
-4.4477773	regidores	-0.10362151
-4.4477773	sacaba	-0.10362151
-4.27479	comerte	-0.10362151
-4.178099	esperanza	-0.10362151
-4.4477773	complacieron	-0.10362151
-4.178099	cortesanos	-0.10362155
-3.9147003	trae	-0.16408966
-4.4477773	cubeta	-0.10362151
-4.4477773	cociné	-0.10362151
-4.0267296	olla	-0.1290472
-4.4477773	necesitar	-0.10362151
-3.8257241	lloraba	-0.2328133
-4.27479	fumarla	-0.10362151
-4.0267296	ingresaron	-0.23710841
-3.8257241	perdió	-0.18791145
-3.9147003	jaló	-0.132804
-4.4477773	finas	-0.10362151
-4.4477773	coloridas	-0.10362151
-4.4477773	sedas	-0.10362151
-4.27479	durmiente	-0.10362151
-4.27479	estarían	-0.10362151
-4.4477773	dispuestos	-0.10362151
-4.4477773	devolverlo	-0.10362151
-4.4477773	traérmela	-0.10362151
-4.27479	rodillas	-0.10362155
-4.4477773	adecuados	-0.10362151
-4.4477773	escandaloso	-0.10362151
-4.4477773	mides	-0.10362151
-3.9147003	patos	-0.10362155
-4.4477773	salvado	-0.10362151
-4.4477773	flaca	-0.10362151
-3.8257241	hemos	-0.1290472
-3.8257241	bellas	-0.19780517
-4.178099	trenzas	-0.1450492
-4.27479	pic	-0.15605444
-4.4477773	Salta	-0.10362151
-3.9147003	hice	-0.13786426
-4.4477773	recoges	-0.10362151
-4.27479	terminaba	-0.10362151
-4.27479	acercándose	-0.10362151
-4.0267296	complacido	-0.10362151
-4.27479	inmensa	-0.10362155
-4.178099	oscura	-0.10362155
-4.27479	selva	-0.10362151
-4.4477773	esperan	-0.10362151
-4.0267296	habrá	-0.10362151
-4.27479	pedía	-0.10362151
-4.27479	perdón	-0.10362151
-4.4477773	don	-0.10362151
-4.27479	entender	-0.10362151
-4.27479	animales	-0.10362151
-3.9147003	venido	-0.10362151
-4.27479	compañía	-0.17503992
-4.4477773	ayudaron	-0.10362151
-4.0267296	botes	-0.15605444
-4.4477773	escondieron	-0.10362151
-4.4477773	harían	-0.10362151
-4.4477773	escucharla	-0.10362151
-4.4477773	habremos	-0.10362151
-4.178099	peyote	-0.17503992
-4.27479	sirvienta	-0.10362151
-4.27479	cubrió	-0.10362151
-4.4477773	goma	-0.10362151
-4.4477773	rata	-0.10362151
-4.4477773	angostas	-0.10362151
-4.178099	escaleras	-0.15605444
-4.4477773	encubrió	-0.10362151
-4.4477773	hilanderas	-0.10362151
-4.27479	clavo	-0.15605444
-4.4477773	comprármelo	-0.10362151
-4.0267296	contenta	-0.10362151
-4.27479	dejaría	-0.10362151
-4.4477773	atónito	-0.10362151
-4.178099	pregunta	-0.29259893
-4.4477773	Cuántas	-0.10362151
-4.0267296	estrellas	-0.10362151
-4.178099	indumentaria	-0.17503992
-4.27479	decirme	-0.10362151
-4.4477773	Contestó	-0.10362151
