\data\
ngram 1=15406
ngram 2=44944
ngram 3=59283

\1-grams:
-4.7051754	<unk>	0
0	<s>	-0.605955
-4.2492094	</s>	0
-4.593757	Tsoabira	-0.06506303
-4.593757	jayamai	-0.06506303
-0.99441874	.	-3.168302
-3.3402407	jeman	-0.15344223
-4.2492094	pinon	-0.16744502
-3.3847497	kawe	-0.47147822
-2.4580686	yoyo	-0.49579716
-4.593757	ireswe	-0.06506303
-3.90979	jara	-0.07697882
-3.0668502	jaskaakin	-0.22693273
-3.837626	atiya	-0.3047609
-2.138746	iki	-0.860692
-3.90979	¿	-0.07032219
-4.414196	Jawekeskara	-0.06506303
-4.104652	keyotai	-0.12617339
-1.9304229	?	-1.2583144
-4.593757	Tomanra	-0.06506303
-2.8779213	jawe	-0.17973624
-4.104652	yoiwanke	-0.25360838
-4.104652	¡	-0.069442146
-4.414196	Jakon	-0.080536954
-2.940595	tee	-0.29083547
-2.3795965	!	-1.0914965
-4.414196	Akiakanai	-0.06506303
-4.414196	Jawetianki	-0.088485695
-2.9943552	tom	-0.2711317
-3.7216213	nokota	-0.45586997
-3.3402407	neno	-0.119978674
-4.104652	ramara	-0.14233068
-2.2220614	noa	-0.14099303
-4.2492094	jatikaxbi	-0.14861634
-3.9963825	teekanai	-0.5622859
-2.0330234	mia	-0.3035574
-4.2492094	yatameta	-0.14861634
-4.414196	Enki	-0.07182192
-4.593757	tiin	-0.06506303
-2.829641	ikai	-0.52331865
-4.414196	nokaati	-0.1973132
-2.6725228	atipana	-0.8859601
-2.9240584	westiora	-0.16569251
-3.5907674	benbo	-0.13925831
-4.414196	bakeres	-0.1973132
-2.0632448	riki	-0.92656326
-3.9963825	isin	-0.06506306
-4.593757	Bewareswe	-0.06506303
-4.414196	Min	-0.06693609
-2.2555456	moa	-0.112825766
-3.5546517	pia	-0.32710278
-4.2492094	isimeyamake	-0.34043717
-3.90979	bena	-0.06506303
-3.4343464	jawekibora	-0.33843678
-2.0156505	en	-0.24972121
-4.2492094	yokake	-0.34043717
-4.414196	Jawekopiki	-0.06506303
-3.4903467	ninkati	-0.24097161
-2.3232088	ja	-0.20632288
-4.414196	Eaki	-0.07723316
-3.7757618	bewati	-0.20364816
-4.414196	Jaweti	-0.06506303
-4.593757	basiki	-0.06506303
-2.2806218	min	-0.21067747
-3.6734881	manati	-0.18681706
-4.593757	Tee	-0.06506303
-4.414196	benairin	-0.1973132
-2.98492	mesko	-0.3016591
-3.2998722	jawekira	-0.27398863
-3.90979	akanke	-0.64146715
-4.414196	Jawenki	-0.06506303
-4.593757	jishteanka	-0.06506303
-4.593757	Mato	-0.06506303
-2.9003775	jakon	-0.3876385
-4.104652	Eara	-0.06837071
-2.8927622	jain	-0.14764859
-2.7413437	iti	-0.44653332
-2.8779213	atipanyamake	-1.4368782
-4.593757	Kirinko	-0.06506303
-4.414196	jonirin	-0.1973132
-3.4903467	jatibi	-0.10493588
-3.11445	pei	-0.11798991
-4.414196	kirikara	-0.12617339
-4.2492094	Enra	-0.06901235
-3.055723	ake	-0.8310753
-2.7055714	ati	-0.36565548
-3.11445	piti	-0.21173878
-4.593757	marokanaiki	-0.06506303
-3.07827	yoiti	-0.48117584
-4.414196	Bakish	-0.06506306
-3.2128341	ointi	-0.4902203
-2.8706868	betan	-0.15114902
-4.2492094	yoyoiti	-0.06506306
-4.2492094	Jawe	-0.07892429
-2.810487	kenai	-0.68426746
-4.593757	Maton	-0.06506303
-4.104652	tanakasai	-0.25360838
-4.414196	Ea	-0.06506303
-3.1679165	kati	-0.5056873
-1.9182464	ea	-0.20518003
-3.6301613	manai	-0.39161804
-4.593757	shinanmabanon	-0.06506303
-4.593757	Pasna	-0.06506303
-4.593757	bamana	-0.06506303
-4.593757	Jaweki	-0.06506303
-3.034289	aka	-0.39313173
-4.414196	Eritain	-0.06506303
-4.593757	Onisa	-0.06506303
-4.414196	jisariki	-0.06506303
-2.8042855	jaweki	-0.2759366
-3.1679165	winota	-0.5394402
-3.4903467	kikini	-0.09902678
-3.9963825	paena	-0.10483345
-4.414196	jabaonra	-0.06506303
-4.593757	kanainbake	-0.06506303
-3.9963825	yamera	-0.08630341
-3.52131	oi	-0.12088865
-4.414196	bewanke	-0.1973132
-4.593757	Axeamisninra	-0.06506303
-4.2492094	osanke	-0.34043717
-4.2492094	vinoya	-0.14861634
-3.7757618	banewe	-0.6057909
-4.593757	Napomea	-0.06506303
-4.104652	menikanwe	-0.46537593
-4.414196	Mia	-0.068286546
-4.593757	botellaya	-0.06506303
-4.593757	Nenoki	-0.06506306
-3.52131	teeti	-0.11007092
-4.2492094	Kikin	-0.10363512
-3.52131	jakoinra	-0.10828255
-3.6734881	ebe	-0.09049394
-4.593757	ransawe	-0.06506303
-4.414196	jakomara	-0.091167964
-4.414196	shinanbenoti	-0.1973132
-3.7757618	ninkake	-0.76640594
-3.9963825	seneankai	-0.06506303
-4.2492094	Minra	-0.07359151
-3.9963825	kenati	-0.28796482
-3.3619251	yamake	-1.164346
-3.837626	jakonax	-0.07868761
-4.593757	raenanwe	-0.06506303
-3.90979	kenrin	-0.17493689
-3.2455869	nokoke	-0.732525
-4.593757	Psicologia	-0.06506303
-3.7757618	axei	-0.26346722
-4.593757	Tomra	-0.06506303
-4.593757	timananke	-0.06506303
-4.593757	Natora	-0.06506303
-4.104652	potota	-0.12617339
-4.593757	bolichenin	-0.06506303
-3.9963825	tsiniai	-0.3505184
-4.593757	Shinanresira	-0.06506303
-2.5715694	ibake	-0.6082799
-4.2492094	kafera	-0.12617339
-3.3619251	nokon	-0.12866563
-3.7216213	ken	-0.35382947
-3.9963825	miara	-0.068286546
-4.593757	ikoanpachoai	-0.06506303
-3.1539204	ninkatai	-0.5451711
-4.593757	sandwiches	-0.06506303
-4.2492094	baneta	-0.14861634
-4.593757	ikowe	-0.06506303
-4.593757	Tsonbira	-0.06506303
-4.2492094	shinanyamai	-0.14861634
-4.593757	Enbixbira	-0.06506303
-4.2492094	koirameti	-0.06506303
-2.9666436	atipanke	-0.83857524
-3.6301613	jainmacha	-0.12836294
-4.414196	jainra	-0.06506303
-3.1539204	kai	-0.67030084
-3.7216213	betanra	-0.17011711
-2.6817114	ike	-0.72635657
-4.593757	yatamakanwe	-0.06506303
-4.593757	Nenonxonra	-0.06506303
-4.414196	Ishtontani	-0.11324402
-3.2998722	jowe	-0.4456148
-3.7757618	ransati	-0.18762262
-3.9963825	jatibitian	-0.06506303
-3.7757618	masa	-0.11007092
-3.5907674	akirin	-0.47114712
-4.593757	Pitira	-0.06506303
-4.2492094	Eabicho	-0.10483345
-3.4088404	jenewe	-0.7223741
-4.414196	yoitires	-0.1973132
-4.593757	Jawetianbira	-0.06506306
-4.593757	shinanki	-0.06506303
-3.182379	iamax	-0.07202834
-4.104652	jainma	-0.06506303
-3.3195875	kopi	-0.20490767
-3.6734881	atikoma	-0.2750687
-3.2289019	wetsa	-0.12779838
-3.9963825	jakomacha	-0.091167964
-4.104652	oinyamake	-0.25360838
-4.414196	batanti	-0.06506303
-2.8496792	akai	-0.4772917
-4.593757	latiman	-0.06506303
-2.9756858	onana	-0.51210773
-4.593757	kaban	-0.06506303
-4.414196	noara	-0.06506303
-3.837626	kenresai	-0.46537593
-4.593757	Ishtoresrawanke	-0.06506303
-4.593757	Oxarin	-0.06506303
-3.7216213	raroshaman	-0.16916092
-3.4343464	shinanai	-0.45972836
-2.9240584	iwe	-0.62886673
-4.2492094	iyamawe	-0.14861634
-4.414196	Jawetian	-0.06506306
-3.7757618	pikota	-0.1852334
-4.414196	yakanon	-0.06506303
-3.034289	ikanwe	-1.1532662
-4.2492094	tan	-0.14861634
-4.414196	tash	-0.09454425
-4.593757	arake	-0.06506303
-4.2492094	ikonma	-0.14861634
-4.2492094	Nonra	-0.07073007
-3.837626	awanke	-0.708414
-2.3355868	nato	-0.21304291
-3.9963825	yatanwe	-0.3505184
-4.414196	Jakonki	-0.06506303
-4.593757	wanoke	-0.06506303
-4.414196	Jaweranoki	-0.11324402
-3.5907674	iitai	-0.6762293
-4.414196	janra	-0.06506303
-3.0899982	onanke	-0.48287237
-4.593757	Manawe	-0.06506303
-4.593757	Marotira	-0.06506303
-4.593757	Menikanwe	-0.06506303
-4.593757	raroira	-0.06506303
-3.7757618	akanwe	-0.5546384
-4.593757	Lechera	-0.06506303
-4.104652	xeake	-0.46537593
-4.593757	Ikonrin	-0.06506303
-3.7216213	yoikasai	-0.3047609
-4.593757	Onantikomara	-0.06506303
-2.7981715	iwanke	-1.0002367
-3.90979	akinkanti	-0.20547529
-3.837626	jawerano	-0.12617339
-4.593757	jakanarin	-0.06506303
-2.6334224	ixon	-0.5463916
-4.593757	Sinatabirin	-0.06506303
-4.593757	teayamawanke	-0.06506303
-3.837626	ribi	-0.08449314
-4.2492094	onani	-0.14861634
-4.593757	Birakanke	-0.06506303
-4.104652	yoibake	-0.46537593
-4.593757	Metsara	-0.06506306
-3.6301613	yakawe	-0.7307296
-4.104652	ishtoti	-0.16744502
-2.7205431	jake	-0.6780963
-3.5907674	xepoti	-0.15770431
-3.9963825	xepowe	-0.4296996
-3.9963825	beke	-0.5622859
-4.414196	Bakishra	-0.08166364
-4.593757	bebirati	-0.06506303
-3.5907674	sere	-0.1646682
-4.593757	ichamara	-0.06506303
-3.6734881	banetai	-0.45586997
-4.593757	Cafera	-0.06506303
-4.414196	kinibo	-0.06506303
-4.593757	bochawe	-0.06506303
-4.104652	chibanti	-0.12617339
-4.593757	Xepentira	-0.06506303
-4.593757	xepemeyamai	-0.06506303
-3.90979	tanati	-0.34043717
-3.7216213	winotai	-0.27179414
-3.3847497	onanyamake	-0.50935376
-4.593757	Jaskaraira	-0.06506303
-4.593757	chopayoma	-0.06506303
-4.593757	Neteta	-0.06506303
-4.414196	Non	-0.06506303
-3.3195875	akinti	-0.3352042
-3.2128341	jaskati	-0.09615272
-4.593757	Jainriki	-0.06506303
-3.4903467	kimisha	-0.1165345
-3.7216213	oxe	-0.2101863
-3.6301613	chicho	-0.09275352
-3.2289019	akin	-0.10556018
-4.414196	joinwe	-0.06506303
-3.3195875	bakish	-0.101226844
-4.2492094	winoibata	-0.34043717
-3.90979	biwe	-0.41290355
-4.593757	Enbichora	-0.06506306
-3.5907674	oinkasai	-0.6762293
-4.414196	paxkinara	-0.14861634
-3.837626	sai	-0.15839185
-3.281013	jakoma	-0.22010593
-3.837626	pike	-0.708414
-4.593757	Bakishkan	-0.06506303
-4.593757	isimenake	-0.06506303
-4.414196	niweibake	-0.1973132
-3.837626	pikotai	-0.5546384
-4.593757	Alarma	-0.06506303
-4.593757	tiawe	-0.06506303
-4.414196	Minki	-0.08395641
-4.593757	paranai	-0.06506303
-4.593757	Ramakai	-0.06506303
-3.9963825	peokoti	-0.3505184
-4.593757	koshikasai	-0.06506303
-3.023956	mato	-0.13488343
-3.5546517	merati	-0.19563861
-3.7757618	axea	-0.18762262
-2.810487	jan	-0.16537517
-4.593757	shinanresai	-0.06506303
-3.5546517	ayamai	-0.49702293
-3.1679165	ikon	-0.5641978
-4.593757	jomakanaika	-0.06506303
-4.593757	oinmata	-0.06506303
-4.593757	rateresai	-0.06506303
-4.593757	teayamawe	-0.06506303
-3.6734881	joto	-0.22157918
-3.9963825	tsekati	-0.13565017
-4.593757	Vegetariano	-0.06506303
-3.7216213	shinanke	-0.40312907
-3.9963825	metsa	-0.13565017
-3.7216213	nonoti	-0.15839185
-4.593757	jawekian	-0.06506303
-4.593757	winotiki	-0.06506303
-4.414196	tele	-0.06506306
-4.414196	oinkasi	-0.06506303
-4.414196	Kikinbires	-0.06506303
-4.593757	Manarai	-0.06506303
-4.593757	shinantania	-0.06506303
-4.414196	pii	-0.1973132
-4.593757	Atikomara	-0.06506303
-3.6301613	manawe	-0.58899486
-3.281013	joai	-0.6718344
-3.0668502	joni	-0.21107584
-4.593757	Jakomakia	-0.06506303
-2.9003775	awe	-0.66939163
-3.6734881	onisa	-0.30859423
-4.414196	sinatai	-0.1973132
-3.6734881	winoke	-0.6515484
-2.3419106	jato	-0.2382068
-4.414196	rabera	-0.06506303
-3.4088404	keska	-0.4945963
-4.104652	poiya	-0.25360838
-3.0448737	jawen	-0.10408277
-3.837626	nokokasai	-0.09454425
-4.593757	Raroi	-0.06506303
-4.2492094	Ja	-0.06506303
-4.104652	sikai	-0.25360838
-3.3619251	rama	-0.1210369
-4.2492094	yantanra	-0.18128031
-4.593757	atioma	-0.06506306
-4.414196	shinanbenokanwe	-0.1973132
-4.104652	barin	-0.06506303
-4.593757	menotima	-0.06506303
-4.593757	raskita	-0.06506303
-4.104652	moara	-0.07080133
-4.414196	jakoinrama	-0.06506306
-4.593757	museoain	-0.06506303
-4.2492094	kawanke	-0.34043717
-4.593757	tanamakanwe	-0.06506303
-4.593757	Mawatara	-0.06506303
-3.6734881	ibakanke	-0.40312907
-4.2492094	kanankasai	-0.14861634
-3.4903467	yame	-0.10483345
-4.593757	pikowana	-0.06506303
-4.414196	osanwe	-0.1973132
-4.593757	Nashikasira	-0.06506303
-4.414196	Eabichora	-0.088485695
-4.2492094	banekasai	-0.06506306
-4.414196	Jawekeskaakin	-0.06506306
-3.4903467	akasai	-0.5809673
-3.9963825	xepenti	-0.20878358
-4.593757	ishoton	-0.06506303
-4.593757	Isiniki	-0.06506303
-3.5546517	ibata	-0.41519684
-3.90979	keras	-0.18128031
-4.414196	Westiora	-0.08166364
-3.837626	pisha	-0.14861639
-4.593757	Wetsabirestoninra	-0.06506303
-4.593757	Ani	-0.06506303
-4.593757	jemankorin	-0.06506303
-4.593757	Wenitirin	-0.06506303
-3.5907674	oinwe	-0.5364685
-4.593757	Sokotara	-0.06506303
-2.2124996	non	-0.1316644
-3.6734881	bike	-0.50981355
-3.4903467	teetai	-0.76640594
-3.4614446	ninkayamai	-0.5125923
-4.414196	miki	-0.06506303
-3.90979	raketai	-0.3566081
-4.414196	Nonki	-0.08296726
-4.104652	nokoti	-0.06506303
-3.837626	osanti	-0.15405783
-4.414196	akires	-0.06506303
-3.90979	ipain	-0.4296996
-4.414196	japonésbo	-0.06506303
-4.593757	Iweiraki	-0.06506303
-3.5907674	iwana	-0.61971176
-4.2492094	manzana	-0.06506303
-4.593757	xokati	-0.06506303
-4.593757	rapiz	-0.06506303
-3.182379	naman	-0.1455743
-3.7216213	bewa	-0.08449314
-4.593757	ninkatiya	-0.06506303
-4.414196	toati	-0.1973132
-4.414196	kopiki	-0.06506306
-3.9963825	onisai	-0.16744502
-3.90979	kaibake	-0.49664643
-4.104652	papara	-0.06506303
-4.593757	namaanti	-0.06506303
-4.414196	televisor	-0.06506303
-4.593757	axeribiai	-0.06506303
-4.593757	Sinakanankana	-0.06506303
-4.593757	Winimaki	-0.06506303
-4.414196	manama	-0.1973132
-4.414196	anicha	-0.06506303
-3.837626	yoikana	-0.15839185
-4.593757	rateti	-0.06506303
-3.1272123	jisa	-0.34313056
-3.837626	sinata	-0.14861639
-4.593757	pikasirin	-0.06506303
-4.414196	chibanwe	-0.1973132
-4.414196	rabekax	-0.09892407
-4.593757	xoboya	-0.06506303
-4.2492094	jakomati	-0.14861634
-4.593757	iyamakanwe	-0.06506303
-3.90979	koshi	-0.11324402
-3.7757618	yosi	-0.13500631
-4.414196	oraki	-0.06506303
-4.414196	ono	-0.06506303
-3.90979	akinkasai	-0.3566081
-4.593757	Peokotiainxonra	-0.06506303
-4.414196	Ramaki	-0.091167964
-4.414196	maxora	-0.06506303
-4.414196	ichaya	-0.06506303
-2.8779213	jawekibo	-0.1731799
-4.593757	Tenetikoma	-0.06506303
-4.2492094	mi	-0.06506306
-4.414196	a	-0.06506303
-4.414196	Kikini	-0.06506303
-4.414196	ania	-0.06506303
-3.90979	jatixonbi	-0.06506303
-4.414196	noikana	-0.06506306
-4.593757	Xobonra	-0.06506303
-3.4614446	rabe	-0.12802538
-3.90979	chonka	-0.09454425
-4.414196	baritiara	-0.14861634
-4.593757	basike	-0.06506303
-4.593757	Akaskinmara	-0.06506303
-4.593757	korbata	-0.06506303
-4.593757	yoshinya	-0.06506303
-4.593757	Jaresrake	-0.06506303
-3.7757618	bai	-0.08449314
-4.593757	shitawe	-0.06506303
-4.414196	Tsoaki	-0.092204
-4.2492094	mawata	-0.14861634
-3.4343464	yokati	-0.24774627
-4.2492094	ishtoinra	-0.06506303
-3.52131	boai	-0.79767644
-4.593757	Jatsanyamawe	-0.06506303
-4.414196	Jatian	-0.06506303
-4.593757	Washimisi	-0.06506303
-4.593757	En	-0.06506303
-4.414196	Moa	-0.06506303
-4.104652	peoai	-0.25360838
-4.593757	Xobinkoniax	-0.06506303
-3.3619251	pikowe	-0.59611374
-4.593757	Ikonra	-0.06506303
-4.593757	nonokashamai	-0.06506303
-4.414196	Tsoa	-0.06506303
-4.2492094	manairin	-0.34043717
-4.2492094	yoikanta	-0.25360838
-3.3195875	nete	-0.12977752
-3.9963825	bakeya	-0.18128031
-4.414196	ninkakanai	-0.1973132
-3.90979	metsashaman	-0.2340212
-4.593757	Akasrakanke	-0.06506303
-3.7216213	ayamawe	-0.40312907
-3.90979	noike	-0.48154682
-3.9963825	shinanbenoke	-0.5622859
-4.593757	shinanxonai	-0.06506303
-4.2492094	onama	-0.12617339
-4.414196	kikinshaman	-0.06506303
-4.2492094	yoireswe	-0.34043717
-4.414196	Xepoti	-0.06506303
-4.104652	shinanwe	-0.24822713
-4.593757	xeairin	-0.06506303
-4.414196	Yoyo	-0.06506303
-3.182379	kirika	-0.14960302
-3.837626	meniti	-0.300968
-4.593757	onanwanke	-0.06506303
-3.7216213	winoti	-0.13899043
-4.2492094	oinmati	-0.20878358
-4.593757	teetiain	-0.06506303
-4.593757	Jaribira	-0.06506303
-4.593757	Pekaoriakin	-0.06506303
-3.5546517	winwe	-0.6559416
-3.9963825	yoakai	-0.16744502
-4.414196	onanara	-0.06506303
-3.6734881	isini	-0.22632532
-3.9963825	keyotiain	-0.09892407
-4.414196	jikike	-0.1973132
-4.593757	Akinwe	-0.06506303
-4.414196	nonabiri	-0.06506303
-4.593757	Jaincha	-0.06506303
-2.940595	yoiwe	-0.41456208
-3.5907674	cafe	-0.15958236
-3.5907674	xeai	-0.53232276
-4.414196	Jakonrin	-0.10483345
-4.593757	karesa	-0.06506303
-3.52131	wishati	-0.14281525
-4.593757	menikanai	-0.06506303
-3.3402407	kafe	-0.13009621
-4.593757	xabaibake	-0.06506303
-3.837626	ponte	-0.114874914
-4.593757	Betsoakia	-0.06506303
-4.414196	Jawerano	-0.06506303
-4.593757	jonetirin	-0.06506303
-3.7757618	akinwe	-0.2821434
-4.593757	Jatixonbiki	-0.06506303
-4.2492094	kopiaka	-0.14861634
-3.6734881	koriki	-0.121005
-4.104652	kenira	-0.27742684
-4.593757	Diestro	-0.06506303
-3.7757618	oxati	-0.09454425
-4.593757	topo	-0.06506303
-4.2492094	matsoti	-0.14861634
-3.281013	icha	-0.087074764
-4.414196	ochitiya	-0.1973132
-4.593757	Aspirina	-0.06506303
-4.2492094	marokin	-0.14861634
-4.593757	bikasira	-0.06506303
-4.593757	Pitaniwe	-0.06506303
-4.104652	noeshaman	-0.12617339
-4.593757	Xateta	-0.06506303
-4.593757	Rambira	-0.06506303
-4.593757	Ruso	-0.06506303
-3.7216213	join	-0.24494845
-3.90979	ikoanti	-0.20547529
-4.593757	Osankasira	-0.06506303
-4.414196	oinkanke	-0.1973132
-4.414196	Ikoni	-0.06506303
-4.414196	main	-0.1973132
-3.7216213	kakasai	-0.5622859
-4.104652	jawetianbi	-0.10483345
-4.414196	jatobicho	-0.06506303
-4.414196	yamaibakanke	-0.1973132
-4.593757	omisti	-0.06506303
-4.593757	yoikas	-0.06506303
-3.6734881	meken	-0.50981355
-4.593757	akanaira	-0.06506303
-4.593757	jakomaakincha	-0.06506303
-3.837626	jainmabires	-0.12617339
-3.5907674	francés	-0.18397333
-4.593757	Cedes	-0.06506303
-4.2492094	binon	-0.14861634
-4.2492094	korikiyarin	-0.25360838
-4.593757	Janribira	-0.06506303
-4.593757	Koshimayamawe	-0.06506303
-4.2492094	jenekasai	-0.14861634
-4.593757	Isinrin	-0.06506303
-4.593757	Mibera	-0.06506306
-4.593757	yameki	-0.06506303
-4.593757	Rama	-0.06506306
-4.593757	rokotorora	-0.06506303
-4.2492094	yatankanke	-0.34043717
-4.593757	bewareske	-0.06506303
-4.593757	Miabichoki	-0.06506303
-4.593757	chini	-0.06506303
-3.837626	nokowanke	-0.708414
-4.593757	Mibe	-0.06506303
-4.414196	ikaiyarin	-0.06506303
-4.593757	Jawen	-0.06506303
-3.9963825	bikasai	-0.3566081
-4.593757	Ninkatirin	-0.06506303
-4.414196	Nenora	-0.06506306
-4.104652	jakasai	-0.25360838
-3.9963825	makanbo	-0.06506306
-4.2492094	potayamawe	-0.34043717
-4.593757	Jakomawe	-0.06506303
-4.593757	oyoai	-0.06506303
-4.593757	Nenobira	-0.06506303
-4.593757	Ikonira	-0.06506303
-3.5546517	pikoti	-0.19940346
-4.593757	Bewayamawe	-0.06506303
-4.593757	Piinon	-0.06506303
-4.414196	jatsamanra	-0.1973132
-4.414196	jishteanke	-0.1973132
-4.2492094	papanra	-0.10483345
-4.104652	yoyoati	-0.25360838
-4.414196	bixonke	-0.1973132
-3.6734881	pikoke	-0.6515484
-4.593757	Oinwe	-0.06506303
-4.593757	seneankanti	-0.06506303
-4.593757	yoires	-0.06506303
-4.593757	Jawekeskaraki	-0.06506303
-4.593757	oinmetai	-0.06506303
-4.593757	mawayamake	-0.06506303
-4.593757	Yantanchara	-0.06506303
-4.2492094	jakonra	-0.080536954
-4.593757	galleta	-0.06506303
-4.593757	Jakiribira	-0.06506303
-3.837626	ninkakasai	-0.34671047
-4.414196	Tsonki	-0.06506303
-4.593757	Firimankana	-0.06506303
-4.414196	Ebe	-0.11324402
-4.593757	shirokasirin	-0.06506303
-3.90979	kananke	-0.48154682
-4.593757	ketsoati	-0.06506303
-4.593757	kapora	-0.06506303
-4.593757	Yoirakanke	-0.06506303
-4.414196	no	-0.06506303
-3.837626	wetsakeska	-0.13899043
-4.414196	Jaki	-0.06506303
-3.837626	francésnin	-0.46405607
-4.414196	basi	-0.06506303
-4.593757	Betsoatimara	-0.06506303
-4.414196	tantinon	-0.06506303
-3.9963825	atires	-0.14861634
-4.593757	Oxasra	-0.06506303
-3.90979	rateta	-0.091167964
-4.593757	senenya	-0.06506303
-4.414196	keyowe	-0.1973132
-3.837626	kopiati	-0.22454926
-4.593757	Jakonra	-0.06506303
-4.2492094	atira	-0.06506306
-4.593757	Domingonin	-0.06506303
-3.7216213	teebo	-0.11929573
-4.104652	teera	-0.18128031
-4.593757	Sinabo	-0.06506303
-4.414196	parankanke	-0.1973132
-4.593757	Rokoma	-0.06506303
-4.593757	Osanreswe	-0.06506303
-3.4343464	shinan	-0.10664802
-4.414196	keyoibake	-0.1973132
-3.7216213	ishton	-0.08449314
-4.414196	akiki	-0.12617339
-3.90979	ikana	-0.14861634
-4.593757	Lunesnin	-0.06506303
-4.593757	retekasai	-0.06506303
-4.593757	Atiresa	-0.06506306
-4.593757	Ochomai	-0.06506303
-3.4088404	biti	-0.2572973
-4.593757	Pikotama	-0.06506303
-2.7921422	ika	-0.3870389
-4.593757	niskanai	-0.06506303
-4.593757	Pakexyora	-0.06506303
-4.593757	oinkashamake	-0.06506303
-4.414196	jabora	-0.06506303
-4.593757	ransaibake	-0.06506303
-3.5907674	paxkina	-0.26314124
-3.6734881	yoabo	-0.12961914
-4.104652	bii	-0.06506303
-3.1539204	ikanai	-0.65170383
-4.593757	jeneibake	-0.06506303
-4.593757	París	-0.06506303
-3.6734881	onankasai	-0.4436205
-4.593757	Batara	-0.06506303
-4.414196	ichacha	-0.06506306
-3.837626	serera	-0.09892407
-4.414196	Westiorara	-0.1973132
-4.414196	atipanara	-0.1973132
-4.593757	rerexe	-0.06506303
-4.593757	rabetax	-0.06506303
-4.414196	Jawetiki	-0.091167964
-4.2492094	ribina	-0.34043717
-4.104652	pikonon	-0.06506303
-4.104652	onankasi	-0.12617339
-3.90979	onan	-0.10483345
-4.2492094	neteshamanxon	-0.06506306
-3.90979	ninkawanke	-0.64146715
-4.593757	Metsabo	-0.06506303
-4.2492094	oxakasai	-0.14861634
-4.593757	Benareswe	-0.06506303
-3.182379	akanai	-0.47993338
-4.593757	kanadiensebira	-0.06506303
-4.2492094	jonibora	-0.06506303
-3.7757618	yamekiri	-0.06506303
-3.837626	peoti	-0.26346722
-4.593757	Mibeki	-0.06506303
-4.593757	Ebera	-0.06506306
-3.281013	jati	-0.21730404
-3.4903467	shinanbo	-0.14879067
-3.5546517	jen	-0.18707515
-4.414196	maromai	-0.06506303
-4.593757	Taxnata	-0.06506303
-4.593757	aban	-0.06506303
-4.593757	Japarikia	-0.06506303
-3.837626	seneanti	-0.18681706
-4.593757	Menikashamarakanke	-0.06506303
-4.593757	Vegetarianorin	-0.06506303
-4.593757	Sinatakeska	-0.06506303
-4.593757	jansoati	-0.06506303
-3.9963825	reteti	-0.28796482
-4.593757	Bochikiaxra	-0.06506303
-4.593757	Sinataxra	-0.06506303
-3.9963825	kenake	-0.5622859
-4.414196	Areswe	-0.06506303
-4.593757	betin	-0.06506303
-3.3402407	pekao	-0.17739557
-4.593757	Jainmara	-0.06506303
-4.593757	Bostoainki	-0.06506303
-3.07827	maton	-0.11699874
-3.0039997	yoiyai	-0.2543562
-4.593757	Tsobe	-0.06506303
-3.6734881	ikasai	-0.46446174
-4.593757	Osanraibakanke	-0.06506303
-4.414196	teai	-0.06506306
-4.593757	ribinbo	-0.06506303
-4.593757	kopiake	-0.06506303
-4.104652	kakasi	-0.06506306
-3.90979	katanwe	-0.18128031
-4.593757	ibokasi	-0.06506303
-4.414196	Koirametaniwe	-0.06506303
-4.593757	axeamispari	-0.06506303
-4.2492094	semanara	-0.25360838
-4.593757	ransairin	-0.06506303
-4.414196	itiki	-0.1973132
-4.593757	yapara	-0.06506303
-4.2492094	mawaibake	-0.34043717
-4.104652	kaa	-0.12617339
-4.414196	Jaweboki	-0.06506303
-4.104652	toman	-0.06506303
-4.104652	keomai	-0.27742684
-4.593757	ishtoa	-0.06506303
-4.2492094	kopiakai	-0.25360838
-3.90979	ninkakanwe	-0.28796482
-4.414196	Jakonax	-0.06506306
-4.2492094	oxawe	-0.14861634
-4.2492094	botiria	-0.06506306
-4.414196	kepenwe	-0.1973132
-4.593757	Isinrayamai	-0.06506303
-4.104652	jonira	-0.06506306
-4.2492094	yoka	-0.06506306
-4.593757	matsiwanke	-0.06506303
-3.837626	baritia	-0.06506303
-3.6301613	ochoma	-0.11689901
-4.593757	raenanaiki	-0.06506303
-3.7216213	koiranti	-0.13218006
-4.593757	areswe	-0.06506303
-4.2492094	manawanke	-0.34043717
-4.593757	Tomanara	-0.06506303
-4.414196	Jakoinra	-0.06506303
-4.414196	oira	-0.09454425
-4.593757	beribati	-0.06506303
-4.414196	reken	-0.06506303
-3.837626	korikiya	-0.21587464
-4.593757	iyamai	-0.06506303
-4.414196	Jawekopi	-0.06506303
-3.837626	taxnanti	-0.06506303
-4.593757	Wetsakeskaakinra	-0.06506303
-3.7757618	jabo	-0.091167964
-4.593757	yamaibake	-0.06506303
-4.104652	meskokeska	-0.10483345
-3.837626	jawekiya	-0.2821434
-4.593757	canadiensesbo	-0.06506303
-4.593757	Xeatiya	-0.06506303
-4.593757	ponora	-0.06506303
-4.593757	namanke	-0.06506303
-4.593757	raroshamanra	-0.06506303
-4.593757	Rabebira	-0.06506303
-4.414196	mawakana	-0.06506303
-4.2492094	joibake	-0.34043717
-4.414196	kenwanke	-0.1973132
-4.414196	jabata	-0.06506303
-4.593757	Paenon	-0.06506303
-4.593757	Korara	-0.06506303
-4.593757	boyamai	-0.06506303
-4.2492094	piitira	-0.34043717
-3.4903467	ninkawe	-0.4635015
-4.593757	jawekiyarin	-0.06506303
-4.593757	Isiniri	-0.06506303
-4.593757	Maxkara	-0.06506303
-3.4614446	jainxon	-0.13287354
-4.593757	Onanrake	-0.06506303
-4.2492094	shinanirin	-0.34043717
-3.837626	onis	-0.22901532
-3.7216213	shinani	-0.362135
-3.7216213	jaya	-0.19978453
-4.2492094	Jainbi	-0.10483345
-3.2998722	akinai	-0.5364685
-4.593757	retekasirin	-0.06506303
-3.4903467	itina	-0.26314124
-3.9963825	aibake	-0.5622859
-3.5907674	axeai	-0.2750687
-4.414196	bakeranon	-0.12617339
-4.593757	Natonra	-0.06506303
-4.593757	Ninkakiai	-0.06506303
-4.2492094	netetibi	-0.06506306
-2.9756858	axeti	-0.6062391
-4.593757	Australia	-0.06506303
-3.2289019	yoiya	-0.40744615
-3.90979	keskara	-0.10483345
-4.414196	Tom	-0.06506303
-4.593757	jainrin	-0.06506303
-4.593757	Yatanakana	-0.06506303
-4.593757	paxkinariki	-0.06506303
-4.593757	ikirin	-0.06506303
-4.593757	Jatibira	-0.06506303
-4.593757	ninkareseai	-0.06506303
-4.414196	Jakonres	-0.14861634
-4.593757	Riosan	-0.06506303
-3.3402407	joi	-0.13858946
-4.104652	akaibo	-0.1973132
-4.593757	Jabaonki	-0.06506303
-4.593757	shinanyama	-0.06506303
-3.90979	akara	-0.09892407
-4.593757	Matsiabaina	-0.06506303
-4.2492094	yantanki	-0.06506306
-3.52131	kikin	-0.20505156
-4.414196	Jawerin	-0.06506303
-4.593757	poira	-0.06506306
-4.414196	jishteanwe	-0.1973132
-4.593757	sina	-0.06506303
-4.2492094	Kabanon	-0.06506306
-3.5546517	jonibo	-0.27233523
-3.4614446	xeati	-0.092204
-4.593757	Ichairarin	-0.06506303
-4.593757	nakatiya	-0.06506303
-4.414196	piamake	-0.1973132
-4.2492094	jotiti	-0.06506306
-4.593757	kenriki	-0.06506303
-4.593757	rarotibo	-0.06506303
-4.593757	Papayoma	-0.06506303
-4.414196	mawake	-0.1973132
-4.414196	akinkaske	-0.1973132
-4.2492094	jikimawe	-0.34043717
-4.593757	Koshiwe	-0.06506303
-4.593757	Jaweranorin	-0.06506303
-4.593757	tsasikanai	-0.06506303
-4.593757	Onanrakanke	-0.06506303
-4.414196	atipanyama	-0.06506303
-4.104652	leche	-0.06506303
-4.593757	onanwe	-0.06506303
-4.593757	Wetsa	-0.06506303
-4.104652	jawekiboki	-0.06506303
-4.104652	oinyamai	-0.25360838
-4.414196	korikira	-0.06506303
-4.593757	Ayamairai	-0.06506303
-4.593757	banetira	-0.06506303
-4.2492094	jawemabi	-0.14861634
-4.414196	Tsonbiki	-0.06506303
-4.2492094	yoiyama	-0.34043717
-3.837626	kirinkonin	-0.3505184
-4.2492094	axeiki	-0.34043717
-4.414196	Canadienserin	-0.06506303
-3.7216213	yankon	-0.27179414
-3.3195875	meniwe	-0.53432715
-4.414196	isiniki	-0.06506306
-4.593757	Joyamarake	-0.06506303
-4.593757	tsasitira	-0.06506303
-4.593757	Xepotibo	-0.06506303
-4.414196	xepobo	-0.06506303
-4.593757	kexeti	-0.06506303
-4.593757	Tsoarin	-0.06506303
-4.593757	queso	-0.06506303
-4.593757	Maryra	-0.06506303
-4.104652	jabicho	-0.10483345
-4.414196	Jainki	-0.11324402
-4.414196	Tomanki	-0.08630341
-4.414196	kenawe	-0.14861634
-4.593757	Brasilena	-0.06506303
-4.414196	ochomara	-0.06506303
-4.593757	Jakira	-0.06506306
-3.837626	axeke	-0.5546384
-3.90979	jeneti	-0.18128031
-4.414196	Koiramewe	-0.06506303
-4.2492094	jakomaakin	-0.12617339
-4.593757	chibanyamai	-0.06506303
-4.593757	Waira	-0.06506303
-4.593757	oinin	-0.06506303
-4.414196	marokasai	-0.06506303
-4.593757	Francésninki	-0.06506303
-4.2492094	wanoa	-0.06506303
-3.90979	ocho	-0.09892407
-4.414196	kaibo	-0.06506303
-4.593757	Keterake	-0.06506303
-4.593757	Paninkana	-0.06506303
-4.414196	kepenai	-0.06506303
-4.593757	Filetera	-0.06506303
-3.6301613	pikasai	-0.60367864
-4.593757	jonewana	-0.06506303
-4.593757	Winikasira	-0.06506303
-4.593757	Matonra	-0.06506303
-4.593757	rankanwe	-0.06506303
-4.593757	Matora	-0.06506303
-4.593757	dolar	-0.06506303
-3.4903467	keyoke	-1.0394073
-4.593757	Xepokana	-0.06506303
-4.593757	Jatibitianra	-0.06506303
-3.9963825	tsekai	-0.20878358
-4.414196	koiranxon	-0.06506303
-3.6734881	ikoankai	-0.5622859
-4.414196	Jakomacha	-0.06506303
-3.9963825	koton	-0.06506303
-4.414196	Jakoniki	-0.06506303
-4.2492094	noya	-0.14861634
-3.5907674	yokawanke	-0.9424972
-4.2492094	yoikanti	-0.06506306
-4.593757	Rambora	-0.06506303
-4.593757	Onanyarin	-0.06506303
-4.593757	Seyatara	-0.06506303
-4.593757	leonra	-0.06506303
-3.3619251	oinai	-0.6727377
-4.593757	filipinonin	-0.06506303
-4.593757	atipanayamake	-0.06506303
-4.593757	Oabaonra	-0.06506303
-3.837626	akinke	-0.708414
-4.414196	joyamawe	-0.1973132
-4.593757	ninkayamakanai	-0.06506303
-4.414196	jamawe	-0.1973132
-4.593757	firimanwe	-0.06506303
-4.104652	ponteti	-0.16744502
-4.593757	pierdemeyamai	-0.06506303
-4.593757	xateke	-0.06506303
-4.593757	Jakomachara	-0.06506303
-4.593757	Onankashoraimarin	-0.06506303
-4.593757	polakonin	-0.06506303
-4.593757	keteatiya	-0.06506303
-4.414196	arrozya	-0.1973132
-4.414196	Jawebira	-0.09892407
-3.9963825	ayamake	-0.28796482
-4.593757	Taxnatara	-0.06506303
-4.593757	piia	-0.06506303
-4.2492094	onankasira	-0.14861634
-4.2492094	jainmashoko	-0.06506303
-3.837626	niai	-0.49664643
-4.2492094	ikeanke	-0.34043717
-4.593757	Bewaibo	-0.06506303
-4.104652	tomas	-0.11324402
-4.414196	Miabichorin	-0.06506306
-4.414196	matsira	-0.11324402
-4.104652	shokocha	-0.06506306
-4.593757	namaakanti	-0.06506303
-4.593757	Oriakin	-0.06506303
-4.2492094	bicho	-0.06506306
-4.104652	akini	-0.11324402
-4.593757	Wetsara	-0.06506303
-4.593757	benakanai	-0.06506303
-4.2492094	seneanke	-0.14861634
-4.414196	sokota	-0.06506303
-4.593757	Jawekeskaaxon	-0.06506303
-4.414196	benxoakasai	-0.06506303
-4.593757	keniresa	-0.06506303
-4.593757	bonon	-0.06506303
-4.593757	Osanrawanke	-0.06506303
-3.5907674	jawebi	-0.1685808
-3.52131	beai	-0.36251184
-4.414196	ochomaira	-0.1973132
-4.593757	Chankatara	-0.06506303
-4.414196	paranti	-0.1973132
-3.9963825	tsinki	-0.06506303
-4.414196	wishake	-0.1973132
-4.593757	Jakonrai	-0.06506303
-4.593757	Bikiakana	-0.06506303
-4.104652	ransai	-0.12617339
-4.414196	aribati	-0.06506303
-4.414196	kenma	-0.14861634
-3.4903467	joa	-0.19544204
-4.593757	Makoabo	-0.06506303
-4.2492094	bakera	-0.06506306
-4.414196	isimeke	-0.1973132
-4.104652	yamai	-0.25360838
-4.593757	Paxkinamarin	-0.06506303
-4.593757	teneti	-0.06506303
-3.262939	yokawe	-0.35203546
-4.414196	Mary	-0.06506303
-3.837626	topona	-0.26346722
-3.90979	jishtena	-0.13565017
-3.6301613	sawewe	-0.69294107
-4.414196	ratetara	-0.1973132
-4.593757	kopiamenki	-0.06506303
-4.593757	nishibo	-0.06506303
-4.414196	Anon	-0.14861634
-4.593757	Paxkinkanarin	-0.06506303
-4.593757	jakomama	-0.06506303
-3.9963825	ikara	-0.06506303
-4.593757	Winiki	-0.06506303
-4.593757	jakomakaswanke	-0.06506303
-3.837626	niwe	-0.15839185
-4.593757	jikitiki	-0.06506303
-4.104652	joe	-0.06506303
-4.593757	Matsicha	-0.06506303
-4.593757	inini	-0.06506303
-4.104652	maroti	-0.14861634
-4.593757	koiramekasai	-0.06506303
-4.593757	Yoiwe	-0.06506303
-4.414196	oinban	-0.1973132
-4.593757	Italiano	-0.06506303
-4.104652	axewe	-0.25360838
-4.593757	Bepainarin	-0.06506303
-4.2492094	kamawe	-0.14861634
-4.593757	Gobora	-0.06506303
-3.9963825	bochiki	-0.06506306
-4.2492094	rankanke	-0.34043717
-4.593757	yoitaniwe	-0.06506303
-4.593757	Teetaibora	-0.06506303
-3.6301613	maxkake	-0.9047086
-4.593757	Shinanbenonon	-0.06506303
-4.593757	Kikinira	-0.06506306
-4.2492094	rabinai	-0.14861634
-4.593757	akenti	-0.06506303
-3.4088404	jaskara	-0.18058597
-3.7757618	ichaira	-0.06506303
-4.593757	onpaxra	-0.06506303
-4.414196	jikiwe	-0.14861634
-4.593757	iribati	-0.06506303
-3.9963825	tsoabi	-0.06506303
-4.593757	yakatama	-0.06506303
-4.104652	japonésnin	-0.46537593
-4.593757	ransakasma	-0.06506303
-4.593757	Netetibi	-0.06506303
-4.593757	sueter	-0.06506303
-4.593757	Senen	-0.06506303
-4.593757	pitiyarin	-0.06506303
-4.593757	Rabinara	-0.06506303
-3.90979	axekasai	-0.42355484
-4.593757	Jamera	-0.06506303
-4.593757	australia	-0.06506303
-4.593757	Eabira	-0.06506303
-4.593757	wetsarin	-0.06506303
-4.593757	nobetan	-0.06506303
-4.414196	bariapan	-0.06506303
-4.593757	jawekiakasai	-0.06506303
-4.414196	tantikasai	-0.06506303
-3.7216213	isinai	-0.13949953
-4.414196	jansoyamake	-0.1973132
-4.414196	teekasai	-0.06506303
-4.414196	pontewe	-0.1973132
-4.593757	Washingtonra	-0.06506303
-4.593757	ichbires	-0.06506303
-3.9963825	vino	-0.06506303
-4.414196	eabicho	-0.06506306
-4.593757	sererin	-0.06506303
-4.593757	Mawatama	-0.06506303
-3.6734881	bowe	-0.6515484
-4.593757	Buitree	-0.06506303
-4.593757	shinanyara	-0.06506303
-3.4614446	aki	-0.25055122
-4.414196	yoake	-0.1973132
-4.414196	Nato	-0.06506303
-4.593757	iko	-0.06506303
-4.593757	Ramabira	-0.06506306
-4.414196	Ishton	-0.06506303
-4.414196	kairin	-0.06506303
-4.593757	timaibake	-0.06506303
-4.593757	Jaetiki	-0.06506303
-4.593757	Riosanresa	-0.06506303
-4.414196	parantabora	-0.06506306
-3.7216213	noe	-0.10164146
-4.593757	Ayamawe	-0.06506303
-3.837626	xepenwe	-0.708414
-3.837626	inon	-0.16264968
-3.90979	axeamis	-0.118942924
-3.90979	kayamawe	-0.49664643
-4.593757	Naponbekon	-0.06506303
-4.593757	iwanketin	-0.06506303
-3.90979	wishara	-0.4296996
-4.414196	yoyoakai	-0.1973132
-4.593757	Jan	-0.06506306
-4.2492094	jikiai	-0.11324402
-4.593757	Bata	-0.06506303
-3.9963825	xea	-0.14861634
-4.414196	ensalada	-0.1973132
-4.414196	Yantainra	-0.06506303
-4.414196	Tsoki	-0.1973132
-4.593757	ikiki	-0.06506303
-3.837626	jisabires	-0.23757309
-4.593757	xoake	-0.06506303
-4.593757	Mikira	-0.06506303
-4.414196	akashorai	-0.1973132
-4.593757	Namatimara	-0.06506303
-4.593757	maroaibo	-0.06506303
-4.593757	Isin	-0.06506303
-4.414196	piikasi	-0.06506303
-4.593757	Pitsika	-0.06506303
-4.414196	kankan	-0.06506303
-3.9963825	jawekiki	-0.06506303
-4.414196	paskoa	-0.06506303
-4.593757	Yama	-0.06506303
-4.593757	xepenra	-0.06506303
-3.837626	merake	-0.708414
-4.593757	xeakin	-0.06506303
-3.9963825	jeneke	-0.5622859
-4.2492094	bemanaya	-0.14861634
-4.414196	golf	-0.1973132
-4.414196	aresti	-0.06506306
-4.2492094	kareswe	-0.25360838
-4.593757	Actor	-0.06506303
-3.837626	oinon	-0.13899043
-3.52131	jaweti	-0.08166364
-4.414196	anirin	-0.1973132
-4.593757	Osanyashamanbo	-0.06506303
-4.593757	Jokasi	-0.06506303
-4.104652	irai	-0.25360838
-4.414196	Ramabi	-0.06506303
-4.414196	osainbake	-0.1973132
-4.414196	jawera	-0.11324402
-4.593757	Francésninra	-0.06506303
-4.593757	Sinakananira	-0.06506303
-3.6734881	jakiribi	-0.07955352
-4.414196	jakomakanke	-0.1973132
-4.104652	keyoa	-0.34043717
-3.6301613	oina	-0.6762293
-4.593757	Miope	-0.06506303
-4.593757	suajualinin	-0.06506303
-4.414196	jainshaman	-0.06506303
-4.593757	Yoatiki	-0.06506303
-4.593757	kextora	-0.06506303
-4.593757	oinmake	-0.06506303
-4.593757	Atikon	-0.06506303
-3.837626	bata	-0.118942924
-4.414196	isiman	-0.06506303
-4.593757	Piira	-0.06506303
-4.593757	Washimis	-0.06506303
-4.104652	jai	-0.12617339
-4.593757	choronkana	-0.06506303
-4.414196	kanana	-0.1973132
-4.593757	Tomas	-0.06506303
-1.7406986	,	-0.24363375
-3.837626	te	-0.12617339
-3.9963825	kananai	-0.3566081
-4.593757	Ishtonra	-0.06506303
-3.837626	chosko	-0.17011711
-3.7757618	jainoax	-0.08166364
-4.593757	axetiainkoniax	-0.06506303
-4.593757	Jakomarake	-0.06506303
-3.7757618	oini	-0.12617339
-4.593757	bekanke	-0.06506303
-4.593757	Bochochara	-0.06506303
-4.414196	senenra	-0.06506303
-4.593757	jowanke	-0.06506303
-4.593757	xanamai	-0.06506303
-3.6734881	yakati	-0.18681706
-4.593757	benxoaxonwe	-0.06506303
-4.593757	Yoaxonawe	-0.06506303
-4.593757	Tenamakanwe	-0.06506303
-4.593757	Aresnon	-0.06506303
-4.593757	Ayamabiresa	-0.06506303
-3.7757618	baneke	-0.5546384
-4.104652	kenki	-0.46537593
-3.5907674	jikiti	-0.24146792
-4.593757	Akinires	-0.06506303
-4.593757	tsisoikitira	-0.06506303
-4.593757	shokoshoko	-0.06506303
-4.593757	jakas	-0.06506303
-4.593757	shinanmake	-0.06506303
-4.414196	jakomayamawe	-0.1973132
-4.593757	Sinatarin	-0.06506303
-4.593757	Jemanra	-0.06506306
-4.593757	maxka	-0.06506303
-4.593757	wanoti	-0.06506303
-4.414196	Jawekeskaki	-0.06506303
-4.414196	oinmakasira	-0.06506303
-4.593757	axetanike	-0.06506303
-4.2492094	manomake	-0.34043717
-4.593757	iyosma	-0.06506303
-4.414196	onantima	-0.06506303
-3.9963825	bemati	-0.14861634
-4.104652	kopira	-0.20547529
-4.104652	joribati	-0.1973132
-4.593757	oinkashorai	-0.06506303
-3.90979	jabe	-0.09454425
-4.593757	Jabarakanke	-0.06506303
-3.6734881	jakoni	-0.08449314
-4.593757	Noyatiresrin	-0.06506303
-4.414196	joneta	-0.06506303
-4.593757	Chi	-0.06506303
-3.9963825	yora	-0.06506306
-4.414196	xoai	-0.06506303
-4.593757	xeki	-0.06506303
-4.593757	teax	-0.06506303
-4.414196	jishtenke	-0.1973132
-4.593757	Fideo	-0.06506303
-4.593757	atipanyamaparike	-0.06506303
-4.593757	Xepotaira	-0.06506303
-4.414196	ointira	-0.06506303
-4.593757	ninkamati	-0.06506303
-4.104652	piiti	-0.25360838
-4.593757	Timananira	-0.06506303
-4.593757	Wara	-0.06506303
-4.593757	jarin	-0.06506303
-4.414196	Miaki	-0.072481625
-3.055723	ani	-0.18992914
-4.104652	ori	-0.06506303
-4.593757	ishtora	-0.06506303
-4.593757	Kikiankira	-0.06506306
-4.593757	tomnin	-0.06506303
-4.593757	Esperantonin	-0.06506303
-4.593757	Keyotiainra	-0.06506306
-4.593757	axeyamai	-0.06506303
-4.593757	katiriki	-0.06506303
-4.593757	chiti	-0.06506303
-3.52131	bero	-0.088485695
-4.593757	chopeti	-0.06506303
-4.414196	oinara	-0.06506303
-4.2492094	jonea	-0.14861634
-4.2492094	kenra	-0.12617339
-4.593757	ayamaibo	-0.06506303
-4.593757	Tomara	-0.06506303
-4.593757	ikonbo	-0.06506303
-4.593757	Katanwe	-0.06506303
-3.6734881	yoa	-0.10483345
-4.593757	Jaweranoaxki	-0.06506303
-4.104652	bekanai	-0.25360838
-3.837626	matsi	-0.10863628
-4.593757	Ninkatairin	-0.06506303
-4.593757	lecheres	-0.06506303
-3.9963825	jugo	-0.06506303
-3.90979	kenyamai	-0.18128031
-2.9666436	jaton	-0.12991929
-4.593757	jemara	-0.06506303
-4.593757	ixonke	-0.06506303
-4.593757	Jatikaxbira	-0.06506306
-4.593757	jiribakanke	-0.06506303
-3.5907674	boti	-0.2796722
-4.593757	onanyamai	-0.06506303
-4.414196	motian	-0.06506303
-3.7216213	baneti	-0.4436205
-4.593757	Rokotororin	-0.06506303
-4.593757	Jaskati	-0.06506303
-4.414196	ikemabi	-0.06506303
-4.2492094	horarin	-0.14861634
-4.593757	ikaspariai	-0.06506303
-4.593757	niaibake	-0.06506303
-4.593757	Onankia	-0.06506303
-4.593757	Koshira	-0.06506303
-4.593757	iyamake	-0.06506303
-4.414196	kake	-0.1973132
-4.593757	Kirinkonin	-0.06506303
-4.593757	Karonkoniax	-0.06506303
-4.593757	pikastaniai	-0.06506303
-4.414196	xeteyamai	-0.06506303
-4.593757	Ilesos	-0.06506303
-4.593757	winikaske	-0.06506303
-4.593757	Ajedreznin	-0.06506303
-4.2492094	tsininon	-0.14861634
-4.593757	Paramis	-0.06506303
-4.593757	ninkayamake	-0.06506303
-4.414196	yatankana	-0.06506303
-4.593757	Jonira	-0.06506303
-4.414196	oinyamawanke	-0.06506303
-4.414196	kirikaya	-0.06506303
-4.2492094	wetsaresbiri	-0.06506306
-4.593757	Jakomarin	-0.06506303
-4.2492094	jakomaake	-0.34043717
-4.593757	Jawekin	-0.06506303
-4.593757	yoyoyai	-0.06506303
-4.2492094	noyai	-0.06506303
-4.414196	peowe	-0.1973132
-3.7216213	yoike	-0.6057909
-4.414196	misho	-0.06506303
-4.2492094	merakanwe	-0.34043717
-4.593757	ninkatiki	-0.06506303
-3.9963825	atibires	-0.18128031
-3.7216213	ibirai	-0.8175584
-4.593757	Ramachabira	-0.06506303
-3.90979	wishai	-0.13899043
-4.593757	kopirin	-0.06506303
-3.9963825	ka	-0.16744502
-4.593757	banemake	-0.06506303
-4.593757	Bewarai	-0.06506303
-4.593757	tanatai	-0.06506303
-4.593757	cheteyamai	-0.06506303
-4.2492094	ochoira	-0.06506303
-4.593757	joribakasai	-0.06506303
-4.593757	Tranpilla	-0.06506303
-3.3402407	chopa	-0.07829233
-3.9963825	tsinkiti	-0.06506303
-3.90979	benai	-0.17577127
-3.90979	ransakasai	-0.34043717
-4.593757	Tansharina	-0.06506303
-3.5546517	maroai	-0.4743206
-4.593757	shinanmai	-0.06506303
-4.593757	Bakecha	-0.06506303
-4.593757	chipotira	-0.06506303
-4.593757	Tomasninra	-0.06506303
-4.593757	jawekikira	-0.06506303
-4.2492094	jainres	-0.06506306
-4.593757	akanaya	-0.06506303
-4.593757	jotora	-0.06506303
-4.593757	tsekaibake	-0.06506303
-4.593757	Jaweyomaobi	-0.06506303
-4.593757	Jatibitianki	-0.06506303
-4.414196	Jakomaira	-0.06506303
-4.593757	akinba	-0.06506303
-4.593757	Jainbira	-0.06506303
-4.593757	banekanle	-0.06506303
-4.593757	Orira	-0.06506306
-4.593757	Maxkarake	-0.06506303
-4.593757	gradoainrin	-0.06506303
-4.414196	onanbires	-0.06506303
-4.593757	yoikantima	-0.06506303
-4.593757	joneirin	-0.06506303
-4.414196	jakoankin	-0.06506303
-4.414196	rabini	-0.06506303
-4.593757	Vinora	-0.06506303
-4.593757	Xepokanainoara	-0.06506303
-4.414196	nokoai	-0.06506303
-4.593757	Arrozra	-0.06506303
-4.414196	oroai	-0.1973132
-4.593757	yoiyamei	-0.06506303
-4.593757	tsekatiya	-0.06506303
-4.2492094	jansoi	-0.12617339
-3.90979	xana	-0.06506303
-4.593757	Noyakiakanai	-0.06506303
-4.2492094	matsin	-0.14861634
-4.593757	Tsamatibi	-0.06506303
-4.593757	xeiti	-0.06506303
-4.593757	Botella	-0.06506303
-4.2492094	ikanke	-0.34043717
-4.593757	Shinanbenotai	-0.06506303
-4.593757	firimana	-0.06506303
-4.593757	jawekeskara	-0.06506303
-4.414196	kaferes	-0.06506303
-4.593757	Jakontanirin	-0.06506303
-4.2492094	onismake	-0.34043717
-4.414196	yamebo	-0.06506303
-3.6734881	irake	-0.17011711
-4.2492094	akasira	-0.25360838
-4.593757	keyotian	-0.06506303
-4.2492094	ichabires	-0.06506303
-4.104652	bostoain	-0.12617339
-4.414196	karibakasai	-0.06506303
-4.104652	paranke	-0.46537593
-4.414196	onanbo	-0.06506303
-4.593757	tasai	-0.06506303
-4.104652	xepoke	-0.46537593
-4.593757	Jakomakanara	-0.06506303
-4.593757	Rekenra	-0.06506303
-4.593757	atikomaira	-0.06506303
-4.593757	folleto	-0.06506303
-4.593757	neskarainko	-0.06506303
-4.593757	ayorakin	-0.06506303
-4.593757	osanmai	-0.06506303
-4.593757	benotariki	-0.06506303
-3.90979	karo	-0.06506303
-4.414196	Ishtoncha	-0.14861634
-4.414196	Chankawe	-0.06506303
-4.593757	jakomake	-0.06506303
-4.593757	Barriletekiri	-0.06506303
-4.593757	matsikasai	-0.06506303
-4.414196	tsinike	-0.1973132
-3.90979	xeakasai	-0.42355484
-4.593757	beketianbires	-0.06506303
-4.414196	sushi	-0.06506303
-4.593757	Shinanxonbira	-0.06506303
-4.593757	kenanoxki	-0.06506303
-4.593757	oxerin	-0.06506303
-4.593757	toota	-0.06506303
-3.837626	shinanya	-0.16264968
-4.593757	yoakasai	-0.06506303
-4.414196	Jaskaraki	-0.1973132
-4.593757	Maxkakiakana	-0.06506303
-4.593757	Tsakarakanke	-0.06506303
-4.593757	xepoban	-0.06506303
-3.90979	meniai	-0.28796482
-4.414196	rinkon	-0.06506303
-4.593757	joira	-0.06506303
-4.414196	matsiai	-0.1973132
-4.593757	mawakasai	-0.06506303
-4.414196	manareswe	-0.1973132
-4.593757	nokokanai	-0.06506303
-4.593757	Jawerato	-0.06506303
-4.593757	noyatiainko	-0.06506303
-4.2492094	tsoarin	-0.11324402
-4.593757	akaswanke	-0.06506303
-4.593757	kanankin	-0.06506303
-4.593757	nashimawe	-0.06506303
-4.593757	banemati	-0.06506303
-4.104652	yoitima	-0.06506303
-4.414196	arakanke	-0.06506303
-4.593757	Ninkatima	-0.06506303
-3.6301613	kaman	-0.13500631
-4.593757	Onantikoma	-0.06506306
-4.593757	Sawereswe	-0.06506303
-4.593757	chankanon	-0.06506303
-4.593757	nokoanankasai	-0.06506303
-4.593757	manayamake	-0.06506303
-4.2492094	jotiai	-0.14861634
-4.593757	ramiati	-0.06506303
-4.414196	raroa	-0.06506303
-4.593757	namatai	-0.06506303
-4.104652	axeirin	-0.46537593
-4.593757	oinaki	-0.06506303
-4.593757	Sinakananimara	-0.06506303
-4.593757	gayeta	-0.06506303
-4.593757	Nobetanra	-0.06506303
-4.593757	kakasira	-0.06506303
-3.6301613	tanawe	-0.69294107
-4.593757	Australianobo	-0.06506303
-4.593757	Banekiai	-0.06506303
-4.2492094	oinirin	-0.14861634
-4.414196	tanakanwe	-0.1973132
-4.593757	Miakan	-0.06506303
-4.593757	xeatira	-0.06506303
-4.414196	pekaora	-0.09892407
-4.2492094	pakewe	-0.34043717
-3.4614446	wisha	-0.14888301
-4.593757	rankasai	-0.06506303
-4.593757	noeshamanra	-0.06506303
-3.837626	ramabi	-0.06506303
-4.104652	joribake	-0.46537593
-4.593757	Onisama	-0.06506303
-4.593757	Mesta	-0.06506303
-4.593757	cirugia	-0.06506303
-4.593757	wenita	-0.06506303
-4.593757	noia	-0.06506303
-4.593757	beainbira	-0.06506303
-4.593757	Yonayarin	-0.06506303
-4.104652	pan	-0.06506303
-3.6301613	piai	-0.4850132
-4.593757	Jawetianrin	-0.06506303
-4.593757	merakanke	-0.06506303
-4.104652	ishtoai	-0.25360838
-4.593757	Xoatacha	-0.06506303
-4.593757	karoya	-0.06506303
-4.104652	pisi	-0.06506303
-4.414196	poatai	-0.06506303
-4.104652	metsaira	-0.15839185
-4.414196	Eki	-0.06506303
-4.593757	Tashira	-0.06506303
-4.593757	pikomayamakanai	-0.06506303
-4.414196	Anirin	-0.06506306
-4.414196	amai	-0.06506303
-4.414196	Keteawe	-0.06506303
-4.593757	kotonya	-0.06506303
-4.593757	xeairai	-0.06506303
-4.2492094	ichama	-0.06506303
-4.593757	Ichabires	-0.06506303
-4.593757	Jatibitian	-0.06506303
-4.593757	Ranboxoain	-0.06506303
-4.414196	Ikon	-0.06506303
-4.593757	Jaskarabora	-0.06506303
-4.593757	ikoanyama	-0.06506303
-4.2492094	ninkawana	-0.06506306
-4.414196	nonoai	-0.06506303
-4.593757	kamati	-0.06506303
-4.593757	joikanki	-0.06506303
-4.593757	Xakaawe	-0.06506303
-2.5975535	itan	-0.157999
-4.2492094	xoa	-0.14861634
-4.104652	ninkaxonwe	-0.3505184
-3.4903467	xobo	-0.06506303
-4.593757	Polisrin	-0.06506303
-4.104652	ishtonshoko	-0.06506306
-4.414196	poto	-0.06506303
-3.9963825	janso	-0.09892407
-4.2492094	janeai	-0.14861634
-4.2492094	tasketa	-0.06506306
-4.593757	Maxkoma	-0.06506303
-4.593757	Keniya	-0.06506303
-4.593757	Paxkinra	-0.06506303
-4.593757	Ponteshaman	-0.06506303
-3.9963825	onankana	-0.06506303
-4.593757	bokanti	-0.06506303
-4.414196	karora	-0.06506303
-4.593757	winoacha	-0.06506303
-4.593757	ikainkoniax	-0.06506303
-4.414196	Weniwe	-0.06506306
-4.414196	kenrespariai	-0.1973132
-4.593757	grofesbo	-0.06506303
-4.593757	Miabicho	-0.06506303
-3.7757618	jisarin	-0.16601236
-4.414196	nokoi	-0.1973132
-4.593757	Jirita	-0.06506303
-4.593757	Wishtinbora	-0.06506303
-4.414196	wanoai	-0.1973132
-4.593757	ointania	-0.06506303
-4.414196	Noaki	-0.06506303
-4.593757	bekenaixon	-0.06506303
-4.104652	onanyama	-0.06506303
-3.90979	imawe	-0.27179414
-4.2492094	akira	-0.06506303
-4.593757	Chinireswe	-0.06506303
-4.593757	ranx	-0.06506303
-4.414196	pishara	-0.1973132
-4.593757	Domingonira	-0.06506303
-4.414196	ninkakashamai	-0.1973132
-4.2492094	jikimakanwe	-0.34043717
-4.593757	Beneya	-0.06506303
-4.2492094	katin	-0.06506306
-4.2492094	akinkasi	-0.14861634
-4.414196	kewanke	-0.1973132
-4.104652	mera	-0.25360838
-4.593757	Matoki	-0.06506303
-4.593757	ebetan	-0.06506303
-4.104652	moka	-0.12617339
-3.6734881	pari	-0.19978453
-4.593757	Axeamisma	-0.06506303
-4.593757	Chibanresnon	-0.06506303
-4.104652	basiai	-0.1973132
-3.7757618	joribai	-0.46405607
-4.593757	Batarin	-0.06506303
-4.414196	Jara	-0.06506303
-4.414196	pikokanwe	-0.06506303
-4.414196	timananti	-0.1973132
-4.104652	Boston	-0.06506303
-4.593757	noiara	-0.06506303
-4.593757	Banetaira	-0.06506303
-4.593757	Kopima	-0.06506303
-4.593757	mapotiya	-0.06506303
-4.414196	ikasi	-0.06506303
-4.414196	Onanti	-0.06506303
-4.104652	e	-0.25360838
-4.593757	Namaketiain	-0.06506303
-4.593757	jisares	-0.06506303
-4.414196	ninkataniai	-0.06506303
-4.414196	imakasi	-0.06506303
-4.593757	nokowe	-0.06506303
-4.2492094	benxoawe	-0.34043717
-4.2492094	jisama	-0.06506306
-4.414196	wetsabires	-0.06506303
-4.414196	yokakanwe	-0.1973132
-4.414196	akinkasira	-0.06506303
-4.593757	oinanai	-0.06506303
-4.593757	Ninkatara	-0.06506303
-4.593757	ninkabanon	-0.06506303
-4.593757	jawekiyoma	-0.06506306
-4.593757	Nerawe	-0.06506303
-4.414196	Jawekeskatiki	-0.11324402
-4.2492094	yatanti	-0.12617339
-4.593757	Jawekeska	-0.06506303
-3.7216213	bachi	-0.06506303
-4.593757	namake	-0.06506303
-4.414196	zapatobo	-0.06506303
-4.593757	sawekanwe	-0.06506303
-4.593757	Potananti	-0.06506303
-4.593757	Bonabaonra	-0.06506303
-4.593757	tekanake	-0.06506303
-4.593757	Jisontiankoki	-0.06506303
-4.593757	aresirin	-0.06506303
-4.414196	jikia	-0.1973132
-4.593757	bombonesbo	-0.06506303
-4.593757	Jaskayamawe	-0.06506303
-4.593757	shinamati	-0.06506303
-4.593757	iraibake	-0.06506303
-4.593757	xepokanke	-0.06506303
-4.593757	Akinkas	-0.06506303
-4.593757	Jotiara	-0.06506303
-4.593757	Chachiyamarake	-0.06506303
-4.593757	pilas	-0.06506303
-4.414196	maroyamai	-0.06506303
-3.4088404	mibe	-0.19331644
-4.593757	oinyama	-0.06506303
-4.593757	xeakanai	-0.06506303
-4.593757	Winotaicha	-0.06506303
-4.593757	Marinra	-0.06506303
-4.593757	yoyoikai	-0.06506303
-4.593757	masaake	-0.06506303
-4.593757	Wetsabiresa	-0.06506303
-4.593757	westioraya	-0.06506303
-4.593757	joyamake	-0.06506303
-4.414196	ikaxra	-0.1973132
-4.593757	Ninkatira	-0.06506306
-4.593757	Xepotiainxon	-0.06506303
-4.593757	kenakanai	-0.06506303
-4.593757	natex	-0.06506303
-4.593757	Xepenyamawe	-0.06506303
-4.414196	ninkanon	-0.06506303
-4.414196	kaira	-0.06506303
-4.593757	oinba	-0.06506303
-4.414196	winoai	-0.1973132
-4.414196	Tomki	-0.088485695
-4.593757	Zapatobora	-0.06506303
-4.593757	ninkayamawanke	-0.06506303
-4.104652	akina	-0.25360838
-4.414196	keyokanwe	-0.1973132
-3.90979	yama	-0.14861634
-4.593757	Bochoawe	-0.06506303
-4.2492094	oshia	-0.12617339
-4.414196	ipachoai	-0.06506303
-4.593757	sereres	-0.06506303
-4.593757	kapariai	-0.06506303
-4.593757	iribai	-0.06506303
-4.2492094	kenyamawanke	-0.34043717
-4.593757	tsoberin	-0.06506303
-4.104652	raenanai	-0.06506306
-4.593757	betanrin	-0.06506303
-4.414196	pikasira	-0.1973132
-4.2492094	nai	-0.06506306
-4.593757	xeaibake	-0.06506303
-3.90979	oxa	-0.09454425
-4.414196	sontaro	-0.06506303
-3.9963825	onpax	-0.11324402
-4.593757	peranti	-0.06506303
-3.9963825	tsekawe	-0.3505184
-4.593757	Katira	-0.06506303
-4.593757	ninkayamawe	-0.06506303
-4.593757	axonke	-0.06506303
-4.593757	Jakomamisrin	-0.06506303
-4.593757	Noyaira	-0.06506303
-4.593757	senenshaman	-0.06506303
-4.593757	Tantimaki	-0.06506303
-4.593757	Pitiyabiri	-0.06506303
-4.2492094	ishtonres	-0.06506306
-3.90979	shinanra	-0.14861634
-3.6734881	joibo	-0.17830525
-4.414196	Jansoyamawe	-0.06506303
-3.837626	keni	-0.09454425
-4.593757	Oxakasi	-0.06506303
-4.593757	oracionbo	-0.06506303
-4.593757	poton	-0.06506303
-4.593757	Jenewe	-0.06506303
-4.593757	Ikokanankiakana	-0.06506303
-4.593757	Jarin	-0.06506303
-4.593757	Manakasma	-0.06506303
-4.414196	korikiyabo	-0.1973132
-4.414196	mion	-0.06506306
-4.2492094	akashamai	-0.06506306
-4.593757	Keteta	-0.06506303
-4.104652	paketi	-0.12617339
-4.593757	Jainparira	-0.06506303
-4.414196	Jainrin	-0.1973132
-4.593757	kapo	-0.06506306
-4.593757	japarike	-0.06506303
-4.593757	potaanankasi	-0.06506303
-4.593757	Policiarin	-0.06506303
-4.593757	Diosra	-0.06506303
-4.593757	Ishtoreswe	-0.06506303
-4.593757	Isinira	-0.06506303
-4.414196	rateai	-0.1973132
-4.593757	Yowe	-0.06506303
-4.593757	Mil	-0.06506303
-4.593757	yenasra	-0.06506303
-4.593757	Jatora	-0.06506306
-4.414196	choncho	-0.06506303
-4.593757	koiranaibo	-0.06506303
-4.593757	Akia	-0.06506303
-4.593757	oshiai	-0.06506303
-4.414196	iwankanke	-0.1973132
-4.593757	Ninkawe	-0.06506303
-4.593757	Jorakanai	-0.06506303
-4.593757	Moabires	-0.06506303
-3.90979	papabo	-0.09454425
-4.593757	Marira	-0.06506306
-4.414196	oxax	-0.1973132
-4.593757	iresi	-0.06506303
-4.414196	kamanra	-0.06506303
-4.593757	jansoke	-0.06506303
-4.593757	Peinin	-0.06506303
-4.414196	Atikoma	-0.06506306
-4.593757	jawekianrin	-0.06506303
-4.593757	menipachoai	-0.06506303
-4.593757	jaskaaka	-0.06506303
-4.593757	ibatara	-0.06506303
-4.414196	potakasai	-0.06506303
-4.593757	Ninkayamarakanai	-0.06506303
-4.593757	raroriki	-0.06506303
-4.593757	Jiwira	-0.06506303
-4.593757	chiibires	-0.06506303
-4.593757	rata	-0.06506303
-3.90979	kepenti	-0.24822713
-4.104652	jainoa	-0.12617339
-4.593757	onantira	-0.06506303
-4.593757	ratekashamaira	-0.06506303
-3.4903467	rao	-0.15346207
-4.414196	akaya	-0.06506303
-4.414196	Nokon	-0.06506306
-3.3619251	onanti	-0.50981355
-4.593757	xanayaki	-0.06506303
-4.593757	Metsairabo	-0.06506303
-4.104652	piano	-0.12617339
-4.414196	guitarra	-0.1973132
-4.414196	itirin	-0.06506303
-4.593757	karesti	-0.06506303
-4.593757	Minarin	-0.06506306
-4.593757	benawe	-0.06506303
-4.593757	bema	-0.06506303
-3.9963825	bia	-0.11324402
-4.104652	oke	-0.09454425
-4.593757	nokoa	-0.06506303
-4.593757	Oiniki	-0.06506303
-4.104652	ikama	-0.12617339
-4.593757	Natoyaki	-0.06506303
-4.593757	oinmakasai	-0.06506303
-4.593757	chekebo	-0.06506303
-4.593757	Ochora	-0.06506303
-3.5907674	nokotai	-0.64146715
-4.593757	nokokasira	-0.06506303
-4.593757	Tantira	-0.06506306
-4.414196	oinmayamawe	-0.1973132
-4.593757	nashi	-0.06506303
-4.593757	jabakanke	-0.06506303
-4.414196	Bakishki	-0.06506303
-4.593757	aibata	-0.06506303
-4.593757	domingo	-0.06506303
-3.90979	wai	-0.10164146
-4.593757	maira	-0.06506303
-4.593757	Kafenin	-0.06506303
-4.593757	yatankanwe	-0.06506303
-4.2492094	bibake	-0.34043717
-4.414196	Yantancha	-0.06506306
-4.593757	yantancha	-0.06506303
-4.414196	jishtenai	-0.1973132
-4.593757	atiomara	-0.06506303
-4.593757	Meshakonkiakana	-0.06506303
-4.593757	nonoibake	-0.06506303
-4.593757	ireswanke	-0.06506303
-4.414196	sei	-0.06506303
-4.593757	pikinti	-0.06506303
-4.414196	Jawekeskaaxonki	-0.14861634
-4.2492094	kanon	-0.11324402
-4.2492094	keyoti	-0.06506303
-4.414196	wanokasai	-0.1973132
-4.593757	Jaweyarin	-0.06506306
-4.414196	metsati	-0.06506303
-4.593757	akintira	-0.06506303
-4.2492094	oinwana	-0.06506306
-4.104652	kora	-0.06506303
-4.414196	oinmakanwe	-0.1973132
-4.593757	keshakasai	-0.06506303
-4.593757	Oxamaparirin	-0.06506303
-4.414196	ishto	-0.06506306
-4.593757	Karomeax	-0.06506303
-4.414196	winomawe	-0.1973132
-4.593757	Sinatamaki	-0.06506303
-4.593757	Kafe	-0.06506303
-4.593757	teeke	-0.06506303
-4.593757	bitiya	-0.06506303
-4.593757	ikoti	-0.06506303
-4.593757	kopiokaske	-0.06506303
-4.414196	jainbi	-0.06506303
-4.593757	shoo	-0.06506303
-4.593757	Menorakanke	-0.06506303
-4.414196	pekaoki	-0.06506306
-4.414196	onanon	-0.06506303
-4.593757	matsiti	-0.06506303
-4.593757	Rakowe	-0.06506303
-4.593757	yokashoko	-0.06506303
-4.593757	Ransakiakana	-0.06506303
-4.593757	Turca	-0.06506303
-4.593757	sereki	-0.06506303
-4.104652	nia	-0.06506303
-4.593757	Xoarin	-0.06506303
-4.414196	ninkatishaman	-0.06506306
-4.593757	Manaira	-0.06506303
-4.593757	pikokanke	-0.06506303
-4.593757	karobo	-0.06506303
-4.593757	mawaibata	-0.06506303
-4.593757	Benopain	-0.06506303
-4.2492094	rik	-0.34043717
-4.593757	Janki	-0.06506303
-4.593757	navidad	-0.06506303
-4.593757	Jaweshaman	-0.06506303
-4.414196	yoikasirin	-0.1973132
-4.414196	atiyoma	-0.06506306
-4.593757	Ochomacha	-0.06506303
-4.593757	yokaibake	-0.06506303
-4.593757	Wishaboira	-0.06506303
-4.593757	oinmayamai	-0.06506303
-4.593757	Jaweribi	-0.06506303
-4.414196	bexonti	-0.1973132
-4.414196	bikasi	-0.06506303
-4.593757	Jatonki	-0.06506303
-4.414196	ichatama	-0.06506306
-3.4088404	jema	-0.11200444
-4.593757	ointaniai	-0.06506303
-4.414196	ninkakasira	-0.1973132
-4.593757	Ishtoreskanwe	-0.06506303
-4.593757	Xepoyamawe	-0.06506303
-4.593757	Teyares	-0.06506303
-4.593757	ninkaxonpain	-0.06506303
-4.593757	bicicleta	-0.06506303
-4.104652	axeakai	-0.46537593
-4.593757	Jaaki	-0.06506303
-4.593757	yosia	-0.06506303
-4.593757	Namanmai	-0.06506303
-4.593757	yatantires	-0.06506303
-4.593757	Yatankana	-0.06506303
-4.593757	sawearin	-0.06506303
-4.593757	ramakan	-0.06506303
-4.593757	Karesban	-0.06506303
-3.6301613	bea	-0.14137699
-4.593757	Kanankasiresa	-0.06506303
-4.593757	Ranboxoninbi	-0.06506303
-4.593757	Yoiyaires	-0.06506303
-4.414196	chibanai	-0.06506303
-4.593757	chexakati	-0.06506303
-4.593757	paranoiko	-0.06506303
-4.593757	Miariki	-0.06506303
-4.593757	noimis	-0.06506303
-4.414196	jointi	-0.06506303
-4.593757	Jaskararin	-0.06506303
-4.593757	ikanon	-0.06506303
-4.593757	ikashamai	-0.06506303
-4.593757	Osantirin	-0.06506303
-4.593757	sinamake	-0.06506303
-4.593757	Jainbirin	-0.06506303
-4.414196	jenenon	-0.06506303
-4.414196	Namatirin	-0.06506303
-4.593757	nomiai	-0.06506303
-4.593757	Jatiribibaonra	-0.06506303
-4.593757	atipanyamaibake	-0.06506303
-4.414196	pakeke	-0.1973132
-4.593757	onankashamai	-0.06506303
-4.414196	jaweranoki	-0.06506306
-4.104652	rokotoro	-0.12617339
-4.593757	jabakaske	-0.06506303
-4.593757	Parísra	-0.06506303
-4.414196	benaxonresti	-0.06506303
-4.2492094	yoirin	-0.20878358
-4.104652	poi	-0.13949953
-3.7216213	yoi	-0.13218006
-4.414196	jikikasai	-0.06506303
-4.593757	Eri	-0.06506303
-4.593757	Isinri	-0.06506303
-4.593757	Jawekibo	-0.06506303
-4.593757	ponteirin	-0.06506303
-4.593757	ikoanyamake	-0.06506303
-4.593757	teeibake	-0.06506303
-4.414196	medias	-0.06506306
-4.593757	Noikanabo	-0.06506303
-4.593757	Bakishronki	-0.06506303
-4.414196	ayamaibake	-0.1973132
-4.414196	jakonshaman	-0.1973132
-4.593757	yamakirishaman	-0.06506303
-4.593757	Jakomaakin	-0.06506303
-4.593757	baikiri	-0.06506303
-4.414196	karibati	-0.06506303
-3.3619251	wishawe	-0.58851576
-4.104652	jawekiati	-0.06506303
-4.2492094	orariki	-0.34043717
-4.593757	Kareskanwe	-0.06506303
-4.414196	oinbake	-0.1973132
-4.593757	potanawanke	-0.06506303
-3.9963825	oinke	-0.4296996
-4.593757	iskonya	-0.06506303
-4.593757	jawetianki	-0.06506303
-4.414196	bexonwe	-0.1973132
-4.593757	rekenxonabora	-0.06506303
-4.593757	Wisora	-0.06506303
-4.593757	wisky	-0.06506303
-3.9963825	oinkanwe	-0.3505184
-4.414196	jopewe	-0.1973132
-4.593757	yansoyamake	-0.06506303
-4.593757	Namanrin	-0.06506303
-4.414196	psihara	-0.06506303
-4.593757	Atinko	-0.06506303
-4.593757	Jakomakana	-0.06506303
-3.90979	axeati	-0.2340212
-3.6301613	mapo	-0.12500367
-4.414196	ikanabo	-0.06506303
-4.593757	netera	-0.06506303
-4.414196	Osanti	-0.14861634
-4.593757	kikinshiman	-0.06506303
-3.837626	wetsakeskaakin	-0.09454425
-4.104652	jeneai	-0.12617339
-4.593757	Betsoarake	-0.06506303
-4.2492094	axonti	-0.14861634
-4.2492094	jatishan	-0.06506306
-4.593757	Wetsakeskamaobi	-0.06506303
-4.593757	ransakas	-0.06506303
-4.593757	beacha	-0.06506303
-4.593757	jisabi	-0.06506303
-4.593757	Etiope	-0.06506303
-4.593757	Winiyamakanwe	-0.06506303
-4.593757	ochocha	-0.06506303
-4.593757	Koshimacha	-0.06506303
-4.593757	Seneanrake	-0.06506303
-4.104652	shinana	-0.12617339
-4.593757	saiyamake	-0.06506303
-4.593757	Kareswe	-0.06506303
-4.593757	Akasi	-0.06506303
-4.593757	Ransatibora	-0.06506303
-4.593757	kopia	-0.06506303
-4.593757	Potanankana	-0.06506303
-4.593757	osankinkasai	-0.06506303
-4.414196	teetaiboya	-0.1973132
-4.593757	winotaibora	-0.06506303
-4.593757	Nenonra	-0.06506303
-3.7757618	itinke	-0.5546384
-4.414196	rapisnin	-0.06506303
-4.2492094	kananti	-0.16744502
-4.593757	Benxoawe	-0.06506303
-3.6301613	yoinabo	-0.10045558
-4.593757	winobirake	-0.06506303
-4.2492094	ese	-0.06506303
-4.593757	Yokaresi	-0.06506303
-3.6734881	biai	-0.5622859
-4.593757	tantimakanke	-0.06506303
-4.414196	jaweranora	-0.06506303
-4.593757	Borakanke	-0.06506303
-4.593757	Tsinkira	-0.06506303
-4.2492094	keyoai	-0.14861634
-4.593757	ikatoninra	-0.06506303
-4.593757	firimakanwe	-0.06506303
-4.593757	shinanmakashamaira	-0.06506303
-4.593757	Faldara	-0.06506303
-4.414196	benaira	-0.1973132
-4.104652	manaibake	-0.46537593
-4.593757	Ochitibora	-0.06506303
-4.593757	raroshamanbo	-0.06506303
-4.593757	Minbichoki	-0.06506303
-3.90979	niti	-0.20547529
-4.593757	bekanayara	-0.06506303
-4.593757	Isinima	-0.06506303
-4.414196	areskanwe	-0.1973132
-4.593757	Maxkakia	-0.06506303
-4.593757	Conjuntivitisyara	-0.06506303
-4.414196	wetsatianbo	-0.06506303
-4.414196	ikainkorin	-0.06506303
-4.593757	keyonon	-0.06506303
-4.593757	baneyamake	-0.06506303
-4.2492094	iskon	-0.06506303
-4.2492094	ora	-0.06506306
-3.9963825	oxake	-0.5622859
-4.593757	Ramara	-0.06506303
-4.593757	paxkinai	-0.06506303
-4.593757	timananyamawe	-0.06506303
-4.593757	kanankas	-0.06506303
-4.593757	Joimara	-0.06506303
-4.593757	banekanke	-0.06506303
-4.593757	Yoakira	-0.06506303
-4.414196	Kamawe	-0.06506303
-4.414196	osanyashaman	-0.06506306
-4.414196	Jawetio	-0.06506303
-4.593757	basirin	-0.06506303
-4.414196	bokanai	-0.06506303
-3.837626	sereya	-0.22064161
-4.593757	toallabichora	-0.06506303
-3.4343464	ixonra	-0.41142368
-4.2492094	omisai	-0.34043717
-4.593757	maxkawanke	-0.06506303
-4.593757	axeyamake	-0.06506303
-4.414196	bexonke	-0.1973132
-4.593757	tantipariti	-0.06506303
-4.414196	rabebires	-0.06506303
-4.593757	Netekanwe	-0.06506303
-4.593757	Bewayamakanwe	-0.06506303
-4.593757	benaki	-0.06506303
-4.593757	Jainribira	-0.06506303
-4.414196	keskaakin	-0.06506303
-4.414196	baneribiti	-0.06506303
-4.414196	parira	-0.06506303
-4.593757	shinankasai	-0.06506303
-4.593757	jopariai	-0.06506303
-4.593757	Londres	-0.06506303
-4.593757	akiresa	-0.06506303
-4.593757	iyantanke	-0.06506303
-3.837626	yoikanwe	-0.3549116
-3.9963825	piwe	-0.3505184
-4.593757	Oiresti	-0.06506303
-4.593757	Chixoya	-0.06506303
-4.593757	Onanya	-0.06506303
-4.593757	Jakorin	-0.06506303
-4.593757	baikirira	-0.06506303
-4.593757	aresira	-0.06506303
-4.593757	Jenemeax	-0.06506303
-4.593757	Peokotianxon	-0.06506303
-4.593757	peoribikanwe	-0.06506303
-4.414196	Ishtowe	-0.06506303
-4.414196	noi	-0.06506303
-3.837626	yoina	-0.06506303
-4.593757	sinarin	-0.06506303
-4.414196	Jaskara	-0.10483345
-4.593757	kenmakasira	-0.06506303
-4.593757	rabinmai	-0.06506303
-4.593757	petsanmantira	-0.06506303
-4.593757	pewasti	-0.06506303
-4.593757	Winikas	-0.06506303
-4.593757	biaires	-0.06506303
-4.593757	janea	-0.06506303
-4.593757	ikotinin	-0.06506303
-4.593757	xobonkati	-0.06506303
-4.593757	Tashin	-0.06506303
-4.593757	chikoa	-0.06506303
-3.90979	tantiti	-0.09892407
-4.593757	shinanama	-0.06506303
-4.593757	ramashokobi	-0.06506303
-4.593757	joyama	-0.06506303
-4.2492094	kenti	-0.06506306
-4.414196	reteke	-0.1973132
-3.90979	hora	-0.14918312
-4.414196	jakanke	-0.1973132
-4.593757	tsasiti	-0.06506303
-4.593757	imatima	-0.06506303
-4.593757	benaiki	-0.06506303
-4.593757	Keyotianra	-0.06506303
-4.593757	oxatiainko	-0.06506303
-4.593757	restis	-0.06506303
-4.593757	Pikotamaki	-0.06506303
-4.593757	jishteanwanke	-0.06506303
-4.414196	paxkinarin	-0.1973132
-3.9963825	benati	-0.11324402
-4.593757	Weninon	-0.06506303
-3.3847497	ninkata	-0.45520878
-4.2492094	weniti	-0.06506306
-4.2492094	oinribikasai	-0.34043717
-4.593757	Enribira	-0.06506303
-4.414196	shinanbenowe	-0.14861634
-4.593757	menikasira	-0.06506303
-3.5907674	maxkata	-0.42827147
-4.593757	atania	-0.06506303
-4.414196	Manayamawe	-0.06506303
-4.414196	bochikicha	-0.06506303
-4.593757	Oinresira	-0.06506303
-4.2492094	jishtenwe	-0.14861634
-4.414196	tia	-0.06506303
-4.593757	Booyomarin	-0.06506303
-4.593757	Cafeshamanra	-0.06506303
-4.2492094	nenke	-0.06506306
-4.104652	anibo	-0.11324402
-4.593757	jisayabi	-0.06506303
-4.593757	Wishtin	-0.06506303
-3.837626	namanra	-0.06506303
-4.414196	Jain	-0.06506303
-4.593757	oxatiki	-0.06506303
-4.593757	axonkanti	-0.06506303
-4.593757	Metsashamanra	-0.06506303
-4.414196	gafasbo	-0.06506303
-4.593757	Jawekestaxra	-0.06506303
-4.593757	ibirake	-0.06506303
-4.593757	Karobora	-0.06506303
-4.593757	Oinkin	-0.06506303
-4.593757	Manzanayarin	-0.06506303
-4.593757	shakobo	-0.06506303
-4.104652	yakakasai	-0.1973132
-4.593757	Orabora	-0.06506303
-4.593757	winoibake	-0.06506303
-4.593757	Atikomachara	-0.06506303
-4.414196	jashaman	-0.06506303
-4.593757	Wisomarin	-0.06506303
-4.593757	shinantaniai	-0.06506303
-4.593757	namata	-0.06506303
-4.593757	hospital	-0.06506303
-3.3619251	ikainko	-0.092204
-4.593757	Akiakana	-0.06506303
-4.414196	Koiramekanwe	-0.06506303
-4.593757	joaira	-0.06506303
-4.593757	Rateti	-0.06506303
-4.414196	oinyamawe	-0.1973132
-4.593757	Jaskaakia	-0.06506303
-4.593757	katalanin	-0.06506303
-4.593757	Otitisya	-0.06506303
-4.593757	metsashokoriki	-0.06506303
-4.593757	Toshita	-0.06506303
-4.414196	piara	-0.06506303
-4.593757	abiratiki	-0.06506303
-3.90979	kexa	-0.06506303
-4.593757	chopeaxres	-0.06506303
-4.414196	banewanke	-0.1973132
-4.414196	Nenoax	-0.1973132
-3.90979	manoke	-0.64146715
-4.593757	Teeresawanke	-0.06506303
-4.593757	miba	-0.06506303
-4.593757	jatsan	-0.06506303
-3.140361	axon	-0.14198391
-4.593757	atipayamake	-0.06506303
-4.2492094	winibake	-0.34043717
-4.593757	Nonbi	-0.06506303
-4.414196	meratania	-0.1973132
-4.593757	Lunesninki	-0.06506303
-4.593757	Ratereskin	-0.06506303
-4.593757	Jaskataxra	-0.06506303
-4.593757	Wetsaribi	-0.06506303
-4.593757	jisontianko	-0.06506303
-4.414196	akarin	-0.06506306
-4.593757	tsokasai	-0.06506303
-4.593757	peokowanke	-0.06506303
-3.5907674	bewai	-0.19563861
-4.593757	Nononon	-0.06506303
-4.414196	yankonra	-0.06506303
-4.593757	Enbira	-0.06506303
-4.414196	yokata	-0.06506303
-4.593757	Joribarai	-0.06506303
-4.593757	Minaraki	-0.06506303
-4.414196	tenewe	-0.1973132
-4.593757	ochowe	-0.06506303
-4.593757	Makinara	-0.06506303
-4.593757	boke	-0.06506303
-4.414196	xepotira	-0.12617339
-4.593757	sion	-0.06506303
-4.593757	ribinyoma	-0.06506303
-4.414196	ibiratiki	-0.06506306
-4.593757	bariai	-0.06506303
-4.593757	keyoara	-0.06506303
-4.414196	rios	-0.06506303
-4.593757	Onisarin	-0.06506303
-4.593757	tsinkiya	-0.06506303
-3.2289019	bake	-0.15230541
-4.593757	Ichara	-0.06506303
-4.593757	ponteibakanke	-0.06506303
-4.414196	kirikabo	-0.06506303
-4.414196	akairin	-0.1973132
-4.593757	firimanai	-0.06506303
-4.593757	itiyara	-0.06506303
-4.593757	Keresmarin	-0.06506303
-4.593757	itinainkobi	-0.06506303
-4.593757	Paninrake	-0.06506303
-4.2492094	miabicho	-0.06506303
-4.593757	Kanadaninra	-0.06506303
-4.593757	trigo	-0.06506303
-4.593757	kometa	-0.06506303
-4.593757	yatanon	-0.06506303
-4.593757	Francésnin	-0.06506303
-4.593757	chibankanwe	-0.06506303
-4.593757	winike	-0.06506303
-4.593757	Carrillara	-0.06506303
-4.414196	yatanai	-0.1973132
-4.104652	bemana	-0.09454425
-4.593757	joshina	-0.06506303
-4.593757	rabintires	-0.06506303
-4.414196	yoixonai	-0.06506303
-4.593757	piirin	-0.06506303
-4.414196	shinanira	-0.06506306
-4.593757	Axeai	-0.06506303
-4.593757	bakeranonri	-0.06506303
-4.414196	katires	-0.1973132
-4.593757	Jakomati	-0.06506303
-4.104652	oimai	-0.25360838
-4.593757	manejati	-0.06506303
-4.2492094	benxoati	-0.14861634
-3.6301613	oinmawe	-0.3045199
-4.593757	Xeacha	-0.06506303
-3.837626	paketa	-0.12233049
-4.414196	Natoki	-0.10483345
-4.593757	Ovnisbo	-0.06506303
-4.593757	onainbakanke	-0.06506303
-4.593757	Noa	-0.06506306
-4.593757	yameta	-0.06506303
-4.593757	axekashamai	-0.06506303
-4.593757	Jakia	-0.06506303
-3.9963825	raonai	-0.24822713
-3.4088404	ainbo	-0.11461145
-4.104652	wini	-0.06506303
-4.593757	Kenti	-0.06506303
-4.593757	aresbireske	-0.06506303
-4.104652	oinax	-0.06506303
-4.2492094	ribojanti	-0.06506306
-4.593757	teebi	-0.06506303
-4.593757	miercolesnin	-0.06506303
-4.593757	Bitiresrin	-0.06506303
-4.593757	Toman	-0.06506303
-4.414196	kenirin	-0.06506303
-4.593757	winiresai	-0.06506303
-4.593757	jaweke	-0.06506303
-4.104652	jakomaakai	-0.25360838
-4.414196	Jansoiki	-0.06506303
-4.593757	keskabires	-0.06506303
-4.593757	xabairin	-0.06506303
-4.593757	isara	-0.06506303
-4.593757	een	-0.06506303
-4.414196	yoibanon	-0.1973132
-4.593757	bemakana	-0.06506303
-4.593757	Jikitira	-0.06506303
-4.593757	kopiomaiki	-0.06506303
-4.593757	Mananra	-0.06506303
-4.414196	Jawemein	-0.06506303
-4.593757	Manayamaibo	-0.06506303
-4.593757	Oinresi	-0.06506303
-4.2492094	bekanwe	-0.06506303
-4.2492094	saweai	-0.14861634
-4.414196	roko	-0.06506303
-4.593757	banemai	-0.06506303
-4.593757	yoaxonai	-0.06506303
-4.593757	manapariwe	-0.06506303
-4.2492094	aresai	-0.14861634
-4.2492094	wiso	-0.06506306
-4.593757	jokashamai	-0.06506303
-4.593757	Wishareswe	-0.06506303
-4.593757	matobichoma	-0.06506303
-4.2492094	pikokasai	-0.14861634
-4.593757	Babayarin	-0.06506303
-4.593757	Jawekeskaraboki	-0.06506303
-4.593757	Kebira	-0.06506303
-4.593757	Winota	-0.06506303
-4.414196	karon	-0.06506303
-3.9963825	winoyamake	-0.5622859
-4.593757	Tomasra	-0.06506303
-4.593757	Senenmarin	-0.06506303
-4.593757	yosma	-0.06506303
-4.414196	tana	-0.06506303
-4.414196	potake	-0.1973132
-4.593757	Ishtokasma	-0.06506303
-4.593757	mokaatiki	-0.06506303
-4.2492094	japaria	-0.34043717
-4.593757	Brasilainoa	-0.06506303
-4.593757	Ishtorawanke	-0.06506303
-4.593757	koshiboiba	-0.06506303
-4.593757	Jatiresrin	-0.06506303
-4.414196	trenra	-0.06506303
-4.104652	yantan	-0.12617339
-4.593757	nibi	-0.06506303
-4.414196	paketai	-0.06506303
-4.593757	Potakana	-0.06506303
-4.593757	chinitara	-0.06506303
-4.593757	Mishora	-0.06506303
-4.2492094	tsinirin	-0.14861634
-4.593757	Eabochora	-0.06506303
-4.414196	Metsaira	-0.06506306
-4.593757	jowana	-0.06506303
-3.9963825	senen	-0.06506303
-4.593757	Namatira	-0.06506303
-4.593757	Chorontiki	-0.06506303
-4.593757	akinkaskin	-0.06506303
-4.104652	jisara	-0.11324402
-4.414196	yoti	-0.06506303
-4.593757	onisakeska	-0.06506303
-4.104652	kirinko	-0.12617339
-4.593757	yobe	-0.06506303
-4.593757	yoaxonwe	-0.06506303
-4.593757	Jakonribirai	-0.06506303
-4.593757	Xoati	-0.06506303
-4.593757	Kiki	-0.06506303
-4.593757	pisira	-0.06506303
-4.593757	poike	-0.06506303
-4.593757	Irake	-0.06506303
-4.593757	Kopiora	-0.06506303
-4.593757	Manayamakanwe	-0.06506303
-4.414196	pikowanke	-0.1973132
-4.593757	joiya	-0.06506303
-4.414196	Neno	-0.06506303
-4.593757	Neskarainri	-0.06506303
-4.593757	Tsasiwe	-0.06506303
-4.104652	merai	-0.1973132
-4.593757	jaweranobi	-0.06506303
-4.2492094	kakashamai	-0.34043717
-3.3847497	yoikanai	-0.2845211
-4.414196	potananke	-0.1973132
-4.414196	miaki	-0.06506303
-4.593757	manatiatipanyamake	-0.06506303
-4.593757	jakoinrabo	-0.06506303
-4.414196	postre	-0.06506303
-4.414196	winkasira	-0.1973132
-4.593757	Winira	-0.06506303
-4.593757	bomakasai	-0.06506303
-4.593757	pakeai	-0.06506303
-4.593757	kabirai	-0.06506303
-4.593757	perdonanti	-0.06506303
-4.414196	axonra	-0.06506303
-4.593757	kinainbak	-0.06506303
-3.9963825	xobonko	-0.0921339
-4.593757	ikonbiresi	-0.06506303
-4.593757	manake	-0.06506303
-4.593757	Nokonara	-0.06506303
-4.593757	winokin	-0.06506303
-4.593757	kanankanai	-0.06506303
-4.414196	reteai	-0.1973132
-4.2492094	chexai	-0.06506303
-4.593757	chibanke	-0.06506303
-4.593757	Anorexico	-0.06506303
-4.414196	jeneyamai	-0.1973132
-4.593757	shinaniki	-0.06506303
-4.593757	Yosibo	-0.06506303
-4.593757	Washitira	-0.06506303
-4.593757	kawanbekonai	-0.06506303
-4.593757	Jakomairarin	-0.06506303
-4.2492094	yoiyamake	-0.34043717
-4.414196	Yatankanwe	-0.06506303
-4.2492094	piamai	-0.14861634
-4.593757	orakimin	-0.06506303
-4.414196	jawekiakai	-0.1973132
-4.2492094	pikashamai	-0.06506306
-4.414196	Tananon	-0.12617339
-4.593757	imati	-0.06506303
-4.593757	calculadora	-0.06506303
-4.593757	Mechobo	-0.06506303
-4.593757	eki	-0.06506303
-4.593757	Nenobi	-0.06506303
-4.593757	kopiakiri	-0.06506303
-4.593757	Beisbol	-0.06506303
-4.104652	tsini	-0.12617339
-4.593757	Koinbo	-0.06506303
-4.593757	shitanon	-0.06506303
-4.593757	Xepemeraibake	-0.06506303
-4.593757	yoyoikasira	-0.06506303
-4.593757	Chiniresraibake	-0.06506303
-4.593757	Wanonon	-0.06506303
-4.593757	Ninkakia	-0.06506303
-4.593757	onpaxyara	-0.06506303
-4.414196	oxawanke	-0.1973132
-4.593757	Neteira	-0.06506303
-4.593757	Maríaki	-0.06506303
-4.593757	chachita	-0.06506303
-4.414196	Jaboki	-0.06506306
-4.593757	kopiayamake	-0.06506303
-4.593757	akinresi	-0.06506303
-4.593757	Oxakasira	-0.06506303
-4.593757	betsoakasai	-0.06506303
-4.593757	rusoain	-0.06506303
-4.593757	Ikia	-0.06506303
-4.414196	jakomaibake	-0.06506303
-4.593757	Nokoxonra	-0.06506303
-4.593757	Raomenon	-0.06506303
-4.593757	yoixonban	-0.06506303
-4.593757	bepain	-0.06506303
-4.593757	axeresti	-0.06506303
-4.104652	itira	-0.11324402
-4.593757	Jakocha	-0.06506303
-4.593757	teetaiya	-0.06506303
-4.414196	dado	-0.06506303
-4.593757	potawe	-0.06506303
-4.593757	Bulgaronin	-0.06506303
-4.593757	Bostonkiri	-0.06506303
-4.593757	osanai	-0.06506303
-4.593757	Tsinkita	-0.06506303
-4.2492094	xepoai	-0.14861634
-4.593757	xabatainra	-0.06506303
-4.593757	peokokanwe	-0.06506303
-4.593757	Oxatiainra	-0.06506303
-4.593757	Jawemain	-0.06506303
-4.104652	yoati	-0.06506303
-4.593757	Rana	-0.06506303
-4.593757	Yatankanama	-0.06506303
-4.414196	chankamawe	-0.1973132
-4.593757	Mexka	-0.06506303
-4.593757	Raroma	-0.06506303
-4.414196	pota	-0.06506303
-4.593757	ishtonresi	-0.06506303
-4.593757	onanaki	-0.06506303
-4.593757	Basimara	-0.06506303
-4.414196	iresti	-0.14861634
-4.593757	Wetsbires	-0.06506303
-4.593757	Noabora	-0.06506303
-4.593757	isabiresiki	-0.06506303
-4.2492094	onsa	-0.06506306
-4.593757	jonekasirin	-0.06506303
-4.104652	sinatarin	-0.46537593
-4.593757	Jainra	-0.06506303
-4.593757	Mata	-0.06506303
-4.593757	Jainoax	-0.06506303
-4.593757	semana	-0.06506303
-4.593757	neteshaman	-0.06506303
-4.593757	teetaiboyarin	-0.06506303
-3.90979	atibo	-0.22614063
-4.593757	tsibanreswe	-0.06506303
-4.414196	ishtoibake	-0.1973132
-3.6734881	joti	-0.2668039
-4.593757	Akasishaman	-0.06506303
-4.593757	Nenoparirin	-0.06506303
-4.593757	Kerasra	-0.06506303
-4.593757	rakantibo	-0.06506303
-4.2492094	boban	-0.14861634
-3.9963825	toro	-0.09454425
-3.7216213	ribojanwe	-0.397863
-4.593757	jotiresa	-0.06506303
-4.593757	Ikoanyamawe	-0.06506303
-4.593757	manax	-0.06506303
-4.104652	axonwe	-0.08166364
-4.593757	keyomakanwe	-0.06506303
-4.593757	bakeshoko	-0.06506303
-4.593757	kananreskasai	-0.06506303
-4.414196	raketi	-0.1973132
-4.593757	traktor	-0.06506303
-4.2492094	wishakanwe	-0.34043717
-4.593757	Xanarin	-0.06506303
-3.7757618	jaki	-0.12617339
-4.593757	Chichora	-0.06506306
-4.593757	Akasrake	-0.06506303
-3.5546517	papa	-0.2368123
-4.104652	joribawe	-0.46537593
-4.593757	Bochikicha	-0.06506303
-4.414196	xababicho	-0.1973132
-4.593757	Ribujo	-0.06506303
-4.414196	axeaibo	-0.06506303
-4.593757	Yoiyamawe	-0.06506303
-4.593757	Jaskaakin	-0.06506303
-3.6734881	beti	-0.18681706
-4.593757	koirameke	-0.06506303
-4.414196	retekanai	-0.1973132
-3.9963825	patax	-0.06506306
-4.593757	jabekona	-0.06506303
-4.593757	oranwanke	-0.06506303
-4.593757	keyotires	-0.06506303
-4.593757	orara	-0.06506303
-4.593757	Kopimara	-0.06506303
-4.414196	tsonbi	-0.06506303
-4.593757	Bainko	-0.06506303
-4.593757	Xepota	-0.06506303
-4.2492094	Jawekeskararin	-0.06506306
-4.593757	janera	-0.06506303
-4.593757	pikin	-0.06506303
-4.593757	Baneyamarai	-0.06506303
-4.593757	serebo	-0.06506303
-4.414196	Jakoma	-0.06506303
-4.593757	Ponte	-0.06506303
-4.593757	Icha	-0.06506303
-4.593757	Ramera	-0.06506303
-4.593757	kinanwanke	-0.06506303
-4.593757	Katimara	-0.06506303
-4.414196	wishataniwe	-0.1973132
-4.593757	piamairin	-0.06506303
-4.593757	tsinkitira	-0.06506303
-4.593757	Banerakanke	-0.06506303
-4.593757	batantiyoma	-0.06506303
-4.593757	kirikabora	-0.06506303
-4.593757	teamawe	-0.06506303
-4.593757	Chankata	-0.06506303
-4.593757	Jawetiorin	-0.06506303
-4.593757	Potareskana	-0.06506303
-4.593757	timakanai	-0.06506303
-4.593757	yoiban	-0.06506303
-4.593757	caballonin	-0.06506303
-4.593757	Jankeskara	-0.06506303
-4.593757	Yoiribitiki	-0.06506303
-4.414196	jakomatai	-0.1973132
-4.593757	Niskanira	-0.06506303
-4.593757	yoyoaibata	-0.06506303
-4.414196	jakoinrara	-0.06506306
-4.593757	amakashamai	-0.06506303
-4.593757	jaribake	-0.06506303
-4.593757	Pontebo	-0.06506303
-4.593757	Ininshaman	-0.06506303
-4.593757	portugues	-0.06506303
-3.837626	mecha	-0.09892407
-4.593757	ikainkobiri	-0.06506303
-4.2492094	nokona	-0.06506306
-4.593757	Atibres	-0.06506303
-4.593757	Ninkamaxonra	-0.06506303
-4.593757	onismai	-0.06506303
-4.593757	bataki	-0.06506303
-4.593757	Tomkira	-0.06506303
-4.593757	onananke	-0.06506303
-4.104652	jansoai	-0.25360838
-4.593757	Jasktax	-0.06506303
-4.593757	serebicho	-0.06506303
-4.593757	Xoayamawe	-0.06506303
-4.414196	jawekinin	-0.06506303
-4.593757	Chekebora	-0.06506303
-4.593757	Baneyamarakanai	-0.06506303
-4.593757	ikoanyamataniai	-0.06506303
-4.593757	winikasai	-0.06506303
-4.2492094	minbi	-0.06506306
-4.593757	Jaskaipein	-0.06506306
-3.90979	teati	-0.4296996
-4.593757	xateai	-0.06506303
-4.593757	rabintaniai	-0.06506303
-4.414196	Oaboanra	-0.06506306
-4.593757	joneyamawe	-0.06506303
-4.593757	Joxorin	-0.06506303
-4.593757	merawe	-0.06506303
-4.414196	Miara	-0.06506306
-4.414196	jakonai	-0.06506303
-4.593757	Akinani	-0.06506303
-4.593757	atinpanyamake	-0.06506303
-4.593757	Earibiki	-0.06506303
-4.593757	Ebemabi	-0.06506303
-4.593757	boreskanwe	-0.06506303
-4.593757	wetsakeskabo	-0.06506303
-4.414196	xepena	-0.1973132
-4.593757	nonoi	-0.06506303
-4.593757	oinyamakanke	-0.06506303
-4.593757	rakemaibake	-0.06506303
-4.593757	sikbo	-0.06506303
-4.593757	Jesusra	-0.06506303
-4.414196	xepoa	-0.06506303
-4.414196	tiati	-0.06506303
-4.593757	constipado	-0.06506303
-4.414196	matsishaman	-0.1973132
-4.593757	yoitikopiki	-0.06506303
-4.2492094	shinanti	-0.06506303
-4.414196	benara	-0.06506303
-4.593757	joshinke	-0.06506303
-4.593757	yoikasira	-0.06506303
-4.593757	koreano	-0.06506303
-4.593757	Marianinra	-0.06506303
-4.593757	banepain	-0.06506303
-4.593757	manaibata	-0.06506303
-4.593757	xateya	-0.06506303
-4.593757	akinban	-0.06506303
-4.593757	pibake	-0.06506303
-4.593757	bokasaii	-0.06506303
-4.593757	xetekanwe	-0.06506303
-4.593757	Onankas	-0.06506303
-4.593757	nonoibata	-0.06506303
-4.414196	wetsakobo	-0.06506303
-4.593757	Ichamares	-0.06506303
-4.593757	yoixonti	-0.06506303
-4.593757	Karibabanon	-0.06506303
-4.414196	neri	-0.06506306
-4.593757	kamatima	-0.06506303
-4.593757	botena	-0.06506303
-4.104652	tsinikasai	-0.25360838
-4.593757	yoitania	-0.06506303
-4.593757	fertilizante	-0.06506303
-4.414196	jakomein	-0.06506303
-4.593757	Bakishkaman	-0.06506303
-4.414196	jaibake	-0.1973132
-4.593757	Poiyarin	-0.06506303
-4.593757	kenaribiti	-0.06506303
-4.593757	Yoie	-0.06506303
-4.593757	Jakesaya	-0.06506303
-4.593757	Mikiresa	-0.06506303
-4.593757	menitiya	-0.06506303
-4.593757	Jatiribira	-0.06506303
-4.593757	shinanyacha	-0.06506303
-4.593757	ikayoma	-0.06506303
-4.2492094	jokasai	-0.34043717
-4.593757	Bobo	-0.06506303
-4.414196	ikoni	-0.1973132
-4.593757	sereyarin	-0.06506303
-4.593757	Paenarin	-0.06506303
-4.593757	Jaboribiki	-0.06506303
-4.593757	Ras	-0.06506303
-4.414196	akanara	-0.06506303
-4.414196	oxara	-0.06506306
-4.593757	oceano	-0.06506303
-4.593757	xeteti	-0.06506303
-4.593757	Wetsabo	-0.06506303
-4.593757	keskaribi	-0.06506303
-4.414196	mawaibakanke	-0.1973132
-4.593757	Camarero	-0.06506303
-4.593757	Wanorakanke	-0.06506303
-4.414196	akinairin	-0.1973132
-4.593757	Niskanrakanke	-0.06506303
-4.593757	jenea	-0.06506303
-4.593757	riosain	-0.06506303
-4.2492094	meniyamawe	-0.34043717
-4.593757	yoiki	-0.06506303
-4.593757	Jakonshamanra	-0.06506303
-4.593757	jainbiri	-0.06506303
-3.9963825	yoiyaibo	-0.14861634
-4.593757	Jansoirin	-0.06506303
-4.593757	neeteai	-0.06506303
-4.104652	raenanaiya	-0.20878358
-4.593757	jawankanke	-0.06506303
-4.593757	ingles	-0.06506303
-4.593757	Jainxonbi	-0.06506303
-4.414196	kaja	-0.1973132
-4.414196	Miarin	-0.06506306
-4.414196	Tsonaki	-0.06506303
-4.593757	Keyorake	-0.06506303
-3.90979	oinkana	-0.10483345
-4.593757	bakeyara	-0.06506303
-4.593757	ikaishaman	-0.06506303
-4.2492094	netexon	-0.12617339
-4.593757	Cometa	-0.06506303
-4.414196	noyamanon	-0.06506303
-4.593757	Moaki	-0.06506303
-4.414196	jaweranorin	-0.06506303
-4.593757	xabaya	-0.06506303
-4.593757	winotamapari	-0.06506303
-4.593757	Arabeainki	-0.06506303
-4.593757	senenrin	-0.06506303
-4.593757	yoikeanke	-0.06506303
-4.593757	guantes	-0.06506303
-4.414196	saweti	-0.06506303
-4.593757	Jaweraonin	-0.06506303
-4.593757	hotel	-0.06506303
-4.414196	jaibata	-0.1973132
-4.593757	betsoati	-0.06506303
-4.414196	bitiki	-0.1973132
-4.593757	raenantira	-0.06506303
-4.593757	seneanyamai	-0.06506303
-4.414196	Jainmachaki	-0.06506303
-4.414196	akasirin	-0.1973132
-4.593757	akonbireske	-0.06506303
-4.414196	xepen	-0.06506306
-4.593757	Eabichor	-0.06506303
-4.414196	tanai	-0.1973132
-4.593757	kanankashamai	-0.06506303
-4.414196	banenon	-0.1973132
-4.593757	pasaporte	-0.06506303
-4.593757	Arestiya	-0.06506303
-4.593757	Tsasirakanke	-0.06506303
-4.593757	Koinra	-0.06506303
-4.104652	joke	-0.46537593
-4.593757	Atibiresa	-0.06506303
-4.593757	joiki	-0.06506303
-4.414196	raenanaibo	-0.06506303
-4.593757	Mainbiki	-0.06506303
-4.593757	rabinmaresai	-0.06506303
-4.104652	neskara	-0.06506303
-4.593757	Shinainbakanke	-0.06506303
-4.593757	yamekirishaman	-0.06506303
-4.593757	peokanti	-0.06506303
-4.593757	nokoyamake	-0.06506303
-4.593757	katiyara	-0.06506303
-4.593757	Bochikixonra	-0.06506303
-4.414196	Jainmacha	-0.06506306
-4.593757	chibanirin	-0.06506303
-4.593757	Chopatani	-0.06506303
-4.593757	niikana	-0.06506303
-4.593757	Galletaya	-0.06506303
-4.593757	manoibake	-0.06506303
-4.414196	Karonko	-0.06506303
-4.593757	nanewe	-0.06506303
-4.593757	benamawe	-0.06506303
-4.593757	yatamewe	-0.06506303
-4.414196	keteati	-0.1973132
-4.593757	Mawati	-0.06506303
-4.593757	Lunesra	-0.06506303
-4.2492094	nokoibake	-0.34043717
-4.593757	oinkas	-0.06506303
-4.593757	Axeamisrin	-0.06506303
-4.593757	tsekoai	-0.06506303
-4.593757	netenbi	-0.06506303
-4.593757	shinanbenota	-0.06506303
-4.593757	oinananon	-0.06506303
-4.593757	kayamaibake	-0.06506303
-4.593757	yatanke	-0.06506303
-4.593757	Ispiko	-0.06506303
-4.414196	kerasma	-0.06506303
-4.593757	botira	-0.06506303
-4.414196	mashin	-0.06506303
-4.593757	ayamabiresa	-0.06506303
-4.2492094	oinkasira	-0.14861634
-4.2492094	chokawe	-0.34043717
-3.837626	natobo	-0.09892407
-4.104652	seneanwe	-0.114874914
-4.593757	Oinkanarin	-0.06506303
-4.593757	merayama	-0.06506303
-4.593757	Pasnara	-0.06506303
-4.593757	ishtokasai	-0.06506303
-4.593757	manaban	-0.06506303
-4.593757	Yamarake	-0.06506303
-4.593757	Hey	-0.06506303
-4.414196	jariki	-0.06506303
-4.593757	witax	-0.06506303
-4.593757	nenkeya	-0.06506303
-4.593757	Shinataxra	-0.06506303
-4.593757	Washitimarin	-0.06506303
-4.593757	Ransakasrin	-0.06506303
-4.593757	bekanaibora	-0.06506303
-4.593757	Natorin	-0.06506303
-4.2492094	mina	-0.12617339
-4.593757	koreain	-0.06506303
-4.593757	Goifistarin	-0.06506303
-4.2492094	yoiyara	-0.06506306
-3.837626	yokatai	-0.15839185
-4.104652	bokanwe	-0.25360838
-4.2492094	koiranwe	-0.34043717
-4.2492094	tantiwe	-0.34043717
-4.593757	jaskamati	-0.06506303
-4.2492094	neteki	-0.06506306
-4.593757	pishanki	-0.06506303
-4.593757	Jatsanwe	-0.06506303
-4.593757	koshiti	-0.06506303
-4.593757	peoke	-0.06506303
-4.593757	rekentienxon	-0.06506303
-4.593757	jawekiawana	-0.06506303
-4.593757	Mayaboyamawe	-0.06506303
-4.2492094	ikoanyamai	-0.06506306
-4.593757	tanabanon	-0.06506303
-4.593757	teawe	-0.06506303
-4.593757	Jatsainra	-0.06506303
-4.593757	Snoopy	-0.06506303
-4.593757	janenon	-0.06506303
-4.593757	onainra	-0.06506303
-4.593757	Nokokiakana	-0.06506303
-4.593757	Sinacha	-0.06506303
-4.414196	menikanti	-0.1973132
-4.593757	Jatixonbira	-0.06506303
-4.593757	kenaitian	-0.06506303
-4.593757	boxonban	-0.06506303
-4.593757	xanaira	-0.06506303
-4.593757	Quimica	-0.06506303
-4.414196	amake	-0.1973132
-4.593757	Miabichima	-0.06506303
-4.593757	papanki	-0.06506303
-4.414196	netebora	-0.06506303
-4.2492094	chorish	-0.06506306
-4.2492094	jemanxon	-0.06506306
-4.593757	shinanbora	-0.06506303
-4.593757	weninkanke	-0.06506303
-4.593757	Senenres	-0.06506303
-4.2492094	bokana	-0.14861634
-4.2492094	kax	-0.06506306
-4.593757	Martesninki	-0.06506303
-4.2492094	Jawekeskarin	-0.09892407
-4.414196	ishtoake	-0.1973132
-4.593757	akasiki	-0.06506303
-4.593757	Washimisira	-0.06506303
-4.593757	Noyaibora	-0.06506303
-4.593757	Jomawe	-0.06506303
-4.593757	Xepenkanwe	-0.06506303
-4.593757	akastiamake	-0.06506303
-4.593757	Jansotima	-0.06506303
-4.593757	Pelotabo	-0.06506303
-4.593757	jotoaban	-0.06506303
-4.593757	Rentes	-0.06506303
-4.593757	iomaxonra	-0.06506303
-4.593757	jansokanai	-0.06506303
-4.593757	Jotobo	-0.06506303
-4.593757	tsekairin	-0.06506303
-4.593757	testra	-0.06506303
-3.3195875	bewe	-0.46339762
-4.414196	benxoakanwe	-0.1973132
-4.593757	yometsoakanke	-0.06506303
-4.593757	Nericha	-0.06506303
-4.593757	Teetirin	-0.06506303
-4.593757	Jaskapainra	-0.06506306
-3.9963825	jawekeskati	-0.13565017
-4.593757	jonekasi	-0.06506303
-4.593757	Ratekanabo	-0.06506303
-4.593757	toaakanke	-0.06506303
-4.593757	Jabichora	-0.06506303
-4.593757	Enbi	-0.06506303
-4.593757	yakakanwe	-0.06506303
-4.593757	jawekibichora	-0.06506303
-4.104652	jaskaribiakin	-0.08630341
-4.414196	oinbanon	-0.1973132
-4.593757	chopayomaobi	-0.06506303
-4.593757	oxarin	-0.06506303
-4.593757	Shinanipari	-0.06506303
-4.593757	Karo	-0.06506303
-4.593757	jawekeskaakinki	-0.06506303
-4.593757	ikaitoninra	-0.06506303
-4.414196	ninkaxonti	-0.06506303
-4.593757	ikaskin	-0.06506303
-4.593757	awinki	-0.06506303
-4.593757	yometsoakana	-0.06506303
-4.2492094	jikinon	-0.34043717
-4.593757	Toatibi	-0.06506303
-4.593757	Titara	-0.06506306
-4.414196	yonaya	-0.1973132
-4.593757	Toetarin	-0.06506303
-4.414196	ayamakanke	-0.1973132
-4.593757	Era	-0.06506303
-4.593757	piyamai	-0.06506303
-4.414196	chino	-0.06506303
-4.593757	Yantanchaki	-0.06506303
-4.593757	yoyoayamai	-0.06506303
-4.593757	xearin	-0.06506303
-4.593757	manra	-0.06506303
-4.2492094	nishi	-0.06506306
-4.593757	choroke	-0.06506303
-4.2492094	jawekiain	-0.06506306
-4.593757	Xeapariti	-0.06506303
-4.593757	Tsobeki	-0.06506303
-4.593757	janbicho	-0.06506303
-4.593757	imake	-0.06506303
-4.414196	jawekires	-0.1973132
-4.593757	Jansobo	-0.06506303
-4.593757	joaya	-0.06506303
-4.593757	Oini	-0.06506303
-4.593757	Jorati	-0.06506303
-4.593757	Peonon	-0.06506303
-4.104652	koiranai	-0.12617339
-4.593757	xetewe	-0.06506303
-4.593757	Piirin	-0.06506303
-4.593757	Yoirati	-0.06506303
-4.593757	Bokiakana	-0.06506303
-4.593757	Onsashaman	-0.06506303
-4.593757	Katirin	-0.06506303
-4.593757	Beisbolistarin	-0.06506303
-4.104652	nobe	-0.11324402
-4.593757	jansoirake	-0.06506303
-4.593757	Akaskinmabira	-0.06506303
-4.593757	katiya	-0.06506303
-4.593757	Jansoresiki	-0.06506303
-4.593757	benota	-0.06506303
-4.593757	natoki	-0.06506303
-4.593757	Tsasikanaiko	-0.06506303
-4.593757	pikomakanwe	-0.06506303
-4.593757	winokanwe	-0.06506303
-4.593757	moatianbo	-0.06506303
-4.593757	Bakeki	-0.06506303
-4.593757	ratewanke	-0.06506303
-4.593757	oinaibo	-0.06506303
-4.593757	francésrin	-0.06506303
-4.593757	onpaxya	-0.06506303
-4.593757	beaira	-0.06506303
-4.104652	yoikanke	-0.46537593
-4.593757	Oxayamarai	-0.06506303
-4.593757	yokakatai	-0.06506303
-4.414196	tsoaki	-0.06506303
-4.593757	sawepachoai	-0.06506303
-4.593757	wisho	-0.06506303
-4.593757	Choronyamawe	-0.06506303
-4.593757	franesnin	-0.06506303
-4.593757	Jainmashaman	-0.06506303
-4.593757	bakeborin	-0.06506303
-4.593757	Jaskaakasira	-0.06506303
-4.593757	ikanaibo	-0.06506303
-4.414196	rakeyamai	-0.06506306
-4.593757	Choronwe	-0.06506303
-4.593757	yatanwanke	-0.06506303
-4.593757	Jatibiki	-0.06506303
-4.593757	Noakeska	-0.06506303
-4.593757	yosicha	-0.06506303
-4.593757	teetirin	-0.06506303
-4.593757	Yosmabo	-0.06506303
-4.593757	akamara	-0.06506303
-4.414196	keyota	-0.06506303
-4.593757	iresai	-0.06506303
-4.593757	Koirametaxra	-0.06506303
-4.414196	peokowe	-0.06506303
-4.593757	yokayamake	-0.06506303
-4.593757	Jainri	-0.06506303
-4.593757	baoai	-0.06506303
-4.593757	beyorai	-0.06506303
-3.90979	xobon	-0.06506306
-4.2492094	iamai	-0.34043717
-4.593757	joyamati	-0.06506303
-4.414196	Jikikanwe	-0.06506303
-4.593757	Shinankasira	-0.06506303
-4.593757	boreskana	-0.06506303
-4.593757	ishtowe	-0.06506303
-4.593757	Winoabires	-0.06506303
-4.593757	sereyara	-0.06506303
-4.593757	Jotobora	-0.06506303
-4.593757	Jeneyamawe	-0.06506303
-4.414196	bemawe	-0.1973132
-4.593757	bexnan	-0.06506303
-4.593757	Francés	-0.06506303
-4.593757	Sopa	-0.06506303
-4.593757	chiwinwe	-0.06506303
-4.593757	bichora	-0.06506303
-4.593757	pantis	-0.06506303
-4.593757	menibakanke	-0.06506303
-4.593757	onpaxki	-0.06506303
-4.593757	pishaya	-0.06506303
-4.593757	jokanai	-0.06506303
-4.593757	retenake	-0.06506303
-4.593757	Rinko	-0.06506303
-4.593757	beibata	-0.06506303
-4.593757	keyomawe	-0.06506303
-4.593757	Meniwe	-0.06506303
-4.593757	eaki	-0.06506303
-4.593757	kananpain	-0.06506303
-4.593757	nonokasires	-0.06506303
-4.593757	Metsamarin	-0.06506303
-4.593757	Senenma	-0.06506303
-4.593757	iikashamai	-0.06506303
-4.593757	internet	-0.06506303
-4.593757	iw	-0.06506303
-4.593757	Toroakana	-0.06506303
-4.593757	Facebookya	-0.06506303
-4.593757	westioraakin	-0.06506303
-4.593757	Chopaki	-0.06506303
-4.593757	Sinakanarin	-0.06506303
-4.104652	tanamawe	-0.25360838
-4.593757	Xepemeyamarai	-0.06506303
-4.593757	onainrabo	-0.06506303
-4.414196	tenis	-0.06506303
-4.104652	tsiniti	-0.06506303
-4.593757	yosiai	-0.06506303
-4.593757	Maxkocha	-0.06506306
-4.593757	yoakirin	-0.06506303
-4.593757	batati	-0.06506303
-4.593757	mepotayamawe	-0.06506303
-4.593757	Chichoira	-0.06506303
-4.593757	Kakasrai	-0.06506303
-3.6301613	yokabo	-0.23799218
-4.593757	Tashiki	-0.06506303
-4.593757	jenereskanai	-0.06506303
-3.7757618	kena	-0.13100506
-4.593757	choronke	-0.06506303
-4.593757	ambulancia	-0.06506303
-4.593757	chibanban	-0.06506303
-4.593757	Osanira	-0.06506303
-4.593757	piwanke	-0.06506303
-4.104652	joneti	-0.12617339
-4.593757	areswanke	-0.06506303
-4.593757	osana	-0.06506303
-4.593757	tenedora	-0.06506303
-4.593757	ratekaina	-0.06506303
-4.593757	jakomaakana	-0.06506303
-4.593757	firimawe	-0.06506303
-4.593757	bechiwankanke	-0.06506303
-4.593757	Sinakananyamawe	-0.06506303
-4.414196	bei	-0.12617339
-4.414196	joneai	-0.06506303
-4.593757	Australiainrin	-0.06506303
-4.593757	kanankasires	-0.06506303
-4.593757	neteshamanax	-0.06506303
-4.593757	jawanke	-0.06506303
-4.593757	Jawekeskaakinki	-0.06506306
-4.593757	Tetriski	-0.06506303
-4.593757	tsiki	-0.06506303
-4.593757	joeyarin	-0.06506303
-4.593757	Ati	-0.06506303
-4.593757	akima	-0.06506303
-4.593757	Osanyamawe	-0.06506303
-4.593757	tsinkiain	-0.06506303
-4.593757	Shokochara	-0.06506303
-4.593757	goboro	-0.06506303
-4.593757	noyamake	-0.06506303
-4.593757	Karenon	-0.06506303
-4.593757	viernes	-0.06506303
-4.593757	tati	-0.06506303
-4.593757	Ayamarakanke	-0.06506303
-4.593757	kenaibo	-0.06506303
-4.593757	akiriki	-0.06506303
-4.593757	bankesai	-0.06506303
-4.414196	shinankanwe	-0.06506303
-4.593757	yamekirishoko	-0.06506303
-4.593757	jotin	-0.06506303
-4.593757	dolaryabicho	-0.06506303
-4.593757	ninkayamapariai	-0.06506303
-4.593757	esperantonin	-0.06506303
-4.593757	keyokasai	-0.06506303
-4.593757	oinribiwe	-0.06506303
-4.414196	onankanke	-0.1973132
-4.593757	shinainbake	-0.06506303
-4.414196	akinaibake	-0.1973132
-4.593757	Jaweratoki	-0.06506303
-4.593757	ikaitian	-0.06506303
-4.414196	jikiyamawe	-0.1973132
-4.593757	Manzanara	-0.06506303
-4.2492094	yoiyamai	-0.14861634
-4.593757	jopekanwe	-0.06506303
-4.593757	Jorai	-0.06506303
-4.593757	Tantiara	-0.06506303
-4.593757	Manokana	-0.06506303
-4.593757	Yantanriki	-0.06506303
-4.593757	bakeranonbo	-0.06506303
-4.593757	Jatianbi	-0.06506303
-4.593757	Jaweroki	-0.06506303
-4.593757	isinwanke	-0.06506303
-4.593757	bene	-0.06506303
-4.593757	xoiti	-0.06506303
-4.593757	Ninkatimaki	-0.06506303
-4.414196	jawekiresa	-0.06506303
-4.593757	chibankasai	-0.06506303
-4.2492094	niibo	-0.06506303
-4.593757	Tomriki	-0.06506303
-4.593757	ninkayamakanke	-0.06506303
-4.593757	Wairoro	-0.06506303
-4.414196	chequebo	-0.06506303
-4.593757	onanshamayamake	-0.06506303
-4.593757	Mashibires	-0.06506303
-4.593757	xabakaina	-0.06506303
-4.593757	xepotai	-0.06506303
-4.593757	jenexona	-0.06506303
-4.414196	yokanon	-0.06506303
-4.593757	netewe	-0.06506303
-4.593757	Karesti	-0.06506303
-4.593757	Ishtomaira	-0.06506303
-4.593757	cervezaya	-0.06506303
-4.593757	jemabo	-0.06506303
-4.593757	Bonabaonki	-0.06506303
-4.593757	Astronomo	-0.06506303
-4.593757	Keyora	-0.06506303
-4.414196	potanana	-0.06506303
-4.414196	xepotiki	-0.06506303
-4.593757	wenreswe	-0.06506303
-4.593757	Ichamacha	-0.06506303
-4.593757	kopiaki	-0.06506303
-4.593757	anon	-0.06506303
-4.593757	Netetax	-0.06506303
-4.414196	oxai	-0.06506303
-4.593757	Jainoaxra	-0.06506303
-4.593757	ninkamatiyara	-0.06506303
-4.593757	Onanoxon	-0.06506303
-4.593757	akares	-0.06506303
-4.593757	Pitimarin	-0.06506303
-4.593757	jeneyamake	-0.06506303
-4.593757	Jaskatimara	-0.06506303
-4.593757	mawatai	-0.06506303
-4.593757	Jemanxonra	-0.06506303
-4.593757	Chopinra	-0.06506303
-4.593757	rabebi	-0.06506303
-4.593757	peokanwe	-0.06506303
-4.593757	Paxkinarin	-0.06506303
-4.593757	Sontarobora	-0.06506303
-4.593757	Jakiribi	-0.06506303
-4.593757	waffles	-0.06506303
-4.414196	matoki	-0.06506303
-4.593757	xetara	-0.06506303
-4.593757	joxoshaman	-0.06506303
-4.593757	merakasa	-0.06506303
-4.414196	japonés	-0.06506303
-4.593757	Banekasi	-0.06506303
-4.593757	Minbicho	-0.06506303
-4.414196	akas	-0.06506303
-4.593757	atipanketian	-0.06506303
-4.593757	Febril	-0.06506303
-4.593757	manowanke	-0.06506303
-4.593757	ain	-0.06506303
-4.593757	Manko	-0.06506303
-4.593757	Luneski	-0.06506303
-4.593757	chinibaon	-0.06506303
-4.593757	Jarake	-0.06506303
-4.593757	bewakas	-0.06506303
-4.593757	jenai	-0.06506303
-4.414196	jayakax	-0.06506303
-4.2492094	tonkon	-0.06506303
-4.593757	tsinitibora	-0.06506303
-4.104652	marokanai	-0.25360838
-4.2492094	winowe	-0.14861634
-4.593757	Pikasi	-0.06506303
-4.414196	shinanmei	-0.1973132
-4.593757	patsawe	-0.06506303
-4.593757	Cremallera	-0.06506303
-4.593757	Ayamarai	-0.06506303
-4.593757	Jawetirin	-0.06506303
-4.593757	itabi	-0.06506303
-4.593757	rakakasai	-0.06506303
-4.593757	yoitiya	-0.06506303
-4.593757	nokaka	-0.06506303
-4.593757	Iamrake	-0.06506303
-4.593757	raroai	-0.06506303
-4.593757	ninkatax	-0.06506303
-4.593757	benaishamanrin	-0.06506303
-3.2455869	bakebaon	-0.1291687
-4.414196	manakanwe	-0.1973132
-4.414196	oinwanke	-0.1973132
-4.593757	Yanka	-0.06506303
-4.593757	Raenanon	-0.06506303
-4.593757	ishokokasai	-0.06506303
-4.593757	jisontiankoki	-0.06506303
-4.593757	Miabichoma	-0.06506303
-4.593757	Caviara	-0.06506303
-4.414196	axeamisra	-0.06506306
-4.593757	akax	-0.06506303
-4.593757	winiwe	-0.06506303
-4.593757	Watoninra	-0.06506306
-4.414196	kikianki	-0.06506303
-4.593757	apachoai	-0.06506303
-4.593757	Jainmachara	-0.06506303
-4.414196	ninkataima	-0.06506303
-4.593757	atima	-0.06506303
-4.593757	ik	-0.06506303
-3.7757618	katowe	-0.46405607
-4.593757	onantimata	-0.06506303
-4.414196	kexeai	-0.06506303
-4.414196	menia	-0.06506303
-4.593757	Nokoa	-0.06506303
-4.593757	Eabichorin	-0.06506303
-4.414196	raroti	-0.06506303
-4.593757	ninkaibake	-0.06506303
-4.593757	tsiniresi	-0.06506303
-4.593757	rekenxona	-0.06506303
-4.593757	peokonon	-0.06506303
-4.593757	ninkayamatania	-0.06506303
-4.593757	Isthon	-0.06506303
-4.414196	jakomaaka	-0.06506303
-4.593757	xepenai	-0.06506303
-4.593757	senena	-0.06506303
-4.593757	timananyamakasai	-0.06506303
-4.414196	kikiakin	-0.06506303
-4.593757	Bewatira	-0.06506303
-4.593757	peotirin	-0.06506303
-4.414196	onisara	-0.06506303
-4.593757	ikebi	-0.06506303
-4.593757	nokotiki	-0.06506303
-4.593757	jainshamama	-0.06506303
-4.593757	Budistarin	-0.06506303
-4.593757	jeen	-0.06506303
-4.414196	Netewe	-0.06506303
-4.593757	Perakanti	-0.06506303
-4.593757	itaniwe	-0.06506303
-4.593757	banereswe	-0.06506303
-4.593757	Seda	-0.06506303
-4.593757	xepokanwe	-0.06506303
-4.593757	koshiati	-0.06506303
-4.414196	Nenorin	-0.06506303
-4.593757	Ayamarake	-0.06506303
-4.593757	Niskanimaobi	-0.06506303
-4.593757	Raroimarin	-0.06506303
-4.593757	Galleta	-0.06506303
-4.593757	kataxti	-0.06506303
-4.593757	Potanon	-0.06506303
-4.593757	oricha	-0.06506303
-4.593757	mayakasai	-0.06506303
-4.593757	Jawetiyaki	-0.06506303
-4.593757	ikanti	-0.06506303
-4.593757	Jakomairara	-0.06506303
-4.593757	yosira	-0.06506303
-4.593757	Francésain	-0.06506303
-4.593757	Beoti	-0.06506303
-4.414196	joara	-0.06506306
-4.593757	atiomaiki	-0.06506303
-4.593757	Tsanikanainko	-0.06506303
-4.593757	shinanyabora	-0.06506303
-4.593757	Okera	-0.06506303
-4.593757	yatankanti	-0.06506303
-4.593757	turco	-0.06506303
-4.2492094	teneyamai	-0.34043717
-4.593757	Manowe	-0.06506303
-4.593757	Miercolesninki	-0.06506303
-4.414196	bomawe	-0.1973132
-4.593757	Francésra	-0.06506303
-4.593757	bokasai	-0.06506303
-4.593757	yometsoa	-0.06506303
-4.593757	Rakeyamawe	-0.06506303
-4.593757	chokiti	-0.06506303
-4.593757	itania	-0.06506303
-4.593757	Tsokiki	-0.06506303
-4.414196	potati	-0.06506303
-4.593757	keniki	-0.06506303
-4.593757	noyakasma	-0.06506303
-4.593757	Jainoa	-0.06506303
-4.593757	Yometso	-0.06506303
-4.593757	oranai	-0.06506303
-4.593757	imakasirin	-0.06506303
-4.414196	mananon	-0.06506303
-4.593757	Teeyoma	-0.06506303
-4.593757	Boshtiaki	-0.06506303
-4.593757	wei	-0.06506303
-4.593757	Toya	-0.06506303
-3.281013	oinxon	-0.18255399
-4.593757	Amenora	-0.06506303
-4.593757	yoyoaibake	-0.06506303
-4.593757	Yametira	-0.06506303
-4.593757	paxkimaresai	-0.06506303
-4.593757	Tanareswe	-0.06506303
-4.414196	seneanyamake	-0.1973132
-4.593757	chibanira	-0.06506303
-4.593757	Raroshamanrin	-0.06506303
-4.593757	Italiara	-0.06506303
-4.593757	Europain	-0.06506303
-4.414196	jabaon	-0.06506303
-4.2492094	osani	-0.14861634
-4.593757	Winotima	-0.06506303
-4.593757	discoya	-0.06506303
-4.414196	ishtoke	-0.1973132
-4.593757	Ishtoinraki	-0.06506303
-4.593757	Romara	-0.06506303
-4.593757	Italiain	-0.06506303
-4.593757	jatishanresai	-0.06506303
-4.593757	rateke	-0.06506303
-3.4343464	jane	-0.22948085
-4.414196	sabado	-0.06506303
-4.593757	xepenwanke	-0.06506303
-4.593757	japoain	-0.06506303
-4.593757	wishatira	-0.06506303
-4.593757	Bachi	-0.06506303
-4.593757	kameskoa	-0.06506303
-4.593757	horaki	-0.06506303
-4.593757	tae	-0.06506303
-4.593757	wachoati	-0.06506303
-4.593757	jakomanankasai	-0.06506303
-4.593757	ninkayama	-0.06506303
-4.414196	jatibiya	-0.06506303
-4.414196	akama	-0.06506303
-4.593757	abirai	-0.06506303
-4.593757	Enke	-0.06506303
-4.593757	meratanike	-0.06506303
-4.414196	Nenonxon	-0.06506303
-4.593757	osanyabi	-0.06506303
-4.593757	neteyarin	-0.06506303
-4.593757	nike	-0.06506303
-4.593757	kaiki	-0.06506303
-4.593757	Ikonmara	-0.06506303
-4.593757	Seneantikoma	-0.06506303
-4.593757	Musikorin	-0.06506303
-4.593757	Jakonwe	-0.06506303
-4.593757	bewatiainkonia	-0.06506303
-4.593757	piibake	-0.06506303
-4.593757	ikaiki	-0.06506303
-4.593757	janbi	-0.06506303
-4.414196	jisashaman	-0.06506303
-4.414196	jawekirin	-0.06506303
-4.593757	Jaimara	-0.06506303
-4.593757	xotonti	-0.06506303
-4.593757	Teenon	-0.06506303
-4.593757	manaponko	-0.06506303
-4.593757	Yakaxon	-0.06506303
-4.593757	manaresti	-0.06506303
-4.593757	Menorai	-0.06506303
-4.593757	Peokotian	-0.06506303
-4.593757	ariba	-0.06506303
-4.593757	Jakoinrabo	-0.06506303
-3.837626	meskoti	-0.20547529
-4.593757	Oi	-0.06506303
-4.593757	beresirin	-0.06506303
-4.593757	yoibowe	-0.06506303
-4.104652	ikaki	-0.06506303
-4.593757	boxya	-0.06506303
-4.593757	ishtoaiki	-0.06506303
-4.593757	to	-0.06506303
-4.593757	ikastiamai	-0.06506303
-4.593757	Benxoakanai	-0.06506303
-4.593757	ikaira	-0.06506303
-4.593757	Jawenbi	-0.06506303
-4.593757	Yokayamawe	-0.06506303
-4.593757	noyakashamai	-0.06506303
-4.2492094	yoiribiwe	-0.34043717
-4.593757	Oinyamaira	-0.06506303
-4.593757	shinanpachoai	-0.06506303
-4.593757	Wetsanko	-0.06506303
-4.593757	oinmakasirin	-0.06506303
-4.593757	pikoyamai	-0.06506303
-4.593757	mokaira	-0.06506303
-4.593757	raenanaiyarin	-0.06506303
-4.593757	Jakoankira	-0.06506303
-4.593757	daiquirira	-0.06506303
-4.593757	Koshi	-0.06506303
-4.593757	oraya	-0.06506303
-4.593757	biresti	-0.06506303
-4.593757	teetarin	-0.06506303
-4.593757	Berakanai	-0.06506303
-4.593757	witaxboriki	-0.06506303
-4.593757	jenebiratiki	-0.06506303
-4.593757	Xananko	-0.06506303
-4.414196	winoyamai	-0.14861634
-4.593757	Banewe	-0.06506303
-4.593757	Manawe.	-0.06506303
-4.593757	Keyorakanke	-0.06506303
-4.593757	isahtoinra	-0.06506303
-4.414196	apendicitisya	-0.06506303
-4.593757	Rabekaxbi	-0.06506303
-4.593757	katirin	-0.06506303
-4.593757	noabichoma	-0.06506303
-4.414196	paenara	-0.06506303
-4.593757	Ren	-0.06506303
-4.593757	Paríski	-0.06506303
-4.593757	Jisomarin	-0.06506303
-4.593757	Jenenkonia	-0.06506303
-4.593757	Jainmashokora	-0.06506303
-4.593757	Ochomawe	-0.06506303
-4.593757	atiresbo	-0.06506303
-4.593757	ataniai	-0.06506303
-4.414196	akanti	-0.1973132
-4.414196	retis	-0.06506303
-4.593757	Axeamisbo	-0.06506303
-4.593757	Yatanwe	-0.06506303
-4.593757	Jakoncharin	-0.06506303
-4.593757	semanaya	-0.06506303
-4.593757	jotiki	-0.06506303
-4.414196	derecho	-0.06506303
-4.2492094	yoita	-0.12617339
-4.593757	Nonotiri	-0.06506303
-4.593757	Ransanon	-0.06506303
-4.2492094	peokota	-0.06506306
-4.593757	Benoa	-0.06506303
-4.593757	Manatai	-0.06506303
-4.593757	koiramekanwe	-0.06506303
-4.593757	enbicho	-0.06506303
-4.593757	Noeshaman	-0.06506303
-4.593757	osankasirin	-0.06506303
-4.593757	jotoya	-0.06506303
-4.593757	rabinyamai	-0.06506303
-4.593757	Wenimawe	-0.06506303
-4.593757	quedito	-0.06506303
-4.414196	ninkaxonai	-0.06506303
-4.593757	pikashoraira	-0.06506303
-4.593757	yoiresta	-0.06506303
-4.593757	netei	-0.06506303
-4.593757	akaxra	-0.06506303
-4.593757	shinametai	-0.06506303
-4.593757	beyosa	-0.06506303
-4.593757	xeanon	-0.06506303
-4.2492094	ishokoti	-0.14861634
-4.593757	Ikonki	-0.06506303
-4.593757	wishairin	-0.06506303
-4.414196	chibanresai	-0.06506303
-4.593757	Bostoainra	-0.06506303
-4.593757	Katiresa	-0.06506303
-4.593757	Peoban	-0.06506303
-4.593757	Benxoara	-0.06506303
-4.593757	Xepokiati	-0.06506303
-4.593757	Eariki	-0.06506303
-4.593757	yobema	-0.06506303
-4.593757	ovara	-0.06506303
-4.593757	Merakanama	-0.06506303
-4.593757	Jikiresai	-0.06506303
-4.593757	boyamakanai	-0.06506303
-4.593757	Oinreswe	-0.06506303
-4.414196	jonibaon	-0.06506306
-4.414196	koshiawe	-0.1973132
-4.593757	Rabintanira	-0.06506303
-4.593757	Yoiyamakana	-0.06506303
-4.593757	sinake	-0.06506303
-4.593757	imayamaibake	-0.06506303
-4.414196	noabicho	-0.06506303
-4.414196	jenekanwe	-0.06506303
-4.593757	Jakoinraakin	-0.06506303
-4.2492094	shinanara	-0.06506303
-4.593757	pikanwe	-0.06506303
-4.593757	imayamai	-0.06506303
-4.593757	osanmake	-0.06506303
-3.9963825	jaskatax	-0.091167964
-4.593757	itinkanke	-0.06506303
-4.593757	keyoyamai	-0.06506303
-4.414196	jabake	-0.1973132
-4.414196	raenanaira	-0.06506303
-4.593757	Botana	-0.06506303
-4.593757	jakomaati	-0.06506303
-4.593757	Wenixon	-0.06506303
