\data\
ngram 1=11001
ngram 2=47304
ngram 3=76277

\1-grams:
-4.70829	<unk>	0
0	<s>	-0.894168
-4.142419	</s>	0
-4.4211764	ninguno	-0.099721014
-4.2932706	sobrevivirá	-0.29358503
-0.96390027	.	-3.217504
-4.5678673	Almorcemos	-0.099721014
-3.547539	fuera	-0.32138386
-4.5678673	Continúa	-0.099721014
-3.237023	hablando	-0.40109342
-3.434153	ella	-0.15242155
-2.6438618	tiene	-0.2505628
-4.5678673	estilo	-0.099721014
-3.8681862	¿	-0.11584617
-4.5678673	Cómo	-0.099721014
-4.5678673	terminará	-0.099721014
-1.663155	?	-1.6333456
-2.9638686	Tom	-0.21010138
-3.8052063	ni	-0.099721014
-3.701408	pidió	-0.19528928
-4.5678673	disculpa	-0.099721014
-3.941874	¡	-0.104433455
-4.4211764	Buen	-0.099721014
-3.324498	trabajo	-0.27847677
-2.238087	!	-1.3057201
-4.4211764	Lo	-0.109136134
-4.4211764	harán	-0.24166271
-4.4211764	Cuándo	-0.099721014
-3.6575372	llega	-0.17336811
-2.786113	aquí	-0.51375467
-4.2932706	trabajamos	-0.16491862
-3.1642478	todos	-0.2416915
-3.2873685	juntos	-0.57533973
-2.8938046	estas	-0.18542685
-4.2932706	atascado	-0.099721014
-4.5678673	Puedo	-0.099721014
-4.4211764	apagar	-0.099721014
-1.8664116	la	-0.39790285
-4.5678673	radio	-0.099721014
-2.2477238	es	-0.3268187
-3.090478	solo	-0.2183703
-2.194305	un	-0.30065936
-3.434153	niño	-0.21833062
-2.9555016	eso	-0.35578072
-3.8052063	duele	-0.31809154
-3.701408	sigue	-0.10951701
-3.701408	cantando	-0.25962713
-4.4211764	Ya	-0.099721014
-4.4211764	comiste	-0.24166271
-3.516299	nadie	-0.1413837
-2.8938046	mas	-0.46480477
-4.030672	resulto	-0.3333371
-4.4211764	herido	-0.18902394
-4.4211764	pedí	-0.09972105
-4.142419	muebles	-0.23642708
-4.142419	nuevos	-0.16491862
-4.4211764	Por	-0.099721014
-3.1510496	qué	-0.19382404
-3.253165	debería	-0.18428166
-4.5678673	escucharte	-0.099721014
-3.1919124	puedo	-0.18577707
-3.4871562	cantar	-0.31715423
-4.4211764	Cuánto	-0.099721014
-3.7502134	debes	-0.12463822
-3.7502134	esperar	-0.23246907
-4.2932706	Estás	-0.114806056
-3.8681862	buscando	-0.14993387
-3.516299	hicieron	-0.10993004
-3.0373297	muchos	-0.19952893
-4.5678673	cambios	-0.099721014
-4.2932706	Qué	-0.10804964
-2.839792	te	-0.17061022
-3.8681862	despertó	-0.17739974
-4.5678673	Están	-0.099721014
-4.2932706	satisfechos	-0.18902394
-2.4138544	no	-0.33353204
-4.5678673	involucrarme	-0.099721014
-4.2932706	Eres	-0.11053808
-4.4211764	estadounidense	-0.099721014
-3.6575372	cualquier	-0.3361985
-3.701408	papel	-0.1461451
-3.547539	sirve	-0.38151774
-4.5678673	culparte	-0.099721014
-4.5678673	recomendar	-0.099721014
-2.8866742	este	-0.23656118
-4.4211764	restaurante	-0.099721014
-3.8681862	verte	-0.24602193
-2.786113	mañana	-0.538114
-3.409895	hablar	-0.27218467
-2.0024233	con	-0.5361876
-4.5678673	Quieres	-0.099721014
-1.9950995	que	-0.39927888
-4.030672	haga	-0.099721014
-2.6398373	algo	-0.5256597
-4.5678673	Quieren	-0.099721014
-3.941874	probarlo	-0.29358503
-3.0793152	ir	-0.4389447
-3.6176944	afuera	-0.23039651
-4.4211764	Me	-0.099721014
-4.5678673	esperarás	-0.099721014
-4.142419	recuerdo	-0.23642708
-2.8032792	tu	-0.21370548
-3.6575372	cara	-0.25076935
-2.7045145	esta	-0.20744017
-4.5678673	pálida	-0.099721014
-3.6575372	hiciste	-0.17534892
-4.5678673	trágico	-0.099721014
-4.4211764	Pareces	-0.099721014
-4.2932706	deprimido	-0.18902394
-3.547539	pasó	-0.16491862
-2.7186918	muy	-0.19187076
-3.516299	borracho	-0.2584823
-3.409895	ellos	-0.15088351
-4.4211764	ganaron	-0.099721014
-3.516299	anoche	-0.34327185
-4.030672	llovió	-0.23746918
-1.8850297	el	-0.36965066
-3.5812018	profesor	-0.22246963
-4.2932706	sonrió	-0.29358503
-4.4211764	Tienes	-0.10993004
-3.0578153	vino	-0.3372653
-3.941874	vuelve	-0.14993387
-4.5678673	Denme	-0.099721014
-4.5678673	mitad	-0.099721014
-3.8052063	aquella	-0.12463822
-4.030672	botella	-0.16271713
-3.3869207	trabajar	-0.24882944
-2.7974813	bien	-0.4754244
-3.3055365	hecho	-0.21508984
-4.4211764	baila	-0.099721014
-3.113703	conmigo	-0.84447324
-3.941874	seria	-0.14970647
-4.030672	estúpido	-0.28460777
-4.5678673	superarlo	-0.099721014
-4.142419	escuché	-0.099721014
-3.547539	soy	-0.1192649
-4.2932706	responsable	-0.29358503
-3.6176944	necesitas	-0.15718356
-4.4211764	llamarme	-0.099721014
-4.5678673	Pórtate	-0.099721014
-4.2932706	querías	-0.18902394
-3.941874	encontré	-0.17379694
-4.4211764	estudio	-0.09972105
-4.5678673	psicología	-0.099721014
-4.4211764	peleó	-0.099721014
-2.5529842	está	-0.20434722
-3.7502134	lleno	-0.3333371
-4.5678673	Juegas	-0.099721014
-4.5678673	boliche	-0.099721014
-2.9235585	estaba	-0.17078862
-4.4211764	recordando	-0.099721014
-2.5595942	me	-0.21198232
-3.8052063	gusta	-0.24531741
-3.0474517	café	-0.72210443
-4.5678673	Confiaba	-0.099721014
-1.8077794	en	-0.69875914
-3.8681862	ti	-0.27470696
-4.5678673	racional	-0.099721014
-4.5678673	Cuántos	-0.09972105
-4.5678673	sándwiches	-0.099721014
-4.030672	quedan	-0.099721014
-4.5678673	Abrázame	-0.099721014
-4.2932706	recuerda	-0.16491862
-4.5678673	cuidarme	-0.099721014
-2.6645646	le	-0.24197319
-3.941874	deseo	-0.17508608
-3.8052063	suerte	-0.46069902
-4.5678673	Simplemente	-0.099721014
-3.4598465	parece	-0.15738538
-4.2932706	probable	-0.24166271
-3.253165	ahí	-0.45356715
-3.3869207	voy	-0.4096099
-4.142419	hable	-0.14208113
-4.4211764	Déjame	-0.107603684
-4.4211764	cogerlo	-0.099721014
-4.2932706	Puedes	-0.10932279
-3.5812018	estudiar	-0.1877814
-4.5678673	Apresúrate	-0.099721014
-3.4598465	bailar	-0.47550714
-3.5812018	siempre	-0.12552343
-3.324498	estás	-0.127854
-4.2932706	llamare	-0.23642708
-4.4211764	De	-0.099721014
-4.4211764	preocupada	-0.099721014
-3.516299	queda	-0.15234642
-3.4598465	comida	-0.23403442
-3.344325	sola	-0.4410482
-4.4211764	depende	-0.24166271
-1.6543677	de	-0.43762767
-3.434153	nunca	-0.14115143
-4.5678673	haberte	-0.099721014
-3.941874	escuchado	-0.1725116
-3.941874	satisfecho	-0.30511206
-2.9159267	o	-0.2004868
-4.5678673	insatisfecho	-0.099721014
-4.5678673	complicado	-0.099721014
-3.941874	somos	-0.099721014
-4.4211764	primos	-0.24166271
-4.5678673	desfigurado	-0.099721014
-4.5678673	sugieres	-0.099721014
-4.5678673	perderás	-0.099721014
-3.5812018	azúcar	-0.24556884
-4.5678673	usas	-0.099721014
-4.4211764	Hablas	-0.09972105
-4.4211764	latín	-0.24166271
-4.4211764	Sabes	-0.099721014
-2.4459643	lo	-0.22030368
-3.3869207	hice	-0.19282667
-4.4211764	Estoy	-0.099721014
-4.030672	invitado	-0.20542651
-4.030672	necesitamos	-0.1357708
-4.5678673	Continuaron	-0.099721014
-3.6176944	corriendo	-0.41005608
-4.5678673	Está	-0.099721014
-4.030672	durmiendo	-0.27206564
-3.3869207	estoy	-0.11904069
-3.2064347	tan	-0.122909546
-3.547539	feliz	-0.38570473
-3.941874	sea	-0.099721014
-4.030672	razonable	-0.5154338
-4.4211764	hables	-0.099721014
-3.324498	he	-0.16545388
-4.142419	mejorado	-0.23642708
-4.5678673	naciste	-0.099721014
-4.030672	paciente	-0.3333371
-3.344325	libre	-0.39645237
-4.5678673	marcharte	-0.099721014
-4.5678673	Sentémonos	-0.099721014
-4.2932706	teníamos	-0.099721014
-3.6176944	razón	-0.28838846
-4.5678673	abofeteo	-0.099721014
-4.2932706	real	-0.24166271
-4.5678673	Mejoramos	-0.099721014
-4.5678673	calidad	-0.099721014
-4.5678673	Sostén	-0.099721014
-2.7139144	esto	-0.7316426
-4.5678673	Crees	-0.099721014
-4.5678673	funcione	-0.099721014
-4.4211764	case	-0.099721014
-4.5678673	Donde	-0.099721014
-3.6176944	estabas	-0.14706284
-3.941874	sé	-0.1399092
-3.409895	él	-0.14936689
-3.2873685	sabe	-0.2303537
-4.5678673	Espera	-0.099721014
-4.4211764	sentirlo	-0.24166271
-3.941874	venga	-0.17865069
-4.4211764	venta	-0.099721014
-4.4211764	motivado	-0.24166271
-4.5678673	Dámelas	-0.099721014
-3.4598465	estamos	-0.12370335
-3.701408	felices	-0.6343671
-4.5678673	Preparaos	-0.099721014
-4.4211764	tome	-0.099721014
-3.7502134	leche	-0.40777308
-4.5678673	Puede	-0.099721014
-3.1510496	ser	-0.14115143
-3.3869207	cierto	-0.3918302
-3.941874	haber	-0.13803305
-4.5678673	Desea	-0.099721014
-4.4211764	ordenar	-0.099721014
-2.9313266	fue	-0.19960763
-4.030672	extraño	-0.28460777
-3.547539	vamos	-0.25046903
-1.7732174	a	-0.57991683
-4.4211764	necesitar	-0.099721014
-4.5678673	refugio	-0.099721014
-3.017767	donde	-0.1965127
-3.6176944	viven	-0.24090013
-4.5678673	Sigues	-0.099721014
-4.2932706	molesta	-0.099721014
-3.3651009	quería	-0.12104508
-4.4211764	molestarte	-0.24166271
-4.4211764	Podrías	-0.099721014
-4.4211764	hablarme	-0.099721014
-3.8052063	despacio	-0.3620156
-4.5678673	Necesitas	-0.09972105
-2.7186918	nos	-0.18622674
-4.5678673	enteraremos	-0.099721014
-4.5678673	Libérale	-0.099721014
-4.4211764	cogieron	-0.24166271
-4.030672	prometió	-0.3333371
-4.142419	romántico	-0.23642708
-4.142419	siéntate	-0.15954083
-4.030672	debo	-0.099721014
-3.1642478	hacer	-0.21554454
-4.030672	ejercicio	-0.5154338
-4.5678673	Cierra	-0.099721014
-3.409895	esa	-0.1454088
-3.941874	puerta	-0.19357148
-4.2932706	traigo	-0.16491862
-4.5678673	noticias	-0.099721014
-4.5678673	Quizás	-0.099721014
-4.030672	llueva	-0.18592434
-4.2932706	hicimos	-0.099721014
-3.4871562	poco	-0.23419152
-3.1778598	tiempo	-0.30888912
-4.5678673	Rellene	-0.099721014
-2.1971867	los	-0.3316201
-4.4211764	huecos	-0.099721014
-4.5678673	seguirme	-0.099721014
-4.030672	abre	-0.1725116
-4.4211764	Deberías	-0.099721014
-4.2932706	pasando	-0.099721014
-4.2932706	idea	-0.18902394
-3.113703	era	-0.2541938
-4.4211764	obvio	-0.24166271
-4.142419	desnudo	-0.4185238
-4.5678673	callada	-0.099721014
-4.5678673	Requieres	-0.099721014
-3.2214596	nuestra	-0.21756569
-3.3869207	ayuda	-0.4507128
-4.142419	perfecto	-0.4185238
-4.4211764	menudo	-0.099721014
-4.5678673	bicho	-0.099721014
-4.5678673	Residimos	-0.099721014
-3.1919124	tres	-0.2364525
-3.941874	meses	-0.17739974
-4.4211764	Respira	-0.099721014
-4.4211764	profundamente	-0.24166271
-3.2873685	paso	-0.22632633
-3.1510496	ayer	-0.34262842
-3.941874	coge	-0.09972105
-2.2832434	una	-0.26806235
-3.2873685	yo	-0.18341526
-4.142419	espero	-0.116172634
-4.5678673	acatarrado	-0.099721014
-4.2932706	agotado	-0.29358503
-4.030672	gritando	-0.099721014
-4.5678673	tragedia	-0.099721014
-4.4211764	ceno	-0.099721014
-3.7502134	tal	-0.19075832
-2.786113	todo	-0.5608593
-3.3651009	tú	-0.16577281
-3.8681862	podrías	-0.099721014
-4.4211764	resultar	-0.099721014
-4.5678673	lastimado	-0.099721014
-4.4211764	nevó	-0.24166271
-4.4211764	Toca	-0.099721014
-4.5678673	alarma	-0.099721014
-4.030672	mintiendo	-0.1725116
-4.4211764	comenzando	-0.24166271
-4.5678673	Salgamos	-0.099721014
-3.113703	comer	-0.23614882
-4.5678673	Desearía	-0.099721014
-3.8681862	poder	-0.11875992
-4.5678673	encontrarlos	-0.099721014
-3.4871562	tengo	-0.13923174
-4.5678673	formación	-0.099721014
-4.4211764	alunizara	-0.24166271
-4.5678673	vago	-0.099721014
-4.030672	necesito	-0.113335684
-4.4211764	Genial	-0.099721014
-3.3869207	ver	-0.23211089
-4.030672	permiso	-0.18902394
-4.5678673	sorprendes	-0.099721014
-4.4211764	molestando	-0.099721014
-3.8052063	sacar	-0.14208113
-4.030672	foto	-0.18902394
-4.4211764	vegetariano	-0.099721014
-4.030672	hablo	-0.12749717
-4.5678673	extrañé	-0.099721014
-4.030672	guapa	-0.5154338
-4.5678673	Apenas	-0.099721014
-3.6575372	nadar	-0.3293791
-4.5678673	peligro	-0.099721014
-4.5678673	pasándola	-0.099721014
-4.4211764	quisiera	-0.11737197
-4.4211764	televisión	-0.099721014
-4.5678673	exageres	-0.099721014
-4.4211764	esperara	-0.099721014
-4.5678673	extrañaste	-0.099721014
-4.5678673	desayunando	-0.099721014
-3.941874	difícil	-0.20376018
-4.5678673	momentito	-0.099721014
-3.8052063	vendrá	-0.18902397
-4.4211764	simple	-0.24166271
-3.3055365	otro	-0.27292424
-4.2932706	miembro	-0.099721014
-4.5678673	Empeora	-0.099721014
-4.030672	hazlo	-0.15007927
-1.8836229	y	-0.40956613
-4.142419	punto	-0.099721014
-3.344325	triste	-0.5965581
-4.5678673	enfadare	-0.099721014
-4.5678673	veros	-0.099721014
-4.4211764	pase	-0.099721014
-3.324498	buen	-0.17804302
-4.2932706	rato	-0.099721014
-3.6176944	estaban	-0.10993004
-4.5678673	Considérate	-0.099721014
-4.5678673	afortunado	-0.099721014
-3.6176944	hermana	-0.22747937
-4.5678673	Déjelo	-0.099721014
-3.701408	tarea	-0.24233776
-3.8052063	escuchando	-0.5154338
-4.2932706	alcanzó	-0.099721014
-2.3997989	su	-0.29338276
-4.2932706	meta	-0.29358503
-4.142419	emocionado	-0.23642708
-4.5678673	pintaremos	-0.099721014
-3.2873685	verdad	-0.556069
-4.4211764	estaré	-0.11737197
-3.409895	tarde	-0.61768043
-4.5678673	Olvídenlo	-0.099721014
-4.4211764	Te	-0.099721014
-4.5678673	pusiste	-0.099721014
-4.5678673	bloqueador	-0.099721014
-4.4211764	solar	-0.099721014
-2.7695994	ya	-0.32071862
-3.8681862	importa	-0.25962713
-3.8681862	fuimos	-0.19858906
-2.0723953	al	-0.29651886
-4.5678673	museo	-0.099721014
-4.5678673	La	-0.099721014
-3.4871562	conoces	-0.2908708
-4.030672	intentarlo	-0.5154338
-4.4211764	muertos	-0.18902394
-3.6575372	quiero	-0.13786834
-3.6176944	ganar	-0.3735705
-4.5678673	Saliste	-0.099721014
-4.4211764	ríe	-0.099721014
-4.030672	bañarse	-0.28460777
-4.5678673	Quiero	-0.099721014
-3.941874	quedarme	-0.18592434
-3.1019351	quieres	-0.23177877
-4.4211764	cambiar	-0.099721014
-3.7502134	abrir	-0.19481115
-4.5678673	Captas	-0.099721014
-3.2873685	rápido	-0.63873285
-4.5678673	Estabas	-0.099721014
-3.344325	enfermo	-0.34316304
-4.2932706	sucio	-0.099721014
-3.8052063	bolsa	-0.24934593
-4.2932706	cualquiera	-0.18902394
-3.3651009	puede	-0.15959664
-4.4211764	leerlo	-0.24166271
-4.142419	ciudad	-0.099721014
-4.4211764	Eras	-0.099721014
-4.5678673	simpático	-0.099721014
-4.4211764	levantado	-0.099721014
-4.5678673	Observa	-0.099721014
-3.2214596	eran	-0.15375282
-2.3336458	las	-0.29649812
-3.941874	seis	-0.13109751
-4.4211764	compramos	-0.099721014
-4.5678673	mobiliario	-0.099721014
-3.7502134	nuevo	-0.3333371
-3.6176944	trabaja	-0.20306627
-4.5678673	Oyes	-0.099721014
-4.4211764	terco	-0.24166271
-4.4211764	das	-0.099721014
-3.434153	miedo	-0.42554116
-2.0574698	se	-0.35113212
-4.5678673	Podremos	-0.099721014
-4.5678673	conseguirlo	-0.099721014
-4.2932706	recto	-0.29358503
-4.4211764	ojalá	-0.099721014
-4.2932706	estuviera	-0.16491862
-3.8052063	bromeando	-0.3375054
-4.5678673	Son	-0.09972105
-4.5678673	japoneses	-0.099721014
-3.344325	hacerlo	-0.40829614
-4.5678673	Era	-0.099721014
-4.142419	pesado	-0.1510725
-4.142419	pelar	-0.099721014
-4.142419	manzana	-0.20542651
-4.142419	baja	-0.13739519
-4.030672	lápiz	-0.1510725
-4.5678673	auriculares	-0.099721014
-4.4211764	arma	-0.24166271
-3.0684323	allá	-0.47585505
-4.142419	papa	-0.1510725
-3.701408	trabajando	-0.44916576
-4.5678673	bajar	-0.099721014
-3.941874	clase	-0.18902394
-4.5678673	discutieron	-0.099721014
-4.4211764	No	-0.13214837
-3.701408	llorando	-0.22481607
-3.2214596	has	-0.19334997
-4.030672	llegado	-0.13109751
-3.1019351	grande	-0.39143026
-4.5678673	resultados	-0.099721014
-4.5678673	sorprendentes	-0.099721014
-3.7502134	enojado	-0.29103592
-4.5678673	Cuan	-0.099721014
-4.4211764	hambriento	-0.099721014
-4.4211764	sígueme	-0.24166271
-4.5678673	Necesitáis	-0.099721014
-4.142419	juntas	-0.4185238
-3.547539	casa	-0.28011075
-4.142419	dejen	-0.16491862
-4.5678673	copuchar	-0.099721014
-3.8681862	tuvimos	-0.15524901
-4.2932706	agarra	-0.099721014
-3.8681862	fuertemente	-0.1725116
-3.5812018	viejo	-0.3254569
-3.701408	loco	-0.3388084
-4.4211764	recuerdas	-0.24166271
-3.7502134	hora	-0.18316568
-2.9990478	allí	-0.45559716
-4.142419	haré	-0.099721014
-3.7502134	ayudarte	-0.52733815
-3.0684323	desde	-0.29063493
-4.4211764	cero	-0.099721014
-4.5678673	Hoy	-0.099721014
-3.6575372	ocupado	-0.3837368
-3.547539	llego	-0.22644702
-4.2932706	zorro	-0.14208113
-3.6176944	tenemos	-0.13997547
-3.701408	bastante	-0.27410525
-4.2932706	leo	-0.12749717
-3.113703	muchas	-0.2247285
-4.5678673	novelas	-0.099721014
-4.5678673	patético	-0.099721014
-4.4211764	injusto	-0.24166271
-4.5678673	Como	-0.099721014
-4.2932706	crecido	-0.099721014
-4.4211764	adorable	-0.24166271
-3.8052063	duro	-0.21386966
-4.142419	veinte	-0.4185238
-3.3869207	años	-0.2533682
-3.434153	hombre	-0.21887283
-4.5678673	aposta	-0.099721014
-4.2932706	compre	-0.1510725
-4.5678673	corbata	-0.099721014
-3.8681862	roja	-0.19920272
-4.4211764	sigo	-0.099721014
-3.8052063	vivo	-0.19075832
-4.5678673	Cruza	-0.099721014
-4.4211764	calle	-0.16491862
-4.4211764	Quién	-0.110619225
-3.237023	murió	-0.31494927
-4.030672	deberíamos	-0.12038482
-4.5678673	ofrecerles	-0.099721014
-4.4211764	conduciendo	-0.099721014
-3.1257985	demasiado	-0.2577505
-4.142419	hagas	-0.099721014
-3.6575372	ruido	-0.24602193
-3.6176944	abajo	-0.28637832
-4.5678673	Entonces	-0.099721014
-4.4211764	celosa	-0.099721014
-4.2932706	preguntar	-0.099721014
-4.4211764	Empezamos	-0.099721014
-3.4598465	sal	-0.26895362
-2.171914	del	-0.31009564
-4.2932706	pasto	-0.20932046
-3.2873685	hoy	-0.33839843
-4.2932706	A	-0.099721014
-3.5812018	quien	-0.15191944
-3.8681862	esperando	-0.20752369
-4.5678673	Adivina	-0.099721014
-4.2932706	hermosa	-0.099721014
-3.516299	hijo	-0.20298159
-3.941874	tuyo	-0.16491862
-4.5678673	respetan	-0.099721014
-3.8681862	noche	-0.19227041
-4.4211764	preciosa	-0.24166271
-4.5678673	intentaron	-0.099721014
-4.5678673	Sencillamente	-0.099721014
-4.5678673	evitarlo	-0.099721014
-4.142419	amo	-0.14208113
-4.2932706	olvide	-0.099721014
-3.8681862	totalmente	-0.099721014
-4.4211764	placer	-0.24166271
-4.5678673	procuramos	-0.099721014
-2.7485151	son	-0.22935887
-4.5678673	idiotas	-0.099721014
-3.941874	oscuro	-0.41251832
-4.5678673	Dime	-0.099721014
-4.5678673	Traba	-0.099721014
-4.5678673	despiadado	-0.099721014
-4.5678673	bebiendo	-0.099721014
-4.5678673	prestarme	-0.099721014
-3.701408	libro	-0.21753424
-4.142419	sabia	-0.099721014
-4.2932706	pasaría	-0.18902394
-4.5678673	mostrarte	-0.099721014
-3.1019351	también	-0.17418694
-4.5678673	Mira	-0.099721014
-3.324498	hacia	-0.19259295
-3.941874	atrás	-0.2816561
-4.030672	cocina	-0.18902394
-3.7502134	finalmente	-0.13878916
-4.5678673	accedió	-0.099721014
-3.941874	equivocado	-0.47946513
-2.5464733	mi	-0.33529028
-4.5678673	Ayuda	-0.099721014
-4.5678673	Conoces	-0.099721014
-4.142419	canción	-0.15524901
-3.941874	queremos	-0.116172634
-3.941874	cuentas	-0.23816527
-4.5678673	separadas	-0.099721014
-4.5678673	Especifica	-0.099721014
-3.941874	bebe	-0.23642708
-4.142419	Tomas	-0.099721014
-4.142419	siguió	-0.1510725
-3.7502134	caminando	-0.25962713
-3.941874	tendremos	-0.12749717
-3.941874	prueba	-0.16973513
-4.2932706	tomando	-0.099721014
-4.5678673	bostezo	-0.099721014
-4.5678673	Dilo	-0.099721014
-3.8052063	claramente	-0.2816561
-4.5678673	besaron	-0.099721014
-4.2932706	escondiendo	-0.099721014
-4.5678673	Ayúdalo	-0.099721014
-4.2932706	pagaron	-0.099721014
-3.1642478	dinero	-0.36513734
-4.4211764	diestro	-0.24166271
-4.030672	limpiar	-0.17508608
-4.4211764	habitación	-0.18902394
-3.5812018	libros	-0.26330903
-3.5812018	perro	-0.20087412
-3.5812018	comprar	-0.16517955
-4.5678673	aspirina	-0.099721014
-3.0684323	come	-0.180607
-3.8681862	rico	-0.3515545
-4.4211764	sorprendido	-0.24166271
-4.5678673	Podemos	-0.099721014
-3.434153	debemos	-0.14576092
-4.142419	irnos	-0.23642708
-3.8681862	estará	-0.099721014
-3.6176944	listo	-0.34665594
-3.3869207	pronto	-0.44564053
-3.344325	habla	-0.23824553
-4.4211764	ruso	-0.18902394
-4.030672	perfectamente	-0.3333371
-4.4211764	creerlo	-0.099721014
-4.2932706	intente	-0.099721014
-4.4211764	divertirme	-0.24166271
-4.5678673	enmarcados	-0.099721014
-3.701408	caminar	-0.31189382
-3.3869207	acá	-0.35929832
-4.2932706	estuvieron	-0.099721014
-3.701408	solos	-0.5064565
-4.5678673	odiarte	-0.099721014
-4.4211764	realista	-0.099721014
-4.5678673	aplausos	-0.099721014
-4.5678673	ensordecedores	-0.099721014
-3.237023	francés	-0.76983964
-4.4211764	llamarte	-0.099721014
-4.5678673	cedes	-0.099721014
-3.409895	tienes	-0.2844461
-3.941874	tampoco	-0.15717192
-3.6176944	entiende	-0.3815197
-4.5678673	forcejees	-0.099721014
-4.4211764	renunciar	-0.24166271
-4.5678673	Duele	-0.099721014
-2.5697017	mucho	-0.5739403
-3.434153	contigo	-0.69366413
-2.9990478	ahora	-0.2464736
-4.5678673	Sera	-0.099721014
-4.2932706	medico	-0.18902394
-4.4211764	atrapados	-0.099721014
-4.142419	seguí	-0.099721014
-4.5678673	Alguien	-0.099721014
-3.0793152	quiere	-0.22358058
-4.5678673	Vives	-0.099721014
-4.4211764	ultima	-0.24166271
-4.2932706	novia	-0.18902394
-4.5678673	Vente	-0.099721014
-3.5812018	vivir	-0.18172243
-4.5678673	tires	-0.099721014
-3.8681862	piedras	-0.21893214
-4.142419	limpio	-0.4185238
-4.5678673	Púdrete	-0.099721014
-4.5678673	mamón	-0.099721014
-4.5678673	permanecer	-0.099721014
-3.8052063	realmente	-0.1764456
-3.516299	salir	-0.24040367
-4.5678673	Charlemos	-0.099721014
-4.5678673	cantes	-0.099721014
-4.2932706	compro	-0.099721014
-4.5678673	Arregla	-0.099721014
-4.4211764	salí	-0.099721014
-4.5678673	Compruébalo	-0.099721014
-4.5678673	garantizar	-0.099721014
-4.2932706	pongo	-0.099721014
-4.5678673	condición	-0.099721014
-4.4211764	ayúdame	-0.18902394
-3.0274382	hace	-0.21097343
-3.941874	vemos	-0.099721014
-4.4211764	llegue	-0.099721014
-4.5678673	galleta	-0.099721014
-3.941874	escucharlo	-0.25287113
-3.1382403	otra	-0.34548417
-3.547539	vez	-0.21021679
-4.5678673	Alguno	-0.099721014
-3.8052063	escucha	-0.20417614
-3.6575372	verlo	-0.41251832
-4.5678673	Firmaron	-0.099721014
-4.4211764	coqueteando	-0.099721014
-4.4211764	ganamos	-0.099721014
-4.4211764	besarte	-0.099721014
-4.4211764	excelente	-0.099721014
-4.2932706	dijeron	-0.23816527
-4.5678673	diferente	-0.099721014
-4.030672	error	-0.3333371
-4.5678673	Ella	-0.099721014
-4.5678673	besado	-0.099721014
-4.5678673	Descansemos	-0.099721014
-3.7502134	dormido	-0.3747298
-4.4211764	sacarte	-0.099721014
-4.5678673	asustados	-0.099721014
-3.3869207	hemos	-0.17331275
-4.2932706	tenido	-0.14208113
-3.4598465	suficiente	-0.36573732
-3.8052063	termina	-0.18695511
-4.5678673	Tendrás	-0.099721014
-3.701408	pagar	-0.18747137
-4.5678673	Felicidades	-0.099721014
-4.5678673	Mantén	-0.099721014
-4.2932706	domingo	-0.20542651
-4.5678673	serios	-0.099721014
-4.5678673	mintieron	-0.099721014
-4.2932706	sonriendo	-0.18902394
-4.2932706	quede	-0.099721014
-4.2932706	inconsciente	-0.29358503
-4.4211764	apurados	-0.24166271
-3.701408	explicar	-0.24228579
-3.941874	hacían	-0.099721014
-4.4211764	lunes	-0.1510725
-4.2932706	matarme	-0.18902394
-4.2932706	acuerdo	-0.16271713
-4.030672	estábamos	-0.11512597
-3.6575372	listos	-0.45630324
-4.5678673	acercando	-0.099721014
-3.8681862	leí	-0.14993387
-4.5678673	sistema	-0.099721014
-4.5678673	salida	-0.099721014
-4.4211764	sudando	-0.18902394
-4.142419	corto	-0.20542651
-4.5678673	Trataba	-0.099721014
-3.701408	mirar	-0.13739519
-4.5678673	bailaran	-0.099721014
-3.2064347	cosas	-0.22105281
-4.5678673	estresado	-0.099721014
-2.9392364	están	-0.13916822
-4.2932706	recogiendo	-0.099721014
-4.5678673	nueces	-0.099721014
-4.5678673	acompañarles	-0.099721014
-4.5678673	extrañamos	-0.099721014
-4.2932706	renuncio	-0.29358503
-4.142419	agente	-0.24166271
-4.5678673	sorprendiste	-0.099721014
-4.030672	espera	-0.11737197
-3.6575372	visitar	-0.13109751
-4.5678673	Paris	-0.099721014
-3.516299	dulce	-0.32461938
-3.1642478	uno	-0.31010592
-4.2932706	pienso	-0.16491862
-4.5678673	arrestaron	-0.099721014
-3.409895	estar	-0.13593997
-3.0684323	les	-0.19797105
-4.030672	iremos	-0.099721014
-4.2932706	descubrirlo	-0.18902394
-4.5678673	Podes	-0.099721014
-4.5678673	aclararlo	-0.099721014
-4.142419	inteligente	-0.16491862
-4.5678673	gastar	-0.099721014
-4.030672	escucho	-0.23050357
-4.030672	cuidadosamente	-0.20542651
-4.5678673	alcanzar	-0.099721014
-4.4211764	lindos	-0.099721014
-4.5678673	Estate	-0.099721014
-3.8052063	preparado	-0.23050357
-3.941874	sueno	-0.28460777
-4.4211764	especiales	-0.24166271
-4.142419	ningún	-0.099721014
-4.142419	canadiense	-0.16491862
-3.8052063	gente	-0.13878916
-4.5678673	Acordamos	-0.099721014
-3.7502134	empezar	-0.20932046
-3.6176944	temprano	-0.5856378
-3.941874	contento	-0.23816527
-4.5678673	Acaso	-0.099721014
-4.5678673	Compremos	-0.099721014
-4.5678673	engreída	-0.099721014
-4.5678673	Acepto	-0.099721014
-3.3869207	tus	-0.1819123
-4.142419	condiciones	-0.3333371
-3.701408	vende	-0.13867188
-4.5678673	etiqueta	-0.099721014
-4.5678673	frustrado	-0.099721014
-4.5678673	Hay	-0.099721014
-4.5678673	vacantes	-0.099721014
-3.6575372	pone	-0.11890339
-4.142419	deberes	-0.3333371
-4.5678673	negaron	-0.099721014
-4.4211764	enfadada	-0.099721014
-4.4211764	sugerencia	-0.099721014
-4.030672	música	-0.20542651
-4.5678673	mentir	-0.099721014
-3.434153	casi	-0.21006352
-3.8052063	segura	-0.31086308
-4.142419	podría	-0.14068738
-4.5678673	matarlas	-0.099721014
-4.5678673	Hablaremos	-0.099721014
-3.344325	arriba	-0.33432645
-4.142419	lloro	-0.20542651
-4.2932706	amargamente	-0.099721014
-3.547539	dormir	-0.35879138
-4.4211764	llamé	-0.24166271
-4.2932706	practicando	-0.29358503
-4.5678673	acepta	-0.099721014
-4.2932706	esperamos	-0.099721014
-3.6575372	lluvia	-0.18718429
-3.7502134	Boston	-0.5154338
-3.547539	dicen	-0.32743672
-4.5678673	Con	-0.099721014
-3.6575372	quién	-0.1645563
-4.2932706	rieron	-0.18902394
-4.2932706	estaremos	-0.099721014
-4.4211764	Deja	-0.1510725
-4.4211764	cerrada	-0.24166271
-4.4211764	empezando	-0.24166271
-4.5678673	joderme	-0.099721014
-4.2932706	pague	-0.099721014
-3.3869207	mis	-0.13482837
-3.1257985	si	-0.22976694
-3.5812018	puedes	-0.099721014
-3.701408	correr	-0.26330903
-4.5678673	adularme	-0.099721014
-3.941874	parecía	-0.099721014
-3.8681862	agradable	-0.2816561
-4.4211764	Ten	-0.13109751
-3.7502134	cuidado	-0.32352775
-3.434153	todavía	-0.22569416
-4.5678673	Transcurrieron	-0.099721014
-4.4211764	semanas	-0.18902394
-4.142419	adelante	-0.23642708
-4.030672	darte	-0.1510725
-4.030672	información	-0.3333371
-4.4211764	útil	-0.099721014
-4.5678673	Quédatelo	-0.099721014
-3.8681862	bailando	-0.3515545
-3.8681862	divertido	-0.30511206
-4.142419	haremos	-0.099721014
-3.8052063	murieron	-0.16271713
-3.6575372	peces	-0.19457798
-4.5678673	Adonde	-0.09972105
-4.2932706	fuiste	-0.099721014
-4.5678673	instrumentos	-0.099721014
-3.7502134	toca	-0.16491857
-3.7502134	corrió	-0.12749717
-4.5678673	Has	-0.099721014
-4.4211764	vivido	-0.099721014
-4.4211764	pagare	-0.099721014
-4.4211764	escuche	-0.18902394
-4.5678673	Felices	-0.099721014
-3.941874	sueños	-0.23816527
-4.5678673	dolerá	-0.099721014
-3.0578153	había	-0.15459763
-3.253165	mucha	-0.19736421
-3.701408	pregunta	-0.35740784
-4.5678673	Helo	-0.099721014
-4.5678673	preguntarles	-0.099721014
-3.941874	edad	-0.14208113
-3.5812018	amigos	-0.35913026
-4.4211764	cercanos	-0.24166271
-4.030672	cuidar	-0.13109751
-4.5678673	Siga	-0.099721014
-3.8681862	leyendo	-0.4095465
-4.030672	esperaba	-0.27206564
-4.5678673	rendimos	-0.099721014
-4.4211764	déjalo	-0.12749717
-4.4211764	vertió	-0.099721014
-4.2932706	clima	-0.099721014
-4.5678673	lloverá	-0.099721014
-4.5678673	principiante	-0.099721014
-3.6575372	eres	-0.13217911
-4.030672	espere	-0.21547493
-4.5678673	sellos	-0.099721014
-3.1642478	nada	-0.3976121
-4.2932706	cambia	-0.18902394
-4.4211764	canadienses	-0.099721014
-4.030672	cerveza	-0.27206564
-4.5678673	pulso	-0.099721014
-3.3055365	bajo	-0.33481163
-4.4211764	ambas	-0.099721014
-4.4211764	muertas	-0.099721014
-4.2932706	escapó	-0.14208113
-4.5678673	Emborrachémonos	-0.099721014
-4.5678673	En	-0.09972105
-3.4598465	lleva	-0.24228579
-3.8052063	sombrero	-0.31086308
-4.142419	traje	-0.09972105
-4.2932706	almuerzo	-0.18902394
-4.2932706	prestar	-0.099721014
-3.701408	atención	-0.44916576
-4.2932706	aspecto	-0.099721014
-4.2932706	coma	-0.099721014
-3.3869207	estos	-0.16365924
-3.1919124	nuestros	-0.25824317
-4.5678673	escritorios	-0.099721014
-3.6575372	pensando	-0.23525096
-4.2932706	meditando	-0.18902394
-4.142419	tuve	-0.099721014
-4.5678673	Pare	-0.099721014
-3.941874	intentando	-0.13109751
-4.4211764	Es	-0.10525981
-4.5678673	privado	-0.099721014
-3.8681862	sordo	-0.17508608
-3.941874	sabes	-0.18592434
-4.5678673	equivoque	-0.099721014
-4.4211764	detalles	-0.24166271
-4.142419	estudiante	-0.16491862
-3.5812018	ayudar	-0.4459031
-4.5678673	Comprende	-0.099721014
-4.5678673	Decidí	-0.099721014
-4.4211764	diariamente	-0.099721014
-4.4211764	gustaría	-0.099721014
-4.142419	Australia	-0.20542651
-4.2932706	dijiste	-0.099721014
-4.5678673	prisioneros	-0.099721014
-4.4211764	niego	-0.099721014
-4.142419	cansada	-0.099721014
-4.5678673	acobarde	-0.099721014
-4.5678673	cambiara	-0.099721014
-4.030672	quieto	-0.3333371
-4.5678673	desconozco	-0.099721014
-4.5678673	cristianos	-0.099721014
-4.4211764	Aprenderás	-0.099721014
-3.941874	viaje	-0.13109751
-4.5678673	adulta	-0.099721014
-4.030672	tomaron	-0.1510725
-4.5678673	precauciones	-0.099721014
-4.4211764	planeado	-0.24166271
-4.5678673	refrescante	-0.099721014
-4.5678673	acompañas	-0.099721014
-4.5678673	Déjalos	-0.099721014
-3.8052063	pelear	-0.4095465
-4.142419	aquello	-0.16491862
-4.142419	almorzando	-0.4185238
-4.142419	idiota	-0.23816527
-4.5678673	Despiértame	-0.099721014
-4.5678673	reñiré	-0.099721014
-4.030672	importante	-0.3333371
-4.4211764	Nos	-0.099721014
-3.7502134	beber	-0.19821183
-3.8681862	pedir	-0.20542651
-4.4211764	chicle	-0.099721014
-4.5678673	almorzaste	-0.099721014
-4.142419	fumar	-0.099721014
-4.4211764	Los	-0.099721014
-4.5678673	encantan	-0.099721014
-4.142419	fiestas	-0.16271713
-4.4211764	llegaste	-0.099721014
-4.2932706	trabajas	-0.16491862
-4.4211764	huérfano	-0.099721014
-3.8681862	persona	-0.13327211
-4.5678673	salvarte	-0.099721014
-4.5678673	parcial	-0.099721014
-4.5678673	mirarte	-0.099721014
-3.434153	entrar	-0.48120332
-2.1571639	por	-0.5124348
-4.4211764	favor	-0.16491862
-3.8681862	ayudarme	-0.31800056
-3.1919124	fuerte	-0.3900426
-4.5678673	estación	-0.099721014
-3.701408	saben	-0.20376018
-4.142419	diferencia	-0.18592434
-4.5678673	Paso	-0.099721014
-4.142419	sentir	-0.099721014
-4.4211764	Soy	-0.099721014
-4.4211764	desafortunado	-0.24166271
-4.2932706	quedarte	-0.23642708
-3.2873685	dijo	-0.40111098
-3.516299	ingles	-0.71955377
-4.5678673	Dame	-0.099721014
-3.547539	verde	-0.34713453
-4.142419	enfermos	-0.20542651
-2.8659592	ha	-0.20102654
-3.701408	venido	-0.20123467
-3.434153	vive	-0.38549668
-2.4138544	cuando	-0.29038638
-3.941874	parar	-0.16271713
-4.5678673	puertas	-0.099721014
-4.5678673	cerradas	-0.099721014
-4.2932706	coser	-0.1357708
-4.5678673	quejar	-0.099721014
-4.5678673	queso	-0.099721014
-4.142419	Mary	-0.12231299
-4.030672	decidió	-0.099721014
-4.4211764	Llámame	-0.099721014
-3.0274382	después	-0.41939783
-4.4211764	irte	-0.18902394
-4.5678673	brasileña	-0.099721014
-3.2064347	cerca	-0.5587025
-4.030672	aprendí	-0.12463822
-4.4211764	Cuídate	-0.099721014
-4.5678673	incompetente	-0.099721014
-4.5678673	cultivos	-0.099721014
-4.2932706	necesitan	-0.099721014
-4.5678673	venderlos	-0.099721014
-3.8052063	casarse	-0.31086308
-4.5678673	Volverás	-0.099721014
-4.5678673	aventureros	-0.099721014
-4.2932706	funciono	-0.29358503
-4.5678673	colgados	-0.099721014
-4.4211764	abrimos	-0.099721014
-4.5678673	filete	-0.099721014
-3.547539	día	-0.2209181
-4.142419	atento	-0.4185238
-4.5678673	escondiste	-0.099721014
-3.7502134	llorar	-0.20100652
-3.3055365	ustedes	-0.19758071
-4.2932706	prometieron	-0.29358503
-4.4211764	mándenlo	-0.099721014
-3.6176944	adentro	-0.477713
-3.7502134	pueden	-0.099721014
-4.5678673	gaste	-0.099721014
-4.4211764	dólares	-0.24166271
-4.142419	atrapado	-0.24166271
-4.5678673	estrés	-0.099721014
-4.5678673	sacare	-0.099721014
-4.2932706	rollo	-0.099721014
-3.941874	mira	-0.12914702
-4.5678673	Confío	-0.099721014
-4.5678673	aburrimiento	-0.099721014
-3.8052063	camisa	-0.18316568
-4.5678673	Tuvo	-0.099721014
-4.142419	vuelo	-0.1510725
-4.5678673	oigo	-0.099721014
-4.4211764	respuestas	-0.099721014
-4.030672	tranquilo	-0.20542651
-4.5678673	Rambo	-0.099721014
-3.8681862	existe	-0.18695511
-4.5678673	excitado	-0.099721014
-4.142419	veo	-0.18902394
-4.4211764	león	-0.099721014
-4.4211764	Habla	-0.099721014
-3.409895	usted	-0.12381171
-4.4211764	filipino	-0.24166271
-4.142419	ayudaron	-0.24166271
-3.4598465	nosotros	-0.18337724
-4.4211764	compartiremos	-0.24166271
-4.4211764	vengas	-0.24166271
-4.5678673	Serás	-0.099721014
-4.5678673	ignorado	-0.099721014
-4.5678673	juramento	-0.099721014
-4.4211764	firme	-0.099721014
-3.941874	perder	-0.28460777
-3.8681862	corte	-0.19481115
-4.4211764	indignado	-0.24166271
-4.5678673	ansioso	-0.099721014
-4.5678673	polaco	-0.099721014
-4.4211764	Tiene	-0.099721014
-4.5678673	encendedor	-0.099721014
-3.547539	arroz	-0.2777831
-3.4871562	comió	-0.19658971
-4.4211764	vuestra	-0.099721014
-4.142419	opinión	-0.16491862
-3.941874	camina	-0.1510725
-4.4211764	aplaudió	-0.24166271
-4.5678673	Estaría	-0.099721014
-4.2932706	devastado	-0.29358503
-4.4211764	alerta	-0.24166271
-4.5678673	cantantes	-0.099721014
-4.2932706	helado	-0.29358503
-4.5678673	descuento	-0.099721014
-4.030672	soltero	-0.28460777
-4.5678673	cooperando	-0.099721014
-4.5678673	investigación	-0.099721014
-3.941874	cumplió	-0.14208113
-4.5678673	dieciséis	-0.099721014
-4.5678673	pretendéis	-0.099721014
-3.8052063	arreglar	-0.23050357
-4.2932706	vayamos	-0.099721014
-4.2932706	ambos	-0.099721014
-4.2932706	perdimos	-0.23642708
-4.5678673	Lloverá	-0.099721014
-4.5678673	vacíos	-0.099721014
-4.142419	parado	-0.28460777
-4.5678673	mentiros	-0.099721014
-4.5678673	cancelar	-0.099721014
-4.2932706	reunión	-0.16491862
-4.5678673	estudiare	-0.099721014
-4.5678673	Anote	-0.099721014
-4.4211764	mejora	-0.24166271
-4.4211764	repetir	-0.099721014
-4.4211764	odio	-0.099721014
-4.2932706	veía	-0.12231299
-3.941874	asustado	-0.41251832
-3.8681862	suena	-0.12463822
-3.8052063	justo	-0.31086308
-4.2932706	viniste	-0.20932046
-4.5678673	Mangos	-0.099721014
-3.5812018	será	-0.11737197
-4.5678673	soportar	-0.099721014
-4.030672	pregúntale	-0.31086308
-4.5678673	cortaste	-0.099721014
-4.5678673	desanimado	-0.099721014
-3.8681862	despierto	-0.30511206
-4.2932706	turno	-0.18592434
-4.2932706	ponte	-0.099721014
-4.142419	ello	-0.16491862
-4.4211764	costara	-0.099721014
-4.5678673	tirantes	-0.099721014
-4.5678673	Dependemos	-0.099721014
-4.5678673	Practiquemos	-0.099721014
-4.4211764	cansados	-0.24166271
-4.030672	verdaderamente	-0.099721014
-4.2932706	mantiene	-0.099721014
-4.5678673	perfil	-0.099721014
-4.5678673	progreso	-0.099721014
-4.5678673	destruirlo	-0.099721014
-3.2873685	ese	-0.1303046
-3.701408	estuvo	-0.13327211
-4.5678673	Vienes	-0.099721014
-4.5678673	Cuantas	-0.099721014
-4.4211764	ventanas	-0.099721014
-2.9899821	hay	-0.26251087
-4.5678673	comprometidos	-0.099721014
-3.8681862	luz	-0.1388695
-4.4211764	nevando	-0.18902394
-4.5678673	Mírame	-0.099721014
-4.5678673	Viajas	-0.099721014
-4.4211764	huele	-0.18902394
-4.5678673	negociable	-0.099721014
-4.5678673	protegerme	-0.099721014
-4.5678673	Decid	-0.099721014
-4.2932706	veré	-0.16491862
-4.030672	aprende	-0.1357708
-4.4211764	italiano	-0.099721014
-4.030672	embriagado	-0.1510725
-3.701408	volver	-0.44774976
-4.4211764	Date	-0.24166271
-4.5678673	prisa	-0.099721014
-4.4211764	volverás	-0.24166271
-4.030672	irme	-0.17739974
-4.4211764	globo	-0.099721014
-4.5678673	ascendió	-0.099721014
-3.8681862	lentamente	-0.47946513
-4.5678673	Dinos	-0.099721014
-4.142419	empleados	-0.23642708
-4.5678673	Olvidémoslo	-0.099721014
-3.941874	siento	-0.11737197
-3.6176944	vergüenza	-0.2672312
-4.4211764	usamos	-0.099721014
-3.1382403	agua	-0.36107382
-3.516299	rápidamente	-0.27930915
-3.7502134	ven	-0.1801195
-4.142419	entra	-0.18592434
-4.5678673	repetirse	-0.099721014
-4.142419	asiento	-0.1510725
-3.8681862	japonés	-0.4185238
-4.5678673	Estudias	-0.099721014
-4.5678673	suéter	-0.099721014
-4.5678673	Tenemos	-0.099721014
-4.2932706	avergonzado	-0.29358503
-4.142419	historia	-0.1357708
-4.4211764	Ha	-0.1510725
-4.4211764	sucedido	-0.099721014
-4.4211764	almorcé	-0.099721014
-4.4211764	Háblame	-0.099721014
-4.4211764	ofrecí	-0.099721014
-4.4211764	voluntario	-0.24166271
-4.142419	hermanas	-0.24166271
-4.5678673	almorzar	-0.099721014
-4.4211764	nosotras	-0.099721014
-3.8052063	descansar	-0.23050357
-4.2932706	mintió	-0.18902394
-4.2932706	prometiste	-0.29358503
-3.409895	haciendo	-0.15572892
-4.5678673	permaneció	-0.099721014
-4.5678673	Intenta	-0.099721014
-4.5678673	centrarte	-0.099721014
-4.5678673	Washington	-0.099721014
-4.2932706	preocupado	-0.18902394
-4.5678673	importas	-0.099721014
-4.4211764	Bebes	-0.099721014
-3.6176944	diez	-0.1357708
-4.5678673	lenguas	-0.099721014
-4.5678673	llevas	-0.099721014
-4.5678673	Buitree	-0.099721014
-4.2932706	valiente	-0.29358503
-4.2932706	prestado	-0.18902394
-4.5678673	abrazo	-0.099721014
-4.5678673	Partiremos	-0.099721014
-3.8052063	inmediatamente	-0.23642708
-4.5678673	Vas	-0.099721014
-4.2932706	apresurado	-0.18902394
-4.5678673	golpeo	-0.099721014
-4.4211764	dios	-0.099721014
-4.5678673	contribuí	-0.099721014
-4.4211764	lastima	-0.099721014
-3.5812018	plátanos	-0.21005663
-4.5678673	deliciosos	-0.099721014
-4.5678673	Cantemos	-0.099721014
-4.142419	vayas	-0.1695799
-4.5678673	anticiparon	-0.099721014
-3.8681862	media	-0.16491862
-4.4211764	ventana	-0.099721014
-4.4211764	Hemos	-0.099721014
-3.941874	ganado	-0.19920272
-3.5812018	leer	-0.24653628
-4.2932706	tomado	-0.099721014
-4.5678673	ensalada	-0.099721014
-4.142419	emocionante	-0.23642708
-3.941874	aburrido	-0.28460777
-4.5678673	engordado	-0.099721014
-3.8681862	seguro	-0.12463822
-4.4211764	desesperado	-0.24166271
-4.030672	sonando	-0.14208113
-3.516299	hombres	-0.16215003
-4.5678673	conservadores	-0.099721014
-4.2932706	doloroso	-0.099721014
-3.701408	falta	-0.099721014
-4.4211764	oírte	-0.24166271
-4.4211764	actitud	-0.18902394
-3.701408	tenían	-0.18371601
-3.6575372	hambre	-0.44916576
-3.516299	cinco	-0.13682598
-4.5678673	pinas	-0.099721014
-3.6176944	bueno	-0.24596135
-4.5678673	aparecerá	-0.099721014
-4.4211764	respóndeme	-0.099721014
-4.4211764	pascua	-0.099721014
-4.2932706	perdida	-0.18902394
-3.8681862	encontró	-0.18747137
-4.4211764	iré	-0.1357708
-4.2932706	deje	-0.1510725
-4.5678673	Juegan	-0.099721014
-4.4211764	golf	-0.24166271
-4.4211764	estúpida	-0.099721014
-4.5678673	ilegal	-0.099721014
-4.5678673	quedando	-0.099721014
-4.2932706	continua	-0.23642708
-4.5678673	actor	-0.099721014
-4.4211764	veamos	-0.099721014
-4.4211764	cuanto	-0.099721014
-4.4211764	mides	-0.099721014
-4.4211764	universitario	-0.099721014
-4.5678673	Viajemos	-0.099721014
-4.2932706	amamos	-0.18902394
-3.4598465	venir	-0.23679662
-4.030672	funciona	-0.28460777
-4.4211764	Vete	-0.099721014
-4.4211764	inocente	-0.24166271
-4.142419	hablamos	-0.1510725
-3.3055365	mal	-0.41192985
-4.5678673	discutiendo	-0.099721014
-4.5678673	demandaron	-0.099721014
-4.4211764	terminaron	-0.099721014
-4.5678673	Notaste	-0.099721014
-4.4211764	miope	-0.099721014
-4.5678673	suajili	-0.099721014
-4.5678673	Debería	-0.099721014
-3.8052063	preparar	-0.24876177
-4.4211764	conserva	-0.099721014
-4.4211764	cayo	-0.099721014
-4.5678673	torrencial	-0.099721014
-4.5678673	Encargué	-0.099721014
-4.2932706	imposible	-0.099721014
-4.142419	energía	-0.099721014
-4.5678673	diabética	-0.099721014
-4.5678673	dártelos	-0.099721014
-3.8681862	conocemos	-0.26468962
-4.5678673	saltaron	-0.099721014
-4.5678673	Cuál	-0.099721014
-4.142419	cama	-0.14208113
-4.030672	usar	-0.17922065
-4.5678673	Ganaste	-0.099721014
-1.6125386	,	-0.5368276
-4.5678673	vario	-0.099721014
-4.5678673	gana	-0.099721014
-4.5678673	Actúa	-0.099721014
-2.9313266	sin	-0.17060408
-4.5678673	embargo	-0.099721014
-3.547539	cuatro	-0.1376543
-4.4211764	empezamos	-0.099721014
-3.941874	aula	-0.17532222
-3.017767	hizo	-0.18451656
-4.142419	trampa	-0.23642708
-4.2932706	visitas	-0.099721014
-3.6575372	medio	-0.16080017
-4.5678673	Accedí	-0.099721014
-4.142419	vinimos	-0.099721014
-4.5678673	dará	-0.099721014
-3.6176944	calor	-0.25287113
-4.5678673	Guárdame	-0.099721014
-4.5678673	Cocíname	-0.099721014
-4.4211764	hagamos	-0.099721014
-4.4211764	conduce	-0.099721014
-4.5678673	decepción	-0.099721014
-4.5678673	juro	-0.099721014
-4.5678673	inofensivo	-0.099721014
-4.5678673	Modérese	-0.099721014
-3.8681862	gusto	-0.32461938
-4.4211764	ayudando	-0.18902394
-4.5678673	higiénico	-0.099721014
-4.5678673	Quizá	-0.099721014
-4.2932706	solía	-0.099721014
-4.5678673	planes	-0.099721014
-4.5678673	decepcionaste	-0.099721014
-4.5678673	azote	-0.099721014
-4.030672	enfadado	-0.14208113
-4.5678673	Necesitábamos	-0.099721014
-4.5678673	desmayaste	-0.099721014
-4.5678673	Captúralo	-0.099721014
-3.941874	sucedió	-0.18592434
-4.5678673	ensenártelo	-0.099721014
-4.4211764	perdí	-0.1510725
-4.142419	nervioso	-0.4185238
-4.5678673	Podría	-0.099721014
-4.4211764	enviarme	-0.24166271
-4.5678673	catalogo	-0.099721014
-4.5678673	Tanto	-0.099721014
-4.4211764	deseas	-0.099721014
-3.941874	verla	-0.3515545
-4.142419	pasa	-0.16491862
-4.4211764	escaparon	-0.099721014
-3.8052063	comido	-0.1357708
-2.1428983	para	-0.394154
-3.941874	volar	-0.41251832
-4.142419	escondido	-0.16491862
-4.5678673	cambie	-0.099721014
-4.5678673	Fuego	-0.099721014
-4.5678673	alérgica	-0.099721014
-3.8681862	maíz	-0.1805769
-4.5678673	malhumorado	-0.099721014
-3.8681862	comiendo	-0.13109751
-4.5678673	fideos	-0.099721014
-4.2932706	pierde	-0.18902394
-4.142419	oí	-0.14208113
-4.5678673	cerrarse	-0.099721014
-3.941874	conozco	-0.23816527
-4.5678673	Perfecto	-0.099721014
-4.5678673	controlarlo	-0.099721014
-4.5678673	peleando	-0.099721014
-4.2932706	serio	-0.099721014
-3.941874	vives	-0.16491862
-4.4211764	suficientemente	-0.099721014
-4.4211764	ocurrió	-0.099721014
-4.5678673	leyó	-0.099721014
-4.4211764	esperanto	-0.24166271
-4.5678673	costaron	-0.099721014
-4.142419	irse	-0.16491862
-3.547539	da	-0.12038482
-4.5678673	Agárralo	-0.099721014
-3.941874	ojos	-0.14767571
-4.4211764	lees	-0.099721014
-4.5678673	Ocultaste	-0.099721014
-4.4211764	encanto	-0.099721014
-3.941874	voz	-0.1357708
-4.5678673	inocentes	-0.099721014
-4.5678673	eructo	-0.099721014
-4.4211764	reales	-0.24166271
-4.5678673	Largo	-0.099721014
-4.4211764	bata	-0.099721014
-4.5678673	Cocinas	-0.099721014
-3.8052063	vienen	-0.22115952
-3.8052063	frio	-0.47618565
-4.5678673	copiéis	-0.099721014
-4.030672	genial	-0.3333371
-4.142419	flexible	-0.23642708
-4.4211764	negativo	-0.099721014
-4.4211764	reglas	-0.24166271
-4.5678673	Prefiero	-0.099721014
-3.6575372	jugo	-0.37863296
-4.5678673	Defendieron	-0.099721014
-4.2932706	país	-0.16491862
-4.2932706	arreglarlo	-0.29358503
-4.4211764	sobrevivieron	-0.24166271
-3.8681862	conducir	-0.1357708
-4.5678673	sabrá	-0.099721014
-4.4211764	aquellos	-0.099721014
-3.941874	tiempos	-0.12231299
-3.8052063	doctor	-0.14618036
-4.5678673	Disculpa	-0.099721014
-4.5678673	perdidos	-0.099721014
-4.5678673	Todavía	-0.099721014
-4.5678673	inhalo	-0.099721014
-4.5678673	Le	-0.099721014
-4.030672	conoce	-0.1510725
-4.2932706	saludable	-0.18902394
-4.142419	creció	-0.099721014
-4.142419	trabajan	-0.09972105
-4.5678673	Ábrela	-0.099721014
-4.5678673	ebrio	-0.099721014
-4.4211764	amable	-0.099721014
-4.5678673	inclinación	-0.099721014
-4.5678673	Sal	-0.099721014
-4.2932706	coche	-0.099721014
-4.5678673	empiezo	-0.099721014
-4.5678673	condescendiendo	-0.099721014
-4.5678673	matarás	-0.099721014
-4.5678673	ilesos	-0.099721014
-4.142419	quise	-0.09972105
-4.5678673	Fingí	-0.099721014
-4.5678673	apoyarlo	-0.099721014
-4.142419	salimos	-0.099721014
-4.2932706	hielo	-0.29358503
-4.5678673	Juguemos	-0.099721014
-4.5678673	ajedrez	-0.099721014
-4.5678673	engañoso	-0.099721014
-4.5678673	entendí	-0.099721014
-4.030672	detenido	-0.1510725
-4.5678673	Regresa	-0.099721014
-3.6575372	vieron	-0.17379694
-4.5678673	bebió	-0.099721014
-4.4211764	entendió	-0.24166271
-4.2932706	escoge	-0.18902394
-4.142419	cambio	-0.23642708
-4.4211764	ventoso	-0.099721014
-4.4211764	cometa	-0.099721014
-4.5678673	Hazme	-0.099721014
-3.941874	caso	-0.41251832
-3.8681862	empieza	-0.18695511
-4.4211764	llevare	-0.099721014
-4.5678673	matarte	-0.099721014
-4.5678673	Adivinaste	-0.099721014
-4.2932706	terminamos	-0.18902394
-4.5678673	admiramos	-0.099721014
-4.4211764	encuentren	-0.099721014
-4.142419	gato	-0.18902394
-4.2932706	pago	-0.18902394
-3.8681862	fácil	-0.3515545
-4.4211764	cumple	-0.099721014
-4.5678673	deber	-0.099721014
-4.5678673	Ocurrirá	-0.099721014
-4.4211764	Piénsalo	-0.099721014
-3.7502134	escribe	-0.17282107
-4.4211764	parecen	-0.09972105
-4.4211764	sorprendidos	-0.24166271
-4.5678673	Visito	-0.099721014
-4.5678673	Pásenle	-0.099721014
-4.5678673	atrasaste	-0.099721014
-4.5678673	Cantare	-0.099721014
-4.4211764	preparamos	-0.099721014
-4.5678673	Tomo	-0.099721014
-4.2932706	quedar	-0.16491862
-4.5678673	detenerte	-0.099721014
-4.5678673	informes	-0.099721014
-4.5678673	confusos	-0.099721014
-4.5678673	mascota	-0.099721014
-4.030672	yendo	-0.13109751
-3.409895	lejos	-0.30108616
-4.2932706	horrible	-0.18902394
-4.5678673	trampilla	-0.099721014
-4.5678673	Cámbiate	-0.099721014
-3.4598465	ropa	-0.25747475
-4.5678673	Juntémonos	-0.099721014
-3.701408	pasado	-0.17739974
-4.5678673	buscas	-0.099721014
-4.5678673	Venden	-0.099721014
-4.5678673	mandarinas	-0.099721014
-4.5678673	indigna	-0.099721014
-4.4211764	accidentes	-0.099721014
-4.4211764	pasan	-0.24166271
-4.5678673	Resume	-0.099721014
-3.8681862	enferma	-0.24239919
-4.142419	abogado	-0.23642708
-4.5678673	condujo	-0.099721014
-4.4211764	errores	-0.24166271
-4.5678673	bastar	-0.099721014
-4.5678673	evidencia	-0.099721014
-3.6176944	mejor	-0.28283438
-4.4211764	sacamos	-0.099721014
-4.030672	fotos	-0.20932046
-4.4211764	pobre	-0.099721014
-4.4211764	Siempre	-0.099721014
-4.2932706	inútil	-0.29358503
-3.4598465	alguien	-0.15334561
-3.2873685	viene	-0.21800058
-4.030672	ayudo	-0.29358503
-4.5678673	Quiere	-0.099721014
-4.2932706	asunto	-0.099721014
-3.941874	suyo	-0.16271713
-4.5678673	mantuvieron	-0.099721014
-4.4211764	necesitaba	-0.099721014
-4.5678673	Explícamelo	-0.099721014
-4.5678673	desmayo	-0.099721014
-4.5678673	grado	-0.099721014
-4.5678673	artistas	-0.099721014
-4.5678673	gravemente	-0.099721014
-4.4211764	control	-0.24166271
-4.2932706	carta	-0.1357708
-3.8681862	fui	-0.17282107
-4.2932706	sensible	-0.29358503
-4.5678673	ocultando	-0.099721014
-4.5678673	Suéltala	-0.099721014
-4.4211764	asegurando	-0.24166271
-4.5678673	avergonzada	-0.099721014
-4.5678673	cruel	-0.099721014
-4.5678673	prisión	-0.099721014
-4.5678673	conseguiremos	-0.099721014
-4.4211764	cultivamos	-0.099721014
-4.4211764	maneja	-0.099721014
-4.5678673	cámaras	-0.099721014
-4.5678673	intranquilo	-0.099721014
-4.142419	creo	-0.20542651
-4.5678673	calentito	-0.099721014
-4.5678673	Reconsiderare	-0.099721014
-4.5678673	Vuelan	-0.099721014
-4.5678673	frecuencia	-0.099721014
-4.5678673	envolverlos	-0.099721014
-4.2932706	separado	-0.099721014
-4.2932706	equivocados	-0.29358503
-4.5678673	desmemoriado	-0.099721014
-4.5678673	Firmaste	-0.099721014
-4.4211764	verificar	-0.24166271
-4.4211764	conmovió	-0.18902394
-4.5678673	trasnochar	-0.099721014
-4.4211764	ocupados	-0.099721014
-4.5678673	agradecerte	-0.099721014
-4.2932706	muchísimas	-0.099721014
-3.7502134	gracias	-0.32131246
-4.142419	confundido	-0.4185238
-4.5678673	quedamos	-0.099721014
-4.2932706	decidiste	-0.29358503
-4.4211764	traicionaste	-0.24166271
-4.2932706	mejores	-0.099721014
-4.2932706	carpintero	-0.09972105
-4.5678673	bloqueado	-0.099721014
-4.5678673	lastimados	-0.099721014
-4.2932706	principio	-0.23642708
-4.5678673	folleto	-0.099721014
-4.5678673	continuación	-0.099721014
-4.4211764	reír	-0.099721014
-3.7502134	perdido	-0.18695511
-4.5678673	trafico	-0.099721014
-4.2932706	puntual	-0.29358503
-4.2932706	molesto	-0.099721014
-4.5678673	Parad	-0.099721014
-4.5678673	Arruinaste	-0.099721014
-4.5678673	Remontemos	-0.099721014
-4.5678673	barriletes	-0.099721014
-4.5678673	Cógelo	-0.099721014
-4.2932706	explicarlo	-0.1510725
-4.5678673	refrescarte	-0.099721014
-4.5678673	divertí	-0.099721014
-4.030672	llueve	-0.1510725
-4.4211764	sushi	-0.24166271
-4.5678673	propósito	-0.099721014
-4.5678673	contacto	-0.099721014
-3.941874	embarazada	-0.18902394
-3.941874	ideas	-0.18592434
-4.030672	saco	-0.3333371
-4.142419	basura	-0.20932046
-4.5678673	Vámonos	-0.099721014
-3.8052063	cocinar	-0.20100652
-3.701408	exactamente	-0.17739974
-3.324498	así	-0.2974004
-4.2932706	maravilloso	-0.18902394
-4.5678673	desmayaron	-0.099721014
-4.5678673	estrellaron	-0.099721014
-4.5678673	Cierro	-0.099721014
-4.5678673	premiare	-0.099721014
-4.4211764	probablemente	-0.099721014
-4.4211764	nevara	-0.099721014
-4.4211764	jodiendo	-0.099721014
-4.5678673	Resuelva	-0.099721014
-3.941874	problema	-0.59461504
-4.5678673	Preferiría	-0.099721014
-3.6575372	morir	-0.33246243
-4.142419	momento	-0.12038482
-3.7502134	estado	-0.11875992
-4.5678673	llegaran	-0.099721014
-4.4211764	practico	-0.099721014
-4.5678673	Anímate	-0.099721014
-4.4211764	triunfar	-0.24166271
-4.5678673	conteste	-0.099721014
-4.5678673	Presto	-0.099721014
-3.8681862	casado	-0.27346689
-4.4211764	riega	-0.099721014
-3.701408	plantas	-0.17522494
-4.5678673	detenerla	-0.099721014
-4.2932706	bienvenido	-0.18902394
-4.5678673	imperdonable	-0.099721014
-4.5678673	misterioso	-0.099721014
-4.4211764	vístete	-0.18902394
-4.5678673	cancelo	-0.099721014
-3.434153	saber	-0.2528238
-4.5678673	enojada	-0.099721014
-4.4211764	aun	-0.099721014
-4.5678673	preciso	-0.099721014
-4.5678673	Paremos	-0.099721014
-4.4211764	encontrarte	-0.099721014
-3.6176944	padre	-0.18318696
-3.941874	fuma	-0.14208113
-4.5678673	odie	-0.099721014
-3.941874	estudiando	-0.30511206
-4.5678673	peleábamos	-0.099721014
-4.4211764	vosotros	-0.099721014
-4.5678673	Pruébalo	-0.099721014
-4.5678673	australianos	-0.099721014
-3.7502134	algún	-0.099721014
-4.5678673	boleto	-0.099721014
-4.5678673	agradecida	-0.099721014
-3.6575372	viendo	-0.18904275
-4.2932706	estuviste	-0.099721014
-4.4211764	perfecta	-0.099721014
-4.5678673	Prueben	-0.099721014
-4.4211764	paro	-0.24166271
-4.5678673	Y	-0.099721014
-4.4211764	vaso	-0.099721014
-3.8052063	anda	-0.12231299
-4.5678673	gustara	-0.099721014
-4.5678673	Túmbate	-0.099721014
-4.5678673	mandar	-0.099721014
-4.142419	mensaje	-0.18902394
-4.142419	delicioso	-0.4185238
-4.142419	acabo	-0.16491862
-4.5678673	cirugía	-0.099721014
-3.7502134	dicho	-0.15717192
-4.5678673	levantada	-0.099721014
-4.5678673	amas	-0.099721014
-3.547539	aunque	-0.1652594
-3.6575372	fiebre	-0.357676
-4.5678673	Hablaste	-0.099721014
-2.79176	como	-0.21769336
-3.701408	pan	-0.21223941
-3.7502134	algunas	-0.14993387
-4.5678673	llamadas	-0.099721014
-3.8681862	encontraron	-0.099721014
-4.5678673	culpable	-0.099721014
-4.2932706	corre	-0.16491862
-4.5678673	sobrepeso	-0.099721014
-3.941874	carro	-0.23903702
-4.4211764	Hueles	-0.099721014
-4.4211764	bella	-0.24166271
-4.5678673	Olvídenme	-0.099721014
-4.4211764	castigaran	-0.24166271
-4.5678673	altos	-0.099721014
-4.5678673	permiten	-0.099721014
-4.5678673	Prendedlo	-0.099721014
-4.5678673	Muchísimas	-0.099721014
-4.5678673	quejando	-0.099721014
-4.5678673	rodillas	-0.099721014
-4.142419	sucede	-0.099721014
-4.5678673	dudaron	-0.099721014
-4.5678673	nadador	-0.099721014
-4.030672	causa	-0.1357708
-4.5678673	despacharlo	-0.099721014
-4.4211764	Estabais	-0.099721014
-4.5678673	cantarla	-0.099721014
-4.4211764	volví	-0.099721014
-4.5678673	Aflójala	-0.099721014
-4.5678673	Recuérdalo	-0.099721014
-4.5678673	mentirte	-0.099721014
-4.4211764	Prepárate	-0.099721014
-3.6176944	gordo	-0.2285469
-4.5678673	disculparme	-0.099721014
-4.142419	hago	-0.099721014
-4.5678673	arqueólogo	-0.099721014
-4.5678673	polis	-0.099721014
-3.8052063	llena	-0.1510725
-3.8681862	llamando	-0.21386966
-4.5678673	mentirosa	-0.099721014
-4.4211764	quebrado	-0.24166271
-4.4211764	seré	-0.09972105
-4.2932706	barba	-0.1510725
-4.5678673	aterrador	-0.099721014
-4.4211764	seguridad	-0.18902394
-4.4211764	atacaran	-0.24166271
-4.5678673	populares	-0.099721014
-3.4598465	debe	-0.14371613
-4.4211764	asistir	-0.099721014
-4.5678673	taxi	-0.099721014
-4.142419	atrasado	-0.16491862
-3.409895	llegó	-0.23784968
-4.2932706	creer	-0.16491862
-4.5678673	Renuncie	-0.099721014
-4.030672	despierta	-0.20542651
-4.5678673	gofres	-0.099721014
-4.4211764	sientes	-0.099721014
-3.941874	tendrá	-0.19920272
-4.2932706	éxito	-0.29358503
-4.5678673	vivirá	-0.099721014
-4.5678673	estrellas	-0.099721014
-3.8681862	salieron	-0.12231299
-4.4211764	divirtiendo	-0.24166271
-4.5678673	comprometió	-0.099721014
-4.5678673	Viste	-0.099721014
-4.5678673	inesperadas	-0.099721014
-4.4211764	preocupados	-0.24166271
-4.4211764	cavando	-0.24166271
-4.5678673	Estaba	-0.099721014
-4.5678673	roncando	-0.099721014
-4.5678673	llame	-0.099721014
-4.4211764	surgió	-0.099721014
-4.2932706	preguntarle	-0.099721014
-4.5678673	ignorando	-0.099721014
-4.5678673	Memorízalo	-0.099721014
-4.5678673	despilfarro	-0.099721014
-4.5678673	involucrados	-0.099721014
-4.5678673	preocupo	-0.099721014
-4.142419	queríamos	-0.099721014
-4.4211764	Déjeme	-0.099721014
-4.5678673	comprometida	-0.099721014
-4.4211764	desea	-0.099721014
-4.2932706	darme	-0.099721014
-4.142419	mano	-0.1461451
-4.142419	necesita	-0.099721014
-4.4211764	ayudarlo	-0.24166271
-4.4211764	termine	-0.099721014
-4.030672	ganando	-0.3333371
-4.5678673	Pida	-0.099721014
-4.5678673	Ustedes	-0.099721014
-4.5678673	Atrápalo	-0.099721014
-4.142419	amargo	-0.23642708
-3.3055365	primero	-0.18833728
-4.5678673	Prosigamos	-0.099721014
-4.5678673	tarda	-0.099721014
-3.701408	dejar	-0.099721014
-4.2932706	volvemos	-0.099721014
-4.5678673	fatal	-0.099721014
-4.4211764	Dámelo	-0.099721014
-4.4211764	progresando	-0.24166271
-4.4211764	esperado	-0.24166271
-4.4211764	Él	-0.099721014
-3.8681862	gritó	-0.099721014
-4.142419	salgan	-0.099721014
-4.4211764	amaba	-0.099721014
-3.8052063	recoger	-0.12463822
-4.5678673	curioso	-0.099721014
-4.142419	mentiroso	-0.1510725
-4.5678673	Recuerdas	-0.099721014
-4.4211764	positivo	-0.24166271
-4.5678673	Cometí	-0.099721014
-4.4211764	guarda	-0.099721014
-4.5678673	Pregúntenle	-0.099721014
-4.2932706	hermoso	-0.099721014
-4.5678673	garantizo	-0.099721014
-3.8681862	crees	-0.4181937
-4.4211764	ayudaros	-0.18902394
-4.4211764	lean	-0.099721014
-4.5678673	perdono	-0.099721014
-3.8681862	problemas	-0.25287113
-4.5678673	Espósale	-0.099721014
-3.5812018	deben	-0.15001509
-4.4211764	detenerlo	-0.24166271
-4.5678673	aprisa	-0.099721014
-4.5678673	probármelo	-0.099721014
-3.547539	huevos	-0.33165935
-4.5678673	Soné	-0.099721014
-4.4211764	Tengo	-0.099721014
-4.2932706	harás	-0.099721014
-4.4211764	Pónganse	-0.099721014
-2.7383447	sus	-0.21225102
-3.941874	zapatos	-0.36310402
-4.4211764	grite	-0.24166271
-4.5678673	Divorciémonos	-0.099721014
-4.4211764	abejas	-0.099721014
-4.142419	baño	-0.23816527
-4.2932706	viajar	-0.16491862
-4.5678673	Preparare	-0.099721014
-4.142419	entraron	-0.1510725
-4.142419	comieron	-0.099721014
-4.5678673	bombones	-0.099721014
-3.8052063	termino	-0.3620156
-4.2932706	Oh	-0.099721014
-4.5678673	recordarte	-0.099721014
-4.142419	promesa	-0.23642708
-4.5678673	negociación	-0.099721014
-4.142419	terminada	-0.20932046
-4.030672	dirección	-0.15524901
-4.5678673	optimista	-0.099721014
-4.142419	apesta	-0.23642708
-4.5678673	pijama	-0.099721014
-3.941874	pico	-0.28460777
-4.5678673	Vende	-0.099721014
-4.5678673	pilas	-0.099721014
-4.5678673	Llévame	-0.099721014
-4.5678673	ignoraste	-0.099721014
-4.4211764	Beben	-0.099721014
-4.5678673	Tienta	-0.099721014
-4.5678673	concienzudo	-0.099721014
-4.5678673	interrumpió	-0.099721014
-4.5678673	conversación	-0.099721014
-4.5678673	Disfruto	-0.099721014
-4.5678673	traducciones	-0.099721014
-4.5678673	Socorro	-0.099721014
-4.4211764	Auxilio	-0.24166271
-3.941874	llaman	-0.1357708
-3.7502134	dar	-0.1859243
-4.4211764	mordida	-0.099721014
-4.4211764	abra	-0.099721014
-4.5678673	Escuchemos	-0.099721014
-3.2064347	va	-0.44249398
-2.9392364	hasta	-0.2970443
-4.4211764	superaremos	-0.099721014
-4.5678673	oyendo	-0.099721014
-4.5678673	irrelevante	-0.099721014
-4.5678673	hablará	-0.099721014
-3.409895	unos	-0.145271
-4.2932706	escuchó	-0.099721014
-4.2932706	ayudó	-0.099721014
-4.142419	encuentras	-0.099721014
-4.2932706	terminen	-0.099721014
-4.5678673	buscare	-0.099721014
-4.5678673	Rellénalo	-0.099721014
-4.5678673	Adivine	-0.099721014
-4.4211764	gano	-0.099721014
-4.2932706	adelgazado	-0.16491862
-4.5678673	explicarte	-0.099721014
-4.5678673	minuto	-0.099721014
-4.5678673	Chau	-0.099721014
-4.5678673	redundante	-0.099721014
-4.5678673	acompañado	-0.099721014
-3.324498	entre	-0.20459253
-4.4211764	tenia	-0.099721014
-4.4211764	cielo	-0.14208113
-4.5678673	suspiro	-0.099721014
-4.5678673	marinero	-0.099721014
-4.142419	quita	-0.099721014
-4.4211764	mesa	-0.1510725
-4.142419	sirvió	-0.099721014
-2.9990478	dos	-0.22427762
-4.5678673	racista	-0.099721014
-4.2932706	intentar	-0.099721014
-4.4211764	mantente	-0.099721014
-4.5678673	Preferirías	-0.099721014
-3.5812018	aprender	-0.22553165
-3.941874	echar	-0.099721014
-4.5678673	vistazo	-0.099721014
-4.4211764	vuelvo	-0.099721014
-4.030672	avión	-0.18286438
-4.5678673	relajado	-0.099721014
-4.5678673	Incluye	-0.099721014
-4.142419	comidas	-0.16491862
-4.5678673	Examine	-0.099721014
-4.4211764	decisión	-0.099721014
-4.4211764	manejarlo	-0.24166271
-4.5678673	Ellos	-0.099721014
-4.5678673	vivieron	-0.099721014
-4.4211764	respuesta	-0.24166271
-4.5678673	mintáis	-0.099721014
-4.5678673	gustarme	-0.099721014
-4.5678673	ayudare	-0.099721014
-3.5812018	di	-0.17661782
-4.4211764	oraciones	-0.099721014
-4.5678673	maquillaje	-0.099721014
-3.4871562	mismo	-0.18230964
-3.941874	sitio	-0.099721014
-4.5678673	párale	-0.099721014
-4.5678673	abrazaron	-0.099721014
-4.4211764	impaciente	-0.24166271
-4.030672	ricos	-0.20542651
-4.5678673	aburrirme	-0.099721014
-4.4211764	prepare	-0.099721014
-4.4211764	cena	-0.24166271
-4.5678673	partiendo	-0.099721014
-4.2932706	olvidadizo	-0.099721014
-4.5678673	prendida	-0.099721014
-4.2932706	comamos	-0.18592434
-4.5678673	rendirme	-0.099721014
-4.5678673	imponente	-0.099721014
-4.5678673	Llevara	-0.099721014
-3.7502134	horas	-0.3620156
-4.5678673	Estas	-0.099721014
-4.5678673	divorciarse	-0.099721014
-4.2932706	policía	-0.18902394
-3.8052063	Dios	-0.11338707
-4.5678673	asustas	-0.099721014
-4.5678673	Dímelo	-0.099721014
-3.8052063	mil	-0.3620156
-4.5678673	yenes	-0.099721014
-4.5678673	bastaran	-0.099721014
-4.2932706	gorda	-0.23642708
-4.5678673	originalmente	-0.099721014
-4.5678673	granjeros	-0.099721014
-4.5678673	explicármelo	-0.099721014
-4.5678673	ingenioso	-0.099721014
-4.5678673	retó	-0.099721014
-4.4211764	entrada	-0.16491862
-4.4211764	salvo	-0.24166271
-4.5678673	adelgazando	-0.099721014
-4.4211764	jadeando	-0.18902394
-4.4211764	Escúchame	-0.099721014
-4.5678673	detenidos	-0.099721014
-4.4211764	déjanos	-0.16491862
-4.2932706	llevo	-0.099721014
-3.941874	lista	-0.18902394
-4.2932706	rica	-0.29358503
-4.030672	padres	-0.1388695
-4.5678673	Concéntrate	-0.099721014
-4.2932706	ciega	-0.29358503
-4.2932706	dormida	-0.29358503
-4.5678673	quejándote	-0.099721014
-4.030672	pude	-0.09972105
-4.142419	mentí	-0.4185238
-4.5678673	cheque	-0.099721014
-4.5678673	Compartíamos	-0.099721014
-4.4211764	Para	-0.099721014
-3.701408	completamente	-0.11875992
-4.5678673	bolso	-0.099721014
-3.8681862	verlos	-0.30511206
-4.2932706	votar	-0.18902394
-4.2932706	entenderán	-0.29358503
-3.701408	madera	-0.22536545
-4.4211764	arde	-0.24166271
-4.4211764	lata	-0.099721014
-4.4211764	diccionario	-0.099721014
-4.5678673	asustarte	-0.099721014
-4.4211764	resulta	-0.099721014
-4.5678673	familiar	-0.099721014
-4.4211764	Tuviste	-0.099721014
-4.030672	verano	-0.16344973
-4.2932706	maravillosos	-0.29358503
-4.4211764	piano	-0.099721014
-4.4211764	guitarra	-0.18902394
-3.941874	conversar	-0.1725116
-4.142419	continuar	-0.24166271
-4.5678673	ataron	-0.099721014
-4.142419	trata	-0.099721014
-3.941874	encontrarlo	-0.35124692
-4.5678673	Recibiste	-0.099721014
-4.142419	paquete	-0.099721014
-4.5678673	Aléjate	-0.099721014
-4.5678673	lograste	-0.099721014
-3.3869207	mirando	-0.29552808
-4.142419	evitar	-0.099721014
-4.5678673	quererla	-0.099721014
-3.8681862	interesante	-0.30511206
-4.5678673	compartirlo	-0.099721014
-4.030672	sentí	-0.09972105
-4.5678673	Recibe	-0.099721014
-4.030672	cheques	-0.20932046
-4.5678673	Llegara	-0.099721014
-4.4211764	descanso	-0.099721014
-4.5678673	muecas	-0.099721014
-4.4211764	bañando	-0.099721014
-4.2932706	zona	-0.099721014
-4.5678673	agrícola	-0.099721014
-4.2932706	encanta	-0.1510725
-4.5678673	ocuparte	-0.099721014
-4.5678673	espiro	-0.099721014
-4.5678673	prometisteis	-0.099721014
-4.142419	suelo	-0.1582014
-4.4211764	levantarme	-0.099721014
-3.701408	decir	-0.20376018
-4.5678673	Intercambiaron	-0.099721014
-4.2932706	saludos	-0.18902394
-4.4211764	nado	-0.099721014
-4.5678673	oírnos	-0.099721014
-4.5678673	invitaros	-0.099721014
-4.4211764	cenar	-0.099721014
-4.5678673	Caminemos	-0.099721014
-4.2932706	terminando	-0.099721014
-4.5678673	casarte	-0.099721014
-4.142419	oído	-0.4185238
-4.5678673	sintieron	-0.099721014
-4.2932706	comprarlo	-0.18902394
-4.5678673	melodramático	-0.099721014
-4.4211764	sos	-0.099721014
-3.8052063	tipo	-0.15524901
-4.030672	sentar	-0.1510725
-3.941874	terminar	-0.17922065
-4.5678673	Identifíquese	-0.099721014
-4.5678673	confesar	-0.099721014
-4.4211764	Danos	-0.099721014
-4.2932706	espacio	-0.18902394
-4.5678673	rápidos	-0.099721014
-4.4211764	salga	-0.099721014
-4.5678673	automóvil	-0.099721014
-3.701408	pasar	-0.28018773
-3.6176944	tanto	-0.11875992
-4.142419	...	-0.4185238
-4.5678673	Acostúmbrate	-0.099721014
-4.4211764	Tenias	-0.099721014
-3.1510496	antes	-0.39809367
-4.5678673	Trabaje	-0.099721014
-4.5678673	estampillas	-0.099721014
-4.5678673	abrazarte	-0.099721014
-4.5678673	treinta	-0.099721014
-4.2932706	intervino	-0.18902394
-4.4211764	derramaste	-0.099721014
-4.142419	quemaron	-0.1510725
-4.5678673	relajándome	-0.099721014
-3.1382403	luego	-0.21221557
-4.4211764	repugnante	-0.099721014
-4.5678673	discutible	-0.099721014
-4.5678673	consolarla	-0.099721014
-4.5678673	nevar	-0.099721014
-3.7502134	cosa	-0.14993387
-4.5678673	abrigado	-0.099721014
-4.5678673	preguntaros	-0.099721014
-4.5678673	Bailaron	-0.099721014
-4.5678673	Pásaselo	-0.099721014
-4.5678673	turca	-0.099721014
-4.5678673	Oigan	-0.099721014
-4.4211764	llevan	-0.099721014
-4.4211764	comerme	-0.099721014
-4.5678673	agradecido	-0.099721014
-4.2932706	casados	-0.29358503
-4.4211764	despedido	-0.24166271
-4.4211764	carros	-0.099721014
-4.5678673	Falleció	-0.099721014
-4.4211764	habernos	-0.099721014
-4.5678673	telefonearle	-0.099721014
-3.6575372	escribir	-0.21386966
-4.4211764	navidad	-0.099721014
-3.409895	tuvo	-0.16471726
-4.5678673	elección	-0.099721014
-4.5678673	cobré	-0.099721014
-4.5678673	enmarcado	-0.099721014
-4.5678673	decirlo	-0.099721014
-4.4211764	discreto	-0.24166271
-4.4211764	hacerle	-0.099721014
-4.4211764	Hagámoslo	-0.099721014
-4.5678673	traerle	-0.099721014
-4.5678673	despreocupado	-0.099721014
-4.5678673	ayudaran	-0.099721014
-4.5678673	Ves	-0.099721014
-4.2932706	sigan	-0.099721014
-4.5678673	cierres	-0.099721014
-4.5678673	comprendas	-0.099721014
-4.142419	bicicleta	-0.099721014
-4.5678673	Enseno	-0.099721014
-4.5678673	envejecía	-0.099721014
-4.5678673	Luces	-0.099721014
-4.5678673	fabulosa	-0.099721014
-4.5678673	arresto	-0.099721014
-4.4211764	Estamos	-0.099721014
-4.5678673	llevaras	-0.099721014
-3.8052063	puesto	-0.12463822
-4.5678673	enorgullecerlos	-0.099721014
-4.5678673	Debo	-0.099721014
-4.2932706	fresco	-0.18902394
-4.5678673	Arrodíllate	-0.099721014
-4.142419	seguía	-0.099721014
-4.2932706	ordenes	-0.29358503
-4.4211764	apetito	-0.099721014
-4.5678673	matarlo	-0.099721014
-4.2932706	poniendo	-0.099721014
-4.5678673	paranoico	-0.099721014
-4.5678673	consternado	-0.099721014
-4.5678673	respirar	-0.099721014
-4.5678673	Tan	-0.099721014
-4.5678673	Llevémonos	-0.099721014
-4.4211764	detesto	-0.09972105
-4.4211764	gracioso	-0.18902394
-3.516299	hijos	-0.24934593
-4.4211764	enfadar	-0.24166271
-4.5678673	ocurre	-0.099721014
-4.5678673	Devuélvemelo	-0.099721014
-4.5678673	Renunciemos	-0.099721014
-4.5678673	Bájalo	-0.099721014
-4.142419	sed	-0.20542651
-3.8052063	algunos	-0.1291877
-4.2932706	sabían	-0.1510725
-4.4211764	combatir	-0.24166271
-4.5678673	caí	-0.099721014
-4.4211764	compras	-0.099721014
-3.941874	saberlo	-0.28460777
-4.5678673	Escuchamos	-0.099721014
-4.4211764	mentiste	-0.24166271
-4.5678673	divagues	-0.099721014
-4.5678673	crédito	-0.099721014
-4.2932706	escapar	-0.29358503
-4.2932706	París	-0.18902394
-4.5678673	conseguirles	-0.099721014
-4.5678673	acompañar	-0.099721014
-4.5678673	desilusionado	-0.099721014
-4.5678673	Sobre	-0.099721014
-4.5678673	farfullando	-0.099721014
-4.5678673	evidente	-0.099721014
-4.5678673	Prometí	-0.099721014
-4.142419	volverá	-0.14208113
-4.2932706	sentimos	-0.099721014
-4.4211764	ayudarle	-0.099721014
-4.5678673	fotografías	-0.099721014
-4.5678673	contenta	-0.099721014
-4.5678673	dudó	-0.099721014
-4.2932706	medias	-0.29358503
-4.5678673	engreídas	-0.099721014
-4.5678673	Supuestamente	-0.099721014
-4.5678673	empapada	-0.099721014
-4.030672	perdió	-0.1725116
-4.5678673	escucharé	-0.099721014
-4.5678673	desperdicio	-0.099721014
-4.5678673	Voy	-0.099721014
-3.701408	camino	-0.23775958
-3.7502134	regresar	-0.27410525
-4.5678673	Anota	-0.099721014
-3.941874	amigo	-0.12749717
-4.4211764	ocupada	-0.24166271
-4.5678673	Tú	-0.099721014
-4.142419	estudias	-0.23642708
-4.5678673	Pregúntaselo	-0.099721014
-4.5678673	separamos	-0.099721014
-3.547539	vi	-0.28460777
-4.5678673	grites	-0.099721014
-3.4598465	salió	-0.23987462
-4.5678673	diecinueve	-0.099721014
-4.5678673	Tráeme	-0.099721014
-4.030672	varios	-0.099721014
-4.5678673	delegados	-0.099721014
-4.5678673	discreparon	-0.099721014
-3.4871562	negro	-0.2435296
-4.5678673	whisky	-0.099721014
-4.5678673	Examinen	-0.099721014
-4.5678673	Quítate	-0.099721014
-4.5678673	farsante	-0.099721014
-4.142419	herida	-0.14208113
-4.5678673	Póngase	-0.099721014
-4.142419	ayudarles	-0.16491862
-4.5678673	ensenarte	-0.099721014
-3.8681862	idioma	-0.47946513
-4.5678673	chorreando	-0.099721014
-4.4211764	pagarlo	-0.24166271
-4.5678673	caspa	-0.099721014
-4.5678673	Sin	-0.099721014
-4.5678673	direcciones	-0.099721014
-4.4211764	reconozco	-0.099721014
-4.5678673	requete	-0.099721014
-4.142419	cargado	-0.099721014
-4.5678673	Usted	-0.099721014
-4.142419	respondió	-0.4185238
-4.5678673	egoísta	-0.099721014
-4.5678673	Dejas	-0.099721014
-4.5678673	salvarlos	-0.099721014
-4.2932706	habías	-0.099721014
-4.4211764	besó	-0.099721014
-4.030672	hacerme	-0.099721014
-4.4211764	estornudo	-0.099721014
-4.030672	cambiado	-0.20542651
-4.5678673	Lloviznaba	-0.099721014
-4.5678673	gemela	-0.099721014
-4.5678673	etíope	-0.099721014
-4.5678673	lloren	-0.099721014
-4.5678673	distante	-0.099721014
-4.2932706	llovía	-0.16491862
-4.4211764	quedito	-0.24166271
-4.5678673	apostar	-0.099721014
-4.2932706	grito	-0.29358503
-4.5678673	Continua	-0.099721014
-4.5678673	Les	-0.099721014
-4.5678673	aburren	-0.099721014
-4.2932706	cuesta	-0.099721014
-4.4211764	separados	-0.24166271
-4.5678673	complacerte	-0.099721014
-4.5678673	Esperábamos	-0.099721014
-4.5678673	Acepte	-0.099721014
-3.434153	podemos	-0.14389081
-4.5678673	aburriendo	-0.099721014
-4.4211764	Oye	-0.099721014
-4.4211764	aguarda	-0.099721014
-4.5678673	zoológico	-0.099721014
-4.5678673	Deme	-0.099721014
-4.5678673	deseando	-0.099721014
-4.5678673	delgaducho	-0.099721014
-4.5678673	consejero	-0.099721014
-4.5678673	Permítame	-0.099721014
-4.2932706	pregunto	-0.18902394
-4.5678673	salvaremos	-0.099721014
-4.5678673	suspendieron	-0.099721014
-3.434153	fueron	-0.17614578
-4.5678673	Suspendo	-0.099721014
-4.5678673	amabilidad	-0.099721014
-4.5678673	comprender	-0.099721014
-4.5678673	Cuéntanos	-0.099721014
-3.4598465	dolor	-0.43251646
-4.5678673	preocuparte	-0.099721014
-4.142419	falda	-0.1510725
-4.2932706	venenoso	-0.099721014
-4.4211764	invito	-0.099721014
-4.4211764	tranquila	-0.24166271
-4.4211764	espérame	-0.099721014
-4.4211764	perros	-0.099721014
-3.701408	andar	-0.1510725
-4.5678673	encargarte	-0.099721014
-4.4211764	continúe	-0.099721014
-4.5678673	análisis	-0.099721014
-3.547539	tener	-0.12599012
-4.5678673	conjuntivitis	-0.099721014
-4.5678673	Vino	-0.099721014
-4.5678673	Obsérvame	-0.099721014
-4.5678673	Terminemos	-0.099721014
-4.2932706	dormí	-0.1510725
-3.941874	nueve	-0.099721014
-4.5678673	canso	-0.099721014
-4.142419	fácilmente	-0.23642708
-4.4211764	conocerte	-0.24166271
-4.4211764	adoro	-0.099721014
-4.4211764	quedaron	-0.099721014
-3.7502134	palabras	-0.16344973
-4.4211764	Déjale	-0.099721014
-4.5678673	telefonearme	-0.099721014
-4.5678673	ignore	-0.099721014
-4.4211764	salvavidas	-0.24166271
-4.4211764	ponerlo	-0.099721014
-4.030672	irán	-0.099721014
-4.4211764	ingeniero	-0.099721014
-4.2932706	toalla	-0.16491862
-4.142419	seguros	-0.16491862
-4.5678673	Francamente	-0.099721014
-4.5678673	Pintaran	-0.099721014
-4.2932706	faltaba	-0.18902394
-4.4211764	darse	-0.099721014
-3.7502134	unas	-0.099721014
-4.2932706	vacaciones	-0.29358503
-4.142419	gemelos	-0.23642708
-4.4211764	Guarden	-0.099721014
-4.2932706	silencio	-0.099721014
-4.4211764	canten	-0.099721014
-4.5678673	Hablemos	-0.099721014
-3.5812018	malo	-0.3815197
-4.5678673	Nada	-0.099721014
-4.5678673	Vendré	-0.099721014
-4.5678673	pensarlo	-0.099721014
-4.4211764	Hasta	-0.099721014
-4.5678673	Londres	-0.099721014
-4.5678673	Detente	-0.099721014
-4.5678673	Respóndanme	-0.099721014
-4.5678673	Comete	-0.099721014
-4.4211764	siquiera	-0.099721014
-4.142419	estarás	-0.099721014
-4.5678673	reemplazarlo	-0.099721014
-4.5678673	cagalera	-0.099721014
-4.4211764	creativos	-0.24166271
-4.5678673	Echas	-0.099721014
-4.4211764	demasiada	-0.099721014
-4.4211764	pimienta	-0.099721014
-4.5678673	relajarnos	-0.099721014
-4.5678673	médicos	-0.099721014
-4.5678673	Luzco	-0.099721014
-3.6575372	vas	-0.34665594
-4.5678673	testigo	-0.099721014
-4.5678673	confiables	-0.099721014
-4.5678673	Comienza	-0.099721014
-4.2932706	vacío	-0.18902394
-4.5678673	Corre	-0.099721014
-4.5678673	cariño	-0.099721014
-4.030672	lobo	-0.23816527
-3.6176944	sí	-0.14115143
-4.5678673	gustarte	-0.099721014
-4.5678673	Viven	-0.099721014
-3.7502134	cansado	-0.17739974
-4.142419	siguiente	-0.09972105
-4.5678673	cliente	-0.099721014
-4.5678673	Cual	-0.099721014
-4.5678673	elegiste	-0.099721014
-4.142419	partir	-0.16491862
-4.2932706	creí	-0.099721014
-4.5678673	comprando	-0.099721014
-4.5678673	Sazonamos	-0.099721014
-4.4211764	ahorita	-0.099721014
-3.8052063	buenos	-0.25035524
-4.4211764	amor	-0.099721014
-3.701408	dura	-0.2468192
-4.2932706	hirió	-0.18902394
-4.142419	sentimientos	-0.23816527
-4.4211764	pizza	-0.24166271
-4.4211764	volveré	-0.099721014
-4.5678673	estacionar	-0.099721014
-4.5678673	Siéntase	-0.099721014
-4.2932706	contactarme	-0.099721014
-4.5678673	permitir	-0.099721014
-4.4211764	Quédate	-0.099721014
-4.4211764	hotel	-0.099721014
-4.5678673	resfrié	-0.099721014
-4.4211764	salido	-0.09972105
-3.8052063	toma	-0.12749717
-4.5678673	Levantémonos	-0.099721014
-4.142419	quienes	-0.099721014
-4.5678673	Entendieron	-0.099721014
-4.4211764	levantarte	-0.099721014
-4.5678673	cocinamos	-0.099721014
-4.2932706	empleo	-0.23642708
-4.142419	normal	-0.4185238
-4.4211764	Apúrate	-0.099721014
-4.5678673	Olvídalo	-0.099721014
-4.2932706	esperaremos	-0.18902394
-4.5678673	Comencemos	-0.099721014
-4.5678673	Olvídame	-0.099721014
-4.4211764	esperes	-0.099721014
-3.8052063	conocen	-0.18695511
-3.8052063	alto	-0.21496896
-4.5678673	especulando	-0.099721014
-4.4211764	lleve	-0.099721014
-4.4211764	Despiértate	-0.099721014
-4.5678673	mudare	-0.099721014
-4.4211764	tocarlo	-0.24166271
-4.5678673	preguntarte	-0.099721014
-4.5678673	defender	-0.099721014
-3.8052063	calvo	-0.5374571
-3.344325	tomar	-0.22161254
-4.5678673	oíste	-0.099721014
-4.5678673	hacías	-0.099721014
-3.409895	grandes	-0.2979165
-4.142419	dormimos	-0.14208113
-4.5678673	asear	-0.099721014
-4.2932706	cuarto	-0.18902394
-4.2932706	gafas	-0.23642708
-2.9313266	cómo	-0.36403137
-4.5678673	Vendo	-0.099721014
-4.5678673	autos	-0.099721014
-4.2932706	raro	-0.18902394
-4.2932706	manzanas	-0.099721014
-4.5678673	movimientos	-0.099721014
-4.5678673	bruscos	-0.099721014
-4.2932706	sentarme	-0.16491862
-4.142419	pasaban	-0.099721014
-4.5678673	inesperado	-0.099721014
-4.142419	decirte	-0.16491862
-4.2932706	comí	-0.099721014
-4.5678673	Sonaste	-0.099721014
-4.5678673	decírnoslo	-0.099721014
-4.4211764	hospital	-0.099721014
-4.5678673	Ponedlo	-0.099721014
-4.4211764	intento	-0.099721014
-4.4211764	tengan	-0.099721014
-4.5678673	recordó	-0.099721014
-4.142419	cuándo	-0.099721014
-4.4211764	susto	-0.099721014
-4.5678673	miréis	-0.099721014
-4.5678673	increpo	-0.099721014
-4.030672	catalán	-0.18592434
-4.5678673	otitis	-0.099721014
-4.5678673	Probemos	-0.099721014
-4.4211764	reventado	-0.24166271
-4.142419	deberían	-0.09972105
-4.5678673	demandarte	-0.099721014
-4.5678673	bebes	-0.099721014
-4.5678673	boquiabiertos	-0.099721014
-4.5678673	Salga	-0.099721014
-4.5678673	justicia	-0.099721014
-4.5678673	molestamos	-0.099721014
-4.4211764	provecho	-0.099721014
-3.941874	oír	-0.14208113
-4.5678673	llorará	-0.099721014
-4.5678673	Seamos	-0.099721014
-4.5678673	Encontraste	-0.099721014
-4.4211764	encontrarla	-0.099721014
-4.5678673	Ignóralos	-0.099721014
-4.030672	precio	-0.12463822
-4.5678673	Sé	-0.099721014
-4.4211764	cuidadoso	-0.099721014
-4.5678673	influyente	-0.099721014
-4.5678673	llamarlo	-0.099721014
-4.5678673	Compartimos	-0.099721014
-4.4211764	impresionada	-0.24166271
-3.7502134	llevar	-0.17739974
-4.4211764	aburres	-0.099721014
-4.5678673	navegador	-0.099721014
-4.5678673	ocupando	-0.099721014
-4.5678673	Empiece	-0.099721014
-4.5678673	Sonare	-0.099721014
-4.5678673	apañármelas	-0.099721014
-4.5678673	Nademos	-0.099721014
-4.5678673	Tienen	-0.099721014
-4.5678673	desayunas	-0.099721014
-4.5678673	quedármelo	-0.099721014
-4.4211764	haberlo	-0.1510725
-4.5678673	sabido	-0.099721014
-4.2932706	resiste	-0.18902394
-4.5678673	maquina	-0.099721014
-4.5678673	chirrió	-0.099721014
-4.4211764	deudas	-0.099721014
-4.5678673	Estará	-0.099721014
-4.5678673	soleado	-0.099721014
-4.5678673	Sonreíd	-0.099721014
-3.8681862	terminado	-0.23903702
-4.5678673	rezar	-0.099721014
-4.2932706	equipo	-0.18902394
-4.4211764	obsoleto	-0.24166271
-4.5678673	inmaduros	-0.099721014
-4.5678673	acusaciones	-0.099721014
-4.5678673	aterrado	-0.099721014
-4.5678673	tenerlo	-0.099721014
-4.5678673	Dígannos	-0.099721014
-4.2932706	mago	-0.18902394
-4.5678673	tomarlo	-0.099721014
-4.5678673	firmare	-0.099721014
-4.142419	teléfono	-0.27206564
-4.5678673	describirles	-0.099721014
-4.5678673	Despertadlos	-0.099721014
-4.5678673	identificarlo	-0.099721014
-4.5678673	limpias	-0.099721014
-4.5678673	Decídete	-0.099721014
-3.701408	entonces	-0.1376543
-4.5678673	recogerlo	-0.099721014
-4.4211764	insinuando	-0.099721014
-4.5678673	triunfo	-0.099721014
-4.5678673	Descolgó	-0.099721014
-4.5678673	inevitable	-0.099721014
-3.8052063	manejar	-0.31086308
-4.5678673	Canadá	-0.099721014
-4.142419	produce	-0.099721014
-4.142419	trigo	-0.16491862
-4.5678673	culparlos	-0.099721014
-4.5678673	Sígannos	-0.099721014
-4.5678673	comprendiendo	-0.099721014
-4.5678673	agarramos	-0.099721014
-4.5678673	carrilla	-0.099721014
-4.5678673	poniéndote	-0.099721014
-3.8681862	rojo	-0.13109751
-4.4211764	confidencial	-0.24166271
-4.4211764	irresistible	-0.24166271
-4.5678673	levemente	-0.099721014
-4.2932706	decepcionado	-0.29358503
-4.5678673	grosero	-0.099721014
-4.5678673	mostrare	-0.099721014
-4.5678673	pretendes	-0.099721014
-4.5678673	novela	-0.099721014
-4.4211764	pedimos	-0.099721014
-4.2932706	disculpas	-0.29358503
-4.5678673	Querías	-0.099721014
-4.5678673	Enséname	-0.099721014
-4.5678673	tomada	-0.099721014
-4.4211764	tumbado	-0.099721014
-4.5678673	ovnis	-0.099721014
-4.4211764	miró	-0.099721014
-4.5678673	Entiendes	-0.099721014
-4.4211764	pruébatelo	-0.24166271
-4.4211764	conocían	-0.24166271
-4.4211764	nublado	-0.24166271
-4.5678673	vendrás	-0.099721014
-4.5678673	Existe	-0.099721014
-4.5678673	riesgo	-0.099721014
-4.5678673	enfermera	-0.099721014
-4.5678673	Entreguen	-0.099721014
-3.3055365	hojas	-0.42082196
-4.5678673	prometer	-0.099721014
-4.5678673	mirare	-0.099721014
-4.5678673	El	-0.099721014
-4.142419	mío	-0.28460777
-4.5678673	inadecuado	-0.099721014
-4.5678673	negocio	-0.099721014
-4.4211764	revista	-0.099721014
-4.5678673	improviso	-0.099721014
-4.5678673	dibujarme	-0.099721014
-4.4211764	mapa	-0.099721014
-4.5678673	miércoles	-0.099721014
-4.142419	gratis	-0.16491862
-4.5678673	Guárdalo	-0.099721014
-4.2932706	enamorada	-0.099721014
-4.5678673	Seguido	-0.099721014
-4.5678673	lloras	-0.099721014
-4.5678673	Explíquese	-0.099721014
-4.5678673	Comprueba	-0.099721014
-3.3869207	hacen	-0.145271
-3.547539	miel	-0.5038041
-4.5678673	Pueden	-0.099721014
-4.2932706	perdonarme	-0.18902394
-4.4211764	bostezando	-0.099721014
-4.4211764	similar	-0.099721014
-4.5678673	atacan	-0.099721014
-4.5678673	historiadores	-0.099721014
-4.5678673	ventaja	-0.099721014
-4.4211764	montana	-0.099721014
-4.5678673	Memoriza	-0.099721014
-4.5678673	impacientes	-0.099721014
-4.4211764	bienvenidos	-0.18902394
-4.5678673	Usas	-0.099721014
-4.5678673	anteojos	-0.099721014
-4.5678673	escribí	-0.099721014
-4.4211764	volviendo	-0.099721014
-4.5678673	golpe	-0.099721014
-4.5678673	luchara	-0.099721014
-4.5678673	flacucho	-0.099721014
-4.4211764	escribiendo	-0.099721014
-4.4211764	hazle	-0.099721014
-4.5678673	agobio	-0.099721014
-4.5678673	evacuar	-0.099721014
-4.4211764	paseo	-0.099721014
-4.4211764	nietos	-0.099721014
-4.5678673	despedidos	-0.099721014
-4.142419	labios	-0.14208113
-4.142419	experiencia	-0.099721014
-4.5678673	Deseas	-0.099721014
-4.5678673	Llévalo	-0.099721014
-4.2932706	ayudarla	-0.18902394
-4.4211764	gane	-0.24166271
-4.5678673	esplendida	-0.099721014
-4.5678673	mirándome	-0.099721014
-4.5678673	Acabe	-0.099721014
-4.4211764	pidiendo	-0.099721014
-4.5678673	productivo	-0.099721014
-4.4211764	conversamos	-0.099721014
-3.8052063	débil	-0.36310402
-4.5678673	seguido	-0.099721014
-4.5678673	mediste	-0.099721014
-4.5678673	telefoneo	-0.099721014
-4.4211764	votaron	-0.24166271
-4.5678673	Odia	-0.099721014
-3.8681862	desapareció	-0.25287113
-4.5678673	Queda	-0.099721014
-4.5678673	Importamos	-0.099721014
-4.5678673	Brasil	-0.099721014
-4.2932706	siguieron	-0.1510725
-4.5678673	Atraparon	-0.099721014
-4.4211764	zorros	-0.099721014
-4.4211764	cepos	-0.24166271
-4.5678673	demandare	-0.099721014
-4.2932706	tren	-0.099721014
-4.5678673	nieva	-0.099721014
-4.4211764	despidieron	-0.24166271
-4.2932706	dulces	-0.099721014
-4.5678673	háganlo	-0.099721014
-4.5678673	Sabias	-0.099721014
-3.6176944	jugando	-0.26107824
-3.5812018	bonito	-0.2917626
-4.2932706	comenzar	-0.099721014
-4.5678673	conseguirte	-0.099721014
-4.2932706	sentarnos	-0.18902394
-4.5678673	escritor	-0.099721014
-4.142419	sano	-0.24166271
-4.5678673	devastada	-0.099721014
-4.5678673	Cenaras	-0.099721014
-2.8032792	sobre	-0.47738427
-4.4211764	ayude	-0.24166271
-4.4211764	saltar	-0.18902394
-4.4211764	caramelo	-0.099721014
-4.5678673	Quítese	-0.099721014
-4.4211764	ciudadano	-0.099721014
-4.5678673	recuperará	-0.099721014
-4.5678673	engordando	-0.099721014
-4.5678673	cagando	-0.099721014
-3.8052063	fuego	-0.22315621
-4.5678673	estupendo	-0.099721014
-4.5678673	Gracias	-0.099721014
-3.941874	nuevamente	-0.14208113
-4.4211764	involucrado	-0.099721014
-4.142419	caro	-0.3333371
-4.4211764	esperen	-0.099721014
-4.5678673	lema	-0.099721014
-4.5678673	Sobrevivimos	-0.099721014
-4.4211764	Aquí	-0.099721014
-4.5678673	Perdónenos	-0.099721014
-4.5678673	Detenlo	-0.099721014
-4.5678673	Colecciono	-0.099721014
-4.5678673	antigüedades	-0.099721014
-4.5678673	Encontraras	-0.099721014
-4.5678673	sugerencias	-0.099721014
-4.4211764	decidieron	-0.099721014
-4.5678673	divorcie	-0.099721014
-4.5678673	Conversemos	-0.099721014
-4.2932706	postre	-0.099721014
-4.5678673	reprobó	-0.099721014
-4.5678673	Sabe	-0.099721014
-4.5678673	Avancemos	-0.099721014
-4.5678673	enviarlo	-0.099721014
-4.5678673	derrotaremos	-0.099721014
-4.5678673	adonde	-0.099721014
-4.5678673	Cantaremos	-0.099721014
-4.5678673	perdonarías	-0.099721014
-4.5678673	Preguntaremos	-0.099721014
-4.5678673	diplomáticamente	-0.099721014
-4.5678673	Vomite	-0.099721014
-4.4211764	mercado	-0.16491862
-4.5678673	divertiremos	-0.099721014
-4.5678673	supuesto	-0.099721014
-4.4211764	Yo	-0.099721014
-4.5678673	aprobé	-0.099721014
-4.2932706	matare	-0.29358503
-4.5678673	guapísima	-0.099721014
-4.5678673	Resérvame	-0.099721014
-4.5678673	impactado	-0.099721014
-4.5678673	anoréxico	-0.099721014
-4.5678673	abandono	-0.099721014
-4.142419	adultos	-0.20542651
-4.5678673	celosos	-0.099721014
-4.5678673	factible	-0.099721014
-4.5678673	inquieto	-0.099721014
-4.5678673	Atrápenlo	-0.099721014
-4.4211764	ayunando	-0.099721014
-4.5678673	cenas	-0.099721014
-4.5678673	sales	-0.099721014
-4.5678673	Llámanos	-0.099721014
-4.5678673	sentía	-0.099721014
-4.5678673	Intentemos	-0.099721014
-4.2932706	vaya	-0.099721014
-4.5678673	permitírnoslo	-0.099721014
-4.5678673	calculadora	-0.099721014
-4.5678673	Continuemos	-0.099721014
-4.5678673	feos	-0.099721014
-4.4211764	rosa	-0.099721014
-4.5678673	valientes	-0.099721014
-3.547539	quieren	-0.14115143
-4.5678673	consciente	-0.099721014
-4.2932706	conseguimos	-0.099721014
-4.5678673	pagando	-0.099721014
-4.5678673	Compláceme	-0.099721014
-4.4211764	béisbol	-0.24166271
-3.8681862	esas	-0.19920272
-4.142419	nubes	-0.14936563
-4.5678673	visitaremos	-0.099721014
-4.2932706	lesionado	-0.29358503
-4.5678673	Crucemos	-0.099721014
-3.7502134	abrió	-0.20752369
-4.5678673	Casémonos	-0.099721014
-3.701408	parte	-0.15524901
-4.5678673	Sonreí	-0.099721014
-4.5678673	Entendió	-0.099721014
-4.2932706	poca	-0.16491862
-4.5678673	engañaste	-0.099721014
-3.8681862	chico	-0.31800056
-4.4211764	cuidas	-0.099721014
-4.4211764	dormían	-0.24166271
-3.941874	entiendo	-0.4095465
-4.5678673	Dejad	-0.099721014
-4.2932706	enamorado	-0.18902394
-4.4211764	María	-0.099721014
-4.5678673	administra	-0.099721014
-4.5678673	tienda	-0.099721014
-4.4211764	gritaron	-0.24166271
-4.4211764	tolerante	-0.24166271
-4.5678673	besarme	-0.099721014
-4.5678673	Funcionó	-0.099721014
-4.2932706	contestó	-0.24166271
-4.5678673	leerlos	-0.099721014
-4.5678673	azotó	-0.099721014
-4.5678673	Curémonos	-0.099721014
-3.8681862	terminó	-0.27346689
-4.2932706	horario	-0.099721014
-4.142419	lanza	-0.099721014
-4.030672	dado	-0.09972105
-4.4211764	insectos	-0.24166271
-4.4211764	búlgaro	-0.24166271
-4.5678673	carcajeo	-0.099721014
-4.5678673	organizados	-0.099721014
-4.5678673	cierran	-0.099721014
-4.4211764	amanecer	-0.16491862
-4.5678673	describirlos	-0.099721014
-4.5678673	Comiencen	-0.099721014
-3.941874	sentarse	-0.25287113
-4.5678673	temperatura	-0.099721014
-4.5678673	pararme	-0.099721014
-4.5678673	zurdo	-0.099721014
-4.4211764	voto	-0.099721014
-4.5678673	arrogante	-0.099721014
-4.142419	viste	-0.20542651
-4.030672	gran	-0.099721014
-4.5678673	conocíais	-0.099721014
-4.5678673	agotadísimo	-0.099721014
-4.5678673	Divirtámonos	-0.099721014
-4.5678673	Sigamos	-0.099721014
-4.5678673	similares	-0.099721014
-4.142419	peligrosos	-0.23642708
-4.4211764	ocultar	-0.099721014
-4.5678673	Allá	-0.099721014
-4.5678673	césped	-0.099721014
-4.5678673	Perdona	-0.099721014
-4.5678673	sobreactuando	-0.099721014
-4.2932706	plan	-0.18902394
-4.142419	magia	-0.23642708
-4.5678673	responderlo	-0.099721014
-4.142419	perdiendo	-0.1510725
-4.2932706	seguramente	-0.09972105
-4.142419	ganas	-0.099721014
-4.5678673	Fracase	-0.099721014
-4.2932706	tomas	-0.18902394
-4.4211764	asqueroso	-0.24166271
-4.5678673	marcapasos	-0.099721014
-3.547539	dibuja	-0.2366239
-4.5678673	circulo	-0.099721014
-3.516299	nuestras	-0.20126915
-4.5678673	diferencias	-0.099721014
-4.5678673	creas	-0.099721014
-4.5678673	esperándole	-0.099721014
-4.5678673	deposito	-0.099721014
-4.5678673	lio	-0.099721014
-4.5678673	tractor	-0.099721014
-4.5678673	Anoten	-0.099721014
-4.5678673	Hace	-0.099721014
-3.2064347	dentro	-0.74137086
-4.5678673	periodista	-0.099721014
-4.5678673	apelar	-0.099721014
-4.5678673	rescaté	-0.099721014
-4.5678673	mejorarse	-0.099721014
-4.4211764	imagen	-0.099721014
-4.2932706	estudiantes	-0.099721014
-4.5678673	negarte	-0.099721014
-4.5678673	cortinas	-0.099721014
-4.4211764	cree	-0.099721014
-4.4211764	pruebas	-0.099721014
-4.5678673	cámara	-0.099721014
-4.5678673	apuesta	-0.099721014
-4.5678673	avisado	-0.099721014
-4.5678673	Seremos	-0.099721014
-4.5678673	asesinados	-0.099721014
-3.7502134	días	-0.22034928
-4.5678673	debuto	-0.099721014
-4.4211764	éramos	-0.099721014
-4.4211764	vecinos	-0.099721014
-4.5678673	oraron	-0.099721014
-3.941874	habrá	-0.099721014
-4.4211764	dificultades	-0.099721014
-4.5678673	agradas	-0.099721014
-4.142419	teniendo	-0.099721014
-4.5678673	malestar	-0.099721014
-4.5678673	barato	-0.099721014
-4.142419	usa	-0.099721014
-4.2932706	minutos	-0.099721014
-4.4211764	autoridad	-0.099721014
-4.4211764	Tomaste	-0.099721014
-4.5678673	equivocadas	-0.099721014
-4.4211764	autor	-0.099721014
-4.142419	cerrados	-0.1510725
-4.4211764	Hola	-0.099721014
-4.4211764	pasaron	-0.099721014
-3.701408	nombre	-0.26468962
-4.2932706	compañero	-0.099721014
-4.2932706	silla	-0.18902394
-4.5678673	Vuelves	-0.099721014
-4.5678673	Siéntese	-0.099721014
-4.5678673	Defiéndete	-0.099721014
-4.5678673	Durara	-0.099721014
-4.2932706	oírme	-0.099721014
-4.2932706	apurado	-0.18902394
-4.5678673	cargo	-0.099721014
-4.5678673	Escríbeme	-0.099721014
-4.4211764	dieta	-0.18902394
-4.2932706	forman	-0.099721014
-4.5678673	interferir	-0.099721014
-4.5678673	Reunámonos	-0.099721014
-4.5678673	exagere	-0.099721014
-4.5678673	Escucha	-0.099721014
-4.5678673	Pruébate	-0.099721014
-4.5678673	Apóyame	-0.099721014
-4.5678673	Encontraron	-0.099721014
-4.5678673	controlar	-0.099721014
-4.5678673	mide	-0.099721014
-4.5678673	Golpean	-0.099721014
-4.4211764	dimitir	-0.24166271
-4.142419	caballo	-0.1725116
-3.6176944	dónde	-0.24556884
-4.5678673	conocernos	-0.099721014
-4.5678673	escapo	-0.099721014
-4.4211764	repetirlo	-0.099721014
-3.8681862	daño	-0.3515545
-4.4211764	linda	-0.099721014
-4.5678673	Estudiaste	-0.099721014
-4.4211764	furioso	-0.24166271
-4.5678673	lujosamente	-0.099721014
-4.5678673	evitando	-0.099721014
-4.5678673	gemelo	-0.099721014
-4.5678673	correctos	-0.099721014
-4.5678673	sentiste	-0.099721014
-4.5678673	portugués	-0.099721014
-4.142419	mojado	-0.3333371
-4.5678673	Aun	-0.099721014
-4.5678673	Bienvenidas	-0.099721014
-4.5678673	Hablare	-0.099721014
-4.5678673	requeteafortunada	-0.099721014
-4.4211764	riéndome	-0.099721014
-4.5678673	Fue	-0.099721014
-4.5678673	Revisemos	-0.099721014
-4.5678673	engordes	-0.099721014
-4.5678673	asustada	-0.099721014
-4.5678673	aceptan	-0.099721014
-4.5678673	Apártame	-0.099721014
-4.5678673	quedarán	-0.099721014
-4.2932706	viajamos	-0.099721014
-4.5678673	dudo	-0.099721014
-4.5678673	Afortunadamente	-0.099721014
-4.5678673	móvil	-0.099721014
-4.4211764	cómodo	-0.099721014
-4.5678673	exquisitos	-0.099721014
-4.5678673	respecto	-0.099721014
-4.5678673	visitare	-0.099721014
-4.5678673	sospechoso	-0.099721014
-4.2932706	alcanzaron	-0.18902394
-4.4211764	Al	-0.099721014
-4.5678673	ataque	-0.099721014
-3.7502134	viento	-0.23809756
-4.5678673	lógica	-0.099721014
-4.5678673	escondas	-0.099721014
-3.8681862	blanco	-0.2171612
-4.5678673	Escribo	-0.099721014
-4.5678673	versos	-0.099721014
-4.5678673	Encuentre	-0.099721014
-4.5678673	prometidos	-0.099721014
-4.4211764	usarla	-0.099721014
-3.0684323	diferentes	-0.2978246
-4.5678673	Importa	-0.099721014
-4.5678673	recepcionista	-0.099721014
-4.5678673	ignoraron	-0.099721014
-4.030672	daba	-0.099721014
-4.5678673	arcoíris	-0.099721014
-4.5678673	Jesús	-0.099721014
-4.4211764	estuve	-0.099721014
-3.6575372	tocar	-0.20690586
-4.5678673	cielorraso	-0.099721014
-4.030672	llegamos	-0.14208113
-4.5678673	constipado	-0.099721014
-4.5678673	inventar	-0.099721014
-4.5678673	excusa	-0.099721014
-4.2932706	palideció	-0.18902394
-4.5678673	resolver	-0.099721014
-4.5678673	Ven	-0.099721014
-4.5678673	advertirte	-0.099721014
-4.030672	grita	-0.14208113
-4.5678673	destruirte	-0.099721014
-4.4211764	coreano	-0.24166271
-4.4211764	vete	-0.24166271
-4.030672	niña	-0.15954083
-4.4211764	quedarnos	-0.099721014
-4.5678673	sorprendida	-0.099721014
-4.5678673	zoo	-0.099721014
-4.5678673	propones	-0.099721014
-4.2932706	rota	-0.18902394
-4.2932706	invitados	-0.18902394
-4.5678673	Almorzamos	-0.099721014
-4.5678673	increíble	-0.099721014
-4.5678673	quejarme	-0.099721014
-4.5678673	Huelan	-0.099721014
-4.5678673	curiosa	-0.099721014
-4.142419	hermanos	-0.23642708
-4.5678673	comunicarnos	-0.099721014
-4.5678673	apresuradamente	-0.099721014
-4.2932706	objetivos	-0.29358503
-4.4211764	muñeca	-0.1510725
-4.4211764	regreso	-0.099721014
-4.5678673	ensenes	-0.099721014
-4.5678673	Demuéstramelo	-0.099721014
-4.5678673	fluidez	-0.099721014
-4.4211764	barcos	-0.099721014
-4.5678673	divertir	-0.099721014
-4.5678673	Dijiste	-0.099721014
-4.5678673	circunstancias	-0.099721014
-2.9990478	han	-0.22536935
-4.2932706	culpa	-0.09972105
-4.2932706	suya	-0.18902394
-4.5678673	fertilizante	-0.099721014
-4.5678673	creerte	-0.099721014
-4.142419	sobrevivió	-0.4185238
-4.142419	vuelta	-0.14208113
-4.5678673	condenados	-0.099721014
-4.5678673	honestos	-0.099721014
-4.5678673	jaqueca	-0.099721014
-4.5678673	entiendas	-0.099721014
-4.5678673	realidad	-0.099721014
-4.5678673	Pudiste	-0.099721014
-4.5678673	contactarlo	-0.099721014
-4.5678673	créelo	-0.099721014
-4.5678673	graves	-0.099721014
-4.5678673	modificaciones	-0.099721014
-4.4211764	vale	-0.099721014
-4.5678673	egoístas	-0.099721014
-4.5678673	encerré	-0.099721014
-4.4211764	cocinero	-0.24166271
-4.5678673	bobo	-0.099721014
-4.5678673	burro	-0.099721014
-4.5678673	desarmado	-0.099721014
-4.2932706	sorpresa	-0.18902394
-4.2932706	oler	-0.099721014
-4.5678673	océano	-0.099721014
-4.5678673	Muéstrame	-0.099721014
-3.409895	otros	-0.18947573
-3.434153	muerto	-0.35582942
-4.2932706	cigarro	-0.099721014
-4.5678673	Concuerdo	-0.099721014
-4.5678673	lárgate	-0.099721014
-4.5678673	camarero	-0.099721014
-4.5678673	Sudaron	-0.099721014
-4.142419	dejado	-0.099721014
-4.142419	des	-0.099721014
-4.2932706	diciendo	-0.099721014
-4.5678673	periodistas	-0.099721014
-4.5678673	amanecerá	-0.099721014
-4.5678673	amigas	-0.099721014
-4.5678673	Obedecieron	-0.099721014
-4.5678673	matarlos	-0.099721014
-4.5678673	Realmente	-0.099721014
-4.2932706	caja	-0.16491862
-4.142419	asco	-0.16491862
-4.142419	siendo	-0.099721014
-4.4211764	observado	-0.24166271
-4.5678673	Debiste	-0.099721014
-4.4211764	decidido	-0.099721014
-4.030672	atentamente	-0.5154338
-4.5678673	contribuyó	-0.099721014
-4.5678673	dormías	-0.099721014
-4.4211764	cometas	-0.24166271
-4.5678673	Levanta	-0.099721014
-3.8052063	mala	-0.17739974
-4.5678673	consecuencias	-0.099721014
-4.5678673	Permanecimos	-0.099721014
-4.4211764	callados	-0.24166271
-4.5678673	Hágalo	-0.099721014
-4.5678673	Escribes	-0.099721014
-4.5678673	árabe	-0.099721014
-4.5678673	Eso	-0.099721014
-4.2932706	confundida	-0.29358503
-4.5678673	aciertas	-0.099721014
-4.5678673	usado	-0.099721014
-4.2932706	guantes	-0.099721014
-4.5678673	ingreso	-0.099721014
-4.5678673	trabajabas	-0.099721014
-4.4211764	sobreviviste	-0.24166271
-4.2932706	promesas	-0.18902394
-4.5678673	perdonarla	-0.099721014
-4.2932706	equivocada	-0.18902394
-4.2932706	semana	-0.12463822
-3.8052063	preparando	-0.13109751
-4.5678673	senderismo	-0.099721014
-4.142419	abierta	-0.23642708
-4.5678673	Trasnochemos	-0.099721014
-4.5678673	probare	-0.099721014
-4.5678673	Sobreviví	-0.099721014
-3.941874	marca	-0.13109751
-4.4211764	prefieres	-0.24166271
-4.5678673	confeso	-0.099721014
-4.5678673	Volvamos	-0.099721014
-4.4211764	pasaporte	-0.24166271
-4.5678673	Pararon	-0.099721014
-4.030672	apareció	-0.1510725
-3.941874	humo	-0.18902394
-4.5678673	probarme	-0.099721014
-4.5678673	Véase	-0.099721014
-4.5678673	llamada	-0.099721014
-4.5678673	Aprendimos	-0.099721014
-4.5678673	avergonzando	-0.099721014
-4.5678673	pudiste	-0.099721014
-4.5678673	Acordaron	-0.099721014
-4.5678673	divertimos	-0.099721014
-4.5678673	Esperaré	-0.099721014
-4.5678673	habértelo	-0.099721014
-4.5678673	Come	-0.099721014
-4.5678673	espiando	-0.099721014
-4.5678673	Bebo	-0.099721014
-4.5678673	parecemos	-0.099721014
-4.4211764	caminaron	-0.24166271
-4.4211764	galletas	-0.099721014
-4.5678673	Simpatizo	-0.099721014
-4.5678673	Interrumpí	-0.099721014
-4.030672	sean	-0.09972105
-4.5678673	gentiles	-0.099721014
-4.5678673	Súbase	-0.099721014
-4.2932706	bus	-0.16491862
-4.4211764	averiguarlo	-0.24166271
-4.5678673	Agárrate	-0.099721014
-4.5678673	Adónde	-0.099721014
-4.5678673	iras	-0.099721014
-4.5678673	Dónde	-0.099721014
-4.5678673	buscaste	-0.099721014
-4.5678673	Préstanos	-0.099721014
-4.5678673	cenando	-0.099721014
-4.5678673	Querían	-0.099721014
-4.142419	verme	-0.23642708
-3.7502134	maestro	-0.123293884
-4.5678673	hipo	-0.099721014
-4.5678673	Baje	-0.099721014
-4.5678673	diferenciarlos	-0.099721014
-4.5678673	Cerramos	-0.099721014
-4.5678673	satisfecha	-0.099721014
-4.5678673	mostrarme	-0.099721014
-4.5678673	Pregúntame	-0.099721014
-4.5678673	hacerse	-0.099721014
-4.5678673	olvidaste	-0.099721014
-3.8681862	coger	-0.15717192
-4.5678673	autobús	-0.099721014
-4.2932706	espejo	-0.14208113
-4.4211764	oyes	-0.099721014
-4.5678673	quedare	-0.099721014
-4.4211764	obeso	-0.24166271
-4.5678673	rayado	-0.099721014
-4.5678673	conduzcas	-0.099721014
-4.030672	arena	-0.19640295
-4.5678673	preocupamos	-0.099721014
-4.030672	llamo	-0.5154338
-4.5678673	desilusión	-0.099721014
-4.142419	vine	-0.099721014
-4.4211764	comience	-0.099721014
-4.5678673	Quería	-0.099721014
-4.2932706	lava	-0.099721014
-4.5678673	Reconoces	-0.099721014
-4.5678673	calificado	-0.099721014
-4.5678673	Perdiste	-0.099721014
-4.5678673	Parales	-0.099721014
-4.4211764	luce	-0.099721014
-4.030672	pálido	-0.20542651
-4.5678673	Conocéis	-0.099721014
-4.030672	segundo	-0.099721014
-4.5678673	disculpe	-0.099721014
-4.5678673	entrenar	-0.099721014
-4.5678673	supera	-0.099721014
-4.5678673	Hey	-0.099721014
-3.4871562	haz	-0.4244981
-4.030672	piernas	-0.11737197
-3.941874	largas	-0.28460777
-3.409895	puso	-0.20089275
-4.5678673	queja	-0.099721014
-4.2932706	celoso	-0.16491862
-4.4211764	hablaban	-0.099721014
-4.5678673	Pidan	-0.099721014
-4.5678673	hicisteis	-0.099721014
-4.5678673	humor	-0.099721014
-4.2932706	fantástico	-0.29358503
-4.5678673	acompañaras	-0.099721014
-4.5678673	organizarnos	-0.099721014
-4.4211764	visitantes	-0.1510725
-4.5678673	Esto	-0.099721014
-4.5678673	escuchas	-0.099721014
-4.5678673	Lárguese	-0.099721014
-4.5678673	corea	-0.099721014
-4.142419	ayudara	-0.4185238
-4.5678673	golfista	-0.099721014
-4.5678673	Lamento	-0.099721014
-4.5678673	decepcionarte	-0.099721014
-4.2932706	dije	-0.099721014
-4.5678673	preguntare	-0.099721014
-4.5678673	enmarcarme	-0.099721014
-4.5678673	Vigílame	-0.099721014
-4.5678673	Disfrutas	-0.099721014
-4.5678673	bolsillo	-0.099721014
-4.4211764	curiosidad	-0.24166271
-4.5678673	Llevaremos	-0.099721014
-4.5678673	vigilante	-0.099721014
-4.4211764	Sujétalo	-0.099721014
-4.5678673	Encantador	-0.099721014
-4.5678673	Haz	-0.099721014
-4.5678673	aplaudimos	-0.099721014
-4.5678673	mover	-0.099721014
-4.5678673	Vive	-0.099721014
-4.5678673	heladísimo	-0.099721014
-4.5678673	incordio	-0.099721014
-4.4211764	visitarlos	-0.099721014
-4.4211764	empecemos	-0.099721014
-4.4211764	tantos	-0.099721014
-4.5678673	rodeos	-0.099721014
-4.5678673	ateo	-0.099721014
-4.5678673	Suéltame	-0.099721014
-3.8681862	encontrar	-0.1357708
-4.2932706	probar	-0.099721014
-4.5678673	tócala	-0.099721014
-4.5678673	esperas	-0.099721014
-4.5678673	prometes	-0.099721014
-4.5678673	márchate	-0.099721014
-4.5678673	Llamémosle	-0.099721014
-4.5678673	Snoopy	-0.099721014
-4.5678673	Ponlo	-0.099721014
-4.5678673	lograron	-0.099721014
-4.5678673	Ponte	-0.099721014
-3.941874	encontrado	-0.1725116
-4.5678673	merezco	-0.099721014
-4.4211764	objetivo	-0.24166271
-4.5678673	ganan	-0.099721014
-4.5678673	abrirlo	-0.099721014
-4.2932706	terrible	-0.099721014
-4.5678673	Pide	-0.099721014
-4.4211764	química	-0.099721014
-4.5678673	Tu	-0.099721014
-4.142419	duros	-0.23642708
-4.5678673	Míralo	-0.099721014
-4.2932706	levantaron	-0.099721014
-4.2932706	cargos	-0.18902394
-4.142419	duerme	-0.16491862
-4.5678673	vosotras	-0.099721014
-4.5678673	Avanzaron	-0.099721014
-4.5678673	vivificante	-0.099721014
-4.5678673	Prometo	-0.099721014
-4.4211764	vitorearon	-0.24166271
-4.4211764	inquietos	-0.24166271
-4.5678673	martes	-0.099721014
-4.5678673	ayudaras	-0.099721014
-4.2932706	exhausto	-0.29358503
-4.5678673	Corregí	-0.099721014
-4.5678673	desgracia	-0.099721014
-4.4211764	apunta	-0.099721014
-4.5678673	estáis	-0.099721014
-4.4211764	acelero	-0.24166271
-3.6575372	aquel	-0.16726038
-3.4871562	jugar	-0.31004992
-4.2932706	tiro	-0.18902394
-4.5678673	pretendía	-0.099721014
-4.5678673	pagaste	-0.099721014
-4.5678673	Bebimos	-0.099721014
-4.142419	pájaros	-0.099721014
-4.5678673	Fallaste	-0.099721014
-4.5678673	Abran	-0.099721014
-4.4211764	aplaudieron	-0.24166271
-4.5678673	Terminémoslo	-0.099721014
-4.030672	enseguida	-0.3333371
-4.5678673	exageremos	-0.099721014
-4.2932706	hincha	-0.18902394
-4.2932706	pelotas	-0.099721014
-4.5678673	mienten	-0.099721014
-4.5678673	rescate	-0.099721014
-4.5678673	Préstamelo	-0.099721014
-4.2932706	sacando	-0.099721014
-4.5678673	test	-0.099721014
-4.5678673	Traed	-0.099721014
-4.5678673	robados	-0.099721014
-4.5678673	Acércate	-0.099721014
-4.5678673	tomarle	-0.099721014
-4.5678673	Estuvo	-0.099721014
-4.5678673	charló	-0.099721014
-4.2932706	delgado	-0.18902394
-4.5678673	interesado	-0.099721014
-4.4211764	dispararon	-0.099721014
-4.5678673	dependiente	-0.099721014
-4.5678673	cómodos	-0.099721014
-4.5678673	alternativa	-0.099721014
-4.5678673	derroche	-0.099721014
-4.5678673	Adiós	-0.099721014
-4.5678673	asintieron	-0.099721014
-4.142419	tuvieron	-0.099721014
-4.5678673	Cuídense	-0.099721014
-4.5678673	decírtelo	-0.099721014
-4.5678673	aterrorizado	-0.099721014
-4.5678673	anunciador	-0.099721014
-4.5678673	mandolina	-0.099721014
-3.8681862	esposa	-0.15436779
-4.5678673	encantador	-0.099721014
-4.5678673	Fuiste	-0.099721014
-3.8052063	robado	-0.1823991
-4.5678673	comprare	-0.099721014
-4.5678673	Entremos	-0.099721014
-4.5678673	pistolas	-0.099721014
-4.2932706	mama	-0.099721014
-4.5678673	Descubrí	-0.099721014
-4.5678673	Despertadlo	-0.099721014
-4.5678673	salvarle	-0.099721014
-4.142419	roto	-0.16491862
-4.5678673	mostraré	-0.099721014
-4.5678673	usarlo	-0.099721014
-4.4211764	mientas	-0.099721014
-3.3055365	papá	-0.21796796
-4.2932706	chino	-0.29358503
-4.5678673	Descubriste	-0.099721014
-4.5678673	desato	-0.099721014
-4.4211764	cuerdas	-0.099721014
-4.4211764	desastre	-0.099721014
-4.5678673	Tomémonos	-0.099721014
-4.5678673	abandonare	-0.099721014
-3.701408	llegar	-0.24220264
-4.5678673	intrigada	-0.099721014
-4.4211764	ayudaremos	-0.24166271
-4.5678673	esperadme	-0.099721014
-4.5678673	broma	-0.099721014
-4.5678673	pedirte	-0.099721014
-4.5678673	Enciéndelo	-0.099721014
-4.5678673	traidores	-0.099721014
-4.4211764	aprueban	-0.24166271
-4.5678673	Intercederé	-0.099721014
-4.5678673	ruegue	-0.099721014
-4.5678673	respondiste	-0.099721014
-4.030672	flores	-0.28460777
-4.2932706	significa	-0.099721014
-4.5678673	manejando	-0.099721014
-4.5678673	dirigen	-0.099721014
-4.5678673	pensare	-0.099721014
-4.5678673	Volemos	-0.099721014
-4.5678673	Empecemos	-0.099721014
-4.5678673	conoceros	-0.099721014
-4.5678673	arreglárnoslas	-0.099721014
-4.5678673	maravillosa	-0.099721014
-4.5678673	decírselo	-0.099721014
-4.5678673	Pasearon	-0.099721014
-4.5678673	tremendo	-0.099721014
-4.5678673	beisbolista	-0.099721014
-4.5678673	exagero	-0.099721014
-4.5678673	Contáctame	-0.099721014
-4.5678673	cita	-0.099721014
-4.5678673	exagerando	-0.099721014
-4.5678673	opinas	-0.099721014
-4.5678673	Diviértanse	-0.099721014
-4.5678673	siglos	-0.099721014
-4.5678673	Se	-0.099721014
-4.5678673	asustaste	-0.099721014
-4.5678673	Anunciaban	-0.099721014
-4.5678673	despiertos	-0.099721014
-4.2932706	usaba	-0.099721014
-4.5678673	saltéis	-0.099721014
-4.5678673	Suéltalo	-0.099721014
-3.4598465	junto	-0.5513853
-4.5678673	Relajémonos	-0.099721014
-4.4211764	pieza	-0.099721014
-4.5678673	Disfrute	-0.099721014
-4.5678673	venganza	-0.099721014
-4.5678673	confirmar	-0.099721014
-4.5678673	bailamos	-0.099721014
-4.5678673	rumores	-0.099721014
-4.5678673	falsos	-0.099721014
-4.4211764	admito	-0.099721014
-4.5678673	Salta	-0.099721014
-4.5678673	secuestraron	-0.099721014
-4.2932706	siguen	-0.099721014
